#include "nn_parameters.h"

const int num_nodes_vec[NUM_LAYERS] = {10, 40, 40, 4};

// NN network parameters -- atribute values
const float weights_in[NUM_NODES][NUM_STATES] = {{3.778516650e-01, 1.212545753e+00, -6.096795574e-02, 1.924404949e-01, 
    -2.943757772e-01, -2.901661769e-02, 1.080863118e+00, 7.347680628e-02, 
    -6.582598686e-01, -9.333747625e-01}, {3.607948065e+00, 3.202535152e+00, 1.203005482e-02, 1.150627375e+00, 
    -9.100293517e-01, 1.094558835e-01, -3.147224486e-01, 9.139681458e-01, 
    -8.792085052e-01, 1.568987846e+00}, {-1.137463570e+00, 6.771703362e-01, 2.596789226e-02, -1.725664735e+00, 
    5.241879821e-01, -1.260624267e-02, 3.069299459e-01, 1.609887779e-01, 
    7.720047981e-02, -9.005926847e-01}, {1.628633618e+00, 2.085296661e-01, -2.404459119e-01, 1.175665855e+00, 
    4.270743728e-01, -3.149681985e-01, -5.556231737e-01, 7.426639199e-01, 
    -5.583732128e-01, -1.017477632e+00}, {1.308977753e-01, -4.458439350e-01, 6.559509039e-02, -2.754636407e-01, 
    8.136908710e-02, 7.649426162e-02, -2.936596572e-01, -4.991747066e-02, 
    -3.837473392e-01, -7.839540243e-01}, {-8.859442919e-02, 4.969362915e-01, -6.122737378e-02, 2.572358549e-01, 
    7.747468948e-01, -8.308057487e-02, 4.956329167e-01, -7.765128016e-01, 
    6.332653165e-01, -6.527356505e-01}, {-1.345025301e+00, -1.869953752e+00, -4.931181320e-04, -8.629264683e-02, 
    3.322908282e-01, 1.407556795e-02, 3.924002647e-01, -3.955415189e-01, 
    -1.598000377e-01, 1.971677423e+00}, {-1.035948277e+00, -4.432638884e-01, -5.458425879e-01, -4.554836452e-01, 
    -1.902771354e+00, -5.906721354e-01, -4.074041247e-01, 2.494992912e-01, 
    6.022875011e-02, 1.398767948e+00}, {1.147417277e-01, 3.346060216e-01, -2.325919569e-01, -9.367804527e-01, 
    7.746594548e-01, -2.766087055e-01, -5.224391818e-01, 1.253282428e+00, 
    1.567397416e-01, -9.827107191e-01}, {-1.449715018e+00, 1.499884725e+00, -1.497422010e-01, 1.684283614e+00, 
    -1.703632236e+00, -7.403060794e-02, 6.126260757e-01, 2.597406507e-01, 
    7.803224325e-01, 1.273188710e+00}, {-3.039678335e-01, -2.481889576e-01, 1.764353365e-01, -6.713812947e-01, 
    -7.283583879e-01, 1.716951877e-01, -1.789065301e-01, 2.358172387e-01, 
    -4.298810661e-02, 1.702839285e-01}, {-4.025669694e-01, -4.077176750e-01, -1.167291477e-01, -2.438648492e-01, 
    -1.467519999e-01, -6.758227944e-02, 1.383700490e+00, -2.799135447e-01, 
    -2.302801460e-01, 1.071012616e+00}, {2.188461721e-01, -1.471707225e+00, -3.480406478e-02, 4.140959308e-02, 
    -4.843358882e-03, -7.012244314e-02, 8.453539610e-01, 3.712890744e-01, 
    -1.721843630e-01, -4.869527817e-01}, {2.590610743e+00, -1.403246880e+00, 2.244482636e-01, -9.963918328e-01, 
    1.060961127e+00, 1.158180758e-01, -6.575227529e-02, -4.034210443e-01, 
    -6.869744062e-01, 3.247779310e-01}, {-8.975070715e-02, 1.543218970e+00, -2.171697654e-02, -1.047586322e+00, 
    4.986237884e-01, -9.365075827e-02, -1.049364358e-01, 7.314543128e-01, 
    1.646069884e-01, 9.530733228e-01}, {-3.546383381e-01, -2.512753904e-01, -5.332817137e-02, -6.307177991e-02, 
    2.039899491e-02, -1.599860191e-02, 2.737425268e-01, 2.719065845e-01, 
    5.868702531e-01, 7.184581161e-01}, {-5.059828237e-02, 9.970289469e-02, -2.044964395e-02, 2.673648000e-01, 
    3.923466504e-01, 5.113988370e-02, 1.555684328e+00, -1.952203363e-01, 
    -2.988744378e-01, 7.902053595e-01}, {8.890101910e-01, 3.079025447e-01, 2.667299509e-01, -4.613202512e-01, 
    8.897061348e-01, 2.515702546e-01, -1.709114760e-01, 6.473613977e-01, 
    -4.956407472e-02, -5.553982258e-01}, {-1.460925221e+00, 1.577887774e+00, -7.047467679e-02, 5.091524720e-01, 
    -8.672424555e-01, -2.959487960e-02, 2.535024881e-01, 3.088820279e-01, 
    2.151452154e-01, -2.040756702e+00}, {4.602168202e-01, -2.513470054e-01, 2.510088980e-01, 1.027658582e+00, 
    -4.424609840e-01, 2.038852274e-01, -5.850484967e-01, -9.539031386e-01, 
    -7.565628737e-02, -6.117048264e-01}, {-3.395409882e-01, 3.451440334e-01, -1.465400755e-01, 1.039636850e+00, 
    -3.789827824e-01, -5.560236424e-02, 2.682865381e+00, 2.274259180e-01, 
    -2.581760883e-01, 7.479066253e-01}, {1.269093603e-01, 3.043081053e-02, -2.081814110e-01, 1.624763310e-01, 
    5.708929300e-01, -1.746768355e-01, 8.303695321e-01, -3.865172863e-01, 
    1.027420461e-01, 9.577919841e-01}, {1.201950386e-01, -2.949697375e-01, 1.022083014e-01, -4.139039218e-01, 
    6.890733838e-01, 1.172319502e-01, -5.036219209e-02, 1.468412727e-01, 
    -4.955273122e-03, 6.397675872e-01}, {7.175598759e-03, -1.564493626e-01, 7.613835931e-01, 7.845736295e-02, 
    5.489067733e-02, 7.950594425e-01, 1.826836020e-01, -2.167098075e-01, 
    4.229627550e-01, -7.784835529e-03}, {-8.524488807e-01, -1.269423604e+00, 7.961787283e-02, -1.002644420e+00, 
    -1.862828851e+00, 1.176599115e-01, -4.599372447e-01, -3.314210474e-01, 
    2.103883028e+00, -9.243125319e-01}, {-7.125064373e+00, 2.125644207e+00, 3.621735275e-01, 3.142095327e+00, 
    2.742067814e+00, 5.704026818e-01, -3.418255746e-01, -4.575935751e-02, 
    3.172484338e-01, 4.460786879e-01}, {-5.653427243e-01, 3.454203606e-01, -3.341412544e-01, -3.507254124e-01, 
    -1.111545563e+00, -2.951070666e-01, 1.999692678e+00, 8.077357411e-01, 
    -6.060948372e-01, -1.094495416e+00}, {-9.788762033e-02, -4.714784771e-02, -3.813557699e-02, 1.861184537e-01, 
    2.688002586e-01, -7.907647640e-02, 4.265217483e-02, -5.344681144e-01, 
    6.146996617e-01, 4.240922332e-01}, {1.320821166e+00, -7.244704962e-01, 2.622966282e-02, 3.764424324e-01, 
    -8.914586902e-01, 1.815217547e-02, 4.248439670e-01, 1.445296407e-02, 
    -6.550133973e-02, -9.556005001e-01}, {1.473294377e+00, -5.454486609e-01, -1.203707606e-01, -3.173868358e-01, 
    -3.538979292e+00, -9.033898264e-02, 1.001267314e+00, -2.496478707e-02, 
    -3.831354976e-01, 3.937551260e+00}, {-1.293260306e-01, -3.181744516e-01, -5.544825271e-02, 5.404671431e-01, 
    -3.054047525e-01, -2.048877068e-02, 4.784111977e-01, -3.020228446e-01, 
    6.295373440e-01, -5.591048598e-01}, {-1.445187926e+00, 2.202531338e+00, -9.617479891e-02, -2.490916848e-01, 
    2.927790284e-01, -1.096145958e-01, 2.878460586e-01, 4.056704044e-01, 
    -1.160860062e-01, 5.251986980e-01}, {8.412787318e-02, 8.494619280e-02, -1.040212736e-01, 2.738568485e-01, 
    -3.711442053e-01, -8.893457800e-02, 2.467050552e-01, 1.473722011e-01, 
    -5.155662894e-01, -3.133882284e-01}, {2.895418704e-01, -3.648397699e-02, -5.525280237e-01, 1.027983502e-01, 
    1.935450882e-01, -5.323792696e-01, 2.103833482e-03, -5.383795127e-02, 
    -2.457336783e-01, -2.985347807e-02}, {1.856152266e-01, 1.948982924e-01, -1.394946575e-01, -4.283882380e-01, 
    -3.831087053e-01, -1.623941809e-01, -1.518147737e-01, 6.025639772e-01, 
    1.978088766e-01, -9.331711531e-01}, {4.208814204e-01, 6.199024916e-01, -1.810080409e-01, 6.657038927e-01, 
    2.582994699e-01, -2.718044817e-01, -7.258818150e-01, 4.671143591e-01, 
    -1.632603556e-01, 6.276243925e-01}, {-5.362243652e-01, 1.358140111e-01, 8.575428277e-02, -6.601874828e-01, 
    3.951923847e-01, 9.694629908e-02, -3.313201070e-01, -2.932811975e-01, 
    -3.246486485e-01, 7.057329416e-01}, {6.184177399e-01, -1.609530568e+00, -3.429140896e-02, -1.014614105e+00, 
    3.585431278e-01, -3.240125254e-02, -4.145097136e-01, -5.006458759e-01, 
    -9.011150599e-01, -4.948799312e-02}, {-2.962031662e-01, 2.885232568e-01, -6.802334189e-01, 1.630415201e+00, 
    -1.097118258e+00, -5.347005129e-01, 3.144190013e-01, -2.279626131e+00, 
    -1.055773854e+00, -2.006531715e+00}, {-3.852126598e-01, 6.134370565e-01, -8.700752258e-02, 1.021671414e+00, 
    5.112760067e-01, -2.007834241e-02, 2.501629829e+00, 2.949679792e-01, 
    -8.571257442e-02, -1.574707329e-01}};

const float bias_in[NUM_NODES] = {9.122051299e-02, -6.666876376e-02, 1.020797417e-01, 3.573482856e-02, 
    -9.435604513e-02, 2.175145596e-01, 1.329255998e-01, -2.457653582e-01, 
    -2.128101438e-01, -3.618147224e-02, -6.913867593e-02, 1.347784996e-01, 
    -1.360561997e-01, -3.568131626e-01, -6.598318368e-02, 8.781039715e-02, 
    9.144093841e-02, 8.864870667e-02, 1.305766553e-01, -2.479983419e-01, 
    3.623215258e-01, 1.092706900e-02, 5.871747434e-02, -5.303228498e-01, 
    2.709816992e-01, -3.327013925e-02, -3.019289970e-01, -1.775090210e-02, 
    -1.040936485e-01, -6.788122058e-01, 1.737034917e-01, -1.055505052e-01, 
    -5.840779748e-03, -1.194319651e-01, -1.001513451e-01, 4.340593144e-02, 
    -1.030460652e-02, 4.700256046e-03, 1.203325540e-01, 3.765935898e-01};

const float weights_out[NUM_CONTROLS][NUM_NODES] = {{9.464568458e-03, 1.782984585e-01, 2.168204635e-02, 7.814969867e-02, 
    8.278123289e-02, 4.592233524e-02, 3.001855500e-02, -1.960964650e-01, 
    3.519164771e-02, 2.312944084e-02, -2.699230611e-01, -3.042529821e-01, 
    -2.647094801e-02, -1.297957748e-01, 1.528774053e-01, -6.287603825e-02, 
    -1.888786703e-01, 1.273532808e-01, -1.495877653e-01, 7.285969332e-03, 
    -1.324787885e-01, 2.001257539e-01, 4.990375414e-02, -2.409811616e-01, 
    -2.728996873e-01, 6.724467129e-02, 3.675519954e-03, -7.192082121e-04, 
    -1.053753644e-01, 1.675054580e-01, 3.155307472e-02, 3.032315969e-01, 
    -4.227733612e-02, 1.650381535e-01, 8.795284666e-03, -1.366187073e-02, 
    -4.490785766e-03, -1.665977836e-01, -5.245124549e-02, 2.007839680e-01}, {2.120751739e-01, 2.516944408e-01, 2.341339588e-01, -7.838813215e-02, 
    2.084490284e-02, -5.441974849e-02, -1.725932956e-01, -4.199889302e-02, 
    7.242685556e-02, -1.231393665e-01, 1.620573848e-01, -3.753553927e-01, 
    2.070442438e-01, -2.956137359e-01, -6.033020467e-02, -1.644972712e-02, 
    2.278932557e-02, 5.925829336e-02, -2.816596627e-01, 2.270862162e-01, 
    8.450310677e-03, -3.390772641e-01, -1.367087603e+00, -2.303303629e-01, 
    -2.817020193e-02, 7.008357346e-02, 1.045859768e-03, -2.439397722e-01, 
    8.081464469e-02, 2.417910248e-01, -1.153082848e-01, -5.204727128e-02, 
    2.635301277e-02, -2.005424500e-01, 3.363727033e-01, -3.754597902e-02, 
    -3.990516812e-02, -5.460704118e-02, 3.448262513e-01, 6.182792038e-02}, {-2.390442789e-01, -2.842236161e-01, -8.452600241e-02, -1.678180397e-01, 
    1.994247288e-01, -1.354776621e-01, 3.255910054e-02, -1.789770573e-01, 
    7.418043166e-02, 2.893798649e-01, -8.596428484e-02, 5.077463761e-02, 
    1.122655645e-01, 1.599701047e-01, 1.437191367e-01, -4.882506654e-02, 
    -1.816190034e-01, -1.044025719e-01, -2.037188709e-01, 2.329667360e-01, 
    -2.777180374e-01, 1.098641753e-01, -3.845817745e-01, 2.302113324e-01, 
    2.465064079e-01, 1.445950389e+00, -1.596089080e-02, -1.764066704e-02, 
    -1.529416889e-01, 1.281806380e-01, 3.028551340e-01, -2.078940719e-01, 
    5.135827512e-02, 1.268975250e-02, 3.685660362e-01, -7.834021002e-02, 
    -9.598390316e-04, 1.494111679e-02, -4.353451729e-01, 1.903209388e-01}, {1.646423936e+00, 6.280418485e-02, 2.849134803e-01, -1.513517499e-01, 
    -5.166282505e-02, -1.679312810e-02, 5.497148037e-01, -7.346309721e-02, 
    -2.058116198e-01, -1.682381779e-01, 4.750747606e-02, -2.812167443e-02, 
    2.298661768e-01, 3.034954071e-01, -2.127258107e-02, 1.939067543e-01, 
    1.827881932e-01, -2.924238443e-01, -9.996479750e-02, 6.989094615e-02, 
    1.285453290e-01, -2.620550394e-01, -1.537178308e-01, 3.817202449e-01, 
    -5.157156661e-02, 2.123776227e-01, 2.523200214e-01, 7.582470030e-02, 
    -3.709843755e-01, 1.951719373e-01, -2.496116608e-01, 1.233033761e-01, 
    -1.745460182e-01, 1.042541638e-01, -1.888983399e-01, 4.313167036e-01, 
    5.296980739e-01, 2.861153185e-01, -1.235092402e+00, -3.032237887e-01}};

const float bias_out[NUM_CONTROLS] = {-1.097367704e-02, 1.963742450e-02, -7.614675444e-03, -2.950264327e-02};

const float in_norm_mean[NUM_STATES] = {-5.599678652e-02, -2.414577939e-02, 1.140061591e-03, 3.754472974e-02, 
    5.289584710e-03, 5.748046302e-04, 8.606144176e-01, -2.943766520e-02, 
    2.884165966e-02, -3.245505650e-03};

const float in_norm_std[NUM_STATES] = {3.663877278e+00, 3.590791895e+00, 2.432528352e-01, 1.985081877e+00, 
    1.954352069e+00, 4.001629598e-01, 1.833514323e-01, 9.952506549e-02, 
    1.012298131e-01, 4.515241167e-01};

const float out_norm_mean[NUM_CONTROLS] = {1.259879842e-01, -1.411284412e-03, 3.116325024e-03, 7.878683294e-03};

const float out_norm_std[NUM_CONTROLS] = {5.320959115e-01, 4.709555517e-01, 4.697757293e-01, 6.054399716e-01};

const float out_scale_min[NUM_CONTROLS] = {-7.409507194e+00, -9.548523117e+00, -1.195321725e+01, -3.316395675e+00};

const float out_scale_max[NUM_CONTROLS] = {6.935953530e+00, 1.288354053e+01, 1.123675963e+01, 3.040559565e+00};

const float weights_hid[NUM_HIDDEN_LAYERS-1][NUM_NODES][NUM_NODES] = {{{6.205877662e-01, -1.320374250e+00, -5.893236995e-01, -6.654465199e-01, 
    -3.037281036e-01, 2.476653457e-01, -9.108206034e-01, -1.118198752e+00, 
    -3.915536404e-01, -6.623140574e-01, 5.714118853e-02, 4.357360899e-01, 
    -8.460547030e-02, -6.655902267e-01, -4.792121649e-01, 1.293524634e-02, 
    5.832348466e-01, -4.823693037e-01, 4.116898403e-02, -1.720742695e-02, 
    1.055479407e+00, 1.941826344e-01, -5.372267365e-01, -2.271434069e-01, 
    -6.600752473e-01, -1.639034271e+00, 6.447463632e-01, 2.143757194e-01, 
    2.013073117e-01, -1.491414428e+00, 3.423067927e-01, -1.307079345e-01, 
    8.542673290e-02, -4.663819373e-01, 1.968829483e-01, -4.974575043e-01, 
    -1.097174808e-01, -9.794531465e-01, -4.960140884e-01, 8.342014551e-01}, {-4.019669816e-02, 1.739089489e-01, -3.171355724e-01, 1.991462149e-02, 
    -2.860389352e-01, -1.718656421e-01, 2.837798372e-02, 7.251689583e-02, 
    -6.023003161e-02, 2.885895409e-02, -1.722820252e-01, -3.637980670e-02, 
    -5.195561424e-02, 2.068986446e-01, -4.482467473e-01, -6.573487520e-01, 
    -1.800888628e-01, -1.168975458e-01, -1.967671067e-01, 2.413857579e-01, 
    3.782887384e-02, 9.438811988e-02, -2.932271957e-01, -2.646011412e-01, 
    -1.209923811e-02, -6.649090350e-02, 6.675439328e-02, 9.786057472e-02, 
    -1.906552911e-01, 1.024336740e-02, 6.486335397e-01, 1.230340973e-01, 
    -6.970477104e-02, 2.793995291e-02, 1.058679596e-01, -1.566350907e-01, 
    -3.810250387e-02, 8.165337145e-03, -1.237805784e-01, -2.135373950e-01}, {2.247877717e-01, -7.119233161e-02, -2.236719728e-01, 1.301633269e-01, 
    9.086444974e-02, -1.508577764e-01, -7.459146380e-01, -2.580974400e-01, 
    4.734084010e-02, 1.206417456e-01, -1.925421804e-01, 1.760225445e-01, 
    3.480244055e-02, 6.844002008e-02, 1.722450852e-01, -1.180599853e-01, 
    8.775503188e-02, -6.241949275e-03, 1.353190094e-01, -5.880232155e-02, 
    4.766924679e-02, 1.483004689e-01, -9.792426229e-02, 1.292834990e-02, 
    -2.600873411e-01, -9.662607312e-02, 1.024324447e-01, -3.706593532e-03, 
    2.233136296e-01, -1.545207202e-02, -1.271212846e-01, -2.891182899e-01, 
    1.671879888e-01, 7.587470114e-02, 2.052718103e-01, -1.078452393e-01, 
    4.265175462e-01, -3.961385190e-01, -2.274282509e-03, 1.547011640e-02}, {-1.954562217e-01, -1.504712403e-01, 4.201776385e-01, 3.657219931e-02, 
    4.370846227e-02, -1.557608694e-01, 1.365012378e-01, -1.380822062e-01, 
    7.324651629e-02, -4.429498315e-02, -1.989241391e-01, -1.975961179e-01, 
    1.352717429e-01, -2.131540328e-01, -5.890227109e-02, 1.002174094e-01, 
    -5.438141897e-02, -1.456264034e-02, 1.456448883e-01, 1.543720812e-01, 
    -1.171182469e-01, -1.090473905e-01, -1.897509247e-01, -3.487833310e-03, 
    1.355364025e-01, 1.022578254e-01, 8.258569241e-02, 3.300309479e-01, 
    -1.299560219e-01, 8.086856455e-02, 3.567881510e-02, 5.316326022e-02, 
    -5.780773237e-03, -1.258483678e-01, -3.134511039e-02, 1.630967557e-01, 
    -1.335060149e-01, -1.342154387e-02, 1.375617273e-02, -1.173206270e-01}, {-2.883268707e-02, 1.805216819e-01, 2.901399434e-01, -8.408658206e-02, 
    -1.272679567e-01, -7.730215788e-02, -2.004959732e-01, 1.249816492e-01, 
    -7.120909542e-02, -1.511728466e-01, 2.908416390e-01, 2.448867634e-02, 
    -2.143906355e-01, -3.207558393e-02, -9.974927455e-02, -1.097369343e-01, 
    -1.088751853e-02, -3.256101906e-02, -9.095563740e-02, -3.575977385e-01, 
    1.523568332e-01, -4.378990233e-01, -2.352958024e-01, -1.560607105e-01, 
    -1.027180627e-01, 3.000676818e-02, 1.254239678e-01, -4.188850224e-01, 
    -4.029577076e-01, -2.607981563e-01, 2.738185525e-01, 1.244418100e-01, 
    1.929153055e-01, 1.404903978e-01, -3.737551570e-01, 2.262175232e-01, 
    7.766800374e-02, -5.767359734e-01, 2.388142049e-01, 1.014656052e-01}, {-1.439218819e-01, 4.900687933e-02, -3.081621826e-01, 1.560938656e-01, 
    -2.494401634e-01, -1.304870695e-01, 2.090477198e-01, -4.019375741e-01, 
    2.293428928e-01, 1.759461015e-01, -1.234897822e-01, -3.855301440e-01, 
    8.583166450e-02, -1.149750799e-01, 3.150814176e-01, 8.117827773e-02, 
    6.568193436e-02, 4.149370492e-01, 8.989157528e-02, -1.245649159e-01, 
    2.354105702e-03, 2.988865972e-01, -1.908666641e-01, 1.128471717e-01, 
    -4.894049466e-01, -8.496692032e-02, -1.935851872e-01, -3.460720181e-02, 
    3.457390070e-01, 1.084244549e-01, -1.188798323e-01, -3.705278039e-02, 
    2.907287478e-01, 1.110303774e-01, -1.928523779e-01, 1.937501431e-01, 
    -2.445006818e-01, -2.248738408e-01, -1.436678171e-01, 1.465539187e-01}, {-5.622789264e-01, -9.069612622e-01, -1.582701057e-01, 9.292397299e-04, 
    -3.866888583e-01, 3.488721550e-01, 5.394231901e-02, 2.139945515e-03, 
    2.934850194e-02, -1.651555300e-02, -8.035056293e-03, 1.763406247e-01, 
    -3.056223989e-01, -2.512280643e-01, -6.314390898e-02, 1.823236644e-01, 
    7.209243625e-02, 2.100679651e-02, 2.445453107e-01, -2.960518375e-02, 
    -2.164305300e-01, -7.576493919e-02, 1.092367396e-01, -4.955981299e-02, 
    -8.213524520e-02, -6.729244441e-02, -1.324257404e-01, -1.625819653e-01, 
    2.240093946e-01, 5.219256878e-02, 2.454711050e-01, -1.906314194e-01, 
    9.104276448e-02, 1.166714728e-01, -2.863654792e-01, -1.708249450e-01, 
    2.580659091e-01, -2.029235065e-01, -1.571039669e-02, -2.709106915e-02}, {-2.001101971e-01, -1.165204570e-01, 7.187858969e-02, -1.174504608e-01, 
    3.029666841e-01, -4.786429405e-01, -2.358790040e-01, 1.301586032e-01, 
    2.193203196e-02, -2.609429182e-03, 2.364556491e-01, -1.679664552e-01, 
    3.014948592e-02, -1.484394073e-01, 2.145116031e-02, -4.370570555e-02, 
    2.611171305e-01, 9.325178713e-02, 2.204205282e-02, 1.112768203e-01, 
    -2.497461252e-02, -1.038581282e-01, 1.847484261e-01, 2.327665240e-01, 
    6.865146756e-02, 3.180438653e-02, 2.512942553e-01, -2.161489278e-01, 
    9.156411886e-02, 4.861780256e-02, 2.204828411e-01, 3.124539740e-02, 
    2.146079093e-01, -2.344304509e-02, 2.278228551e-01, 7.227483392e-02, 
    1.477987170e-01, -3.763838857e-02, -2.119056694e-02, 9.813513607e-02}, {5.712126940e-02, 2.675341070e-01, -1.057090312e-01, 2.525146008e-01, 
    -1.328362674e-01, -4.092988670e-01, 1.860581525e-02, 1.826063842e-01, 
    -8.666896820e-02, 2.515989840e-01, -4.297951236e-02, -3.755331635e-01, 
    2.790945023e-02, -1.046215147e-01, -8.601285517e-02, -1.673929691e-01, 
    -3.237970173e-01, 8.960241824e-02, 3.702877462e-01, -3.853277117e-02, 
    -2.619264424e-01, -2.935855985e-01, -1.528025866e-01, 4.034270719e-02, 
    1.754224002e-01, 4.045084417e-01, 1.473815292e-01, -1.417389214e-01, 
    -8.686344139e-03, -1.597019583e-01, 5.035790801e-02, -1.842383891e-01, 
    2.393911183e-01, 1.800742894e-01, -6.506508589e-02, 2.763657868e-01, 
    2.130109817e-01, -3.569253907e-02, 4.948567450e-01, -1.161679924e-01}, {-2.473398894e-01, 1.663303971e-01, -1.372802407e-01, -2.287231237e-01, 
    -2.925249338e-01, 2.310389727e-01, 1.274573505e-01, -8.332794160e-02, 
    -1.380810440e-01, 1.507878900e-01, 1.417648345e-01, 4.133683443e-02, 
    6.430296600e-02, 8.572350442e-02, -2.457319796e-01, 2.217584848e-01, 
    5.804570764e-02, -1.896212101e-01, 8.201345801e-02, -2.768818438e-01, 
    -1.397339106e-01, 1.735727191e-01, -3.663479090e-01, 7.358270884e-02, 
    -8.178920299e-02, -1.672215015e-01, 3.960463405e-02, 4.820425436e-02, 
    1.620992646e-02, -6.842307746e-02, -1.995031238e-01, -2.512747943e-01, 
    -1.507980973e-01, -5.861559883e-02, 8.451971412e-02, 9.684944898e-02, 
    -1.086859312e-02, 5.246997997e-02, -8.708955348e-02, 1.592152864e-01}, {-1.129438132e-01, 1.121593788e-01, 2.095641196e-02, 2.207771540e-01, 
    -3.021606505e-01, -1.524399072e-01, 1.578336954e-01, 6.745577604e-02, 
    1.242798846e-02, -2.203086205e-02, 1.012171507e-01, -1.305670738e-01, 
    -2.766892873e-02, -4.417282715e-02, -1.465885639e-01, -3.273126185e-01, 
    2.578029931e-01, -9.043037891e-02, 1.002478600e-01, 6.905616820e-02, 
    -2.781533897e-01, 3.870088235e-02, 2.331425995e-02, 3.808111548e-01, 
    -1.505940259e-01, -5.607276782e-02, 1.508243531e-01, -1.779487282e-01, 
    2.650150657e-01, 1.550804265e-02, 2.000998557e-01, 7.633209229e-02, 
    -2.351072431e-01, -6.578855217e-02, 9.690043330e-02, -5.646219477e-02, 
    1.993604302e-01, 1.847355813e-01, -9.285154939e-02, 1.791507155e-01}, {1.468851268e-01, -9.055518359e-02, 2.673050761e-01, 3.441412747e-02, 
    1.146131381e-01, -2.851255238e-01, -5.419780612e-01, 2.720849402e-02, 
    6.288815290e-02, 7.575643808e-02, -1.163992360e-01, -4.390045702e-01, 
    -4.967465401e-01, -1.960488558e-01, -7.651878893e-02, 1.407335848e-01, 
    -1.093691662e-01, 7.726888359e-02, 6.765009463e-02, -1.488376707e-01, 
    -2.106631249e-01, -5.360998213e-02, 2.564829588e-01, 2.408953160e-01, 
    -1.988113374e-01, -3.676414117e-02, -3.253271570e-03, 3.728809357e-01, 
    -5.586451888e-01, -1.436878443e-01, -4.685348868e-01, -1.445145458e-01, 
    -9.675636142e-02, -1.264527291e-01, -3.929233849e-01, 3.652305901e-01, 
    2.033109963e-01, -3.676363826e-01, 1.330032498e-01, -5.191406235e-02}, {2.069546729e-01, -1.975728571e-01, 9.746991843e-02, 2.940483093e-01, 
    -7.501956820e-02, -1.381743401e-01, 7.534069568e-02, 9.535317868e-02, 
    -4.332235083e-03, 1.180095077e-01, -8.546113968e-02, -2.176731229e-01, 
    -1.116083041e-01, -2.789469361e-01, -2.092625350e-01, -3.420284390e-01, 
    -7.378028333e-02, -1.978303626e-04, 1.544126868e-01, 2.050353736e-01, 
    -1.059882566e-01, 3.052191809e-03, 2.251545787e-01, -6.854593288e-03, 
    1.858407706e-01, -8.822445571e-02, 1.276517063e-01, -1.739002466e-01, 
    2.499270253e-02, -2.328903601e-02, -5.760968477e-02, 5.766982213e-03, 
    -3.253485858e-01, -4.649581760e-02, 2.426035553e-01, -9.813241661e-02, 
    4.359380528e-02, -1.695406288e-01, -8.249451220e-02, 4.984837025e-02}, {-6.587880105e-02, -1.654694825e-01, 1.666949689e-01, -1.372837871e-01, 
    9.185684472e-02, 3.300905228e-02, 4.536919668e-02, -1.305461824e-01, 
    -1.316870004e-01, -1.273992807e-01, 1.112892851e-01, 1.711685807e-01, 
    2.752605975e-01, -1.065015122e-01, -5.278921127e-01, 3.284586966e-02, 
    1.798822284e-01, -5.707818642e-02, 2.822818458e-01, -5.716853142e-01, 
    -1.655869484e-01, -3.938153386e-01, -1.453531235e-01, 1.756855100e-01, 
    -3.640497923e-01, -4.851853848e-02, 3.867445886e-01, -7.486269623e-02, 
    -2.733530104e-01, 1.979083568e-01, 1.185123175e-01, -3.496766686e-01, 
    -2.287427038e-01, 5.255940184e-02, -3.660842776e-01, 7.257658988e-02, 
    1.198367104e-01, -6.827051938e-02, 8.844018728e-02, 1.141939033e-02}, {-6.193708163e-03, 1.333733350e-01, -3.206887469e-02, -1.481347233e-01, 
    2.013125420e-01, 6.570796669e-02, -5.045499653e-02, -1.941020228e-02, 
    -2.033422142e-01, -1.027760431e-01, -1.419914663e-01, 1.211641505e-01, 
    1.179663688e-01, 7.230117917e-02, -2.049437016e-01, -7.123664021e-02, 
    -2.599342465e-01, 4.013961181e-03, -2.431951314e-01, 5.325619876e-02, 
    -1.515581608e-01, 7.821507752e-02, 8.491684496e-02, -1.539946795e-01, 
    6.804030854e-03, 6.343801320e-02, -4.505243525e-02, -9.937164187e-02, 
    -1.695510698e-03, -1.216095313e-01, -2.930106521e-01, -5.463683046e-03, 
    1.152994707e-01, -3.656747565e-02, -3.713526726e-01, 9.970013052e-02, 
    -1.974013448e-01, 1.515021622e-01, -1.236306354e-01, 2.089678496e-01}, {-9.411649406e-02, 2.741816081e-02, 2.320000231e-01, 1.088124365e-01, 
    -9.097084403e-02, -1.499124765e-01, -6.161055565e-01, 2.275933884e-02, 
    1.807138026e-01, 2.470631301e-01, 2.464850247e-01, -1.190348901e-02, 
    -2.983504832e-01, -1.666840017e-01, -3.085361719e-01, -7.201392669e-03, 
    7.939657569e-02, 2.064751089e-01, -3.282631636e-01, 8.132709563e-02, 
    3.312959373e-01, 1.465273201e-01, -2.515017986e-01, 1.401758343e-01, 
    -3.205508292e-01, -1.594007164e-01, -1.306884736e-01, -2.820944786e-01, 
    -5.528910160e-01, 1.133868620e-01, 2.660932541e-01, -1.980705559e-01, 
    -2.189617157e-01, -5.407033116e-02, -3.926829621e-02, 3.109027147e-01, 
    -2.856600881e-01, 4.201149940e-02, -3.492437676e-02, 1.181741133e-01}, {2.484955192e-01, 1.541535109e-01, 1.763969660e-01, 1.067324802e-01, 
    1.020629182e-01, -4.051984847e-02, -2.271969467e-01, -6.733708549e-03, 
    -1.064505801e-01, -6.189531460e-02, -2.955459356e-01, 1.523354650e-01, 
    8.027456701e-02, 1.895066202e-01, -1.595995873e-01, 1.638944596e-01, 
    -2.113520205e-01, 8.155157790e-03, -1.361234337e-01, -3.343968838e-02, 
    2.386749387e-01, 2.438928336e-01, 1.742227823e-01, 2.500445396e-02, 
    -2.140285261e-02, -4.164001346e-02, 3.193960339e-02, -1.823441535e-01, 
    -1.339597255e-01, -6.943650544e-02, -7.045056671e-02, 2.154857367e-01, 
    -2.950388193e-01, -9.630876780e-02, 2.523348201e-03, 2.179892659e-01, 
    3.877416253e-02, -1.368520707e-01, 7.743778080e-02, 1.915310174e-01}, {9.676503018e-03, 1.450772434e-01, 8.775585145e-02, -1.034461632e-01, 
    -1.908065528e-01, 2.525340393e-02, 1.824601442e-01, -6.182661280e-02, 
    -1.579233706e-01, 3.402692825e-02, -6.139221042e-02, -2.359614708e-02, 
    3.131904081e-02, -1.193696707e-01, 3.667647019e-02, 2.339068055e-01, 
    3.112934232e-01, 6.609787792e-02, -7.292741537e-02, 3.795709088e-02, 
    -3.972334042e-02, 1.783471555e-01, -2.953054011e-02, 2.741071209e-02, 
    -1.146667227e-01, 3.283702582e-02, 1.224747021e-02, 6.018545479e-02, 
    6.298752874e-02, -3.284453973e-02, 1.489842869e-02, -8.026918024e-02, 
    1.266186498e-02, 1.601822823e-01, 8.443014696e-03, -1.299852580e-01, 
    3.422022760e-01, 4.607066512e-02, 1.345465779e-01, 2.482773513e-01}, {-2.341755778e-01, 1.939365268e-02, -2.564824820e-01, -2.060170025e-01, 
    -2.498305775e-02, 6.321045756e-02, -2.320676297e-01, 7.586174645e-03, 
    -3.786731958e-01, 9.948856384e-02, -1.833091676e-01, -2.472547814e-03, 
    6.724802312e-03, 1.378751695e-01, -1.885999590e-01, 1.005180553e-02, 
    1.920686215e-01, -1.074360088e-01, -1.650383621e-01, -1.040856391e-01, 
    1.552045494e-01, 8.104138076e-02, 3.317012191e-01, -3.802724555e-02, 
    -1.321996003e-01, 2.593266219e-02, 1.572232395e-01, 1.114791855e-01, 
    2.033096105e-01, 2.683026157e-02, 2.367729247e-01, -2.140688747e-01, 
    -1.040289775e-01, -9.832826257e-02, 1.897723228e-01, 1.320743710e-01, 
    1.660282761e-01, -2.380108684e-01, -6.256075948e-02, -2.303835899e-01}, {-4.494022578e-03, -1.658919640e-02, 2.469824106e-01, 1.265808642e-01, 
    -7.108474523e-02, 2.045260519e-01, -7.619692385e-02, 7.186442614e-03, 
    -5.500337854e-02, -2.140477598e-01, -7.404892147e-02, 4.171822369e-01, 
    5.389431957e-03, -8.478208631e-02, 1.925943792e-02, -3.897473216e-01, 
    -1.103357747e-01, 1.173489988e-01, -1.039223820e-01, 6.756507605e-02, 
    6.161074713e-02, -3.988773748e-02, -2.134113312e-01, -8.431026340e-02, 
    2.436387539e-01, 7.257807255e-02, -7.243152708e-02, -3.960532546e-01, 
    4.148183390e-02, 6.394707412e-02, -3.463983834e-01, 1.907880455e-01, 
    -2.483372241e-01, 3.286069930e-01, -2.765555382e-01, 7.693926338e-03, 
    -1.392307878e-01, 1.139932275e-01, 8.950483054e-02, -5.513709411e-02}, {1.164496988e-01, -4.009111598e-02, 1.994429901e-02, 8.878117800e-02, 
    2.194898725e-01, 3.447249159e-02, 2.835780755e-02, 5.094408616e-02, 
    -2.498627305e-01, 1.449274421e-01, 1.565883402e-03, -2.954624593e-02, 
    -9.418544173e-02, -9.638841450e-02, -2.259062789e-02, -2.512795031e-01, 
    -1.261277199e-01, -1.175343543e-01, -4.458567500e-02, -2.607558668e-01, 
    1.533528715e-01, 1.413555145e-01, 6.997039076e-03, -8.754401933e-04, 
    -1.018552016e-02, 6.830637809e-03, 1.140752509e-01, 6.326520443e-02, 
    1.442314386e-01, -7.063653320e-02, -3.333458677e-02, -2.965513431e-02, 
    1.797746271e-01, -9.133642912e-02, -6.911204010e-02, 4.818785936e-02, 
    1.471908092e-01, -3.348900974e-01, 1.548128426e-01, -1.428961903e-01}, {-1.205117553e-01, -9.204757214e-02, 1.776068211e-01, -1.437275708e-01, 
    1.326021999e-01, 3.068077751e-02, 6.424532086e-02, -2.074611783e-01, 
    7.581057958e-03, 3.438303713e-03, -2.671779096e-01, 5.921699479e-02, 
    -2.140427753e-02, -8.491019905e-02, -6.502971053e-02, -2.771444917e-01, 
    4.229189083e-02, -1.979873031e-01, 1.018708944e-01, 7.036864292e-03, 
    1.309642047e-01, -8.720518649e-02, 4.656981304e-02, 3.228020370e-01, 
    -1.677249670e-01, -8.782193810e-02, 3.533591926e-01, 2.524552345e-01, 
    -3.752636015e-01, -9.161724150e-02, 5.119447783e-02, -1.528894603e-01, 
    -3.486132920e-01, -6.950982660e-02, 3.734819591e-01, 3.549303487e-02, 
    -9.574335814e-02, -4.427068401e-03, 8.972140402e-02, -1.699187607e-01}, {-1.168170199e-01, -8.055274487e-01, -2.042423636e-01, -9.307094216e-01, 
    9.551010281e-02, -6.646890640e-01, -4.180025756e-01, -3.431675732e-01, 
    -9.860627055e-01, 3.091665804e-01, -4.429944977e-02, 6.699900329e-02, 
    5.542602539e-01, -1.911272258e-01, -5.256665349e-01, 2.551725209e-01, 
    1.702522337e-01, -3.086435795e-01, -2.589355707e-01, -5.678317547e-01, 
    5.749850869e-01, -3.180975616e-01, 1.303696632e-01, -2.096075751e-02, 
    -8.798856735e-01, -1.509037375e+00, 8.380947113e-01, 2.561725974e-01, 
    6.950165331e-02, -2.035382092e-01, 8.889137208e-02, -5.160660744e-01, 
    4.404506832e-02, 5.456387401e-01, -3.916022927e-02, -3.725561798e-01, 
    -1.370956749e-01, -4.099231958e-01, -1.619606972e+00, 6.569433808e-01}, {-2.103917301e-01, -3.650982380e-01, 1.054136306e-01, -1.597766876e-01, 
    -2.273173779e-01, -3.628736734e-01, -5.540493503e-02, 5.334065109e-02, 
    4.694058746e-02, -7.933179289e-02, 1.794465445e-02, 3.773960471e-01, 
    -5.451826006e-02, 1.585694999e-01, 4.402681813e-02, 4.913102370e-03, 
    -6.728939712e-02, 6.876974553e-02, -7.177639054e-04, 8.764117956e-02, 
    1.378127486e-01, -1.214559153e-01, -3.145071119e-02, 2.231010497e-01, 
    -9.121275693e-02, -2.302313596e-02, 2.239668071e-01, -3.789711297e-01, 
    -2.174283266e-01, 1.645498574e-01, -2.339712530e-01, -4.493678734e-02, 
    -1.980287433e-01, 1.673682593e-02, 7.996461540e-02, -8.651774377e-02, 
    -3.424239755e-01, -4.048479795e-01, -1.402927935e-01, -2.328741550e-02}, {6.883395463e-02, 2.412700281e-02, 2.087813616e-01, -4.406773672e-02, 
    -2.174252123e-01, -5.895085260e-02, 3.240548819e-02, -8.720082790e-02, 
    -7.297084201e-03, -6.904744357e-02, 1.858725250e-01, 4.009652138e-02, 
    -1.245914400e-01, -8.111895993e-03, -2.472855449e-01, 1.203806177e-01, 
    -2.646956146e-01, 1.729137450e-01, -3.065883517e-01, 2.600875869e-02, 
    1.129444540e-01, -1.354803145e-01, -2.050152421e-01, 2.885955274e-01, 
    -2.120095119e-02, 9.881514125e-03, 1.862221211e-01, 2.754195035e-01, 
    8.404628932e-02, -1.392495930e-01, -3.421244323e-01, 3.274832666e-01, 
    -2.423715293e-01, 1.076649204e-01, -3.685263991e-01, -8.243526332e-03, 
    -4.919932783e-02, 2.408783138e-02, 1.885508746e-01, -1.044126973e-02}, {4.522640109e-01, -1.169243217e+00, -4.683026299e-02, -7.286326885e-01, 
    -2.040292472e-01, -7.803390920e-02, -3.029539064e-02, 1.393252313e-01, 
    -5.096070766e-01, -1.180999160e+00, 4.392057359e-01, 7.975288033e-01, 
    -1.716491282e-01, -8.321413994e-01, -2.107569426e-01, -2.447615005e-02, 
    4.672823548e-01, -3.668870628e-01, 2.287352681e-01, -2.349380851e-01, 
    4.314945936e-01, -9.400168806e-02, -1.528227143e-02, -3.221247196e-01, 
    -1.769895196e+00, -1.505375385e+00, 5.507802367e-01, -8.322168142e-02, 
    -4.831327796e-01, -9.869067371e-02, 1.025180817e-01, 3.100193441e-01, 
    1.505054533e-01, -3.439025283e-01, -2.662748992e-01, -2.675476670e-01, 
    2.038789988e-01, -4.454416931e-01, -7.619305253e-01, 3.577137887e-01}, {-3.677490726e-02, -3.097256124e-01, -9.146650322e-03, 1.724472493e-01, 
    -1.081345826e-01, 1.724082977e-01, 2.748771310e-01, -5.860290304e-02, 
    7.630231231e-02, 1.685578190e-02, -1.489351597e-02, 2.476848513e-01, 
    -9.635408223e-02, -1.997927725e-01, -1.560167223e-01, 2.690913081e-01, 
    -2.512853444e-01, -1.086752769e-02, 4.376048446e-01, 3.233184814e-01, 
    1.606063545e-01, 1.641914845e-01, 5.526190624e-02, -3.095541894e-02, 
    2.813690342e-02, -5.531281605e-02, 4.734666646e-02, 2.395570278e-02, 
    -2.127110958e-01, -5.460486412e-01, -5.315102637e-03, -1.194199622e-01, 
    -1.406854987e-01, -1.967360526e-01, 7.519851625e-02, -4.072428644e-01, 
    3.101829812e-02, 2.248271108e-01, -1.637362689e-02, 3.321903646e-01}, {1.696249470e-02, -7.415482402e-02, 3.144440651e-01, 6.738361716e-02, 
    -1.987751722e-01, -5.588489175e-01, 8.527877927e-02, -2.445657365e-02, 
    -2.119711488e-01, 1.036568731e-01, -2.382111847e-01, -1.887962222e-02, 
    1.025842056e-01, 2.335147001e-02, -2.582982183e-01, 2.136368454e-01, 
    -3.307254612e-02, 8.360721916e-02, 3.119083047e-01, 2.799068093e-01, 
    2.652419209e-01, -1.389324479e-02, -4.041149467e-02, -1.306602210e-01, 
    6.545367092e-02, -9.824889153e-02, 2.211456150e-01, 2.628396153e-01, 
    2.803839147e-01, 1.785584912e-02, -1.699107140e-01, -2.230620533e-01, 
    2.159395814e-01, 2.348446399e-01, 1.815197915e-01, 4.760240763e-02, 
    -4.381088316e-01, -2.957763374e-01, -1.567558795e-01, -2.838469148e-01}, {1.206121743e-01, -1.984029859e-01, 1.647895388e-02, -1.308519691e-01, 
    -1.876696646e-01, 1.013615206e-01, 4.362921044e-02, -2.192724645e-01, 
    -2.169604152e-01, 2.000664324e-01, -1.950645894e-01, 1.667179465e-01, 
    2.570795119e-01, -1.924065948e-01, 2.965613641e-02, 1.115873605e-01, 
    1.176806632e-02, 3.157330751e-01, -7.230072618e-01, -1.138038784e-01, 
    -8.750174940e-02, 3.904428184e-01, 1.643083841e-01, 9.645690769e-02, 
    -1.110656634e-01, -2.059247047e-01, -1.536485702e-01, 1.030043811e-01, 
    -2.291140333e-02, 1.046125665e-01, -1.891828328e-01, -1.786041558e-01, 
    -2.341097407e-02, 8.353249729e-02, -1.120578274e-01, -1.156006940e-03, 
    2.578772008e-01, -2.542278469e-01, -1.755920202e-01, -6.487015635e-02}, {1.649860591e-01, -1.565492898e-01, 9.583749622e-02, -3.041444719e-02, 
    6.850258214e-04, 1.435087025e-01, 6.162887439e-02, 8.513486013e-03, 
    -6.457615644e-02, 1.455590129e-01, -1.262024194e-01, 7.121116668e-02, 
    -2.742678225e-01, -1.629365832e-01, 3.863357753e-02, 1.771927625e-01, 
    1.030789316e-01, 1.715220660e-01, -2.117517292e-01, -3.076596558e-01, 
    -8.923794329e-02, -2.988523245e-01, -3.530122340e-02, 1.338648945e-01, 
    -2.320714146e-01, -2.140856721e-02, 2.417544723e-01, -1.160498336e-01, 
    -3.015620112e-01, 6.605012715e-02, 9.688117355e-02, 3.234458342e-02, 
    1.150465757e-01, 3.378071487e-01, -1.574517339e-01, -2.205459327e-01, 
    -2.609833144e-02, -6.497055292e-02, -1.764308661e-01, 2.022449858e-02}, {1.923150718e-01, 1.135492325e-01, 2.220603377e-01, 2.368205339e-01, 
    -6.687845290e-02, -2.686602771e-01, -2.136747725e-02, -9.923513234e-02, 
    2.000502348e-01, 4.621951282e-02, -1.373207867e-01, 4.461152479e-02, 
    -9.534364939e-02, 2.660409547e-02, -2.030584514e-01, -7.574950159e-02, 
    1.138153300e-01, 1.796073467e-01, 4.736629874e-02, 1.716440171e-01, 
    -7.356781512e-02, -1.670655310e-01, 3.025065064e-01, -5.164829269e-02, 
    -2.097531706e-01, -9.793512523e-02, 1.357899886e-02, -1.320091486e-01, 
    -2.906646952e-02, 1.418319792e-01, -1.140925065e-01, -8.370859921e-02, 
    7.624579966e-02, 3.178021312e-01, -4.103931189e-01, 1.267667562e-01, 
    1.354398131e-01, -1.909233779e-01, -1.166459173e-01, 6.484921277e-02}, {-1.878310181e-02, 7.013697177e-02, -2.327039465e-02, 1.112807691e-01, 
    -1.389703900e-01, -1.702666730e-01, -3.274147809e-01, 2.521082759e-01, 
    1.505813003e-01, -1.489562243e-01, -2.759374976e-01, 2.858287990e-01, 
    7.134921849e-02, -1.196189374e-01, -1.717899591e-01, 1.623002589e-01, 
    -1.220011711e-01, 1.013375702e-03, -1.031343490e-01, -8.187913895e-02, 
    -1.504026204e-01, 1.639819145e-01, -1.845338494e-01, 1.323215961e-01, 
    2.664864808e-02, 7.364447415e-02, -5.939794239e-03, 1.355853230e-01, 
    -2.166271061e-01, -4.595644772e-02, 1.772297621e-01, 2.416641265e-01, 
    -4.719437286e-02, 3.356166184e-01, 1.512490213e-01, 1.357307285e-01, 
    3.684428632e-01, 1.676623523e-01, 1.714916825e-01, 9.450035542e-02}, {-2.915287614e-01, -3.753475845e-02, 4.369708523e-02, -3.232172430e-01, 
    2.804449946e-02, 1.830466986e-01, 7.092937082e-02, -1.097203940e-01, 
    2.974537574e-02, -1.191272363e-01, 2.702578306e-01, 2.691571712e-01, 
    4.953609109e-01, -2.769522369e-01, -1.274872720e-01, -2.121980041e-01, 
    2.581992745e-01, -2.112973928e-01, 2.514576912e-01, 1.956646738e-04, 
    1.453230530e-01, 2.356021255e-01, -1.768335104e-01, 2.113012671e-01, 
    1.123967096e-01, -3.898677602e-02, -4.987131059e-02, -7.712315768e-02, 
    -2.752769887e-01, -3.937897086e-01, 1.034104377e-01, -5.359262601e-02, 
    -1.562914699e-01, 3.755642101e-02, 6.342974305e-02, 3.250512183e-01, 
    2.447803020e-01, 1.807259917e-01, -1.614380479e-01, 2.034925520e-01}, {1.503909975e-01, 1.009421125e-01, 2.101983875e-01, 4.966836050e-02, 
    1.329759061e-01, -3.245559633e-01, 1.298781782e-01, -3.969082981e-02, 
    -8.751286566e-02, 6.633321196e-02, 1.646386981e-01, -1.324893087e-01, 
    -1.098361332e-02, 2.975739539e-02, -9.334170260e-03, 1.020475924e-01, 
    -2.368604541e-01, -4.889902100e-02, 8.412287384e-02, -6.167073175e-02, 
    5.823779851e-02, 2.970382385e-02, -2.710073888e-01, -1.040698662e-01, 
    6.654577702e-02, 1.003415287e-01, 2.209775448e-01, -4.568111151e-02, 
    1.791983843e-01, -2.931478992e-02, -2.978760898e-01, -1.611556709e-01, 
    1.542740911e-01, 2.659816742e-01, 1.101293713e-01, 1.418694854e-01, 
    -2.431970239e-01, 1.441360265e-01, 8.543886989e-02, 8.707846701e-02}, {1.420357376e-01, -2.011828125e-01, 1.695161611e-01, -2.211458534e-01, 
    -1.455461681e-01, 1.975113302e-01, 1.314155757e-01, -1.066103205e-02, 
    -2.574371696e-01, 5.677181110e-02, 8.893281221e-02, 2.040498853e-01, 
    -1.712656468e-01, -1.638890505e-01, -2.503059506e-01, 9.876104305e-04, 
    -2.387559265e-01, 2.791040540e-01, 1.496806145e-01, -2.639067471e-01, 
    -7.137746364e-02, -3.658165224e-03, 1.208372563e-01, 1.853718609e-02, 
    -2.747480571e-01, -2.276313864e-02, 7.169809937e-02, 8.382342756e-02, 
    -4.564703405e-01, 6.472112983e-02, 1.370346695e-01, -3.145528436e-01, 
    3.695928026e-03, 6.155307591e-02, 3.023486435e-01, 1.391206384e-01, 
    -1.377099901e-01, -8.611439914e-02, -5.748772621e-02, -2.845919691e-02}, {-6.089045405e-01, -1.159537733e-01, 1.284102201e-01, -2.188491821e-01, 
    4.576791823e-02, 2.056934386e-01, -1.879071072e-02, -3.616362214e-01, 
    7.697870955e-03, -1.194775224e+00, -1.865189373e-01, 5.904842019e-01, 
    2.515212297e-01, -7.257657498e-02, -1.234864518e-01, -6.528166682e-02, 
    2.339805216e-01, 1.056505069e-01, 2.472255379e-01, 1.661605537e-01, 
    5.755977333e-02, 2.725063562e-01, 1.919325888e-01, 7.015696913e-02, 
    -1.399269402e-01, -3.918029368e-01, -3.940538466e-01, 2.999638207e-02, 
    -7.019522190e-01, 1.564913094e-01, 1.766904444e-02, -8.217335939e-01, 
    2.695396543e-01, 1.781084090e-01, 3.435496986e-02, 2.496158481e-01, 
    -1.279373169e-01, -1.662351787e-01, -3.737643659e-01, 2.491706908e-01}, {2.878079414e-01, -1.020653397e-01, 2.151396684e-02, -1.754006147e-01, 
    1.211622059e-01, 2.912183702e-01, -1.077612877e+00, -8.357998729e-02, 
    -1.555286497e-01, -3.644379377e-01, -4.830985665e-01, -6.513047265e-04, 
    2.756243646e-01, 5.073599145e-02, 5.047984123e-01, 1.327026486e-01, 
    2.202581018e-01, -1.355670542e-01, 5.669387579e-01, -3.760716319e-01, 
    1.929218322e-01, -1.645411551e-01, 2.951544523e-01, -3.360737562e-01, 
    1.321451459e-02, -6.787818074e-01, -4.536996484e-01, -2.883354723e-01, 
    -1.705514193e-01, 2.177964523e-02, -4.003091156e-02, -2.259947658e-01, 
    7.503826916e-02, -3.617734611e-01, -4.755251110e-01, -8.674612641e-01, 
    1.385793984e-01, 1.327840090e-01, 3.656465933e-02, -1.507487148e-01}, {-9.634619951e-02, 2.149519473e-01, 1.847965121e-01, 1.809120029e-01, 
    1.161750033e-01, 5.384936929e-02, 3.325215727e-02, 1.362028420e-01, 
    9.677842259e-02, 1.650901735e-01, 9.529015422e-02, 3.091386855e-01, 
    4.495838657e-02, -2.340887934e-01, -1.157667413e-01, 1.009463221e-01, 
    -1.072896738e-02, 1.768196672e-01, -3.249958903e-02, 1.979845762e-01, 
    -7.286427915e-02, -2.265329957e-01, 1.841986775e-01, 2.602550387e-01, 
    -7.454318553e-02, 3.313101530e-01, -6.611301005e-02, 1.057228819e-01, 
    -1.707319468e-01, 1.059674397e-01, -3.673753142e-02, 5.743657798e-02, 
    6.583438814e-02, -1.428530663e-01, -1.457971185e-01, 6.990502775e-02, 
    -2.135002315e-01, 5.429650098e-02, 3.250339031e-01, 2.563109621e-02}, {-2.796313167e-02, -4.957775176e-01, -4.439732432e-01, -6.501828432e-01, 
    4.368430376e-02, 3.151497245e-01, -1.101038307e-01, -5.244155526e-01, 
    -4.486902356e-01, 9.807074070e-02, 9.121739119e-02, 4.313434064e-01, 
    -1.256826073e-01, -8.707202673e-01, -3.039982915e-01, 5.751083046e-02, 
    6.393901110e-01, -1.004088148e-01, -5.404019356e-01, -2.183466554e-01, 
    8.457069397e-01, 3.055419624e-01, -2.417958826e-01, -3.263379931e-01, 
    -1.138807774e+00, -1.425343037e+00, -3.006028235e-01, -1.279358864e-01, 
    -2.081967592e-01, -2.310758084e-01, 4.538211524e-01, 8.896582574e-02, 
    8.112806827e-02, -3.351657838e-02, -1.190190837e-01, -2.280512750e-01, 
    -2.177212737e-04, -4.675952196e-01, -8.001406193e-01, 6.714988351e-01}, {-1.134047285e-01, -7.276939601e-02, 5.494192988e-02, 9.057065845e-02, 
    -2.194975913e-01, 9.048899263e-02, -1.388857365e-01, 2.035247833e-01, 
    1.940120012e-01, 1.721031368e-01, 1.315444708e-01, 2.184643447e-01, 
    -5.826042220e-02, -4.390810803e-02, -4.336216487e-03, 2.393152267e-01, 
    2.699745893e-01, 4.425278679e-02, -1.609065980e-01, 2.088479400e-01, 
    6.001594290e-02, 1.937632859e-01, 2.108020782e-01, 8.177986369e-03, 
    -9.916336834e-02, -3.113920428e-02, 2.015803605e-01, -1.927931756e-01, 
    1.463250965e-01, 9.544474632e-02, 1.304737478e-01, 3.877799958e-02, 
    1.270458847e-01, -1.115593240e-01, -6.124320254e-02, 1.397399157e-01, 
    -1.381878853e-01, -5.450601876e-02, 2.831643820e-02, 1.118234023e-01}}};

const float bias_hid[NUM_HIDDEN_LAYERS-1][NUM_NODES] = {{1.255811602e-01, -4.432260990e-02, 9.259662032e-02, 1.092797238e-02, 
    -7.410411537e-02, -3.118843772e-02, 8.584755659e-02, 3.164720023e-03, 
    -5.562301353e-02, 1.354704145e-02, -7.553710020e-05, 1.118792221e-01, 
    -7.305377629e-03, 1.620993484e-03, -7.583140582e-02, 5.634038150e-02, 
    -1.724316180e-02, 7.293663919e-02, -3.547547013e-02, -2.397914603e-02, 
    5.436525680e-03, -7.608501241e-03, 1.618867666e-01, -1.803080738e-02, 
    -3.489698097e-02, 1.234711185e-01, 1.636133157e-02, 4.928520322e-02, 
    2.645769529e-02, -1.513691712e-02, 5.783739313e-02, -4.077860340e-02, 
    8.367156982e-02, -4.157100618e-02, 5.008187518e-02, 1.606955379e-01, 
    -1.454911008e-02, 4.621502012e-03, 1.544669122e-01, -1.242392417e-02}};