#include "nn_parameters_non_zero.h"

// const int num_nodes_vec[NUM_LAYERS] = {10, 40, 40, 4};

// NN network parameters -- atribute values
const float weights_in_nz[NUM_NODES][NUM_STATES] = {{-8.927558899e+00, 4.634038925e+00, 2.428115010e-01, 2.542977095e+00, 
    2.795383334e-01, 2.530798912e-01, 1.778994918e+00, 4.431841522e-02, 
    -3.576182723e-01, -1.973348111e-02}, {-8.671557307e-01, -1.236235797e-01, -6.333067268e-02, -1.594774008e+00, 
    -4.527277648e-01, 8.666541427e-03, 7.123351693e-01, -2.734887898e-01, 
    -9.109797478e-01, 2.110736370e+00}, {1.193045616e+00, -1.071773529e+00, 7.229214907e-02, 2.155117244e-01, 
    1.368425041e-01, -2.818775596e-03, 1.196003795e+00, 3.863393068e-01, 
    -2.669392712e-02, -5.466411710e-01}, {5.131633580e-02, -7.973846793e-01, 2.206512913e-02, 1.259687066e+00, 
    -1.194240928e+00, 6.228544191e-02, 3.544632792e-01, 4.955047071e-01, 
    -1.736346632e-01, -2.189287663e+00}, {-3.834006071e+00, -3.365750790e+00, 2.336926907e-01, 1.505111933e+00, 
    -3.053561747e-01, 8.894300461e-02, 4.110274613e-01, -1.783515811e-01, 
    -3.671812713e-01, 1.062333509e-01}, {-2.728132010e-01, -5.105983019e-01, -5.452935584e-03, -1.224233031e+00, 
    -4.983615279e-01, -2.910113893e-02, -1.176191330e+00, -3.224570751e-01, 
    3.638530076e-01, -1.124346852e+00}, {3.285093606e-01, -1.516766250e-01, -2.017071009e+00, 2.303742021e-01, 
    -4.668485373e-02, -1.884889245e+00, -2.588304281e-01, 3.652381524e-02, 
    4.121607542e-02, 3.736663237e-02}, {-8.258112073e-01, 3.340172768e+00, -5.646591261e-02, -4.000111818e-01, 
    1.836450219e+00, -8.919425309e-02, 1.759382635e-01, -6.797307134e-01, 
    -2.913629711e-01, -5.294443965e-01}, {5.175318122e-01, -1.445931494e-01, 3.326588869e-02, 2.035359621e+00, 
    -1.546563864e+00, 1.027558967e-01, 2.368779898e+00, 9.302466363e-02, 
    2.076665014e-01, -2.306522131e-01}, {-4.536551833e-01, 5.190243125e-01, 3.317597881e-02, -6.494442225e-01, 
    -3.435258195e-02, -3.264931217e-02, 1.284075141e+00, 8.377731591e-02, 
    3.334326148e-01, -1.692086905e-01}, {-2.609148741e+00, -1.117839932e+00, 1.769527942e-01, 1.029909134e+00, 
    1.982868314e+00, 1.019508094e-01, 6.370325387e-02, -7.784397155e-02, 
    6.594734192e-01, -1.702128887e+00}, {1.251457930e+00, -3.383763313e+00, -2.163965069e-02, 6.760051847e-01, 
    -2.729067802e-01, 1.706860363e-01, 1.310108781e+00, -5.286324620e-01, 
    -1.254079044e-01, 2.100022793e+00}, {9.957456589e-01, 4.937616289e-01, -5.251056328e-02, -1.565639734e+00, 
    -9.908325672e-01, -4.149536416e-02, -2.169397771e-01, 1.562833786e+00, 
    -1.171572328e+00, -7.588043213e-01}, {1.285328150e+00, 2.332102954e-01, -7.755521685e-02, -5.291469693e-01, 
    -8.707412481e-01, -8.885644376e-02, 4.479154944e-01, -2.969188690e-01, 
    -4.963265061e-01, 2.396848917e+00}, {1.089789033e+00, 1.616148233e+00, 5.254050717e-02, 9.731450677e-01, 
    7.878675461e-01, 9.732738137e-02, 2.839096308e+00, 4.236066639e-01, 
    -4.629682600e-01, 1.488178968e+00}, {3.858203590e-01, -1.323582411e+00, 6.414090842e-02, 1.025751114e+00, 
    1.364492655e+00, 1.673271693e-02, 3.389366567e-01, 1.262659580e-01, 
    1.055239663e-01, 5.444917202e+00}, {-3.781102598e-01, -5.741208792e-01, 1.722454838e-02, 4.026364684e-01, 
    1.636162996e+00, 7.128596306e-02, -3.404750228e-01, 8.414832950e-01, 
    1.614977568e-01, 7.080590129e-01}, {-1.563566089e+00, -8.545373082e-01, 1.337803900e-01, 6.756733060e-01, 
    2.442809582e+00, 9.841980040e-02, 9.774037004e-01, 7.441662550e-01, 
    5.875763893e-01, -3.418146133e+00}, {2.346723676e-01, -1.199980021e+00, -8.336886019e-02, -5.118538141e-01, 
    -1.124650240e+00, -1.108646765e-01, 7.148715854e-02, -6.921453476e-01, 
    1.447263002e+00, 1.056467533e+00}, {-5.928777456e-01, -3.310953379e-01, 1.042741165e-01, -1.290941477e+00, 
    -1.296327829e+00, 1.073404327e-01, -1.387165666e+00, 6.659833193e-01, 
    -7.778708935e-01, -3.562627137e-01}, {-1.169521570e+00, 3.587769568e-01, -1.631451398e-02, 6.099124551e-01, 
    9.725050069e-03, -4.802256823e-02, 7.168425322e-01, -1.534645706e-01, 
    7.015422583e-01, 3.316937208e+00}, {1.490893215e-01, 3.263950348e+00, -1.236447990e-01, 3.217810690e-01, 
    1.246673346e+00, -1.430059969e-01, -7.794547081e-01, 3.886986077e-01, 
    4.446061552e-01, 1.500477076e+00}, {4.836094677e-01, 5.903865099e-01, 6.109696254e-02, 5.249058604e-01, 
    1.760071842e-03, 6.032849848e-02, 9.613175392e-01, -1.046987176e-01, 
    2.455658168e-01, -1.247847438e+00}, {3.781999052e-01, 4.670220613e-01, 1.163012628e-02, 8.072054386e-01, 
    8.224586844e-01, 5.981174856e-02, 5.113096833e-01, -5.944846272e-01, 
    -1.353112608e-01, 1.595485568e+00}, {-1.593626738e-01, -1.315963268e+00, -5.167296529e-02, 1.100881815e+00, 
    1.425151944e+00, -1.372922659e-01, 6.426885724e-01, -9.337983727e-01, 
    1.531698108e-01, -4.017857075e+00}, {-6.781883538e-02, 2.548243403e-01, -5.513245612e-02, 8.216735721e-01, 
    1.338450909e+00, 1.390453056e-02, 8.680533171e-01, -4.297280014e-01, 
    3.397197723e-01, -7.179608345e-01}, {-4.822093546e-01, 2.393848449e-01, -7.074111700e-01, -3.239249587e-01, 
    3.051286340e-01, -7.213399410e-01, 2.409296483e-01, -1.799754798e-01, 
    -1.988599300e-01, 6.677465141e-02}, {6.574421525e-01, 6.536154151e-01, -6.613424420e-02, 1.050791502e+00, 
    -3.634874225e-01, -1.106707305e-01, -1.401446223e+00, -1.289424393e-02, 
    -2.661345303e-01, -6.864097118e-01}, {-2.305829763e+00, -1.137920856e+00, 7.541629020e-03, -2.067994833e+00, 
    -5.267043710e-01, 4.916609451e-02, 3.070589602e-01, -2.806138247e-02, 
    5.494428873e-01, 4.402090237e-02}, {3.373302817e-01, -4.557522759e-02, 8.791983128e-01, -4.178505763e-02, 
    -2.563596070e-01, 8.956856728e-01, -2.259443700e-01, -3.884284571e-02, 
    3.135431111e-01, -2.877046764e-01}, {3.507261574e-01, -5.528467894e-01, 7.260344923e-02, -9.070696235e-01, 
    -8.342661262e-01, 1.468929499e-01, 5.248441696e-01, -1.382928044e-01, 
    -8.673474193e-02, -1.972332120e+00}, {2.357037783e+00, -3.373123169e+00, 2.109232731e-02, -3.849746883e-01, 
    -4.863648415e-01, -7.904923521e-03, -2.117607355e+00, -2.078267932e-02, 
    -2.966088057e-01, -6.216944456e-01}, {2.730380977e-03, 1.762052774e-01, -6.350222230e-02, -2.582772255e+00, 
    1.642933011e+00, -4.732818529e-02, 1.747677922e+00, -9.154157043e-01, 
    -1.207064509e+00, -3.225089312e-01}, {-3.356891870e-01, -7.113422155e-01, -5.801070109e-02, 1.219824106e-01, 
    -1.815219641e+00, 8.578947186e-02, 8.525611162e-01, 3.960428536e-01, 
    2.556386590e-01, 1.470543265e+00}, {3.960084021e-01, -3.878030777e-01, 4.176234826e-02, 7.734257579e-01, 
    -1.485620618e+00, -3.734157234e-02, -4.746869206e-01, -5.186095238e-01, 
    5.912545323e-01, -1.224210858e+00}, {1.146533847e+00, -5.350922942e-01, 3.757804632e-03, -2.576570511e+00, 
    -4.412399605e-02, 7.090988755e-02, 9.180348516e-01, -1.531671733e-01, 
    3.096142113e-01, 4.378437996e+00}, {-4.806517661e-01, 4.244694114e-01, -5.203698529e-04, 3.136310279e-01, 
    6.500374675e-01, -1.777768880e-02, 2.343370020e-01, 5.780917406e-01, 
    1.421357989e+00, 7.031783462e-02}, {-1.745244503e+00, 2.630016506e-01, 4.648151249e-02, -3.132799268e-01, 
    3.619285524e-01, 1.148532853e-01, 3.219198883e-01, -7.555033565e-01, 
    4.311376214e-01, 7.306467295e-01}, {3.260694265e+00, 2.756869555e+00, 1.073767170e-01, -1.727661967e+00, 
    1.124132633e+00, 3.705156967e-02, -3.898816109e-01, 5.050725937e-01, 
    -3.321275711e-01, 9.579285979e-01}, {-6.106922030e-01, -7.115562558e-01, -8.418319374e-02, 1.185143471e+00, 
    9.411259890e-01, -8.957502991e-02, -8.266963363e-01, -1.308261514e+00, 
    -9.660174847e-01, 1.041809022e-01}};

const float bias_in_nz[NUM_NODES] = {1.443277478e+00, -4.886418879e-01, -2.513314411e-02, -2.635877132e-01, 
    5.871926993e-02, -2.608465031e-02, -2.402252257e-01, 1.801817268e-01, 
    -7.316786647e-01, 8.114348352e-02, 8.001462817e-01, -7.734168172e-01, 
    -8.483063579e-01, -3.364627808e-02, -1.061816573e+00, -2.243738174e-01, 
    -2.558797002e-01, 3.577284515e-01, -1.963838935e-01, -8.421034217e-01, 
    4.330212176e-01, -3.451426625e-01, -1.075558513e-01, -8.181658387e-02, 
    3.953336738e-03, -1.916078627e-01, -1.947235912e-01, -4.987978041e-01, 
    -6.544255614e-01, -6.851220727e-01, -8.906845748e-02, -8.713690639e-01, 
    -3.413662314e-01, -4.747807682e-01, -1.082576036e+00, 6.351217031e-01, 
    -4.853966534e-01, 1.415980905e-01, -1.048424959e+00, -3.779124618e-01};

const float weights_out_nz[NUM_CONTROLS][NUM_NODES] = {{9.634678718e-04, 2.831256948e-03, 6.064020842e-02, -5.129911900e-01, 
    2.573392987e-01, 1.576458961e-01, 2.841832675e-02, -1.328812838e-01, 
    -2.960698493e-02, -7.152074575e-02, -5.336472988e-01, -4.383245483e-03, 
    -1.366909742e-01, -1.388139367e+00, 4.833383486e-02, -9.307412547e-04, 
    6.658983231e-02, -1.751010679e-02, 4.217023030e-03, 3.245525658e-01, 
    2.009600997e-01, -1.019008807e-03, -1.619367860e-02, -1.734274030e-01, 
    2.116899490e+00, -1.618698984e-02, -1.997146904e-01, 2.107251137e-01, 
    -5.210118368e-03, -1.301508676e-02, -3.600873426e-02, -3.463051282e-03, 
    -6.275842786e-01, 6.289494038e-02, -1.428843439e-01, -7.593210321e-03, 
    -1.509386115e-02, -2.476951033e-01, -8.201488294e-03, -2.676644027e-01}, {-8.178002201e-03, -9.380381554e-03, -1.362320594e-02, 1.576757431e-02, 
    7.212379575e-02, 1.727214754e-01, -3.394412622e-02, -4.651553929e-02, 
    -5.065279547e-03, -7.759195566e-02, 6.844689250e-01, 4.320746288e-02, 
    1.113106385e-01, -2.206428200e-01, 2.794867009e-02, 1.591984369e-02, 
    -5.358588696e-02, 3.941239789e-03, -6.761866389e-04, 1.600741968e-02, 
    8.339253254e-03, -3.697869368e-03, -5.380683113e-03, 6.570550799e-02, 
    -6.882501394e-02, -1.421492733e-02, -1.601628959e-01, -5.430568941e-03, 
    1.139872428e-02, -1.780656399e-03, -6.018171906e-01, -4.652089905e-03, 
    1.954429001e-01, 1.401739754e-02, -6.975162774e-02, 3.268393222e-03, 
    3.041335009e-02, -6.269787252e-02, -1.064923182e-01, 9.873420000e-02}, {-6.307728472e-05, -1.576306112e-02, -2.786129713e-02, -8.442947641e-03, 
    -1.653898321e-02, 2.685973421e-02, -9.188375436e-03, -8.123770356e-02, 
    -5.527792498e-03, -3.457471356e-02, -2.923687994e-01, 2.857364342e-02, 
    1.323217452e-01, -6.335740089e-01, 4.513350502e-02, 1.119341468e-03, 
    -2.759131603e-02, -5.148916971e-04, -4.156023730e-03, 1.086853817e-02, 
    -7.347351313e-02, 2.622235101e-03, 3.321599588e-02, 2.735678107e-02, 
    5.351333320e-02, 1.342035085e-02, 5.824877415e-03, -6.737339776e-03, 
    1.542853191e-03, 2.054404467e-03, 7.546824217e-01, 1.198779093e-03, 
    -4.542700648e-01, -1.969937934e-03, -6.958729587e-03, 4.973066505e-03, 
    5.249424838e-03, 1.184024811e-01, -1.316973567e-01, 6.815607846e-02}, {-1.237551868e-01, -1.461650878e-01, 1.594220251e-01, -1.445548330e-02, 
    1.004926339e-01, -1.522090733e-01, 6.212444901e-01, -2.705740510e-03, 
    3.103815317e-01, 7.431782484e-01, -8.404556662e-02, 1.022966504e+00, 
    -1.204811096e+00, -2.932145894e-01, -2.131674051e+00, 1.241464242e-01, 
    3.994213939e-01, -7.806137204e-02, -3.239660263e-01, 8.667712100e-03, 
    2.342937700e-02, 2.670553327e-01, -5.473033786e-01, -3.604493141e-01, 
    4.324696958e-01, 2.742208838e-01, 5.729782209e-02, -2.775774896e-02, 
    -2.125244886e-01, -1.590280086e-01, 7.093639672e-02, 1.021064669e-01, 
    2.499516755e-01, -6.795940399e-01, -1.361710280e-01, 9.727556258e-02, 
    1.348476112e-01, 2.346335910e-02, 6.709569097e-01, 1.650480747e+00}};

const float bias_out_nz[NUM_CONTROLS] = {-2.597466484e-02, 3.843897022e-03, 3.756999038e-03, 4.288432002e-02};

const float in_norm_mean_nz[NUM_STATES] = {-1.914849842e+00, -1.548881472e-01, 1.593010074e-04, 5.810222399e-01, 
    7.013724282e-02, 1.345814584e-03, 8.479293299e-01, -2.561004391e-02, 
    7.887962007e-02, 2.782540410e-02};

const float in_norm_std_nz[NUM_STATES] = {3.271475097e+00, 3.536122007e+00, 2.271184934e-01, 2.295379812e+00, 
    1.842042185e+00, 3.775403142e-01, 1.846485024e-01, 9.052107817e-02, 
    9.566988923e-02, 4.711632354e-01};

const float out_norm_mean_nz[NUM_CONTROLS] = {1.163050754e-01, 4.415198671e-03, -4.791860031e-02, -4.281627638e-03};

const float out_norm_std_nz[NUM_CONTROLS] = {5.103248210e-01, 4.697107167e-01, 5.343578177e-01, 6.039174859e-01};

const float out_scale_min_nz[NUM_CONTROLS] = {-7.706631959e+00, -4.258875050e+01, -3.733842298e+01, -3.304620944e+00};

const float out_scale_max_nz[NUM_CONTROLS] = {7.250823930e+00, 4.256998905e+01, 3.751734136e+01, 3.318800417e+00};

const float weights_hid_nz[NUM_HIDDEN_LAYERS-1][NUM_NODES][NUM_NODES] = {{{1.133772060e-01, -6.324557066e-01, -4.649516940e-01, -1.873192787e-01, 
    -1.570125222e-01, 6.127130389e-01, -9.621594846e-02, -2.874150276e-01, 
    3.080218136e-01, 3.627548516e-01, -1.147680916e-02, 3.972841203e-01, 
    4.342305064e-01, -3.365858495e-01, 7.433385402e-02, 2.922375798e-01, 
    -7.178157568e-02, -3.812996447e-01, 5.070513859e-02, -2.519840896e-01, 
    9.878133982e-02, 1.777761281e-01, -3.821512759e-01, 3.988175094e-01, 
    -8.667145669e-02, -2.388197184e-01, 2.676619291e-01, -9.806636572e-01, 
    2.631466091e-01, -1.605133563e-01, 4.270790517e-01, -1.336815804e-01, 
    -8.887462020e-01, 1.181086227e-01, -2.744554877e-01, -4.425927997e-01, 
    -6.737891436e-01, -2.910570614e-02, 3.318226710e-02, -1.163201332e-01}, {-7.884274423e-02, 2.148121744e-01, -3.817783892e-01, -3.856205344e-01, 
    -3.055567108e-02, 8.880878687e-01, 6.738643162e-03, -1.013880372e-01, 
    1.325488538e-01, -6.810328364e-02, 3.039720701e-03, -4.959795773e-01, 
    4.597489722e-03, -2.620334625e-01, 1.534653604e-01, 2.271300703e-01, 
    -2.857611179e-01, 1.143492609e-01, -8.083128184e-02, 3.187603354e-01, 
    2.148997933e-01, 1.892482489e-01, 3.556499183e-01, -1.119891033e-01, 
    -3.668743074e-01, -3.558964431e-01, -5.282091349e-02, -6.410811543e-01, 
    -4.417456388e-01, -5.209915712e-02, -5.367226005e-01, -5.659853108e-03, 
    2.768400609e-01, 1.402122229e-01, -1.389561176e+00, -2.640763223e-01, 
    3.498106599e-01, -2.118473649e-01, -1.340516657e-01, 3.293315768e-01}, {-1.678927615e-02, -3.536489606e-01, 7.763322443e-02, 6.289117737e-04, 
    3.992272168e-02, 4.185535908e-01, -7.935480680e-04, -1.301917285e-01, 
    -3.594158292e-01, -2.916728258e-01, 2.677634954e-01, -5.743121728e-02, 
    2.261281013e-01, 6.145828366e-01, -2.342306972e-01, -1.776871532e-01, 
    -8.404105902e-02, -1.884667575e-01, -6.468451619e-01, -2.245657295e-01, 
    1.414718777e-01, 1.182931960e-01, -4.153564274e-01, -2.413080037e-01, 
    -3.020817786e-02, -3.873108700e-02, -2.844468318e-02, 5.717185885e-02, 
    -4.538897276e-01, 2.403147332e-02, 4.348824546e-02, -2.185045481e-01, 
    2.440149337e-01, -1.717292517e-01, -3.781948388e-01, -5.543070659e-02, 
    -7.448643446e-01, -5.066078901e-01, -3.461336195e-01, 2.734066546e-01}, {3.547750879e-03, 8.616221696e-02, -7.654972374e-02, -6.253557745e-03, 
    -4.008597898e-05, -1.825125068e-01, -9.841379523e-01, 4.671731219e-02, 
    1.008005366e-01, -8.812836558e-02, 1.418186445e-02, 5.260162521e-03, 
    -9.392902255e-02, -1.438689828e-01, 1.068301275e-01, 2.842218243e-02, 
    -7.001203299e-02, 8.384501562e-03, -1.350902766e-01, 4.803612828e-02, 
    -1.166830212e-02, -6.205361802e-03, -1.911993474e-01, -8.413971961e-02, 
    -6.834445894e-02, 2.136349380e-01, -5.248026252e-01, -7.406949997e-02, 
    5.031571910e-02, 6.934735775e-01, -1.041929889e-02, 1.309246384e-02, 
    1.052567922e-02, -1.013341546e-01, 1.024717167e-01, 1.474505849e-02, 
    -1.319214851e-01, 9.692259133e-03, 1.393215824e-02, 1.021369640e-02}, {-2.750758454e-02, 6.992524117e-02, -3.052949011e-01, -5.722364783e-01, 
    -8.376511186e-02, -8.927925676e-02, -3.190191463e-02, -1.195397228e-01, 
    -8.153761178e-02, -1.750376672e-01, 1.253097057e-01, 1.242379397e-01, 
    -1.211669594e-01, 2.605570853e-01, -5.253188685e-02, 2.518920973e-02, 
    -4.026263058e-01, -2.081755400e-01, -3.253668174e-02, -2.387993038e-01, 
    -5.155877471e-01, -6.032813340e-02, 1.987372190e-01, 1.710904948e-02, 
    1.760938466e-01, -5.156707764e-01, 4.351695776e-01, 9.800408036e-03, 
    -2.584705055e-01, -3.734610975e-01, 3.343292177e-01, -9.207637981e-03, 
    -2.107933164e-01, -9.616570175e-02, 2.659917064e-02, -2.008542866e-01, 
    2.865741849e-01, 7.837978601e-01, 2.038833313e-02, -9.238187224e-02}, {-2.059901506e-02, 7.424163073e-02, -3.026323020e-01, -7.401813567e-02, 
    -4.450674728e-02, -5.276278034e-02, 6.060233340e-02, -6.038008630e-02, 
    -9.999506176e-03, 4.936460853e-01, -1.324691474e-01, -2.444639653e-01, 
    8.749939501e-02, -2.476553023e-01, 3.659413010e-02, 1.566879898e-01, 
    8.106412366e-03, -9.023290128e-02, 2.888642810e-02, -5.312074348e-02, 
    2.428249717e-01, -8.808831125e-02, 2.147960663e-01, -5.377185941e-01, 
    1.612560153e-01, 3.040238321e-01, -1.253974289e-01, 7.258889824e-02, 
    -6.115615964e-01, 6.188307703e-02, -9.734901786e-02, -4.979160801e-02, 
    1.078410894e-01, -1.372043937e-01, -9.667986035e-01, 1.272455603e-01, 
    -4.366446137e-01, -2.615859499e-03, -2.205362916e-01, -1.638668031e-01}, {-3.308133483e-01, -7.282699943e-01, -1.125411466e-01, 3.322959244e-01, 
    -8.036568165e-01, 5.069657564e-01, -1.358714402e-01, -7.189501524e-01, 
    3.320145905e-01, -2.565945089e-01, 1.855418235e-01, -1.196792424e-01, 
    5.370206386e-02, -6.771460772e-01, 4.047332406e-01, -5.610798001e-01, 
    3.416264653e-01, -1.029833183e-01, 8.845793605e-01, 1.130732894e-01, 
    -1.107206821e+00, -5.188006163e-01, -6.325444579e-02, -5.226388574e-02, 
    2.943513989e-01, 2.918146849e-01, -2.645184994e-01, 1.878208518e-01, 
    -9.759978652e-01, -1.085219011e-01, -7.079638243e-01, -9.254297018e-01, 
    1.475216895e-01, 6.189583242e-02, 1.792650819e-01, -7.130000591e-01, 
    -4.144369066e-02, -8.404322863e-01, -6.936473250e-01, 7.993320227e-01}, {-3.198734671e-02, -8.857329935e-02, 4.531644583e-01, -9.947790205e-02, 
    -8.241346478e-02, -2.111594528e-01, 1.063184589e-01, -3.040742315e-02, 
    2.348351777e-01, 1.321512163e-01, 4.034986496e-01, -2.236488834e-02, 
    -1.257821769e-01, -3.738905787e-01, -8.153975755e-02, -2.442947775e-02, 
    -1.986798048e-01, -9.176596999e-02, 1.852584779e-01, 5.206644535e-01, 
    -4.664396346e-01, -6.169784814e-02, -4.128481150e-01, 2.152680755e-01, 
    6.240186095e-02, -4.021084011e-01, 1.216879338e-01, -1.629516929e-01, 
    -4.669111222e-02, -2.378307469e-02, 1.268621683e-01, -1.016350091e-01, 
    -2.173627019e-01, 1.992794424e-01, -4.055204093e-01, 5.514930934e-02, 
    -3.775711358e-01, -2.860196531e-01, 7.760162000e-03, -3.008483350e-01}, {-1.437100619e-01, 3.438767493e-01, -1.004819050e-01, 4.870444238e-01, 
    -1.786875576e-01, -1.209064126e+00, -4.026359320e-02, -4.230693579e-01, 
    -3.153939724e+00, 6.589107960e-02, 1.398004144e-01, 1.116251796e-01, 
    -1.337374374e-02, 2.646195292e-01, -1.605832934e+00, -2.757184207e-02, 
    -4.985899031e-01, 2.175235935e-02, -2.636511438e-02, -3.981773257e-01, 
    -6.850262284e-01, 3.857008219e-01, 8.629622310e-02, -6.522040367e-01, 
    2.686212361e-01, 1.113251448e-01, -9.170273691e-02, 1.525512338e-01, 
    4.367566705e-01, 3.245381415e-01, -6.000722051e-01, 8.650235087e-02, 
    -1.214059815e-02, 5.020974874e-01, 6.649636030e-01, -1.380097959e-02, 
    9.274437279e-02, 7.091154903e-02, -6.757781655e-02, -9.394811839e-02}, {-4.232104123e-01, -2.040975541e-01, 2.941812575e-01, -3.165358901e-01, 
    -6.304396689e-02, -5.240188241e-01, -1.099017560e-01, -9.382776022e-01, 
    2.722099721e-01, 6.393328309e-01, -2.959483266e-01, -7.105948031e-02, 
    5.762095377e-02, -3.019014299e-01, 1.023382768e-01, -3.132528663e-01, 
    -6.051488519e-01, 1.075365841e-01, 1.537342835e-02, -4.243766665e-01, 
    -4.347219691e-02, 1.582963467e-01, -7.070300579e-01, 3.088929653e-01, 
    -1.259053707e+00, 1.423155665e-01, 1.898895800e-01, -2.215693705e-02, 
    -4.935831428e-01, -2.283609360e-01, -8.960070014e-01, -1.413540691e-01, 
    -1.382670105e-01, -5.111994743e-01, -5.280640721e-01, 4.484834969e-01, 
    2.695345879e-01, -2.361355163e-02, -1.546660066e-01, -2.078972384e-02}, {1.305346098e-02, -9.863236547e-01, -1.788949668e-01, -5.189257264e-01, 
    -4.035437107e-01, -1.217953324e+00, -7.247636318e-01, -1.739506572e-01, 
    1.633504927e-01, -8.105250001e-01, 3.504693508e-01, 4.380672574e-01, 
    -2.039011002e+00, 2.635429800e-01, 3.239187598e-01, 3.364128470e-01, 
    -7.867719531e-01, -5.560822487e-01, -1.706139326e+00, -2.840158045e-01, 
    -2.385726720e-01, 4.509305358e-01, 4.272228181e-01, 1.037136763e-01, 
    5.349318385e-01, 2.526205480e-01, -3.876754045e-01, 6.896868348e-01, 
    -1.622591257e+00, -3.490957916e-01, -3.020837605e-01, -5.177449584e-01, 
    1.517880261e-01, -1.650758743e+00, 2.939027846e-01, -8.159056306e-03, 
    3.268336952e-01, -9.552150369e-01, -7.706239223e-01, -1.116873980e+00}, {-4.551308602e-02, -2.311851978e-01, 3.692697883e-01, -4.104892015e-01, 
    1.025807485e-01, 6.000379324e-01, -1.589824557e-01, -1.458014101e-01, 
    -1.468806118e-01, 2.288743407e-01, -8.941420913e-01, -3.298553228e-01, 
    -7.441530824e-01, 5.240601487e-03, 5.721417069e-02, 5.955044553e-02, 
    6.508820057e-01, 6.509415805e-02, -4.826222360e-01, -1.306780428e-01, 
    4.179909527e-01, -7.591992617e-01, 3.273991942e-01, 1.809771806e-01, 
    -1.359899521e+00, -2.931804359e-01, 2.901634872e-01, -1.065092564e+00, 
    -3.626593351e-01, -3.979387283e-01, 1.386154145e-01, -2.271385938e-01, 
    -1.012299299e+00, -5.394626260e-01, 3.689246476e-01, -1.915980279e-01, 
    -1.858341694e-01, 6.127221584e-01, -1.081703603e-01, -1.508145332e-01}, {-6.250278652e-02, -6.726643443e-01, -9.746019542e-02, -5.036957860e-01, 
    -1.959538609e-01, -2.950334847e-01, 2.745951712e-02, -6.565103680e-02, 
    4.631623626e-03, 5.831301808e-01, -1.484788537e+00, -6.141664982e-01, 
    -1.586073339e-01, 8.051889539e-01, -5.948365331e-01, 6.406019628e-02, 
    -1.357663274e-01, -2.954957485e-01, 5.483664274e-01, 6.894580126e-01, 
    7.617801428e-02, -1.559750438e-01, -2.501673251e-02, 4.812913239e-01, 
    6.240967512e-01, 8.866933733e-02, 3.928232938e-02, -4.398704767e-01, 
    -9.112322927e-01, -1.258670073e-02, -1.801342815e-01, -6.272322536e-01, 
    -8.117648959e-01, -3.508385718e-01, 3.892859817e-02, -6.910408735e-01, 
    -2.113880068e-01, -4.530621469e-01, 3.832769021e-02, -2.235122025e-01}, {-2.261012554e+00, 1.693536788e-01, 3.447188735e-01, -1.158836782e-01, 
    -1.506602168e+00, -4.107341468e-01, -1.308632612e+00, -3.655105531e-01, 
    2.261844277e-01, 2.747066021e-01, 3.549166620e-01, 3.463130295e-01, 
    -6.543674469e-01, 1.521332860e-01, 5.183862448e-01, 1.937642246e-01, 
    -2.131933905e-02, -2.096542418e-01, -1.175611734e+00, -3.563292325e-01, 
    2.279538512e-01, 6.847996265e-02, 1.940052956e-01, 2.725724876e-01, 
    -6.166825444e-02, 1.772819757e-01, -5.150300264e-01, -2.113115638e-01, 
    -1.216894269e+00, -9.121528827e-03, 3.170702755e-01, -1.045946360e+00, 
    2.748902887e-02, 2.757240534e-01, -3.800253570e-02, -1.781466126e+00, 
    -4.579919875e-01, 3.210499883e-01, -7.561032772e-01, -8.430463672e-01}, {-2.160189390e+00, -3.386774063e-01, 1.902361810e-01, -3.380225599e-02, 
    -7.921040058e-01, -2.718734555e-02, -5.196074843e-01, -5.015928745e-01, 
    5.684353113e-01, 2.515464723e-01, -1.352488041e+00, 4.098343849e-01, 
    -6.237900853e-01, 4.718978703e-01, 6.832399368e-01, 1.182394743e+00, 
    3.818610609e-01, -1.437309504e+00, -1.867692769e-01, -6.301674247e-01, 
    4.793606400e-01, 6.224175170e-02, -3.637262434e-02, 6.648329496e-01, 
    -6.660261154e-01, -1.804530919e-01, -4.135281146e-01, -1.333760917e-01, 
    -9.020980000e-01, -2.182912454e-02, -4.193034768e-01, -1.422008634e+00, 
    -6.802161336e-01, 6.781359762e-02, 1.575013250e-01, -2.481139898e+00, 
    -3.777454793e-01, -1.842956096e-01, -8.268981576e-01, -2.624531090e-01}, {-1.284194440e-01, -1.255428910e+00, 8.544018865e-02, -1.196906641e-01, 
    1.107755378e-01, 2.776053250e-01, 9.285175055e-02, 2.781973220e-02, 
    -4.524146765e-02, 7.712772489e-02, 1.585715413e-01, 9.488036484e-02, 
    2.619641721e-01, -4.554266036e-01, 1.366185993e-01, -1.967734098e-01, 
    -2.937574089e-01, -2.794398367e-02, 5.780697241e-02, -2.211559564e-01, 
    -1.143905614e-02, -1.852812767e-01, 2.450001091e-01, -2.587788999e-01, 
    5.638967827e-02, 3.612886667e-01, -2.153742164e-01, 2.356986851e-01, 
    -2.547841072e-01, 1.476745903e-01, -1.803076267e-02, 1.956996880e-02, 
    -1.330410838e-01, -4.300661981e-01, 9.637529403e-02, 1.331473291e-01, 
    3.473158181e-01, -6.097071767e-01, -2.505569756e-01, 5.354592577e-02}, {-2.289132327e-01, 6.199248433e-01, -5.849458575e-01, -2.915104926e-01, 
    -3.142818213e-01, 2.610087097e-01, -1.564113647e-01, 1.622722447e-01, 
    4.851889312e-01, 7.946849465e-01, 2.518193126e-01, 7.673846185e-02, 
    2.708547711e-01, -7.850354910e-01, 1.420342177e-01, 4.267372191e-01, 
    -2.469212264e-01, 2.515935712e-02, -6.212125421e-01, -5.054575205e-01, 
    2.434156388e-01, -6.626724601e-01, -6.289744973e-01, -5.477796197e-01, 
    3.270466346e-03, -8.129593134e-01, 2.457812726e-01, 4.843997210e-02, 
    -7.796702981e-01, 1.387033612e-01, 6.003204733e-02, -1.668507978e-02, 
    -1.408144087e-01, 9.650512040e-02, -2.225098461e-01, -2.040923089e-01, 
    -4.615499675e-01, 4.349548519e-01, -2.851892076e-02, -3.450026810e-01}, {-6.044895947e-02, 2.199201882e-01, 1.243731752e-01, 1.138524786e-01, 
    -8.057392202e-03, -7.668110728e-01, 1.394160744e-02, -1.112201959e-01, 
    -2.066689283e-01, -1.424855292e-01, 1.164389960e-02, 7.984193414e-02, 
    -2.064815313e-01, -1.602545232e-01, 2.203261703e-01, -7.404589653e-02, 
    -1.910271943e-01, -6.903707236e-02, -2.481373549e-01, 1.548095644e-01, 
    2.785822451e-01, 2.206662744e-01, -1.219810128e+00, -2.223390788e-01, 
    1.600510925e-01, 3.209313154e-01, -6.146211177e-02, 3.301157355e-01, 
    -3.106455803e-01, 7.904635370e-02, -1.472215801e-01, 1.171066910e-01, 
    -1.698745638e-01, -2.646404505e-01, 5.802263021e-01, 4.995193481e-01, 
    2.357919514e-02, 5.439549088e-01, -3.719457984e-02, -1.256273091e-01}, {-1.327230632e-01, -3.002453148e-01, 6.354732513e-01, -3.256459255e-03, 
    -1.604742371e-02, -1.123930886e-01, 1.110482402e-02, -5.026907921e-01, 
    -1.526075482e+00, -6.878253818e-01, -6.635299325e-02, 2.237141132e-01, 
    2.391069382e-02, 4.056251347e-01, -2.716262341e-01, -4.577579498e-01, 
    -5.254571438e-01, 2.604452968e-01, 3.820684552e-02, -3.505850732e-01, 
    -1.389307976e+00, 2.860200107e-01, -2.458172143e-01, 8.296031952e-01, 
    1.864898950e-01, -1.651631147e-01, -2.585957944e-01, 8.083005250e-02, 
    3.878776729e-01, 1.532521695e-01, 1.531806886e-01, -5.643085837e-01, 
    -3.012488484e-01, 4.558561146e-01, -2.062113732e-01, 2.874419987e-01, 
    -2.781806886e-02, -4.811228514e-01, -2.434382737e-01, 2.711813748e-01}, {3.002144024e-02, -2.122895867e-01, 7.615979761e-02, -1.849462539e-01, 
    -2.913351404e-03, -2.553105056e-01, 1.223420128e-01, 7.616930455e-02, 
    -6.539931893e-02, -2.666277289e-01, 7.143992931e-02, 1.908544684e-03, 
    -6.018345058e-02, 8.088281006e-02, 1.152068749e-01, -2.926360443e-02, 
    5.632001162e-02, -7.911679149e-02, -6.914611906e-02, 8.572190255e-02, 
    7.642687857e-02, 2.307896130e-02, -2.954838574e-01, -3.013790548e-01, 
    4.307571799e-03, -1.819693297e-01, 3.601116538e-01, -2.138296701e-02, 
    1.907599866e-01, -9.843607545e-01, 1.820508987e-01, 3.469424322e-02, 
    -2.936634049e-02, 9.322388470e-02, 1.091232970e-01, 2.774668671e-02, 
    -2.042843588e-02, -3.634391427e-01, 9.073342197e-03, 4.775601253e-02}, {4.058112949e-02, 1.543560438e-02, 9.785768390e-02, -2.658559680e-01, 
    -8.184958249e-02, 4.368636608e-01, 1.549089402e-01, -1.707065552e-01, 
    3.691001236e-01, -4.754458368e-01, 8.966166526e-02, -3.922897205e-02, 
    -2.031988837e-02, -3.730323315e-01, -1.684027724e-02, 4.590979964e-02, 
    1.150904037e-02, -2.384790406e-02, -4.440377280e-02, -3.548860922e-02, 
    -1.894589216e-01, 2.343080789e-01, -2.293529212e-01, 1.598516703e-01, 
    -7.336851954e-02, 2.238206863e-01, -2.713628709e-01, -5.693730116e-01, 
    1.264279038e-01, 1.136661246e-01, -2.620047033e-01, -3.364024460e-01, 
    2.878803387e-02, -8.301892877e-02, 6.091682315e-01, 1.782887131e-01, 
    -3.104283810e-01, -6.000244021e-01, 2.013296448e-02, 6.341719627e-02}, {1.199697033e-01, 5.307622552e-01, -2.411921263e+00, -7.125273943e-01, 
    1.122619864e-02, -4.920471311e-01, -1.093206853e-01, 2.290208489e-01, 
    2.816036344e-01, 6.109760404e-01, -4.296483397e-01, 1.789963394e-01, 
    3.327132165e-01, -1.837645531e+00, -4.763446748e-01, 2.512965798e-01, 
    2.384534851e-02, 1.486740410e-01, 6.312133670e-01, -5.387238860e-01, 
    -2.006597966e-01, -7.183923721e-01, 7.511470914e-01, 1.703824848e-02, 
    -1.400805235e+00, 4.704344571e-01, 1.767283231e-01, -4.233840406e-01, 
    -1.341502070e-01, 1.179130822e-01, -4.216696024e-01, 1.215732917e-01, 
    -1.112432361e+00, 1.973159313e-01, -1.322321773e+00, -2.202952057e-01, 
    -7.305110991e-02, -8.013773710e-02, 5.877589062e-02, 1.366048455e-01}, {-9.990473837e-02, 2.277417108e-02, 3.136487007e-01, -1.019915938e+00, 
    1.352375895e-01, -4.465014935e-01, -2.695835531e-01, -1.454549193e+00, 
    -4.684318602e-01, 3.675054908e-01, -2.783411741e-01, -5.204184651e-01, 
    1.201158091e-01, 1.296393871e-01, 5.927358940e-02, 2.966528013e-02, 
    1.527343690e-02, -1.355221774e-02, 2.995783985e-01, -1.615153551e-01, 
    6.304382533e-02, 3.940364718e-01, -2.369327396e-01, -3.347392082e-01, 
    -1.211209819e-01, 6.780889034e-01, 5.959529281e-01, -1.401380152e-01, 
    -4.085414410e-01, -1.897961795e-01, 6.564610004e-01, -1.448720042e-02, 
    -1.483445615e-01, -2.233008295e-01, -4.726796150e-01, -1.514845639e-01, 
    -7.100481540e-02, 2.605049610e-01, -1.245910898e-01, -3.325988306e-03}, {-4.501828924e-02, -1.099804044e+00, -2.075240947e-02, 4.474844784e-02, 
    -5.250364542e-01, -1.105407178e-01, 6.959929317e-02, 3.298036456e-01, 
    -3.333650231e-01, 2.908978760e-01, -8.746681851e-05, -3.824158311e-01, 
    -1.441333294e-01, 2.733771205e-01, -1.201162040e-01, 1.562063694e-01, 
    -6.074779481e-02, 6.759341061e-02, 7.167801261e-02, -5.184920430e-01, 
    6.994794607e-01, -3.688609004e-01, -1.396745909e-02, 1.218044907e-01, 
    -6.472908705e-02, -9.162635803e-01, -1.782957166e-01, 1.419883817e-01, 
    -1.307413578e+00, 8.892311901e-02, 1.299635768e-01, 1.000587419e-01, 
    5.830730498e-02, 1.681739688e-01, -1.854139119e-01, -8.686217666e-01, 
    -1.390492171e-01, -1.723613143e-01, -1.113713458e-01, 2.615019381e-01}, {-8.744084239e-01, -1.100403190e+00, -5.308739468e-02, 2.140877098e-01, 
    -1.140611172e+00, -6.954787970e-01, 8.258204907e-02, -5.510173440e-01, 
    4.308115542e-01, -1.792941540e-01, -1.477803707e+00, 3.522880971e-01, 
    -9.324029088e-01, -5.576342344e-01, 3.377827704e-01, -1.754435450e-01, 
    1.981319636e-01, -4.159802496e-01, 1.600022018e-01, -1.191237688e+00, 
    -4.340758026e-01, 4.447501600e-01, -2.261317372e-01, -8.092527278e-03, 
    3.996887505e-01, 2.876257002e-01, -4.811552167e-02, 3.709131479e-02, 
    3.480219841e-01, -6.917078048e-02, -1.628726572e-01, -3.750697076e-01, 
    -1.486748099e+00, -1.820455492e-01, 2.800623178e-01, -8.472923636e-01, 
    8.876074553e-01, -1.121498108e+00, -8.080065846e-01, 2.804031372e-01}, {6.502236426e-02, 4.492120445e-01, -1.752562165e+00, -6.256446838e-01, 
    -1.724580526e-01, -2.697330713e-01, 1.185554080e-02, -5.290933326e-02, 
    6.092413664e-01, 6.655900478e-01, -2.344727665e-01, 3.718666732e-02, 
    3.665104806e-01, -4.029396474e-01, -1.444508672e+00, -1.053279191e-01, 
    8.404589295e-01, -7.900949568e-02, 3.504515886e-01, -6.323972344e-01, 
    -8.751062304e-02, 8.329248428e-02, -3.108092025e-02, -4.308908880e-01, 
    6.481446326e-02, 5.675985217e-01, -3.044413030e-01, -3.974632919e-02, 
    1.279451847e-01, 1.923796088e-01, 2.473459393e-01, 1.566105336e-01, 
    -1.938582398e-02, -9.214895368e-01, -1.498362720e-01, -7.538164258e-01, 
    -3.185296357e-01, -4.255319238e-01, 2.118474245e-02, 4.716624916e-01}, {2.088255016e-03, -5.984446406e-01, -8.743070066e-02, -3.448237479e-01, 
    1.576310210e-02, 6.482369453e-02, 1.067525893e-01, -1.059939787e-01, 
    3.660293818e-01, 2.700009644e-01, -2.167163640e-01, 6.884546578e-02, 
    8.145029843e-02, 1.218150482e-01, -8.935699239e-03, 1.092518419e-01, 
    6.086161733e-02, 1.449885219e-01, -1.116699055e-01, 3.667820618e-02, 
    4.956799001e-02, 2.334027439e-01, -8.581309915e-01, 4.553731531e-02, 
    -4.569385201e-03, -9.010328054e-01, -3.892138973e-02, -3.117016256e-01, 
    -7.943044603e-02, 1.321051270e-01, 2.709594369e-01, -1.057029590e-01, 
    2.217495441e-02, -2.316060513e-01, -1.915966421e-01, 3.618464619e-02, 
    -3.702822626e-01, -5.043276027e-02, -1.056670472e-01, -1.262402385e-01}, {-5.615956336e-02, 9.232430905e-02, 4.122241866e-03, 1.646501124e-01, 
    -5.006455630e-02, 3.184619918e-02, 1.876419187e-01, -5.862539634e-02, 
    -3.830271773e-03, 2.198280245e-01, -5.431586504e-02, -7.263074070e-02, 
    2.590383589e-01, -4.130908847e-02, -1.619039625e-01, 5.216876790e-02, 
    -1.910131276e-01, 1.241712794e-01, 2.373797894e-01, -1.526183635e-01, 
    -3.940267488e-02, -1.798018441e-02, -1.780544966e-01, 1.728478074e-01, 
    2.435436845e-02, -2.465815544e-01, 1.966995150e-01, 7.233598083e-02, 
    -2.394854650e-02, -6.381964087e-01, -2.712677121e-01, 5.305109546e-03, 
    1.553827338e-02, -1.015534275e-03, -1.463148147e-01, -1.101800203e-01, 
    4.045646787e-01, 7.754591107e-02, -3.844845295e-02, 8.126500994e-02}, {-2.413285337e-02, -3.267336264e-02, -1.237350777e-01, -4.187717661e-02, 
    -2.904475853e-02, 2.603253722e-01, 4.940591753e-02, -2.199939936e-01, 
    6.442232132e-01, -1.135755181e+00, -1.830130368e-01, -1.385015696e-01, 
    -1.559059620e-01, 4.301598072e-01, -1.630494893e-01, 1.064063907e-01, 
    6.930353045e-01, -1.719539613e-01, 1.248802319e-01, -4.784969613e-02, 
    -6.664840579e-01, 2.850201130e-01, -3.633423448e-01, 6.557100415e-01, 
    -3.288320005e-01, -3.121482730e-01, -1.979891360e-01, -1.327003717e+00, 
    1.828559488e-01, -1.590367407e-02, 8.501674533e-01, -3.716429323e-02, 
    -4.077555835e-01, 3.014857471e-01, -1.316483915e-01, -5.926091075e-01, 
    1.163938046e-01, 3.218601346e-01, 1.433269382e-01, 2.884439230e-01}, {-7.049618661e-02, -6.587671041e-01, 2.126139551e-01, -4.155098200e-01, 
    1.680027694e-01, -5.117025375e-01, -3.008797020e-02, -7.246450186e-01, 
    2.592842877e-01, 1.259955764e-01, -9.519975185e-01, -7.546793222e-01, 
    -1.979153007e-01, 2.635081708e-01, 3.676701784e-01, -4.105647206e-01, 
    1.222321950e-02, -1.526596844e-01, -1.349408776e-01, 5.821575224e-02, 
    2.960031331e-01, 3.348517120e-01, 1.244579256e-01, -6.758984327e-01, 
    -5.121094584e-01, -6.194676757e-01, -1.434233040e-01, -1.776972860e-01, 
    -7.005971670e-01, -1.367591023e-01, 5.352464318e-01, -7.364655733e-01, 
    5.473855734e-01, 3.678471148e-01, 2.689544857e-01, 4.277827963e-02, 
    1.576072723e-01, 2.726374567e-01, -1.998634636e-01, 1.076263309e+00}, {-7.290939242e-02, -1.404554546e-01, -3.835844994e-02, -2.858698964e-01, 
    -1.162728891e-01, 1.412655413e-01, -2.530865967e-01, -6.556604058e-02, 
    -1.721738279e-01, -2.804608345e-01, 9.865330160e-02, -7.390191406e-02, 
    -3.827620149e-01, -9.022193402e-02, 1.619645059e-01, -1.881629694e-03, 
    6.610914320e-02, -2.274781168e-01, -3.413833976e-01, 1.399815083e-01, 
    -2.610578239e-01, -5.388100743e-01, 3.996151984e-01, -2.881884873e-01, 
    3.943879902e-02, -1.885068715e-01, 9.091712832e-01, -2.763281167e-01, 
    -3.579933643e-01, 2.760331845e-03, -3.098751903e-01, -2.312422097e-01, 
    -2.303892225e-01, 1.709705591e-01, -1.725479662e-01, 1.486507338e-02, 
    -9.373569489e-02, 2.676173747e-01, -2.148685455e-01, -1.147485971e-01}, {1.220772415e-01, -1.296018213e-01, 3.017097414e-01, 9.598106146e-02, 
    -1.372225285e-01, 1.540825367e-01, 1.011600047e-01, -1.201634333e-01, 
    6.163893268e-02, -7.439858913e-01, -9.805776924e-02, 3.362922966e-01, 
    1.560205035e-02, 2.705741525e-01, 1.038728356e-01, -5.284506083e-01, 
    -1.921039075e-01, -7.941034622e-03, 1.125299037e-01, -1.746694446e-01, 
    -1.142377555e-01, 6.001564488e-02, -1.772862077e-01, -5.609173179e-01, 
    3.571976423e-01, 4.024363160e-01, -3.975199461e-01, 7.510748506e-02, 
    3.040044904e-01, 7.105764002e-02, -1.674433947e-01, -8.756225705e-01, 
    3.287589550e-02, -1.539431959e-01, 3.760142028e-01, 4.041295648e-01, 
    1.018041223e-01, -3.614963293e-01, -6.852344424e-02, -2.237877399e-01}, {-1.170068085e-01, -2.136864215e-01, 2.954637706e-01, -3.656688929e-01, 
    -1.241769791e-01, -3.924123645e-01, -9.056530893e-03, 1.579785347e-01, 
    -2.754620314e-01, -1.755338013e-01, 9.006506950e-02, -2.425759137e-01, 
    -3.053734899e-01, 1.498547494e-01, 1.154862195e-01, -1.688807309e-01, 
    3.158805193e-04, -1.244983003e-01, -2.448307276e-01, -3.151279688e-01, 
    1.526506096e-01, -1.074891463e-01, -2.975391448e-01, -2.027450949e-01, 
    -5.761614814e-02, -1.299967915e-01, 3.208379447e-01, -4.896676242e-01, 
    -2.237894833e-01, -6.286596507e-02, 3.365164995e-01, 6.773708761e-02, 
    -3.874555826e-01, -2.957393527e-01, 4.897340536e-01, -5.202005431e-02, 
    -2.126469761e-01, 5.101487637e-01, 3.033301048e-02, -5.596112832e-02}, {-2.285320759e-01, 3.033530712e-01, -4.161044657e-01, 9.903329611e-02, 
    -7.915010452e-01, 6.055395007e-01, -7.831335813e-02, -5.344884992e-01, 
    3.498139083e-01, -3.748400509e-01, -2.791663110e-01, 5.821822956e-02, 
    3.172293007e-01, 7.441996038e-02, -3.416743129e-02, 6.298226118e-01, 
    2.313147336e-01, -4.942772090e-01, 3.026731312e-01, -4.441890717e-01, 
    1.385468394e-01, 2.227795273e-01, -1.646891683e-01, 2.550827861e-01, 
    1.541666389e-01, -2.861867547e-01, -4.100722969e-01, -1.779776663e-01, 
    -5.266649723e-01, -3.837586194e-02, 1.015135497e-01, -6.909777522e-01, 
    -3.448618352e-01, 3.065327704e-01, -2.792881727e-01, -1.081300616e+00, 
    2.876534164e-01, -3.592359126e-01, -8.414708972e-01, 1.414623559e-01}, {-2.371082082e-02, -2.406658232e-01, -2.002867609e-01, -2.464735061e-01, 
    1.077623386e-02, 3.891682923e-01, 1.140992641e-01, -9.919165373e-01, 
    1.018733233e-01, -1.852561370e-03, 6.169365048e-01, 9.687227011e-02, 
    5.835080147e-02, 2.606983669e-02, -1.339480188e-02, 1.529374570e-01, 
    -4.219835401e-01, 3.744456917e-02, -3.562973142e-01, -7.394712567e-01, 
    1.535353810e-01, -5.730233788e-01, -4.494310319e-01, -4.371757060e-02, 
    -1.535457671e-01, 1.515056789e-01, -3.534522951e-01, 2.053312361e-01, 
    -1.106132567e-01, -4.062847700e-03, -2.781101465e-01, -2.050352097e-01, 
    -3.045277596e-01, 6.045598388e-01, 8.169424720e-03, 8.034480363e-02, 
    -2.965167761e-01, -8.509795070e-01, 1.047890559e-01, -4.830622673e-01}, {-6.269231439e-02, -2.169572264e-01, 2.408713698e-01, 3.569520712e-01, 
    -3.855354190e-01, -3.137999028e-02, 2.040897869e-02, -4.756675661e-01, 
    2.099095285e-01, -1.614690870e-01, -4.322839156e-02, 2.243230790e-01, 
    -8.777893335e-02, -5.942258984e-02, -2.874503434e-01, -8.188542724e-01, 
    1.734123677e-01, 2.181033604e-02, -2.779511511e-01, 1.541086882e-01, 
    -3.317943811e-01, -1.780794561e-01, -4.269150198e-01, -7.596368790e-01, 
    3.261566162e-02, 3.121547699e-01, -3.053560257e-01, 1.607490927e-01, 
    4.333251417e-01, 3.943893313e-02, -4.329341054e-01, -2.333373576e-01, 
    4.888948202e-01, -1.885310188e-02, 3.643324673e-01, 1.689763963e-01, 
    5.659702420e-01, 4.759489745e-02, 2.373340875e-01, 1.049100459e-01}, {-1.318126917e-01, -5.108139291e-02, -2.529055834e+00, -1.215411305e+00, 
    1.466301233e-01, -5.251645446e-01, -1.098526455e-02, 1.825919151e-01, 
    -8.077171326e+00, 1.038220823e-01, -4.371246696e-01, -2.640181184e-01, 
    1.115837991e-01, 1.755042523e-01, 6.388369799e-01, -2.871218324e-01, 
    3.909601867e-01, 4.436933398e-01, -3.134009838e-01, -9.218109399e-02, 
    -2.090598643e-01, -2.039703429e-01, 6.454887986e-01, -1.351435542e+00, 
    -8.556265235e-01, 1.360482454e+00, 1.687289029e-02, 6.037642360e-01, 
    9.477867186e-02, 1.884677559e-01, 4.391742051e-01, 7.806477696e-02, 
    1.399254203e-01, 6.841331720e-01, 2.307119966e-01, 4.324005842e-01, 
    -2.283708453e-01, 6.686420441e-01, -4.959172606e-01, 6.001020074e-01}, {6.680325605e-03, -4.484803602e-02, -2.389439344e-01, -2.504722178e-01, 
    2.019896731e-02, -3.436583579e-01, 1.016782746e-01, 2.889008224e-01, 
    -2.994675934e-01, 2.862415314e-01, 2.006555721e-02, -1.433803737e-01, 
    1.031923071e-01, 9.799337387e-02, -2.055816054e-01, 1.882115602e-01, 
    -1.928160898e-02, 6.179670990e-02, -1.942841709e-01, -1.402584016e-01, 
    -2.301339507e-01, -2.490661740e-01, -9.300805330e-01, -6.378242970e-01, 
    1.582668349e-02, -6.478092819e-02, -1.545017213e-01, 3.747408688e-01, 
    1.100522652e-01, 1.824500859e-01, 1.892839521e-01, 4.625173751e-03, 
    1.447074115e-01, 7.321400046e-01, -2.476018816e-01, -7.151245326e-02, 
    -4.575707316e-01, -4.069827795e-01, -8.658588678e-02, 7.567697018e-02}, {-1.531648263e-02, 1.136804670e-01, -1.645413041e-01, 5.030266047e-01, 
    -4.004789889e-02, -1.670836955e-01, -1.478403248e-02, -4.023598433e-01, 
    -4.891104400e-01, -1.503904932e-03, -1.031802535e+00, -1.202991366e+00, 
    5.389982462e-02, -2.627345361e-02, 2.712856829e-01, -1.697334461e-02, 
    -1.949641705e-01, -9.263524413e-01, 7.192547619e-02, -5.013425946e-01, 
    2.817247510e-01, 3.118437231e-01, 3.955426216e-01, 4.713870119e-03, 
    3.594223410e-02, -1.897706509e+00, -2.828756869e-01, -2.104949504e-01, 
    -3.610214293e-01, -4.578245059e-02, 6.376148462e-01, -1.203965783e+00, 
    -5.879391432e-01, -7.310997844e-01, -8.509124517e-01, 9.624834359e-02, 
    -2.591134608e-01, 1.443301290e-01, -3.527683616e-01, -2.646420524e-02}, {-2.327172041e+00, -1.501618028e-01, 3.598751128e-01, 6.889380217e-01, 
    -6.010115147e-01, -9.358120561e-01, -5.851971507e-01, -3.434384763e-01, 
    6.168667674e-01, 9.221906960e-02, -5.385429263e-01, 7.125651836e-01, 
    -5.456372499e-01, -6.902950257e-02, 7.594288588e-01, -1.574331760e+00, 
    -1.575745344e-01, 1.521289647e-01, -3.216818273e-01, -7.519437075e-01, 
    -1.552501798e+00, -8.320282698e-01, 2.745587230e-01, 2.369880229e-01, 
    3.742282093e-01, 5.153672695e-01, -5.203585625e-01, 5.712732673e-02, 
    -7.902523875e-01, -2.335095406e-01, -6.053992510e-01, -1.418023825e+00, 
    -9.273110032e-01, -5.583198667e-01, 5.185033381e-02, -1.458523631e+00, 
    -1.426654309e-01, -8.491685987e-01, -1.360396028e+00, -2.332911938e-01}}};

const float bias_hid_nz[NUM_HIDDEN_LAYERS-1][NUM_NODES] = {{1.333451569e-01, 2.835287154e-02, 8.089266717e-02, -9.581347108e-01, 
    -6.991332769e-02, -1.927735507e-01, -1.773326844e-01, -1.796654612e-01, 
    -2.453681827e-01, 1.817165613e-01, -2.539550960e-01, 3.371604681e-01, 
    2.480961084e-01, 1.409421563e-01, 7.370114326e-02, -2.563384771e-01, 
    2.124449164e-01, -8.443044126e-02, 1.827236265e-01, -4.917423427e-01, 
    -6.196365356e-01, 6.332539022e-02, -2.894769050e-02, 1.352512836e-01, 
    -4.847490415e-02, -1.830442809e-02, -3.971256912e-01, -3.083616197e-01, 
    -2.895728052e-01, -5.545668006e-01, 4.257005453e-01, -5.655780435e-01, 
    1.963643879e-01, 3.398076072e-02, -1.934091747e-01, -3.008034527e-01, 
    -6.769044995e-01, -1.419333667e-01, 3.634292781e-01, -1.263741986e-03}};