#include "nn_parameters.h"

const int num_nodes_vec[NUM_LAYERS] = {10, 40, 40, 4};

// NN network parameters -- atribute values
const float weights_in[NUM_NODES][NUM_STATES] = {{-4.208259284e-01, 3.252952993e-01, 8.894558996e-02, 6.423622131e+00, 
    -1.280562133e-01, 8.840091228e-01, -1.150436759e+00, 4.296838939e-01, 
    1.226237416e+00, -2.296301126e+00}, {1.750758290e-01, 1.886996031e+00, 1.204177067e-01, 1.669671774e+00, 
    4.134370327e+00, -1.557978630e+00, -9.913145900e-01, 2.156584263e+00, 
    -1.587591648e+00, -1.308968216e-01}, {-1.683038473e-02, 2.383071631e-01, -5.969413742e-02, 5.257607996e-02, 
    -7.552632093e-01, -8.320873976e-02, -1.124889851e+00, 6.062563658e-01, 
    7.849820703e-02, 1.603505969e+00}, {1.464862823e+00, -7.239398360e-01, 6.540530920e-02, 9.038741589e-01, 
    -3.886441588e-01, 1.028407887e-01, 1.645564556e+00, -1.114324555e-01, 
    -1.130616991e-03, -1.518267989e+00}, {-1.110479474e+00, -5.024437904e-01, 1.237253845e-02, -4.249845147e-01, 
    -2.519505024e-01, 1.407479867e-02, 8.103793263e-01, 6.631354988e-02, 
    -2.156905085e-01, 1.968157291e-01}, {-6.183367223e-02, -1.022620350e-01, 7.092927396e-02, -2.033409595e+00, 
    2.509161949e+00, 9.580144882e-01, -6.995983124e-01, -1.476759315e+00, 
    4.190124273e-01, 5.119795203e-01}, {5.256868005e-01, 1.681117341e-02, -2.783862874e-02, 5.260339379e-01, 
    3.218826950e-01, -5.079549551e-02, 5.347996950e-01, -1.197855100e-01, 
    3.458278775e-01, 8.009578586e-01}, {9.068637490e-01, 9.110911489e-01, 3.001129925e-01, -3.939999640e-02, 
    -8.969622850e-02, -2.795051336e-01, 4.763259888e-01, 6.492675543e-01, 
    1.558014035e+00, -2.293957472e-01}, {5.392590165e-01, 2.309016436e-01, 7.442049384e-01, 5.989500880e-01, 
    -1.831177026e-01, 7.430521846e-01, 8.397812955e-03, -3.286103904e-02, 
    -1.436268240e-01, 1.116036057e+00}, {5.450739861e-01, -3.602888584e-01, -1.610919982e-01, -4.374960959e-01, 
    -1.094452739e+00, 3.685814738e-01, 1.542686105e+00, 2.117553473e+00, 
    -1.200505137e+00, -3.791733980e-01}, {-9.015744925e-02, -4.427245855e-01, -2.091640979e-01, -6.743665934e-01, 
    -2.668226659e-01, -2.476568371e-01, -1.947545558e-01, -2.567768991e-01, 
    8.134732395e-02, 1.647519827e+00}, {8.116699219e+00, -2.487679243e+00, 4.212732613e-01, 3.776746988e-01, 
    2.150661469e+00, -6.054246332e-03, -1.831842065e+00, -7.566484213e-01, 
    6.012906879e-02, -1.165392637e+00}, {-9.061986804e-01, 2.617752552e+00, 5.958854407e-02, 8.253404871e-03, 
    1.223769546e+00, 2.451792243e-04, 3.100651503e-01, -3.216112256e-01, 
    -6.504108012e-02, 1.270240545e+00}, {2.180141956e-01, -3.311476707e-01, -1.014653444e-01, 4.305903018e-01, 
    -8.880190849e-01, -9.642559290e-02, -5.148898959e-01, 1.185425594e-01, 
    2.882436514e-01, -1.828745008e+00}, {-1.967098117e-01, 6.076585650e-01, 7.941575348e-02, -2.923596501e-01, 
    4.806952477e-01, 1.205068380e-01, 1.500563979e+00, -2.705446780e-01, 
    -6.729629636e-02, 7.715966105e-01}, {-2.235794216e-01, -2.067821503e+00, 2.666357756e-01, -5.154107809e-01, 
    1.754292399e-01, 2.072116435e-01, 3.117446974e-02, 2.093367837e-02, 
    -3.171902299e-01, 4.666936398e+00}, {7.167464495e-02, 1.582097448e-02, 3.660607636e-01, 2.810556889e-01, 
    -5.791265965e-01, 2.879445553e-01, -1.049909830e+00, 8.480248451e-01, 
    8.887081146e-01, -2.559578419e-01}, {1.985453367e-01, 2.736093104e-01, 1.628870070e-01, -5.771452188e-01, 
    -9.989550114e-01, 8.083886653e-02, 4.248733222e-01, 1.206260547e-01, 
    -2.849140465e-01, -4.063574597e-02}, {1.442177445e-01, -6.813299656e-02, 1.320024878e-01, -1.187765956e+00, 
    -6.389095783e-01, 1.041403040e-01, -1.411497831e+00, 1.772282422e-01, 
    -1.366086304e-01, -1.099098176e-01}, {-7.458033562e-01, -1.163645610e-01, -4.470558167e-01, -5.559813380e-01, 
    4.630332887e-01, -5.502972007e-01, 1.485373918e-02, -5.796652436e-01, 
    6.340740919e-01, -8.112663627e-01}, {-1.416624188e-01, 7.293713093e-02, 5.300254226e-01, 8.485653400e-01, 
    1.290604919e-01, 6.436374187e-01, 2.665213048e-01, 6.063554287e-01, 
    2.783309221e-01, -4.425444901e-01}, {-8.338199854e-01, -1.842029929e+00, 1.965879202e-01, -9.638626575e-01, 
    -9.431433082e-01, 2.820557356e-01, 2.482014179e+00, 1.543360949e-01, 
    -1.885006130e-01, -1.413933873e+00}, {-4.908031821e-01, -1.204728410e-01, -4.005007446e-01, -5.615842342e-01, 
    3.003650904e-02, -8.340864778e-01, -4.956431687e-01, 7.341694236e-01, 
    9.306348562e-01, -7.719696760e-01}, {-8.106511235e-01, 6.070585251e-01, 1.040645465e-01, -1.878297806e+00, 
    4.015469551e-01, 2.403028458e-01, 1.438216567e+00, 6.839196384e-02, 
    -7.680909634e-01, -1.939225554e+00}, {3.734039664e-01, -1.283115707e-03, -4.047260284e-01, -9.373220801e-02, 
    -5.657601357e-01, -7.780294418e-01, -3.500750363e-01, -1.588162541e+00, 
    -1.121705055e+00, -3.005574644e-02}, {-1.212205098e-05, 1.890266389e-01, 9.250525832e-01, -2.262621522e-01, 
    3.204250336e-01, 8.770324588e-01, -4.244177341e-01, -6.118326783e-01, 
    -2.105220407e-02, -7.410265207e-01}, {-1.073293567e+00, 9.996574521e-01, -1.035103053e-01, -5.900938511e-01, 
    -4.507553577e+00, 1.160395622e+00, -1.882619143e+00, -4.088471830e-01, 
    -2.275333166e+00, -1.276381969e+00}, {-3.697085679e-01, 9.533862472e-01, 2.178878337e-01, -1.350460172e+00, 
    -7.431844473e-01, 5.347709730e-02, -1.322193861e+00, 2.361690253e-01, 
    -4.628337920e-01, 9.223508835e-01}, {6.524478793e-01, 9.041509032e-01, 7.691136003e-02, 2.818852663e-01, 
    4.152991772e-01, -2.388278842e-01, -9.659644365e-01, -2.458474934e-01, 
    3.962253332e-01, 6.412760019e-01}, {-4.459079504e-01, -1.677547246e-01, -1.236484125e-01, -4.474749267e-01, 
    -7.043790817e-02, -1.884106249e-01, 2.984858751e+00, 1.960327178e-01, 
    -4.711224437e-01, 1.269319281e-02}, {3.880965412e-01, -5.963709354e-01, -1.631856114e-01, -6.802066229e-03, 
    -2.682104111e-01, -3.854647875e-01, -8.965016007e-01, -2.848986909e-02, 
    -7.568199635e-01, -2.398301065e-01}, {2.813688993e+00, -3.034844160e+00, -5.719472840e-02, 1.185033202e+00, 
    -1.922294378e+00, 1.470335107e-02, 2.779452801e-01, 2.688438892e-01, 
    2.579053640e-01, 8.988735676e-01}, {-6.353083611e+00, -5.642488003e+00, 5.226469040e-02, -2.212388277e+00, 
    -1.768353939e+00, 1.415224522e-01, -3.857560754e-01, 3.897830844e-01, 
    -5.239361525e-01, 1.199011952e-01}, {1.666010469e-01, -1.747265756e-01, 2.322296798e-01, -1.178786084e-01, 
    8.323242664e-01, 3.316628039e-01, 1.107311964e+00, -5.549286008e-01, 
    4.450055659e-01, 1.467023939e-01}, {-1.616267264e-01, 6.256802082e-01, 6.826525927e-02, -3.639634550e-01, 
    -1.196526170e+00, 4.019758478e-02, -3.360791802e-01, 9.389162064e-01, 
    7.355886698e-01, 2.425814152e+00}, {-3.615982533e-01, 1.521854043e+00, 9.967023879e-02, -2.799334288e+00, 
    -2.043116570e+00, 1.597100049e-01, -1.586486578e+00, 9.933349490e-01, 
    -6.854645014e-01, -1.957895756e+00}, {1.983806044e-01, -2.944628000e-01, -1.644784689e+00, -2.311308309e-02, 
    -2.832677662e-01, -1.824064374e+00, -1.559957862e-02, 1.763201654e-01, 
    7.272879779e-02, 1.673371047e-01}, {4.145632982e-01, 1.602773786e+00, 1.244091243e-01, 6.161005497e-01, 
    5.674030185e-01, 2.615354769e-02, -7.108587027e-01, 9.661639482e-02, 
    5.667109415e-02, -4.962403178e-01}, {-4.871339798e-01, -9.302588701e-01, 3.949891627e-01, -3.894048035e-01, 
    -9.273548126e-01, 4.069929719e-01, 1.905533552e+00, -1.279210597e-01, 
    -2.951446474e-01, 4.536100030e-01}, {1.275360465e+00, -7.406397462e-01, -2.600173652e-02, 8.075048029e-02, 
    -2.683117986e-01, 4.769177642e-03, 1.398110271e+00, 4.269942045e-01, 
    -3.188932538e-01, 8.692722917e-01}};

const float bias_in[NUM_NODES] = {7.867122889e-01, -9.043774009e-01, -2.203761134e-03, 4.837033339e-03, 
    7.548485696e-02, 7.059301734e-01, 7.197964936e-02, -2.222741246e-01, 
    3.698774613e-03, -7.903201133e-02, 1.198503301e-01, 1.287597418e+00, 
    4.661475420e-01, 3.270394802e-01, -7.077883929e-04, 1.163420305e-01, 
    2.497314662e-01, 7.886803150e-02, -1.446237266e-01, 3.163161129e-02, 
    -1.786503345e-01, 3.349119723e-01, -3.363372684e-01, -3.082783818e-01, 
    -4.977193177e-01, 1.207767949e-01, 1.044403315e-01, 4.601226449e-01, 
    2.381601781e-01, -2.098044753e-01, -9.476207942e-02, -1.948274672e-01, 
    -3.955745101e-01, 1.057426035e-01, -1.291726381e-01, 1.269979030e-01, 
    -7.532101274e-01, 6.002142429e-01, 1.852454692e-01, 2.761733830e-01};

const float weights_out[NUM_CONTROLS][NUM_NODES] = {{9.192926809e-03, -3.355379775e-02, -9.258220904e-03, 6.022762042e-03, 
    -6.866438780e-03, 1.827114448e-02, -1.067583635e-02, -2.302642242e-04, 
    4.330978543e-02, -4.476599023e-02, -5.238857493e-02, 2.095904201e-02, 
    2.973926719e-03, -6.669725408e-04, 3.950380255e-03, -2.919093240e-03, 
    -8.643840440e-03, 2.106622420e-02, -1.081886515e-01, -6.688494980e-02, 
    1.776148081e-01, -3.337672725e-02, -3.312821314e-02, -1.257199096e-03, 
    -3.469374729e-03, -3.741050372e-03, -3.840894904e-03, 4.314639792e-02, 
    8.326898515e-02, -2.717724768e-03, -2.592564374e-02, -1.607641578e-02, 
    3.419239656e-04, -8.465869352e-03, -8.804883808e-03, -5.946153402e-02, 
    -3.764102235e-02, -1.817988977e-02, -1.949803345e-02, -2.349262498e-02}, {1.071954250e+00, 4.766220450e-01, 3.106856719e-02, -1.206088305e+00, 
    1.587888002e-01, 2.321714014e-01, -2.148269117e-01, 7.645938545e-02, 
    1.083289459e-01, 6.068392470e-02, 7.476820052e-02, -7.263868451e-01, 
    1.012713686e-01, -7.980648428e-02, 4.976620525e-02, 3.230528906e-02, 
    3.109402955e-02, -6.432542950e-02, 1.583896875e-01, -2.023356110e-01, 
    -1.534288973e-01, 3.224557042e-01, 3.083904982e-01, 1.717215180e-01, 
    4.052005410e-01, -5.479300767e-02, -2.088576406e-01, -2.333961874e-01, 
    1.718555689e-01, -1.929957233e-02, -1.162539572e-01, 2.793554068e-01, 
    1.573542506e-01, 1.372577846e-01, -1.928778291e-01, -1.833613664e-01, 
    -1.073672920e-01, -3.304926157e-01, -3.801526129e-01, -2.649571002e-01}, {4.000502825e-01, 2.813661657e-02, 1.657005847e-01, 5.939515829e-01, 
    2.375694215e-01, -2.216682881e-01, -1.266560197e+00, 3.672525585e-01, 
    8.395289071e-03, 1.454272717e-01, 5.959532857e-01, 8.889982104e-02, 
    -1.773866713e-01, -1.535265297e-01, 1.063841805e-01, -1.598304808e-01, 
    -2.286859090e-03, -1.599822789e-01, -7.987814397e-02, -1.625182480e-02, 
    7.550455164e-03, 4.138366878e-01, 2.547892928e-01, -3.142060041e-01, 
    5.447533727e-02, -2.367356233e-02, -1.127857044e-01, -2.349722534e-01, 
    4.293682054e-02, 7.360879332e-02, -3.884944916e-01, 1.321459264e-01, 
    3.641973436e-01, -2.304438651e-01, -1.695770323e-01, 8.082488924e-02, 
    -7.862490602e-03, 4.187497869e-02, -7.398222089e-01, 1.022825250e-03}, {-1.075946331e+00, 6.124723554e-01, 9.359683841e-02, -5.575082898e-01, 
    3.129118308e-02, -1.997728460e-02, -1.783581674e-01, -2.219153643e-01, 
    -6.574519724e-02, 8.823542856e-03, -6.673192978e-01, 4.937022030e-01, 
    -5.327309370e-01, 5.976524204e-02, 8.403394371e-02, -2.443649434e-02, 
    -8.337096572e-01, 6.168142557e-01, -2.004578710e-02, 7.754687220e-02, 
    2.088621259e-02, 2.250703275e-01, -7.934873551e-02, -3.684458137e-02, 
    8.668562770e-02, 1.056104302e-01, 3.380017877e-01, -1.056919992e-01, 
    3.960488364e-02, 2.237732887e+00, 1.981745064e-01, 5.534773692e-02, 
    2.032639980e-01, 1.021515131e-01, 1.005226299e-01, -1.863292158e-01, 
    3.120133886e-03, -1.720573567e-02, -5.658354759e-01, -7.331815362e-02}};

const float bias_out[NUM_CONTROLS] = {1.048645228e-01, 6.944580469e-03, 3.605169803e-02, -8.292311803e-03};

const float in_norm_mean[NUM_STATES] = {-1.456817839e-01, -5.640854844e-02, 9.319167109e-04, 5.276871435e-02, 
    2.352283271e-02, 2.604369523e-03, 8.731440704e-01, -2.337966422e-02, 
    2.244334113e-02, 9.054734281e-03};

const float in_norm_std[NUM_STATES] = {3.854866943e+00, 3.836126845e+00, 2.395262067e-01, 1.403516793e+00, 
    1.400417914e+00, 3.110368816e-01, 1.779915574e-01, 5.937459824e-02, 
    5.835690162e-02, 4.448225314e-01};

const float out_norm_mean[NUM_CONTROLS] = {2.014911400e-02, -1.548476865e-04, -1.721508161e-06, -7.888744725e-03};

const float out_norm_std[NUM_CONTROLS] = {2.936122444e-01, 1.613998343e-01, 1.604458942e-01, 2.983467408e-01};

const float out_scale_min[NUM_CONTROLS] = {-9.612735417e+00, -1.072913515e+01, -1.004144891e+01, -4.306256478e+00};

const float out_scale_max[NUM_CONTROLS] = {9.544011293e+00, 9.311048294e+00, 1.046445346e+01, 3.762453956e+00};

const float weights_hid[NUM_HIDDEN_LAYERS-1][NUM_NODES][NUM_NODES] = {{{-1.213473797e+00, -9.075533152e-01, -4.248503745e-01, -1.685177088e-01, 
    4.543167651e-01, -1.009619117e+00, -6.968044490e-02, -4.279090166e-01, 
    -1.280111372e-01, 2.238154858e-01, -4.406674951e-02, -1.319364548e+00, 
    -6.374170631e-02, -3.723146021e-01, 6.434013247e-01, -3.669048250e-01, 
    -4.888316095e-01, -1.743582040e-01, -2.449450642e-01, -7.517895103e-02, 
    7.228227705e-02, 5.961628556e-01, -2.106580883e-01, 6.226303577e-01, 
    -4.753003418e-01, 3.138819635e-01, -1.128110766e+00, -3.132088184e-01, 
    -3.231497109e-01, 6.494465470e-01, 4.396916181e-02, -5.841030478e-01, 
    -1.213550925e+00, 3.909507990e-01, -5.557807088e-01, -7.886667252e-01, 
    -3.347008228e-01, -2.000104636e-01, 7.753959298e-02, 3.928733468e-01}, {-2.037752718e-01, -3.210375905e-01, 8.496494032e-03, -1.297262460e-01, 
    2.356605530e-01, -4.267053604e-01, 3.909155130e-01, -3.667195439e-01, 
    -1.785073280e-01, -5.393301249e-01, 2.354063690e-01, 7.071531843e-03, 
    2.655272745e-02, 7.164124399e-02, -1.820499301e-01, 1.439645290e-01, 
    -7.999008298e-01, -2.969822586e-01, -9.901256114e-02, -1.462743640e+00, 
    -1.952897757e-01, 1.426734626e-01, -9.229304194e-01, -4.180128872e-01, 
    -8.969219923e-01, -2.703368962e-01, -2.605389357e-01, 3.246533871e-01, 
    2.910790443e-01, 5.501145720e-01, -4.244689345e-01, -9.187490493e-02, 
    -7.153359056e-02, 2.783918753e-03, -6.825354695e-02, -1.557961255e-01, 
    -6.851206720e-02, 3.856482804e-01, -2.842523456e-01, 5.057686567e-01}, {7.099213079e-03, 9.134533256e-02, -6.951594353e-01, 4.714796692e-02, 
    -3.943970799e-01, 5.925307795e-02, -5.492327213e-01, 1.393070221e-01, 
    -1.564408392e-01, 2.034793235e-02, 6.232359633e-02, 7.247328013e-02, 
    -2.480865084e-02, 3.543935716e-02, -1.084781215e-01, -2.201377004e-01, 
    -4.231922030e-01, -3.019952774e-02, -1.493849307e-01, 1.979521513e-01, 
    2.746257782e-01, -5.829992145e-02, -1.453881413e-01, 3.166880906e-01, 
    4.231595248e-02, 7.102280855e-02, -2.152934484e-02, 1.778656840e-01, 
    -1.433469206e-01, 2.086718450e-05, 2.025981992e-01, -1.189078912e-01, 
    8.205568418e-03, 2.832103521e-02, 1.867180318e-01, -1.576767564e-01, 
    3.603264689e-02, -1.300770342e-01, 1.094329879e-01, -2.399399132e-01}, {-1.196657777e+00, -1.159269094e+00, -3.318344057e-01, -1.704880297e-01, 
    3.579623103e-01, -9.228321910e-01, -5.081027374e-02, -4.222774804e-01, 
    -9.239194915e-03, 6.897007823e-01, 2.079150230e-01, -1.440949559e+00, 
    -8.679345846e-01, 3.268742561e-02, 1.524396427e-02, -2.459912188e-02, 
    -7.147510350e-02, 9.322230518e-02, -1.578543484e-01, -1.969654113e-01, 
    -3.623608053e-01, 8.002362847e-01, -9.557983279e-02, 4.233418405e-02, 
    -5.764662623e-01, -2.089282498e-02, -1.106092930e+00, -3.805413246e-01, 
    -1.546071768e-01, 5.574604869e-01, 2.132752687e-01, 2.061753720e-01, 
    -9.405865073e-01, -1.931530088e-01, -9.666602015e-01, -4.826456904e-01, 
    2.155464739e-01, -5.011666417e-01, 4.879151583e-01, 4.529844970e-02}, {1.036657486e-02, 9.996227175e-02, -9.526151232e-03, -2.320213765e-01, 
    1.587397754e-01, 9.832527488e-02, -4.673919082e-01, -6.129130721e-02, 
    1.456371844e-01, 6.679117680e-02, 5.980339646e-02, -5.264538527e-02, 
    -1.223419979e-01, -1.322894216e+00, -2.775719389e-02, -1.149709970e-01, 
    2.633204460e-01, 2.277870327e-01, -2.949743569e-01, -3.864413798e-01, 
    -4.256504774e-01, 4.281551018e-02, -1.395888031e-01, 9.875616431e-02, 
    2.486856468e-02, -1.607145816e-01, -6.614688318e-03, 1.606579721e-01, 
    -2.490741909e-01, -1.517136991e-01, 1.766111851e-01, 1.675670594e-01, 
    -6.925416179e-03, 3.074854612e-01, 4.462688789e-02, 4.948241264e-02, 
    2.624826729e-01, -2.356639355e-01, 2.708008587e-01, -3.858920187e-02}, {4.581975192e-02, 4.639519379e-02, 1.231621578e-01, 1.403202266e-01, 
    -5.461136699e-01, 4.206264764e-02, -1.208822131e-01, 2.302145660e-01, 
    9.582133964e-03, 6.009265780e-02, -3.096707724e-02, -2.111327276e-02, 
    -4.008300137e-03, 4.165119678e-02, 4.788896441e-01, -1.914867200e-02, 
    2.716192976e-02, -5.124784261e-02, 2.119117230e-02, 8.982578665e-02, 
    -1.568411104e-02, -9.882942587e-02, -4.312117398e-02, -2.499434948e-01, 
    2.651298605e-02, -8.402685076e-02, -4.006708041e-03, -1.234709769e-01, 
    1.335435361e-01, 3.860494494e-02, -1.450091898e-01, -1.101342440e-01, 
    -6.578740478e-02, 5.199864134e-02, -1.904392689e-01, 1.345834881e-01, 
    1.144612283e-01, -3.629137874e-01, -1.428683288e-02, -7.622129470e-02}, {-1.140801787e+00, -8.360525966e-01, 9.588906914e-02, 1.031479955e+00, 
    -3.920805454e-02, -8.830472231e-01, 2.281828821e-01, -1.623030901e-01, 
    2.019552290e-01, 2.298911959e-01, 1.168673113e-02, -9.679772854e-01, 
    -6.255182624e-01, 5.057264566e-01, 4.304355383e-02, -5.994521976e-01, 
    -3.242357075e-01, -1.577657163e-01, -6.424996853e-01, -7.268810868e-01, 
    4.455334544e-01, 4.780177772e-01, -7.682712674e-01, -4.887125492e-01, 
    -8.796289563e-01, -8.639630675e-02, -1.142147064e+00, -2.784575820e-01, 
    -2.880444825e-01, 2.216695249e-01, -6.331785023e-02, 1.346728504e-01, 
    -6.062014103e-01, -1.744303703e-01, -5.636830926e-01, -1.293915868e+00, 
    3.881483376e-01, 3.532553613e-01, 5.834555626e-01, 3.987017870e-01}, {-4.916537553e-02, -3.791848198e-02, -2.026888877e-01, -2.366444618e-01, 
    3.933789954e-02, -1.060616039e-02, -1.499558091e-01, -4.173362255e-02, 
    -4.025229067e-02, -2.936597764e-01, 5.383735523e-02, -3.597817570e-02, 
    -2.371581495e-01, -1.895397156e-01, 4.984670877e-02, 1.148146018e-01, 
    -1.712508351e-01, 2.338384390e-01, 3.601185605e-02, -2.919896543e-01, 
    -9.093011729e-03, 1.308761537e-01, 7.173110545e-02, -1.497208327e-01, 
    -6.320076436e-02, -8.624884486e-02, -7.769317832e-03, -9.999281168e-02, 
    2.107809931e-01, -1.262994558e-01, 2.050104924e-02, -8.894323558e-02, 
    -4.939751327e-02, 1.296938956e-01, -7.922962308e-02, 3.638076782e-02, 
    3.561978415e-02, 4.800591245e-02, -1.997593641e-01, -2.398459166e-01}, {-5.516571924e-02, 5.997990258e-03, 3.286698088e-02, -1.335884482e-01, 
    -1.604441702e-01, 4.926205426e-02, 7.659879327e-02, -1.280902773e-01, 
    2.404306382e-01, -3.793754382e-03, 7.543107867e-02, 2.748772502e-02, 
    5.341327190e-02, 9.399186075e-02, 3.703828156e-02, -2.906852961e-02, 
    1.242515370e-01, -8.993158489e-02, 1.029538065e-01, 1.381075829e-01, 
    -4.237946868e-01, -8.395039290e-02, -1.491988805e-04, -1.936136335e-01, 
    -5.478291214e-02, -2.401342839e-01, -6.448522327e-04, -1.840969361e-02, 
    -1.411423683e-01, 1.270219237e-01, 1.150382236e-01, 7.119926065e-02, 
    2.257154509e-02, -3.338449001e-01, -2.655933425e-02, -7.398644090e-02, 
    1.738640666e-01, -4.141645506e-02, 1.526167095e-01, -2.681226730e-01}, {2.358378842e-02, -4.309160635e-02, 5.316019803e-02, -2.157900780e-01, 
    2.879135907e-01, -3.368163481e-02, -4.688874483e-01, 1.161433086e-01, 
    -4.608958028e-03, 3.269907460e-02, -1.341260076e-01, 1.355165336e-02, 
    -1.567067355e-01, -1.841876805e-01, -1.223528832e-01, 1.643864065e-01, 
    7.736138999e-02, 1.567754596e-01, -5.387670547e-02, -1.477777679e-02, 
    1.314535588e-01, -2.101835757e-01, -1.014192998e-01, 1.119200289e-01, 
    8.440881222e-02, 3.526563048e-01, 2.976177819e-02, -2.637013197e-01, 
    -2.193096876e-01, 1.091477647e-01, 9.009808302e-02, 5.775163695e-02, 
    -3.303165361e-02, -1.841874979e-02, 1.078409255e-01, 1.241678465e-02, 
    6.615020335e-02, 2.881629765e-01, -4.709987715e-02, -1.143361181e-01}, {-1.495112181e-01, -1.502389908e-01, 3.412030339e-01, 7.944992781e-01, 
    -5.556215644e-01, -5.311883092e-01, -1.212995946e-01, -8.184991479e-01, 
    -6.677905321e-01, -6.300153732e-01, -3.747524321e-01, 8.211044595e-03, 
    -2.539214790e-01, 4.919356108e-01, -8.401177824e-02, 1.530257910e-01, 
    2.472443432e-01, 4.675534740e-02, -3.019228578e-01, -1.683366299e-01, 
    -3.756223321e-01, 2.500524521e-01, -2.146621048e-01, 2.388421446e-01, 
    -1.148061037e+00, -4.688823223e-01, -9.828702360e-02, -2.329040915e-01, 
    2.474052012e-01, 4.880809411e-02, -2.617309988e-01, -2.627337873e-01, 
    5.649107695e-02, -6.435836107e-02, -3.027956188e-02, 7.778027654e-02, 
    -4.178667665e-01, 1.785597056e-01, -6.955083609e-01, 2.009986639e-01}, {-1.779679507e-01, -3.236670792e-01, -1.043752059e-01, -2.098721266e-01, 
    3.586558700e-01, -4.381436706e-01, 4.278387874e-02, 2.243471146e-01, 
    -1.328018010e-01, -4.070688188e-01, 4.565632045e-01, -7.529453933e-02, 
    3.193899691e-01, -4.819146693e-01, -4.760697484e-02, 1.064698696e-01, 
    -7.125040293e-01, -3.125213087e-01, 3.814323545e-01, -4.116523564e-01, 
    1.062370837e-01, -3.475355208e-01, -1.399487853e+00, -1.945568174e-01, 
    -6.668282747e-01, -3.737026453e-01, -2.230884433e-01, 2.216100991e-01, 
    -1.494800765e-02, 5.912679434e-01, 1.703836173e-01, -3.294597566e-01, 
    -2.612356283e-02, -7.311295718e-02, -1.430151314e-01, -1.908045411e-01, 
    -2.611370087e-01, -8.146893233e-02, -5.112340450e-01, 2.500942051e-01}, {-1.785145886e-02, -2.467747033e-02, 1.258792281e-01, -8.085650951e-02, 
    1.616723686e-01, -8.754316717e-02, 3.139783069e-02, -1.746362001e-01, 
    1.503414959e-01, -1.386487782e-01, 3.906213641e-01, -1.234632283e-01, 
    -2.068054676e-01, 3.054461777e-01, -2.349300385e-01, 4.574748687e-03, 
    -2.774598300e-01, 7.373557892e-03, 1.482702345e-01, -1.417081654e-01, 
    -8.094695956e-02, 1.704224944e-02, -3.654736653e-02, 3.060553372e-01, 
    -1.019858867e-01, -1.998710930e-01, -8.025979251e-02, -2.877656519e-01, 
    -1.570500433e-01, -3.040142953e-01, 1.433154196e-01, -3.583388031e-01, 
    -1.877834052e-01, 1.900972985e-02, 1.583799720e-01, 4.100822657e-02, 
    -3.424458802e-01, -1.723961830e-01, -1.382526904e-01, 2.025782168e-01}, {-8.844601922e-03, -1.020459682e-01, 2.388913929e-01, -1.401597634e-02, 
    -3.079242706e-01, -1.369089186e-01, -3.190177679e-02, 2.970731556e-01, 
    1.085958183e-01, 1.881010830e-01, -5.927339941e-02, -5.065074656e-03, 
    -3.808043897e-02, -9.764438868e-02, 3.855571151e-02, -4.990637600e-01, 
    4.376086965e-02, -6.335932761e-02, -7.955940068e-02, 2.170715332e-01, 
    -1.121385545e-01, -2.480391264e-01, -2.658875659e-02, 2.227320820e-01, 
    -1.039932966e-01, 1.574819088e-01, 6.899970025e-02, -9.821406007e-02, 
    -2.517727315e-01, -2.966510057e-01, -1.295025796e-01, -2.614255995e-02, 
    5.022875592e-02, -4.158175290e-01, 1.873904280e-02, -3.135322332e-01, 
    3.903291374e-02, 2.139223367e-01, -1.790920049e-01, -9.035937488e-02}, {-1.154912636e-02, 1.085043605e-02, -3.308602422e-02, -3.077386916e-01, 
    9.019079804e-02, 3.625785187e-02, -1.913968325e-01, 1.421007514e-01, 
    -1.230036095e-01, 7.021320611e-02, -3.770267367e-01, -4.510579631e-02, 
    3.888293728e-02, 4.595139325e-01, -2.409017235e-01, 1.981926709e-02, 
    -1.509137303e-01, -1.949264668e-03, 8.995116502e-02, 2.843415737e-01, 
    4.986901768e-03, -6.340572238e-02, 8.706843108e-02, -4.148118794e-01, 
    2.582533658e-01, -6.969531626e-02, -2.998116985e-02, -1.041138545e-01, 
    -8.708011359e-02, 1.150659397e-01, 7.135593146e-02, -4.512843862e-02, 
    -9.252015501e-02, 2.979086898e-02, -2.434265465e-01, -5.471653119e-02, 
    -1.261519939e-01, 7.359541953e-02, -1.165292710e-01, -4.218441546e-01}, {-4.166479222e-03, -4.187156633e-02, 1.856845915e-01, 3.579644114e-02, 
    -2.926986516e-01, -1.187376827e-01, 7.860038429e-03, 3.078182638e-01, 
    -1.635823399e-01, 3.585319035e-03, 2.756983042e-01, -2.153399168e-03, 
    7.819759101e-02, -2.482903451e-01, -3.407801092e-01, 4.520355538e-02, 
    -6.394861639e-02, -2.038903981e-01, 6.275957823e-02, 2.128252685e-01, 
    -1.540520191e-01, 1.118914634e-01, -3.819090426e-01, -3.991025686e-01, 
    1.897360981e-01, 2.040660083e-01, -3.538188711e-02, -7.983551919e-02, 
    7.754756510e-02, -2.195919603e-01, -8.023693413e-02, -3.946285322e-02, 
    2.510140277e-02, 1.271752119e-01, -9.466229379e-02, 5.917233229e-02, 
    1.179380789e-01, -1.504342854e-01, -9.034793079e-02, -2.040182203e-01}, {-8.767505735e-02, -2.330019325e-02, 1.415952016e-02, 3.301382363e-01, 
    2.294373512e-01, 6.252411008e-02, -1.607986167e-02, 2.696306407e-01, 
    -2.035352439e-01, 1.304591894e-01, 5.138589740e-01, -5.179949999e-01, 
    -6.247727871e-01, -1.327643692e-01, 2.753482759e-01, 5.131955743e-01, 
    -2.061658055e-01, -7.163880020e-02, 2.315871716e-01, 2.023307839e-03, 
    -2.626015842e-01, -4.063051641e-01, -2.847027965e-03, -1.244492903e-01, 
    6.369792670e-02, -4.591033757e-01, -7.342873514e-02, -2.806564569e-01, 
    -1.434690803e-01, 2.539837062e-01, -5.346306786e-02, -5.611235499e-01, 
    -1.140345693e+00, -2.709308267e-01, -8.405987918e-02, -7.737087011e-01, 
    -7.017970085e-01, -8.270188570e-01, 3.827311993e-01, 1.424771845e-01}, {-6.584749371e-02, 1.528577693e-02, 3.073916435e-01, 3.769408166e-01, 
    1.482397318e-01, -2.705512010e-02, 1.084274724e-01, -6.345953047e-02, 
    -6.085376740e-01, 8.280562237e-03, 2.151066661e-01, -1.881442964e-01, 
    -8.170360327e-01, 3.661329150e-01, -1.343455166e-01, -6.731600761e-01, 
    6.024665385e-02, -2.047292143e-01, 4.626930952e-01, 4.464770257e-01, 
    4.496036842e-02, 7.680154592e-02, 3.330214322e-02, -1.799809486e-01, 
    -1.898968779e-02, 3.359319270e-02, 3.163508698e-02, -5.613261461e-01, 
    -5.943875909e-01, 1.413165033e-01, 6.491906643e-01, -9.278415442e-01, 
    -4.710125029e-01, -1.172712669e-01, -2.581553757e-01, -2.037457824e-01, 
    -1.028587699e+00, -4.392231107e-01, 1.152900886e-02, 4.246841669e-01}, {-1.751043648e-02, 1.072348002e-02, -4.180720076e-03, 1.406405121e-01, 
    3.177876398e-02, 5.737831444e-02, -5.966471136e-02, -6.577493995e-02, 
    2.365103662e-01, 3.795108944e-02, -6.817734987e-02, 9.164492949e-04, 
    8.507271111e-02, 1.481476277e-01, 2.337958217e-01, 3.560785949e-02, 
    2.439627051e-02, -2.406330220e-02, 7.991944999e-02, -1.964072436e-01, 
    2.674175203e-01, 3.514961898e-02, 3.889752552e-03, -7.451445609e-02, 
    -4.871736839e-02, 2.816724479e-01, 1.075056847e-02, 1.697788201e-02, 
    -4.330978170e-02, -1.088327169e-01, -1.918606907e-01, -4.541822523e-02, 
    1.961044269e-03, 4.596671090e-02, 3.552436084e-02, 2.028771304e-02, 
    -5.844883621e-02, -2.430632263e-01, -6.717962772e-02, -8.743461221e-03}, {-2.944651805e-02, -5.176880956e-02, 1.595758349e-01, -1.532380134e-01, 
    -1.541855037e-01, -3.238834068e-02, -1.140885577e-01, -9.381376952e-02, 
    3.950877115e-03, -2.175429016e-01, -1.395707726e-01, -1.025669370e-02, 
    1.174164191e-02, -3.188466653e-02, -2.644501030e-01, -2.820119262e-02, 
    3.557957336e-02, 1.768465620e-03, -1.632354409e-01, 1.105086356e-01, 
    3.392689228e-01, 2.084832042e-01, -8.619179577e-02, -3.540582955e-01, 
    6.330235302e-02, 2.218510956e-01, -2.558351122e-02, 9.686058015e-02, 
    -1.050766744e-02, -5.136249959e-02, -2.175188661e-01, -1.084500849e-01, 
    -4.404480755e-02, 1.708122790e-01, -3.320159018e-01, -7.580708712e-03, 
    -2.714069486e-01, 5.683937669e-02, -2.169877589e-01, 2.337474078e-01}, {3.455422819e-02, 3.836441040e-02, 9.355248511e-02, 1.678851806e-02, 
    9.422136098e-02, 3.778035194e-02, -2.411421239e-01, 1.516845357e-02, 
    -2.149714381e-01, 1.001835465e-01, -2.176052332e-01, -4.316302948e-03, 
    -9.441694617e-02, -2.740484774e-01, 2.672304027e-02, 4.352702945e-02, 
    -4.099771008e-02, -7.753538340e-02, 4.474318400e-02, 1.193993837e-01, 
    -6.724331528e-02, 6.175228208e-02, -4.943892732e-02, -8.047343791e-02, 
    7.309050113e-02, -1.491658688e-01, 8.109316230e-03, -1.853689104e-01, 
    2.602427639e-02, 1.178219914e-01, -9.086033702e-02, 1.038951520e-02, 
    -8.199121803e-03, -3.027674556e-01, 1.829004139e-01, 9.485565126e-02, 
    3.135614097e-01, 3.443802148e-02, -1.611066163e-01, -3.050168417e-02}, {-7.180940360e-02, 4.258588422e-03, -2.301215529e-01, 4.283172190e-01, 
    -2.160421759e-01, 2.949702553e-02, -3.193299174e-01, 7.277552783e-02, 
    -7.779411227e-02, 2.024612427e-01, -3.396687806e-01, -1.063630283e-01, 
    -1.873773634e-01, 2.226574570e-01, 2.629471421e-01, -7.491109967e-01, 
    -1.873056032e-02, -1.284908652e-01, 2.818099856e-01, -2.247892618e-01, 
    -2.121904194e-01, 1.642425358e-01, 1.496823430e-01, -2.724803612e-02, 
    -5.726371706e-02, 1.703666300e-01, -3.521348536e-02, -1.920831576e-02, 
    -2.339759916e-01, -1.141184941e-01, 2.107527703e-01, -9.620540738e-01, 
    -9.866955280e-01, -8.802221715e-02, -2.903752327e-01, -1.537997127e-01, 
    -2.496473026e-04, -3.125625849e-01, 8.354484290e-02, -2.612487078e-01}, {6.318689138e-02, 1.708637550e-02, 3.385509253e-01, -2.820184827e-01, 
    -2.161673754e-01, -9.375747293e-02, -4.773873985e-01, 7.348971069e-02, 
    1.483161449e-01, 4.514737055e-03, -2.653097920e-02, 1.358791068e-02, 
    -2.264115363e-01, -4.737541974e-01, -2.363128960e-02, -2.112568170e-01, 
    8.151825517e-02, -4.285674542e-02, -1.914445460e-01, -3.402783871e-01, 
    -4.775114655e-01, 1.089629754e-01, -3.609758615e-02, 4.215814471e-01, 
    6.988631561e-03, -9.536524862e-02, -2.159669530e-03, 1.813176870e-01, 
    -6.593474746e-02, -1.983910799e-01, -6.266022101e-03, -1.144179851e-01, 
    -7.709660567e-03, 1.086457148e-01, -4.197480157e-02, -4.576363415e-02, 
    1.196948439e-01, -7.538378239e-02, -5.307431519e-02, 9.660357982e-02}, {-5.522086471e-02, 5.736057833e-02, -3.917548358e-01, 2.032185495e-01, 
    1.428715419e-02, 5.359986797e-02, 1.837941557e-01, 1.649611592e-01, 
    2.487780899e-01, 1.734431684e-01, -2.735595778e-02, -7.845886797e-02, 
    -4.374788404e-01, -1.765239984e-01, -4.539233167e-03, -2.097146660e-01, 
    1.085252035e-02, 1.123786718e-01, -6.679730117e-02, -3.050757051e-01, 
    -1.044877023e-01, -7.837211341e-02, -6.376424432e-02, -2.959524691e-01, 
    7.821657509e-02, 1.306121945e-01, 2.331310883e-02, -1.299133003e-01, 
    1.530663110e-03, 2.166399509e-01, 1.202399656e-01, -4.086997807e-01, 
    -1.249455214e+00, 2.252829224e-01, 3.222690821e-01, -4.970863461e-02, 
    3.830879927e-02, -4.436712861e-01, -6.051475182e-02, -4.362140317e-03}, {-4.573937878e-02, -1.732248068e-02, -2.590337768e-02, -4.310944676e-01, 
    1.122924760e-01, -7.341566682e-02, -5.340378731e-02, 2.005311400e-01, 
    1.211970299e-01, 1.321458220e-01, 4.184872806e-01, -1.576315761e-01, 
    1.034757271e-01, -2.591058910e-01, -6.922980770e-03, 4.072207958e-02, 
    -3.323029578e-01, -2.135903835e-01, 2.460222244e-01, -1.644463837e-01, 
    7.676352561e-02, 3.612454515e-03, 1.964328066e-02, -1.742881984e-01, 
    2.032742202e-01, 2.332616597e-02, -4.774266481e-02, -2.299627811e-01, 
    -9.903334081e-02, 6.347826123e-02, -3.051878214e-01, -1.934158802e-01, 
    -6.797933578e-02, 8.593366295e-02, 7.621623576e-02, -3.249663860e-02, 
    -5.879506096e-02, -4.124863446e-01, -8.440533280e-02, -7.773405313e-02}, {5.214653537e-02, 3.583548963e-02, -3.340549469e-01, 8.419101126e-03, 
    -1.696724147e-01, 9.927216917e-02, -1.906469278e-02, 3.227488324e-02, 
    -2.011486888e-01, -3.070150875e-02, -4.663185477e-01, -3.226247849e-03, 
    -1.653437465e-01, 1.952914894e-01, -1.226778254e-01, -1.194931045e-01, 
    -1.217368171e-01, 5.627411604e-02, -1.286453605e-01, 1.112579405e-01, 
    1.385636926e-01, -2.534739114e-02, -6.252478063e-02, -4.335103184e-02, 
    -1.537839025e-01, 8.351637423e-02, -3.911118582e-02, -1.534928083e-01, 
    -2.923429906e-01, 2.022905350e-01, 2.492042184e-01, 6.142745167e-02, 
    4.844821990e-03, -2.840230167e-01, 2.271275595e-02, 3.727372289e-01, 
    -3.742108494e-02, -6.119257770e-03, 2.055506259e-01, -1.522570848e-01}, {-1.326166838e-01, -1.140538789e-02, -5.234655142e-01, 2.439175844e-01, 
    5.134872161e-03, -2.737146616e-01, 1.901150048e-01, -3.421341777e-01, 
    -6.761903763e-01, 6.346395705e-03, -5.581157655e-02, -2.700673230e-02, 
    -3.144693375e-01, 2.380759865e-01, -1.260384917e-01, -9.158705920e-02, 
    3.608355820e-01, -1.768939756e-02, 7.901825011e-03, -2.133102268e-01, 
    2.449847162e-01, 3.892096579e-01, 1.924434453e-01, 5.725283548e-02, 
    -1.099310294e-01, -1.319742650e-01, -9.933384508e-02, 2.595050633e-01, 
    -4.925667942e-01, 3.658488393e-02, -1.474303901e-01, -6.968585849e-01, 
    -9.545233250e-01, 3.713021278e-01, -3.175122440e-01, 9.868378937e-02, 
    -1.165460497e-01, -4.659337401e-01, -1.645374596e-01, -6.218366027e-01}, {-5.193775520e-03, -1.351359766e-03, 1.201727092e-01, -1.851195842e-01, 
    -1.990243793e-01, 7.455250621e-02, 2.122946382e-01, -1.395229250e-01, 
    2.777612023e-02, -3.953250125e-02, 1.280316114e-01, -3.263992816e-02, 
    4.460983444e-03, 8.826230466e-02, -5.160241202e-02, -5.628929660e-02, 
    1.537575014e-02, -4.017563164e-01, -2.613143325e-01, -1.243134663e-01, 
    8.433737606e-02, -3.241271526e-02, 2.736575007e-01, -1.453856230e-01, 
    1.619845778e-01, -1.016618777e-02, -2.770410292e-02, 8.226416260e-02, 
    -1.154304594e-01, 1.994081214e-02, -3.578689098e-01, 2.485952713e-02, 
    -4.179962724e-02, -6.883391738e-02, -3.076837026e-02, -1.309491228e-03, 
    -2.182869241e-02, -5.844882876e-02, 6.491351873e-02, 2.699273229e-01}, {-7.608418167e-02, -2.335766144e-02, 1.701576561e-01, -1.788082719e-01, 
    -3.727363050e-01, -1.454949006e-02, -1.347431093e-01, -1.960468106e-02, 
    1.089868471e-01, -6.308566034e-02, 3.205275908e-02, 2.008791082e-02, 
    7.665965706e-02, 3.021336719e-02, -7.990651578e-02, -1.536659598e-01, 
    -5.854676291e-02, -2.123646289e-01, -1.927431226e-01, -9.669254720e-02, 
    -1.983562857e-01, 1.297159195e-01, 2.488101274e-02, 4.008396342e-02, 
    2.351378798e-01, -9.924793988e-02, -2.324721403e-02, -3.417655127e-03, 
    -1.652086675e-01, -8.342906088e-02, -2.076709867e-01, 3.462928906e-02, 
    3.744781017e-02, 1.635653079e-01, -1.578520089e-01, 7.674852014e-02, 
    1.349685043e-01, 1.585720330e-01, 1.076167542e-02, 2.108592540e-01}, {-1.492237568e+00, -9.026100636e-01, -1.035441875e+00, 9.058486819e-01, 
    1.193468925e-02, -6.186234355e-01, -9.369421750e-02, 1.901714504e-01, 
    -5.851808190e-01, 6.675941348e-01, -5.808086991e-01, -1.997600555e+00, 
    -6.663391590e-01, -5.603147745e-01, 2.002186030e-01, -1.693231583e+00, 
    -6.759772897e-01, -8.170434088e-02, -1.035689473e+00, -4.239908755e-01, 
    -5.273690820e-02, 1.217917085e+00, -2.998528183e-01, 6.693053246e-01, 
    -8.461607993e-02, -3.853998780e-01, -1.215658665e+00, -1.028020144e+00, 
    -6.285754442e-01, 9.843902588e-01, -6.406223774e-01, -6.958369613e-01, 
    -1.387981415e+00, 6.948401332e-01, -7.472753525e-01, -1.484857082e+00, 
    -7.245112956e-02, -7.360250354e-01, 7.732400298e-01, 2.717493474e-01}, {-1.640649885e-01, -1.168824434e-01, 3.164975718e-02, -5.710101128e-02, 
    -9.373696148e-02, -9.331583977e-02, -4.760496020e-01, 1.729481369e-01, 
    -2.270230204e-01, -2.102220953e-01, 1.240789890e-01, -8.600380272e-02, 
    6.066752598e-02, 2.694780529e-01, -2.045486867e-02, 4.825758934e-02, 
    -2.695094347e-01, 1.366597563e-01, -2.015399188e-01, 3.341577575e-02, 
    2.383554131e-01, -3.406762779e-01, -1.465942115e-01, 2.195106596e-01, 
    -2.292246073e-01, -1.106435806e-01, -4.184001591e-03, 4.208289087e-03, 
    -6.284352541e-01, 9.613312036e-02, 2.092350572e-01, 6.367857009e-02, 
    3.997401893e-02, 5.649321526e-02, -1.513530165e-01, -2.557890713e-01, 
    -6.354857981e-02, -1.463413686e-01, 1.570142247e-02, 1.685807258e-01}, {2.828305215e-02, -4.299720004e-02, -5.783435106e-01, 2.623992972e-02, 
    2.770942450e-01, 3.431866318e-02, -2.097270042e-01, 1.445870567e-02, 
    1.139160898e-02, 8.764118701e-02, -1.240902096e-01, -3.162920475e-02, 
    -1.065581068e-01, -2.616344094e-01, -8.543861657e-02, -6.751305610e-02, 
    7.384761423e-02, 1.593304873e-01, -2.724373341e-01, 5.101515353e-02, 
    -7.988370955e-02, -1.193856299e-01, -5.456565693e-02, -1.015169546e-01, 
    1.440287381e-01, 6.493807584e-02, -7.251516730e-02, -3.348041177e-01, 
    -1.217045113e-01, 1.350916028e-01, -6.816689670e-02, -8.363921195e-02, 
    -3.025793098e-02, 5.291950703e-02, 2.590397745e-02, 5.602560937e-02, 
    1.142586321e-01, 3.973897099e-01, 8.931650966e-02, -7.235676050e-02}, {4.938640073e-02, 1.766357385e-02, -1.854943782e-01, -3.670239151e-01, 
    1.605592221e-01, 2.477516606e-02, -1.736719161e-01, 1.151418686e-01, 
    -1.896793246e-01, -3.926367685e-02, -1.215953007e-01, -8.642268926e-02, 
    -3.444453478e-01, -2.542189062e-01, 1.535732150e-01, -1.328708231e-01, 
    -1.670302898e-01, -1.973434351e-02, 2.156766206e-01, -1.670161784e-01, 
    8.303344995e-02, 1.875096112e-01, 1.030360833e-01, -2.469952554e-01, 
    -6.533484161e-02, -1.169242114e-01, 4.010964185e-02, 1.011496335e-01, 
    -1.278007925e-01, 3.119338751e-01, -5.281453133e-01, -4.974960387e-01, 
    -2.346299440e-01, 6.313259155e-02, -8.981893212e-02, -9.501141496e-03, 
    4.752503708e-02, -1.766475737e-01, 1.517990083e-01, 2.510742657e-02}, {4.496524110e-02, 4.425222054e-02, 1.795148402e-01, -2.213211209e-01, 
    -3.544647694e-01, -1.702963412e-01, 3.556065857e-01, -3.278055191e-01, 
    1.373910606e-01, -3.038744256e-02, 5.047670752e-02, 4.739321768e-02, 
    -3.839405775e-01, 8.516815491e-03, -1.977532506e-01, -3.718281090e-01, 
    -1.522188932e-01, -2.056192458e-01, -1.777828336e-01, -1.056560725e-01, 
    -1.061015427e-01, 3.832714856e-01, 3.611859977e-01, 1.210849453e-02, 
    2.563734539e-03, 1.874234080e-01, -7.415112108e-03, 7.415954769e-02, 
    1.232711151e-01, -3.502690792e-02, -2.871694565e-01, -3.517981851e-03, 
    -4.209556431e-02, -1.654502749e-02, -9.891843796e-02, 5.928393453e-02, 
    1.631812192e-03, -3.411918879e-01, -2.041143775e-01, 3.372769803e-02}, {-6.386504322e-02, 2.702520601e-02, 2.698420919e-02, 7.263806462e-02, 
    -2.483222187e-01, 1.431482285e-01, -4.840310290e-02, 2.382463515e-01, 
    1.021259204e-01, -2.909651697e-01, 4.104058817e-02, -1.617469266e-02, 
    -7.172271013e-01, 4.890064150e-02, 1.624197215e-01, -1.830772012e-01, 
    -4.220201448e-02, -3.461098373e-01, -7.038573921e-02, -2.004221678e-01, 
    -4.229563177e-01, 1.249781400e-01, 9.673824161e-02, -2.669796944e-01, 
    -3.809688240e-02, -2.393305600e-01, -6.320878118e-02, -2.428858131e-01, 
    -5.628550649e-01, 8.320424706e-02, 4.171324670e-01, -1.491015702e-01, 
    -2.486491017e-02, 5.691975355e-02, -4.099660218e-01, 1.437029094e-01, 
    -5.192889646e-02, -1.127577201e-01, 1.457323283e-01, -1.660638750e-01}, {7.840865105e-02, 2.842691913e-02, -1.066673100e-01, -2.667713761e-01, 
    1.416269839e-01, 6.020936370e-02, -1.657745242e-02, -1.377121657e-01, 
    1.624737382e-01, -9.283417836e-03, -1.927646995e-01, -1.717723720e-02, 
    -2.037227713e-02, -2.827020586e-01, -3.897784650e-01, 2.465677680e-03, 
    -1.462553740e-01, 6.226314232e-03, 1.227446571e-01, -2.180033326e-01, 
    -7.245093584e-02, -2.517327666e-02, 7.821342349e-02, -2.363624610e-02, 
    3.241223097e-02, -1.115071103e-01, -1.024014223e-02, -6.875722110e-02, 
    1.958412826e-01, -1.800622791e-01, -8.138065040e-02, -5.762314796e-02, 
    1.348536834e-02, -2.503571510e-01, 1.625438482e-01, 5.147289485e-02, 
    -1.904542744e-02, -1.706792414e-01, -1.136246473e-01, 9.766340256e-02}, {-5.030627921e-02, 1.128422376e-02, 1.118658707e-01, -1.541009694e-01, 
    -3.066814244e-01, 9.861136973e-02, 2.368191071e-02, 8.703891188e-02, 
    2.249599397e-01, 5.006414279e-02, -3.608792722e-01, 1.268975530e-02, 
    -4.343293235e-02, -4.052061141e-01, -5.196298659e-02, 6.560077518e-02, 
    2.201245725e-01, 4.704302847e-01, 1.577949077e-01, -3.806217015e-01, 
    2.601969540e-01, 1.369205564e-01, 1.362922043e-01, 2.373215556e-01, 
    -1.809434742e-01, 2.455570698e-01, 2.534310892e-02, -1.322022974e-01, 
    8.578957617e-02, 8.806632459e-02, -4.366562888e-02, 1.103125960e-01, 
    3.346981481e-02, -1.367237568e-01, 4.395484924e-02, -8.195749670e-02, 
    2.429585904e-01, 1.259922609e-02, 3.652115464e-01, 4.935824499e-02}, {1.268654503e-02, 1.888033003e-02, 2.674551904e-01, -3.119291179e-02, 
    1.902343035e-01, 6.919021718e-03, 1.659520417e-01, 2.847884037e-02, 
    1.678444892e-01, 8.290725946e-02, -8.033788204e-02, -7.423727214e-02, 
    -3.208977282e-01, -2.838890254e-01, -1.384747177e-01, -1.464849524e-02, 
    1.858795881e-01, 2.261289656e-01, -3.213605285e-01, -4.271719605e-02, 
    -2.023800462e-01, 9.306320548e-02, 1.881595328e-02, -2.871027887e-01, 
    2.379300259e-02, -1.628368795e-01, -5.273883697e-03, -1.455729157e-01, 
    1.431602985e-01, -8.593914658e-02, -9.608004242e-02, -1.393346488e-01, 
    -1.246069819e-01, 1.954823732e-01, -7.384139299e-02, 9.275726229e-02, 
    8.073058724e-02, -1.106739640e-01, 2.978794575e-01, 1.023740470e-01}, {-6.462234259e-02, -1.106857434e-01, 4.837380648e-01, -4.627832398e-02, 
    -8.178444952e-02, -5.743270516e-01, -1.618581563e-01, -2.259790301e-01, 
    -8.388102651e-01, -2.333626747e-01, 1.170794293e-01, 6.798286736e-02, 
    5.943580181e-04, 1.550901383e-01, -4.892656803e-01, -2.649688125e-01, 
    -1.640554070e-01, 3.598064482e-01, -3.058399856e-01, -7.580150664e-02, 
    -3.041089475e-01, -3.593076169e-01, -2.685823441e-01, 4.899584949e-01, 
    -3.082999289e-01, 4.097931087e-01, -1.227718294e-01, -5.702082515e-01, 
    -7.075398415e-02, 2.814626694e-01, -2.965123653e-01, -7.924196869e-02, 
    -7.895858288e-01, -5.328693390e-01, -1.142236367e-01, -3.204200417e-02, 
    -1.410050094e-01, 3.151042163e-01, -2.128630131e-02, -3.928825557e-01}, {7.526605576e-02, 7.662031800e-02, -2.495153695e-01, -4.812428057e-01, 
    -4.817180801e-03, -1.151161967e-03, -1.487553865e-01, 3.148018196e-02, 
    -6.047610939e-02, 2.053185105e-01, -4.429898262e-01, -6.625541020e-03, 
    -1.768655479e-01, -2.872152627e-01, -3.127014041e-01, -2.911042273e-01, 
    -2.339447476e-02, -2.651796937e-01, 1.012662500e-01, -9.786803275e-02, 
    -1.998700947e-01, 3.613750339e-01, 5.557298288e-02, 6.001057476e-02, 
    2.289542109e-01, 1.236190200e-01, -4.683639482e-02, 2.259451449e-01, 
    -4.499171376e-01, -1.149292290e-01, 1.721712947e-01, 1.867796108e-02, 
    -9.339635074e-02, 9.470306337e-02, 1.523993611e-01, 4.902917892e-02, 
    1.539342552e-01, -6.846527755e-02, 4.557645321e-02, -2.083567232e-01}}};

const float bias_hid[NUM_HIDDEN_LAYERS-1][NUM_NODES] = {{1.279088706e-01, 1.554394662e-01, -2.052909285e-01, -2.908441005e-03, 
    -2.935295105e-01, -1.814441532e-01, 1.382725835e-01, 1.694253087e-01, 
    -1.920505911e-01, -8.541944623e-02, 2.446666509e-01, 2.433269769e-01, 
    1.182749048e-01, 1.226819977e-01, -2.576689422e-02, -2.187409997e-01, 
    5.786972120e-03, 1.788895577e-01, -1.566974074e-01, -1.146496981e-01, 
    -1.319090575e-01, -6.329493225e-02, -1.491181105e-01, -9.151630104e-02, 
    -3.202498332e-02, 1.481232494e-01, -2.224531025e-02, -6.814967096e-02, 
    -1.380302757e-01, -7.427682728e-02, -3.458531573e-02, -1.201319322e-02, 
    -8.275423944e-02, -3.914757073e-02, -5.893033743e-02, -6.181713194e-02, 
    -2.220900804e-01, 1.788093895e-02, 2.809973359e-01, -1.383734643e-01}};