#include "nn_parameters.h"

const int num_nodes_vec[NUM_LAYERS] = {10, 40, 40, 4};

// NN network parameters -- atribute values
const float weights_in[NUM_NODES][NUM_STATES] = {{-5.557853729e-02, -5.678825825e-02, 6.379091740e-02, -8.126435876e-01, 
    1.534365211e-02, 4.973768070e-02, -4.184124619e-02, 4.363868237e-01, 
    -2.526736259e-01, 8.178651333e-01}, {-2.573068738e-01, -4.266073108e-01, 1.770685613e-01, -3.227265596e+00, 
    2.225613594e+00, -3.724593669e-02, 8.460056037e-02, -7.782338262e-01, 
    -3.935946226e-01, 1.343194366e+00}, {-1.592782885e-01, 3.965172768e-01, -1.448163670e-02, -1.017186046e-02, 
    3.789477944e-01, 4.692350980e-03, -2.513595223e-01, -8.482393622e-01, 
    4.074567258e-01, -3.890478909e-01}, {1.882736683e+00, -2.223724604e+00, 5.603644624e-02, -1.827346236e-01, 
    3.673140705e-01, 4.803906195e-03, 9.774872661e-02, 2.556939423e-01, 
    2.247332186e-01, -4.482749403e-01}, {-2.473595738e-01, -4.809652269e-01, 5.562981367e-01, -6.070052385e-01, 
    1.391372085e-01, 6.334080100e-01, 5.148058534e-01, 1.131153852e-01, 
    -2.385167629e-01, -1.198465601e-01}, {8.614017963e-01, -8.923749924e-01, 8.432462811e-02, 1.895307660e+00, 
    -1.684124321e-01, -4.178350791e-02, -2.311701924e-01, 3.761772215e-01, 
    -2.538662851e-01, -3.743976355e-01}, {-1.272325069e-01, -1.472781748e-01, -7.101188600e-02, -3.911091089e-01, 
    -7.533490658e-01, -1.070016846e-01, 1.816245914e-01, 6.920009851e-01, 
    -9.314198494e-01, 6.613034010e-02}, {2.152089626e-01, -4.749975204e-01, 2.588259242e-02, 8.732100725e-01, 
    3.576920927e-01, 1.068961546e-01, 2.085092217e-01, -5.921700224e-02, 
    -3.951762244e-02, -1.388214082e-01}, {-9.332007170e-01, -1.826721191e+00, -3.725419641e-01, 2.646860838e+00, 
    9.134951830e-01, 9.171935171e-02, -2.755767107e-01, -2.373085767e-01, 
    1.351339817e-01, 2.714283943e+00}, {-2.440708727e-01, 1.106791258e+00, 3.755085170e-02, -1.969371319e+00, 
    -1.468231678e+00, 5.071514472e-02, -4.957827628e-01, 2.145301104e-01, 
    -1.243897304e-01, -7.304707170e-01}, {3.547311425e-01, 4.082551599e-01, 3.059181571e-01, -3.835787624e-02, 
    3.628661633e-01, 3.560974300e-01, 6.661500335e-01, 6.062241793e-01, 
    6.848341823e-01, -2.542890310e-01}, {2.425193489e-01, -2.190290950e-02, -4.843890201e-03, -4.079697132e-01, 
    1.090947613e-01, -9.321601689e-02, 6.964604855e-01, -5.939117670e-01, 
    -4.467908144e-01, 5.572392344e-01}, {-2.789120078e-01, -3.629728407e-02, 3.725844622e-01, 6.407422423e-01, 
    -3.743247688e-02, 3.748440742e-01, 1.389627904e-01, -3.828155100e-01, 
    1.917493641e-01, -1.620286703e-01}, {1.328446716e-01, -7.378403097e-02, -7.284929752e-01, 6.197337806e-02, 
    1.480211020e-01, -7.811216712e-01, -2.668203115e-01, -8.503767252e-01, 
    6.172466278e-02, 2.502571978e-02}, {3.211352348e+00, 1.443594813e+00, -2.132734507e-01, -9.604507685e-01, 
    -1.176929712e+00, -2.441138029e-01, -1.734127998e-01, 6.761860102e-02, 
    -6.078583598e-01, -7.234206200e-01}, {3.976264969e-02, 2.192020178e+00, -1.946652532e-01, 1.420928955e+00, 
    1.242563128e+00, -1.518374383e-01, 9.751988947e-02, -2.567837238e-01, 
    3.034317195e-01, -4.806658328e-01}, {1.829441071e+00, 6.004829407e-01, 6.885731965e-02, 5.858355165e-01, 
    -2.729004920e-01, 3.479874134e-02, 2.032667994e-01, -1.292239726e-01, 
    4.209275544e-01, 4.217940569e-01}, {7.062304020e-01, 3.998139799e-01, 5.479156040e-03, 5.047414899e-01, 
    3.130625784e-01, 1.572384685e-02, 3.769498169e-01, -6.799427867e-01, 
    -8.465999737e-03, 4.569701850e-01}, {9.441302419e-01, -6.880144775e-02, -5.927238613e-03, -5.055727959e-01, 
    1.095257521e+00, 1.030410007e-01, 7.692512870e-01, -3.104789555e-01, 
    2.648669295e-03, 1.296787858e+00}, {-1.595100164e-01, 2.040795423e-02, -2.778682709e-01, -6.616999209e-02, 
    2.285083383e-02, -2.748157084e-01, -2.447244525e-02, 8.210534453e-01, 
    1.162126586e-01, -9.631169960e-03}, {-2.435116321e-01, -1.274521828e+00, 1.261717379e-01, -2.783445418e-01, 
    1.287791878e-01, 2.116238922e-01, 2.340965271e+00, -4.770261794e-02, 
    -8.515146375e-01, -3.702407181e-01}, {-1.183083206e-01, 2.460451126e-01, -3.020691276e-01, -5.204746723e-01, 
    -3.738216460e-01, -2.629930973e-01, 3.727681935e-02, 3.800658584e-01, 
    1.943825930e-01, 1.209408864e-01}, {1.000587791e-01, 1.810781062e-01, -4.567461610e-01, 6.431099027e-02, 
    5.839958042e-02, -4.874453545e-01, -1.493250728e-01, -2.817842960e-01, 
    9.600219131e-01, -2.679774463e-01}, {-6.049445629e+00, -3.802132130e+00, -6.961685722e-04, -3.289311409e+00, 
    -1.566608071e+00, -6.863503158e-02, -2.009416819e-01, 5.274212956e-01, 
    -6.915265322e-01, 1.138527989e-01}, {1.824273705e+00, -2.974578619e+00, -4.003941268e-02, 1.093837023e+00, 
    -1.591994643e+00, 6.480708718e-03, -2.591450214e-01, -3.504602015e-01, 
    1.366213858e-01, -2.616173029e-01}, {2.746534646e-01, -3.757167757e-01, 2.547196150e-01, 3.428444862e-01, 
    -1.175308004e-01, 3.438352644e-01, 3.337748349e-02, 2.879033387e-01, 
    -3.578813672e-01, -6.994327158e-02}, {6.891787052e-01, -6.360602379e-02, -1.118432358e-01, -1.429874897e+00, 
    1.060128331e+00, -6.379744411e-02, 2.798948288e-01, -4.508749247e-01, 
    -5.093529820e-01, 2.672351301e-01}, {9.328458458e-02, -2.914419174e-01, 2.884577811e-01, 2.236404419e+00, 
    -3.458396435e+00, 2.884545624e-01, -5.693542957e-01, 4.827857018e-01, 
    2.694513500e-01, 8.560558558e-01}, {-1.185917258e+00, -5.054058433e-01, -6.783305109e-02, -5.931629539e-01, 
    -5.885915756e-01, -6.039945781e-02, -1.074780598e-01, -4.976094365e-01, 
    3.244476318e-01, -2.326604426e-01}, {7.427452505e-02, 1.865577996e-01, -5.386602283e-01, 1.938238181e-02, 
    -1.720580161e-01, -5.483742356e-01, 3.063883074e-02, -3.186545968e-01, 
    -9.318400025e-01, 4.254887998e-02}, {-7.643687725e-02, -1.113597274e+00, 1.585692614e-01, -9.509019256e-01, 
    4.772305489e-01, 1.885785758e-01, 8.319303393e-01, -9.323527217e-01, 
    -4.136324227e-01, -6.523795724e-01}, {2.891748250e-01, 3.540940523e+00, -7.546955347e-02, -1.827296764e-01, 
    2.779935837e+00, -5.290460959e-02, -7.720545679e-02, -4.268437922e-01, 
    -1.535485089e-01, 1.149567962e+00}, {-3.178041801e-02, -2.452636719e+00, -2.872581482e-01, 2.842077017e+00, 
    -1.139333963e+00, 2.184248716e-01, 2.399346083e-01, -2.200812660e-02, 
    3.175587058e-01, 2.323810577e+00}, {1.261590958e+00, 1.324353665e-01, 6.966009736e-02, 4.267145693e-01, 
    1.251631081e-01, 7.224351168e-03, -1.927822679e-01, -4.577640295e-01, 
    -3.957659602e-01, -1.094440460e+00}, {-3.239620328e-01, -6.009561419e-01, -1.558896620e-02, -3.429649472e-01, 
    1.094025820e-01, 3.084155731e-02, -1.389915645e-01, -1.694567800e-01, 
    -2.954415083e-01, -3.415563405e-01}, {-9.137266874e-02, -7.718231082e-01, 2.637222707e-01, 1.082626224e+00, 
    5.618506908e+00, 2.505037189e-01, 1.354696900e-01, -8.603172898e-01, 
    3.795622289e-02, -2.637826920e+00}, {1.540504456e+00, 6.526467204e-01, 8.673920482e-02, -6.948400736e-01, 
    -4.831896126e-01, -3.135015443e-02, -6.496743560e-01, 2.327650785e-01, 
    -8.443431258e-01, 2.363216728e-01}, {1.550952792e-01, -9.368620515e-01, 2.240616083e-02, 4.620281756e-01, 
    -5.626843572e-01, -3.197186440e-02, 8.149303496e-02, 9.658242464e-01, 
    9.583097696e-01, -2.955127358e-01}, {4.810424328e+00, -3.271578312e+00, -8.621933311e-02, 3.121075034e-01, 
    -6.757774949e-01, -7.568541914e-02, 1.869264245e-01, 2.007773519e-01, 
    -1.642346382e-01, 8.240839839e-01}, {1.950900108e-01, 6.487762928e-02, -1.170085445e-01, -1.409333665e-02, 
    -1.127151251e-01, -2.442206629e-02, 1.804412246e+00, -6.933628917e-01, 
    4.724077582e-01, 1.235834002e+00}};

const float bias_in[NUM_NODES] = {-1.991504580e-01, -3.849347532e-01, 1.401043124e-02, 1.730690151e-02, 
    -1.654110402e-01, 1.827780530e-02, -1.367687583e-01, 1.897837669e-01, 
    2.893933952e-01, 1.536498964e-01, -9.401120991e-02, 3.471295536e-01, 
    -2.739274502e-02, -3.095679283e-01, -2.781210840e-01, 1.404055953e-01, 
    -1.186705939e-02, 1.723405421e-01, 5.235655606e-02, -1.712719649e-01, 
    -4.840292931e-01, -2.325496972e-01, -1.130754426e-01, 1.798466891e-01, 
    3.689270020e-01, 6.529568881e-02, -6.058181077e-02, 4.218626320e-01, 
    -1.035179496e-01, -3.264865577e-01, -4.134629667e-02, -3.616196215e-01, 
    -3.157955036e-02, 1.593084335e-01, 8.424593508e-02, -4.798294231e-02, 
    6.861463934e-02, 2.195374519e-01, -3.971054554e-01, -2.079871893e-01};

const float weights_out[NUM_CONTROLS][NUM_NODES] = {{4.219044000e-03, -2.778776363e-02, 5.714196712e-02, 2.093171515e-02, 
    -2.284307405e-02, -3.614407182e-01, -4.321623147e-01, 3.975086659e-02, 
    -2.980872393e-01, -5.811138451e-02, 1.442653779e-02, 1.292323917e-01, 
    3.521179780e-02, 1.364501566e-01, 1.491126120e-01, 9.902022034e-02, 
    1.273147762e-01, 1.707591116e-01, -1.586218178e-02, 3.408392072e-01, 
    -3.192957863e-02, 1.350306123e-01, 2.262488902e-01, 7.511661947e-02, 
    1.428340822e-01, -8.407893777e-02, -4.320866615e-02, 2.114380300e-01, 
    -2.031613141e-02, -2.359596491e-01, -5.728504434e-02, 1.614359319e-01, 
    8.296540938e-03, 1.011253800e-02, -2.332968861e-01, -9.426654875e-02, 
    -6.829831749e-03, -6.616201252e-02, 3.453324363e-02, 8.244845271e-02}, {-1.608377509e-02, 2.019280754e-02, 2.623431087e-01, -1.988415122e-01, 
    -5.763038248e-02, -2.261990160e-01, 2.211991102e-01, 8.377815783e-02, 
    3.717442229e-02, 9.851550460e-01, 3.809874132e-02, 2.320311219e-02, 
    2.187521756e-02, 2.056032866e-01, -2.793203294e-01, 2.387511134e-01, 
    1.855958104e-01, -1.690872312e-01, -7.939709723e-02, -2.230552882e-01, 
    9.513460398e-01, 1.601910591e-01, -1.958426237e-01, -3.363896906e-01, 
    -9.508267790e-02, -7.000544667e-02, 5.932164788e-01, 2.870033681e-01, 
    2.942243777e-02, -1.344032958e-02, -2.192740589e-01, 2.396088094e-01, 
    -7.817395329e-01, 1.135075986e-01, 8.570259064e-02, 8.001738042e-02, 
    -3.753446974e-03, -5.615000799e-02, -2.591053843e-01, 7.807967812e-02}, {2.385419980e-02, 3.822334111e-02, -1.989302039e-01, 2.725089192e-01, 
    -1.386794895e-01, -2.148397565e-01, 2.205942273e-01, 1.077941135e-01, 
    9.885787219e-02, 1.055489421e+00, 5.657175183e-02, -2.791075408e-02, 
    -1.891894266e-03, -8.250811696e-02, 9.614465386e-02, -6.038945168e-02, 
    8.196724206e-02, -6.297135353e-02, 2.379511856e-02, -8.445207775e-02, 
    -1.473576784e+00, 2.570221722e-01, 2.892139852e-01, 3.365191519e-01, 
    3.741401136e-01, -8.308373392e-02, 4.014332294e-01, -1.822679937e-01, 
    -1.891238987e-02, -2.799932957e-01, 4.474361241e-02, -1.489694417e-01, 
    1.943935454e-01, -2.410460114e-01, 5.027058348e-02, 2.940214574e-01, 
    -1.218530387e-01, -7.614528388e-02, -4.455747008e-01, -1.589335650e-01}, {5.848797560e-01, 9.904866666e-02, 2.272117436e-01, -1.116383225e-01, 
    1.149417236e-01, -1.153288633e-01, 9.702492505e-02, -2.106154524e-02, 
    -2.644213736e-01, -3.243457675e-01, 1.679640651e+00, -1.314937919e-01, 
    -1.429883242e-01, 1.203975379e-01, -1.255850196e-01, -1.782356203e-01, 
    5.441603065e-01, 1.841083765e-01, 6.243271232e-01, 6.946533918e-03, 
    -2.957647480e-02, -2.546604276e-01, 1.076899022e-01, -2.909314930e-01, 
    -2.438797653e-01, 5.029056072e-01, 2.619669959e-02, 2.961946726e-01, 
    2.731170952e-01, 6.338851899e-02, 2.732793391e-01, -5.068324134e-02, 
    -8.064910173e-01, -3.140679598e-01, -8.159706742e-02, -1.733411402e-01, 
    -2.924409211e-01, -1.832964481e-03, 6.714228541e-02, -5.086091161e-01}};

const float bias_out[NUM_CONTROLS] = {-5.465304479e-02, 2.698259056e-02, 1.410885621e-02, 5.026151240e-02};

const float in_norm_mean[NUM_STATES] = {1.431185928e-02, 1.804215462e-02, -2.535572457e-03, -1.318914702e-02, 
    -3.197220587e-02, -2.236919739e-03, 9.683542667e-01, -3.904608592e-02, 
    3.822367567e-02, -1.904655392e-03};

const float in_norm_std[NUM_STATES] = {3.650246104e+00, 3.580738026e+00, 2.648465373e-01, 2.366733387e+00, 
    2.340617758e+00, 4.422255936e-01, 2.404657324e-02, 1.419676035e-01, 
    1.427973766e-01, 1.348227969e-01};

const float out_norm_mean[NUM_CONTROLS] = {2.823919640e-01, 1.440395853e-03, 1.864331998e-03, 3.019155746e-03};

const float out_norm_std[NUM_CONTROLS] = {5.640625975e-01, 7.010456676e-01, 7.067758191e-01, 2.052130299e-01};

const float out_scale_min[NUM_CONTROLS] = {-7.266875134e+00, -8.031272934e+00, -6.791883904e+00, -5.677261369e+00};

const float out_scale_max[NUM_CONTROLS] = {6.265596321e+00, 6.489872678e+00, 7.319132106e+00, 5.105187756e+00};

const float weights_hid[NUM_HIDDEN_LAYERS-1][NUM_NODES][NUM_NODES] = {{{-2.038684040e-01, -1.277928233e+00, 3.997737169e-01, 5.484707355e-01, 
    -1.587178856e-01, 2.163545787e-01, 2.625630498e-01, 2.275392264e-01, 
    3.203136921e-01, -1.341043264e-01, 3.368204832e-02, -1.328361332e-01, 
    2.816502750e-01, 1.026042625e-01, -2.349005342e-01, 3.025280833e-01, 
    -4.759744108e-01, 1.319972873e-01, -5.704924464e-02, -2.805745602e-01, 
    7.366291434e-02, -1.838323474e-01, -1.558596194e-01, -2.632558942e-01, 
    -8.108273745e-01, 3.763377368e-01, -1.212138523e-05, -2.345926464e-01, 
    -2.044908330e-02, 3.524275124e-02, 5.240082741e-01, -3.378014863e-01, 
    -4.180866480e-01, 3.937940300e-02, 2.551384866e-01, -5.862583518e-01, 
    -2.309388369e-01, -7.407382131e-02, -8.592004776e-01, 1.084516197e-01}, {7.937746495e-02, 2.179562002e-01, -3.746569157e-01, 1.556432247e-01, 
    7.892153412e-02, 1.871464849e-01, -1.580130756e-01, 2.870319784e-01, 
    2.404022962e-01, 1.755200475e-01, -2.154921889e-01, -7.254155725e-02, 
    4.639185965e-01, 2.065057307e-01, -1.209863797e-01, 4.405925572e-01, 
    -9.379475564e-02, -1.670286059e-01, 4.035135359e-02, 1.922000200e-02, 
    7.573375851e-02, -2.319505066e-01, -1.635124236e-01, 4.524988532e-01, 
    -1.120829582e-01, 3.283478916e-01, -2.627355419e-02, 1.071131900e-01, 
    -1.875543296e-01, 1.368413121e-01, 4.485821724e-02, -1.795521826e-01, 
    4.614605755e-02, -4.523533583e-01, 5.633020774e-02, 8.194212802e-03, 
    1.296243258e-02, -3.469995856e-01, -2.721149288e-02, -1.176480725e-01}, {-6.550865248e-03, -1.525189728e-01, 2.317701653e-02, 1.006465405e-01, 
    -1.251713485e-01, -6.171523407e-02, -2.737376466e-02, 3.633222580e-01, 
    -1.397150755e-01, -1.229131296e-01, 3.497230262e-02, 8.881507441e-03, 
    -4.943677923e-04, 1.417144239e-01, 5.230072141e-02, -4.607344419e-02, 
    -1.130481884e-01, -3.437546641e-02, 2.962910235e-01, 3.200686723e-02, 
    1.053422596e-02, 3.586569801e-02, 6.010312960e-02, -5.836302042e-01, 
    -1.627142876e-01, 3.644144535e-01, 1.344306916e-01, 9.866212495e-04, 
    -2.657728493e-01, 6.248501688e-02, -1.076958925e-01, -1.409535855e-01, 
    4.246712103e-02, 2.771137953e-01, -7.112565637e-02, -7.968817651e-02, 
    -8.327049017e-02, 1.929226071e-01, -1.563805640e-01, -2.036731541e-01}, {2.519355416e-01, -3.072553277e-01, 2.203616500e-01, -8.815062791e-02, 
    2.498396933e-01, -2.432118803e-01, -4.406943545e-02, 1.265053749e-01, 
    -6.988810003e-02, 3.496346995e-02, 1.260504592e-02, 2.056694180e-01, 
    -2.738322020e-01, 2.282638848e-01, -1.058311835e-01, -6.752766669e-02, 
    -2.642787397e-01, 6.710222363e-02, 1.053377092e-01, 3.364126980e-01, 
    -1.944364309e-01, -3.317704052e-02, -3.588700891e-01, -1.069400534e-01, 
    -6.247484311e-02, -4.936029762e-02, -1.707680374e-01, -7.320155203e-02, 
    -5.694660358e-03, 1.201080456e-01, 3.179193288e-02, -3.848390579e-01, 
    1.186605990e-01, -3.133202493e-01, 1.716957986e-01, -1.342039853e-01, 
    3.011054397e-01, 1.437089592e-01, -2.103714347e-01, 8.733861148e-02}, {1.584191769e-01, 2.198434919e-01, -1.621680409e-01, 1.758992486e-02, 
    -1.959465891e-01, 2.334727496e-01, -2.909698188e-01, 6.505929679e-02, 
    -1.257200539e-01, -2.902022935e-02, 1.176276989e-02, -1.791225523e-01, 
    -2.173488736e-01, 1.367969960e-01, -1.753175259e-02, -1.822002679e-01, 
    3.970034420e-03, -1.057870388e-01, 1.734714359e-01, 1.969119459e-01, 
    3.190523386e-01, -2.093648314e-01, -9.409347177e-02, 6.490953267e-02, 
    2.145139426e-01, 5.373119563e-02, -1.942327023e-01, 3.463898599e-02, 
    -1.723137200e-01, -1.676665843e-01, -5.362226511e-04, 2.724125683e-01, 
    1.189784240e-02, 1.074052155e-01, -3.873607889e-02, 1.907592863e-01, 
    3.352336586e-02, 2.411550581e-01, -4.727571458e-02, -1.280466616e-01}, {-2.610715330e-01, -7.282274216e-02, 6.405789405e-02, 5.934988335e-02, 
    4.703296125e-01, -1.084509045e-01, -2.078890055e-01, -3.110160530e-01, 
    -5.635811016e-02, -5.734720826e-02, -2.485795021e-01, -3.500007689e-01, 
    2.552828984e-03, 8.289355785e-02, -9.473293275e-02, -3.107350469e-01, 
    4.144989327e-02, 1.638529152e-01, 3.661794588e-02, 8.640853316e-02, 
    1.099693999e-01, 2.473140061e-01, 1.418071240e-01, -8.334875107e-02, 
    5.842071958e-03, 1.413305849e-01, -4.526542723e-01, 1.060293987e-01, 
    -3.455187008e-02, -3.082072129e-03, -1.002826393e-01, 6.233056635e-02, 
    6.670478731e-02, 1.011606585e-02, 8.139582723e-02, -7.313311845e-02, 
    -1.197625175e-01, 1.529987901e-01, -1.232156157e-01, 2.955843695e-02}, {-1.583259702e-01, 7.113136351e-02, 1.316045076e-01, -2.862061560e-01, 
    1.451347023e-01, -2.250381559e-01, 9.889464825e-02, -2.217633091e-02, 
    6.376856565e-02, 3.254279122e-02, -1.319513936e-02, 2.568451166e-01, 
    1.993479878e-01, 4.395483062e-02, -5.117605627e-02, -3.999688849e-02, 
    -1.450784057e-01, -1.782792807e-01, -2.114941329e-01, -2.975284159e-01, 
    -2.364133000e-01, 2.316228300e-02, -1.715270244e-02, -6.545847654e-02, 
    -2.774623334e-01, -1.605863571e-01, 4.826921597e-02, -3.708263114e-02, 
    -1.181873158e-01, 1.017315090e-01, -9.415470809e-02, 2.685713768e-02, 
    2.407234535e-02, -8.586447686e-03, -2.602052502e-02, 1.829102449e-02, 
    5.681420490e-02, -6.437107921e-01, -2.141468227e-01, 1.025345176e-01}, {-4.878129438e-02, 1.990466192e-02, 7.106158137e-02, 2.782854736e-01, 
    -7.489304245e-02, 2.430141568e-01, -3.137453496e-01, -7.180586457e-02, 
    -1.560758427e-02, -2.144216746e-01, 2.044252902e-01, 3.965160251e-02, 
    -4.167360365e-01, 2.485768870e-02, 1.420426071e-01, -2.827838063e-02, 
    -1.582896262e-01, -2.296964526e-01, -1.269548386e-02, -3.205079436e-01, 
    1.183969676e-01, 2.132848138e-03, -2.099465579e-01, 2.285673022e-01, 
    2.711874247e-01, 1.120087951e-01, -4.909104109e-02, -6.681263447e-02, 
    -3.558518291e-01, 1.440254152e-01, 8.644999564e-02, 1.517711729e-01, 
    -4.318926856e-02, 1.703340113e-01, -2.033892572e-01, 2.283203751e-01, 
    1.650449634e-01, 4.609914962e-03, 2.436898649e-01, -5.645187944e-02}, {3.002008498e-01, -4.620784894e-02, -1.501802951e-01, -7.342541963e-02, 
    3.537497520e-01, -1.435529143e-01, -3.677246869e-01, -2.386455536e-01, 
    -6.990198791e-02, -8.833973110e-02, -5.899469927e-02, 8.407358825e-02, 
    -8.071451634e-02, 2.639772892e-01, 1.727048494e-02, -4.077753052e-02, 
    3.316881955e-01, 1.806352735e-01, 1.067087948e-01, -1.188203618e-01, 
    8.268159628e-02, 1.171297804e-01, 3.324927017e-02, -1.110119522e-01, 
    1.132412925e-01, -3.119631670e-02, -2.868371829e-02, -5.956357345e-02, 
    -1.492896080e-01, -2.012198418e-01, -1.984418333e-01, -2.162459679e-02, 
    2.062033862e-03, 1.908591390e-01, 2.192225158e-01, 5.298897624e-02, 
    -3.950981423e-02, 1.133781970e-01, -1.007183120e-01, -1.494172662e-01}, {1.775165200e-01, -6.974031329e-01, 1.511675268e-01, -6.265825033e-01, 
    2.080921531e-01, -5.029956698e-01, 1.572532952e-01, 1.563504338e-01, 
    -8.044705987e-01, -6.705805659e-01, -2.771133482e-01, 4.586136937e-01, 
    -2.277296036e-01, -3.603698015e-01, -3.912880421e-01, 1.751537062e-02, 
    -2.721961141e-01, 2.169712484e-01, 4.809821546e-01, -8.926936239e-02, 
    7.210293412e-01, -3.628347516e-01, 1.310978383e-01, -3.287750185e-01, 
    -1.708484173e+00, 1.832427531e-01, 3.130228221e-01, -1.060285091e+00, 
    -2.139463425e-01, 2.085842937e-02, 6.728692651e-01, -8.696683645e-01, 
    8.233025670e-02, -7.203191519e-01, 5.795162171e-02, -6.762211323e-01, 
    -7.845883965e-01, -1.328038931e+00, -6.931755543e-01, 9.871218801e-01}, {-4.837400466e-02, -3.414284289e-01, 1.589982212e-01, 4.104181528e-01, 
    9.860428423e-02, 1.982721388e-01, -1.159891337e-01, 6.881377697e-01, 
    -1.466398597e+00, -1.083721519e+00, 3.856868148e-01, 6.411195993e-01, 
    1.035240367e-01, -3.173140585e-01, -8.024321795e-01, -5.039228201e-01, 
    2.188486010e-01, 5.804246664e-01, -1.931186765e-01, 1.130986512e-01, 
    6.559970975e-01, -1.281318665e-01, -4.181848466e-01, -9.728683829e-01, 
    -4.685712755e-01, 3.167844415e-01, -3.322887793e-02, -9.225584865e-01, 
    1.531613320e-01, 2.080280185e-01, 3.854699135e-01, -8.552072644e-01, 
    -1.808302760e+00, -3.447131813e-01, 3.674592450e-02, -1.112251163e+00, 
    1.143005714e-01, 4.360294342e-01, -9.114012122e-01, 4.430755675e-01}, {-3.425202370e-01, 2.507775426e-01, -9.439983964e-02, 2.255190164e-02, 
    -8.839643560e-03, 2.060657367e-02, -1.245689392e-01, 2.935005724e-01, 
    1.712002009e-01, 1.316417903e-01, -1.374616325e-01, -2.472366542e-01, 
    2.882378548e-02, 1.995286494e-01, 4.620328546e-02, -7.612431794e-02, 
    -1.040775850e-01, 1.615890712e-01, -1.400394142e-01, 4.548423365e-02, 
    3.033389449e-01, 4.723024741e-02, 9.798390418e-02, 3.399695158e-01, 
    7.718087733e-02, -2.900318988e-02, -7.653355133e-03, 1.323513836e-01, 
    1.470333785e-01, 4.527744651e-02, -3.026870452e-02, 1.492795944e-01, 
    5.345481448e-03, -1.438001394e-01, -2.351383567e-01, 1.806300282e-01, 
    -1.803701520e-01, -1.641906984e-02, 1.277644485e-01, -1.142835245e-01}, {8.107098937e-02, 7.344677299e-02, -1.303559095e-01, -5.628472567e-02, 
    -9.007587284e-02, 2.653156519e-01, -7.959109545e-02, 6.371700764e-02, 
    4.871017113e-02, -9.806209803e-02, -1.967795938e-01, 1.617163122e-01, 
    -2.598427236e-01, -3.541311994e-02, 2.890721560e-01, -3.132134974e-01, 
    -1.473443210e-01, 7.216013968e-02, -3.499731123e-01, -1.493469775e-01, 
    -2.161157690e-02, 2.223788649e-01, -2.482595593e-01, -3.473558724e-01, 
    -1.725332886e-01, 1.893941313e-01, -2.524670400e-02, 3.846862316e-01, 
    -1.374232620e-01, 3.475681841e-01, -3.908633441e-02, 1.181285083e-01, 
    9.535028785e-02, 4.635950550e-02, 2.444086969e-02, 7.450676057e-03, 
    9.196938016e-03, -2.830329835e-01, -1.971659362e-01, 1.957618818e-02}, {7.699315995e-02, 4.709421191e-03, 1.498169899e-01, -1.215142682e-01, 
    -1.108976454e-01, -8.752726018e-02, -3.807555735e-01, -4.891216755e-02, 
    3.332593665e-02, -8.429088444e-02, 5.934265256e-02, 1.259383261e-01, 
    -7.892380655e-02, 1.512428671e-01, 9.929972701e-03, 8.013310283e-02, 
    -1.325414032e-01, 2.317560315e-01, -4.221137986e-02, -6.722398102e-02, 
    -1.124714762e-01, -3.605881473e-03, 4.990249276e-01, -1.754552126e-02, 
    3.080096468e-02, -1.219725609e-01, -3.070929088e-02, -1.061373111e-02, 
    2.319885418e-02, 1.822573692e-01, 2.731541097e-01, -6.336841732e-02, 
    -1.440847572e-02, 4.404665902e-03, -1.586450189e-01, -6.157177687e-02, 
    1.937910467e-01, 3.811164759e-03, 8.106458932e-02, 1.080363393e-01}, {2.507429756e-02, 1.022988036e-01, -1.356504858e-01, 1.531050652e-01, 
    9.545323253e-02, 6.248437613e-02, 2.473653108e-01, 1.982418001e-01, 
    4.205938056e-02, -1.320268512e-01, -6.453117728e-02, -1.139953062e-01, 
    -5.950359255e-02, 6.320394576e-02, 7.140429318e-02, -8.463995904e-02, 
    -4.730235413e-02, 2.927164733e-01, 1.000697091e-01, 2.627849281e-01, 
    -3.209134191e-02, -3.600578522e-03, -1.539024711e-01, -8.444776759e-03, 
    -5.231976509e-02, -1.854118556e-01, -1.172642410e-02, 1.557223797e-01, 
    8.670005947e-02, -2.047282159e-01, 1.656074971e-01, -4.282439128e-02, 
    -1.970447972e-02, -3.169972897e-01, 1.620484293e-01, -2.992248349e-02, 
    1.116834208e-01, 2.078862116e-02, 4.138595611e-02, -3.158310056e-02}, {1.873100847e-01, 5.619201064e-02, -1.889536530e-01, 4.905160889e-02, 
    -1.485254914e-01, -2.544754446e-01, 8.783608675e-02, 8.306860179e-02, 
    -5.103125796e-02, -6.306729745e-03, -1.141886637e-01, 2.435839176e-02, 
    -4.005532265e-01, -2.986391485e-01, 1.057751849e-01, 1.271412373e-01, 
    1.150657684e-01, -2.792411447e-01, 8.543248475e-02, -1.564735323e-01, 
    7.314264774e-02, 1.530891508e-01, -1.124858931e-01, -6.442021579e-02, 
    -1.689451337e-01, 1.717050970e-01, -3.150014579e-02, -5.403860286e-02, 
    -1.973388493e-01, -2.606436908e-01, 1.018934324e-02, 1.286423299e-02, 
    -3.343056142e-02, -4.442498833e-02, -4.943263531e-02, 1.225271728e-02, 
    -2.130713314e-01, 1.512129903e-01, 7.101602107e-02, 2.068429021e-03}, {3.011145890e-01, -1.523129046e-01, 4.424249232e-01, 2.250366211e-01, 
    6.245181337e-02, -3.690191805e-01, 3.771029413e-02, -9.222991765e-02, 
    1.315969378e-01, -1.332536489e-01, 2.443345785e-01, 1.791788191e-01, 
    -3.086826205e-01, -1.472810004e-02, -5.599906445e-01, -3.504372537e-01, 
    -2.125489712e-01, -2.923819721e-01, -2.532858551e-01, 2.198974341e-01, 
    -1.125330254e-01, -6.396499276e-02, 1.168314293e-01, -2.753877938e-01, 
    -5.493655801e-01, 1.549016684e-01, 1.897247732e-01, 5.598575994e-02, 
    2.577173710e-01, 2.747822320e-03, -2.503603101e-01, -2.046400160e-01, 
    -8.009957522e-02, 1.190934777e-01, 5.148875341e-02, 1.297688391e-02, 
    -8.453491330e-02, -4.173569754e-02, -1.385954261e+00, 2.345080078e-01}, {-1.882736385e-01, -8.443158120e-02, 1.534321755e-01, 1.349208355e-01, 
    1.429364830e-01, -1.518614143e-01, 2.192197889e-01, 1.026854366e-01, 
    -9.515465237e-03, 1.823734045e-01, 2.065021843e-01, 8.622469008e-02, 
    -1.835163087e-01, -8.000257611e-02, 1.098264754e-02, 8.578242362e-02, 
    9.158170223e-02, -2.529171705e-01, 1.798736155e-01, -1.620898098e-01, 
    8.108594269e-02, 1.224588323e-02, 7.163842767e-02, 1.726720631e-01, 
    -2.923091315e-02, -4.264753684e-02, -9.059443325e-02, -6.650377065e-02, 
    1.250623018e-01, -1.369701885e-02, -6.804625504e-03, -9.701751173e-02, 
    1.686042920e-02, 1.161824018e-01, 1.315947175e-01, 1.251567062e-02, 
    1.281025857e-01, 3.052826971e-02, 9.753997624e-02, -7.143446058e-02}, {2.789946496e-01, 8.328807354e-02, 3.053867817e-01, -8.622625028e-04, 
    -6.714164466e-02, -2.062666416e-01, 3.029321730e-01, -1.179945618e-01, 
    -2.127227187e-01, -1.315830946e-01, -8.915396780e-02, 2.683064342e-01, 
    -1.892244667e-01, -2.757786512e-01, -2.347195297e-01, -7.992863059e-01, 
    -1.177907884e-01, -7.965334505e-02, -2.762798779e-02, 1.121168137e-01, 
    -4.115921259e-01, 4.346785247e-01, 5.215078220e-02, -5.211603045e-01, 
    -1.181333512e-01, 6.321732700e-02, 3.059841394e-01, -9.031450003e-02, 
    4.635219574e-01, 4.013276398e-01, 1.915423125e-01, -1.168773845e-01, 
    -7.868833542e-01, 1.588500589e-01, 5.383880138e-01, -1.669743955e-01, 
    -3.676505685e-01, -1.663616002e-01, -7.704864144e-01, -3.933664858e-01}, {4.198376089e-02, 1.087127700e-01, -5.066447258e-01, 8.737011254e-02, 
    1.608164012e-01, -1.192516163e-01, -1.404958963e-01, -9.413882345e-02, 
    -8.464779821e-04, -3.983213007e-02, -5.518586561e-02, -2.991871536e-01, 
    -3.298298120e-01, 2.499589920e-01, 4.068750516e-02, -1.581193693e-02, 
    1.465825438e-01, 7.076297700e-02, -4.997639358e-02, 5.251725316e-01, 
    1.048335955e-01, 1.344527453e-01, 2.394121587e-01, 2.022570558e-02, 
    7.847321033e-02, 5.489478633e-02, 5.766330659e-02, -5.808636174e-02, 
    1.671759784e-02, 1.060960293e-01, -2.640070915e-01, 7.398263086e-03, 
    -1.033720747e-02, -8.195380867e-02, -3.484880626e-01, 4.477723315e-02, 
    5.854786187e-02, -1.271598041e-01, -5.800565705e-02, 1.190592498e-01}, {2.481435984e-01, -5.486242771e-01, -6.555383205e-01, 2.177744806e-01, 
    -1.498411745e-01, 2.728455886e-02, -2.603528500e-01, 5.876333266e-02, 
    -4.574944079e-01, -7.272180915e-01, 3.674983680e-01, 5.845465064e-01, 
    3.250634670e-02, -3.430876732e-01, -7.521657944e-01, -5.337035060e-01, 
    -8.317003399e-02, 3.359917700e-01, 3.938277662e-01, 2.769364119e-01, 
    1.020610556e-01, 3.068936169e-01, -3.306313753e-01, -2.413756371e+00, 
    -6.731727123e-01, 1.556314677e-01, 4.466543347e-02, -7.222406268e-01, 
    -6.747702956e-01, 1.425326169e-01, 5.069117546e-01, -7.356351614e-01, 
    -3.428871930e-01, 3.806665838e-01, 3.821320534e-01, -7.540411353e-01, 
    -2.416593730e-01, 1.556705683e-01, -4.503621161e-01, 9.233163595e-01}, {2.132789344e-01, -1.156100854e-01, -1.050618216e-01, 2.352169454e-01, 
    -1.305424422e-01, -2.147201449e-01, 1.945783198e-01, 1.820151359e-01, 
    1.027956679e-01, 7.720745355e-02, -1.819057614e-01, 9.633258916e-03, 
    -1.233321130e-01, -5.480713298e-05, -1.404161006e-01, -1.165153608e-01, 
    -8.741978556e-02, 1.088644341e-01, 2.588114738e-01, -7.616939396e-02, 
    -5.120094866e-02, 1.250443012e-01, -1.657267809e-01, -4.801933467e-02, 
    -2.615031414e-02, -1.728448868e-01, 2.873829380e-02, -1.362384409e-01, 
    2.241284102e-01, -1.998410672e-01, -1.490823776e-01, -4.554505274e-02, 
    -1.902956218e-01, 2.479341626e-01, -1.464403570e-01, 8.595319092e-02, 
    1.438056082e-01, -1.340042502e-01, -2.411077172e-01, -5.080383271e-02}, {6.472718716e-02, 5.783413351e-02, -2.110463083e-01, -2.722999156e-01, 
    1.356121004e-01, 1.206878573e-01, -1.312188618e-02, -1.466535777e-01, 
    -1.421512067e-01, 5.232608691e-02, 2.513717711e-01, -2.263339460e-01, 
    -2.862918973e-01, 6.129935011e-02, -5.434953794e-02, -5.659709126e-02, 
    -3.162343800e-01, -1.777598262e-02, -1.660781801e-01, 1.276836693e-01, 
    -5.371292308e-02, 8.559481055e-02, -7.954341173e-02, -8.269987255e-02, 
    8.630299568e-02, -2.922011018e-01, 3.050431311e-01, 6.284876168e-02, 
    2.494325787e-01, 3.788469136e-01, 5.655086040e-02, 1.227074768e-02, 
    1.156564951e-01, 9.337498248e-02, 6.311377045e-03, 7.978023589e-02, 
    -7.774998993e-02, -8.951521665e-02, 4.217263311e-02, 5.013620481e-02}, {-2.270784825e-01, 1.192208081e-01, 1.805508286e-01, -6.314577460e-01, 
    -2.870820649e-02, -5.481030345e-01, -9.727463871e-02, -3.381581604e-02, 
    -1.522849053e-01, -9.562560916e-02, -1.038502976e-01, 5.565277115e-02, 
    -4.362173975e-01, 1.127199829e-01, -1.493129730e-01, 1.515744030e-01, 
    -3.939194679e-01, -3.826207295e-02, 6.932783872e-03, 1.416676044e-01, 
    4.951405525e-01, -1.108219847e-01, -1.396781355e-01, -3.148711622e-01, 
    2.449941337e-01, -1.218203083e-01, 2.296296954e-01, -2.265569568e-02, 
    -2.381491214e-01, -1.739987433e-01, -2.757656574e-01, -2.777809203e-01, 
    5.353664234e-02, 2.265693247e-02, 2.271782309e-01, -1.657607853e-01, 
    -1.100000218e-01, 2.341583222e-01, 1.767857522e-01, -2.201468945e-01}, {-1.204610541e-01, 6.547331065e-02, 1.039535403e-01, -2.267103940e-01, 
    -1.419514716e-01, -2.771965861e-01, -2.381741554e-01, 1.456758231e-01, 
    -1.282647904e-02, -5.165411532e-02, -4.672804102e-02, -1.247805823e-02, 
    -1.212188751e-01, 1.840909868e-01, -2.876053751e-01, -3.955800831e-01, 
    2.417638153e-01, 9.419508278e-02, 8.016507141e-03, -1.380913109e-01, 
    1.286996622e-02, 2.023088932e-01, -5.266155303e-02, -9.171231836e-02, 
    -1.393586844e-01, -5.557268485e-02, -9.518007189e-02, 8.077095449e-02, 
    6.136656925e-02, -3.437439501e-01, 1.501397192e-01, -2.662046552e-01, 
    5.438146740e-02, 5.197380483e-02, 3.220269978e-01, -4.621735588e-02, 
    -1.566000730e-01, 2.318173796e-01, -1.125527471e-01, 1.411030418e-03}, {1.460455656e-01, -8.630101085e-01, 7.178541739e-03, 1.858218610e-01, 
    -2.772244811e-01, -4.097894430e-01, 3.495548964e-01, -3.868668973e-01, 
    -1.562298089e-01, 1.104207709e-01, -1.182375997e-01, -1.616505906e-02, 
    1.168550849e-01, -1.686256677e-01, -2.144049853e-01, 1.401420741e-04, 
    -3.716544509e-01, -1.221872866e-01, -2.316600233e-01, 2.003290802e-01, 
    -1.923653763e-03, 1.556927860e-01, -3.173706308e-02, -1.199856326e-01, 
    -1.274109632e-01, 1.273676306e-01, -4.602327049e-01, -1.129202992e-01, 
    5.927256495e-02, -6.553480029e-02, 3.022542596e-01, -4.014187753e-01, 
    1.703325957e-01, -5.117043480e-02, -1.692883819e-01, -1.807019114e-01, 
    2.586721778e-01, -3.008165658e-01, 1.586563289e-01, 2.170404792e-01}, {3.607255220e-01, -1.718003452e-01, 3.028428555e-01, -8.646907657e-02, 
    -2.597375400e-02, -1.519220024e-01, 2.253251076e-01, 1.183614228e-02, 
    4.608210549e-02, -3.457276225e-01, 1.946799755e-01, -2.974040247e-02, 
    7.536283880e-02, 1.107989922e-01, -1.157179251e-01, -4.089570791e-02, 
    -4.622358978e-01, 5.656496435e-02, -5.840505287e-02, 2.201863080e-01, 
    9.271089733e-02, -1.050195098e-02, 1.718070358e-01, -2.162680179e-01, 
    -8.375843763e-01, -1.419580579e-01, 6.327710748e-01, -1.113352105e-01, 
    -1.274412870e-01, -2.885721922e-01, -2.578452826e-01, -3.918295801e-01, 
    -1.118990481e-01, 3.132680357e-01, 8.878840506e-02, -1.578416228e-01, 
    9.678786993e-02, -1.181323454e-01, -6.903994083e-01, 1.293951273e-01}, {1.026535556e-01, 4.103722982e-03, 3.409717083e-01, 4.355427995e-02, 
    9.080492705e-02, -2.816113532e-01, 5.375888571e-02, 6.114778668e-02, 
    -1.117396206e-01, -1.682604104e-01, 2.614027560e-01, -1.739391685e-01, 
    -2.484146655e-01, 2.195394970e-02, -1.200173236e-02, -2.584677041e-01, 
    -5.422153324e-02, 1.551842988e-01, -7.491005212e-02, -1.122263148e-01, 
    2.034282498e-02, 1.451998949e-01, -4.951396957e-02, 4.627574235e-02, 
    -1.639031321e-01, -1.066614985e-01, 3.179689646e-01, -1.177806221e-02, 
    1.505990028e-01, 1.449985057e-01, -1.095542610e-01, 7.251445670e-03, 
    1.416676641e-01, -2.339471579e-01, -1.520646960e-01, -4.511273280e-02, 
    7.695072889e-02, -2.138375938e-01, -2.035968155e-01, -5.243527144e-02}, {9.329804033e-02, 1.673592925e-01, 3.489941061e-01, -1.471981257e-01, 
    1.260709316e-01, -2.014196068e-01, 1.232971102e-01, -3.316799998e-01, 
    -1.561008245e-01, -1.712640077e-01, 1.185368448e-01, 3.681764379e-02, 
    -1.775829643e-01, 1.339856386e-01, 1.656969339e-01, -2.109123766e-01, 
    -3.263790905e-02, -1.529873908e-01, 1.695519835e-01, 1.122281849e-01, 
    -2.447547391e-03, -5.917627364e-02, -4.170469344e-01, -9.558445960e-02, 
    -1.015155911e-01, -1.980191171e-01, -1.348028332e-01, 2.916378975e-01, 
    -1.591554880e-01, 1.171620190e-01, 2.309302390e-01, 1.376876025e-03, 
    1.910280883e-01, 1.274153776e-02, 2.713772655e-01, 2.016889602e-01, 
    1.365009546e-01, -3.901759386e-01, -1.137898713e-01, -5.829136074e-02}, {-2.543664165e-02, -2.558699064e-02, -4.772712663e-02, 1.706226468e-01, 
    -1.394417286e-01, -9.808698297e-02, 7.222386450e-02, -3.542970400e-03, 
    8.992721885e-02, -4.438722506e-02, 1.348638684e-01, -2.213864475e-01, 
    3.233442008e-01, 1.304894537e-01, -5.401707441e-02, 1.740988228e-03, 
    1.002327874e-01, 2.321542501e-01, -5.991842225e-02, -3.136422336e-01, 
    -3.734559566e-02, -2.396484613e-01, 1.637951136e-01, -2.722622454e-02, 
    -1.127363667e-01, 1.964777261e-01, 1.684762537e-02, 2.886864170e-02, 
    -2.150992453e-01, -1.791948378e-01, 1.393587291e-01, -2.356018499e-02, 
    -3.885161877e-02, -7.143968344e-02, 1.546609253e-01, -1.844762452e-02, 
    6.657293439e-02, 7.149578631e-02, 1.107537597e-01, 7.356122881e-02}, {-2.309353836e-02, -7.062003762e-02, 8.134922013e-03, -1.839654744e-01, 
    1.545535028e-02, 1.244837195e-01, 2.053596824e-01, -2.045523971e-01, 
    -4.476885777e-03, -1.653638780e-01, 3.249537051e-01, 2.321636528e-01, 
    -1.069295034e-01, -3.256786242e-02, -3.972345293e-01, -4.081270695e-01, 
    -4.319173098e-01, -5.297083259e-01, -2.686176300e-01, -7.298559695e-02, 
    9.754574299e-02, 9.206884354e-02, 1.555386931e-01, -1.433474422e-01, 
    -6.537488196e-03, 1.203108579e-01, 2.714653015e-01, 3.309666645e-03, 
    3.368355632e-01, 1.843668669e-01, -1.077267453e-01, -6.619786024e-01, 
    -3.220888972e-02, -1.452952176e-01, 2.062499374e-01, 1.242133975e-01, 
    1.675761342e-01, 1.369939465e-02, -1.809420288e-01, 2.637280822e-01}, {1.501776874e-01, -8.203685284e-02, 1.604998112e-02, -2.202470452e-01, 
    -2.104280889e-01, -3.885966539e-02, -2.732392848e-01, -9.627033025e-02, 
    -1.389394104e-01, 5.950191407e-04, -1.018702090e-01, -1.221853718e-01, 
    5.480857193e-02, 2.139927745e-01, -8.674389869e-02, -1.632028520e-01, 
    1.541915350e-03, 7.405722141e-02, -2.472206354e-01, -1.766851097e-01, 
    1.416414380e-01, 2.929822803e-01, -4.419928044e-02, -6.415181607e-02, 
    2.403773367e-01, -1.814922988e-01, -2.436576933e-01, -8.485101163e-03, 
    -6.764400750e-02, 2.273417115e-01, -8.773146570e-02, 1.030713245e-01, 
    6.707300991e-02, -5.219832528e-03, 2.206013352e-01, -3.425860405e-02, 
    -7.831946760e-02, 2.607073188e-01, -1.464221179e-01, 1.793043613e-01}, {-3.367895186e-01, -7.803597450e-01, 6.437439471e-02, -3.124210835e-01, 
    3.024090230e-01, -3.284900188e-01, -1.088401824e-01, -7.218303531e-02, 
    -5.788166523e-01, -4.110209942e-01, 2.454534471e-01, 2.702395916e-01, 
    -5.232617725e-03, -2.115354836e-01, -7.538255453e-01, -2.515363097e-01, 
    -2.414245903e-01, 2.225042284e-01, 4.914165437e-01, 1.673457474e-01, 
    1.040977836e+00, 1.101343706e-01, -1.687542349e-01, -4.599832594e-01, 
    -2.979388535e-01, -3.571259379e-01, -1.380996662e-03, -8.831365705e-01, 
    -7.413370907e-02, 3.147067875e-02, -6.416219473e-02, -2.220054716e-01, 
    2.559182001e-03, -3.170520812e-02, 1.886982024e-01, -1.276157618e+00, 
    -6.689624190e-01, 3.154027164e-01, -1.192087010e-01, 3.154905140e-01}, {4.651649296e-01, -8.994230628e-02, 1.484113187e-01, 1.204986349e-01, 
    1.452723891e-02, -4.112493396e-01, 3.990046307e-02, 2.417757511e-01, 
    -3.197004646e-02, -1.859035715e-02, -4.185087085e-01, 6.440492719e-02, 
    -8.110133931e-03, 1.691677421e-01, -2.076229304e-01, -4.229046106e-01, 
    1.460969746e-01, 2.327938080e-01, 1.620403081e-01, -9.018912911e-02, 
    -4.559226334e-02, -5.394421518e-03, -1.661148369e-01, -2.535853088e-01, 
    -5.570619181e-02, 2.748408169e-02, -9.273206443e-02, -1.026370302e-01, 
    6.820573658e-02, 2.638941705e-01, -3.463968635e-01, -3.153106570e-02, 
    -1.145090759e-01, 2.328081578e-01, -1.983470619e-01, 1.062942073e-01, 
    -6.662089378e-02, -8.687157184e-02, -4.133706912e-02, -1.189740598e-01}, {1.729273647e-01, 2.202565521e-01, 2.585360110e-01, 1.793996394e-01, 
    3.823507428e-01, 4.012618959e-02, 1.247926131e-01, -2.196323723e-01, 
    2.138805203e-02, 1.744370759e-01, 2.489382178e-01, -7.712005079e-02, 
    1.706904024e-01, 1.604429185e-01, 4.820134863e-02, -9.270813316e-02, 
    1.231320202e-01, -3.111331761e-01, 6.926997751e-02, 5.679900572e-02, 
    1.900321990e-01, 1.378807873e-01, -1.283290982e-01, 2.272493988e-01, 
    -9.543530643e-03, 2.304900587e-01, 4.607121274e-02, 7.759040594e-02, 
    -9.242624789e-02, -1.570193172e-01, -1.122579724e-02, -1.192804147e-02, 
    1.980388351e-02, -1.760310978e-01, 5.026302487e-02, 8.774669468e-02, 
    8.093985170e-02, 1.109409630e-01, 5.333389714e-02, 1.736473106e-02}, {2.271635830e-01, -1.253538430e-01, 2.501702607e-01, -1.196392439e-02, 
    5.874339864e-02, -2.070067823e-01, -1.353118569e-01, 1.685768515e-01, 
    -1.509763747e-01, 8.670423180e-03, 2.363116108e-02, 1.831035167e-01, 
    1.301227659e-01, 1.250928044e-01, -9.393770248e-02, 8.531143516e-02, 
    -5.783907324e-02, -2.440841049e-01, -1.255465746e-01, -7.791223936e-03, 
    4.125468060e-02, 1.923918724e-02, -1.521586925e-01, 1.485615373e-01, 
    -1.379742324e-01, -4.960089549e-02, 1.670743674e-01, -8.449458331e-02, 
    -3.320106566e-01, 3.760281205e-01, -1.004215106e-01, -1.308316737e-01, 
    1.372850388e-01, 4.225448892e-02, -8.018602431e-02, -3.865152970e-02, 
    3.236574531e-01, -2.173454911e-01, -8.917531371e-02, -8.261191845e-02}, {-2.494599521e-01, 1.422671825e-01, 4.625261575e-02, -8.277864456e-01, 
    -3.870020434e-02, -1.156710684e-01, 3.473202139e-02, 2.099859864e-01, 
    -1.371646672e-01, 3.506935388e-02, 1.350926608e-01, 3.734334111e-01, 
    -5.944173932e-01, 1.960910857e-01, -5.641154647e-01, 1.580342278e-02, 
    2.328259200e-01, -5.043565854e-02, -1.939452887e-01, -7.928913832e-02, 
    -1.751446426e-01, 6.327777356e-02, 1.676167250e-01, -4.181740433e-02, 
    -3.470873237e-01, 3.153687119e-01, -1.270356774e-01, 7.649621367e-02, 
    -1.344451457e-01, 3.491424024e-02, 1.779056191e-01, -2.011067867e-01, 
    1.977118701e-01, -6.084746122e-01, 3.837277293e-01, -2.379342765e-01, 
    3.132184446e-01, 2.860623300e-01, -1.362539381e-01, 1.266373601e-02}, {-2.604638934e-01, 4.710181803e-02, -2.329431474e-01, -7.629772276e-02, 
    1.996036917e-01, 4.185173661e-02, 1.367670000e-01, -2.152956277e-01, 
    4.812685028e-02, 2.310967743e-01, -3.568844199e-01, -6.881952286e-02, 
    8.656884730e-02, -7.962977886e-02, 1.344006360e-01, -1.121510640e-01, 
    -2.219562680e-01, -3.245131671e-02, 1.169233546e-01, -2.985124290e-01, 
    -1.248063222e-01, 1.497844309e-01, -2.156732827e-01, 2.859287858e-01, 
    3.776387870e-02, -2.214716077e-01, -2.496578544e-01, -1.058918312e-01, 
    -2.011859603e-02, -2.110964246e-02, -4.630086571e-02, 2.170994878e-02, 
    6.005175039e-02, 3.966017365e-01, 1.081136465e-01, 1.481579542e-01, 
    -1.426469833e-01, 3.921370208e-02, 1.450217217e-01, -3.977392241e-02}, {-3.426460922e-01, -7.698083669e-02, 1.656164974e-01, 5.073479190e-02, 
    -5.001934618e-02, -1.712258160e-01, 1.605768353e-01, -5.340545624e-02, 
    6.332306564e-02, -3.319751918e-01, -7.018595934e-02, 1.016719788e-01, 
    -4.467353821e-01, 1.001313329e-01, 4.705320671e-02, -2.249532789e-01, 
    3.531136811e-01, -3.045392968e-02, 8.419082314e-02, 3.885426223e-01, 
    -8.433330059e-02, 2.082681358e-01, -1.368213147e-01, -2.239139229e-01, 
    2.052756250e-01, 2.985269427e-01, -3.675441444e-01, -9.805908799e-02, 
    -6.360393018e-02, -1.187617183e-01, 3.355242908e-01, -1.967648268e-01, 
    -1.178766638e-01, -2.773694098e-01, 1.240271777e-01, -2.513393946e-02, 
    2.182543278e-01, 1.568313390e-01, -2.460782081e-01, -9.283451736e-02}, {2.919349074e-01, -3.568864763e-01, 3.603260815e-01, -4.171977043e-01, 
    1.304152012e-01, -2.443070896e-02, 9.616678208e-02, 2.206802368e-01, 
    7.377539575e-02, -9.263181686e-02, 1.159225330e-01, 1.509862840e-01, 
    3.628791571e-01, -2.170547992e-01, -2.124210894e-01, -3.132977709e-02, 
    1.665707380e-01, 4.153994620e-01, 1.569315642e-01, 3.384560943e-01, 
    1.544787455e-02, -1.628860533e-01, 3.485936671e-02, -2.189335376e-01, 
    -3.027499616e-01, 1.807057410e-01, -5.397871882e-02, -4.717291892e-01, 
    1.529172529e-03, 3.247960508e-01, -1.495961100e-01, -6.242199540e-01, 
    4.261885956e-02, -1.393243074e-01, -1.605458856e-01, -2.731424570e-01, 
    1.335054487e-01, -1.307558417e-01, -5.913189054e-01, -2.924955487e-01}}};

const float bias_hid[NUM_HIDDEN_LAYERS-1][NUM_NODES] = {{1.728940010e-01, 3.988312930e-02, 2.533114515e-02, 4.551906511e-02, 
    -6.858482491e-03, -4.810246080e-02, 2.524084225e-02, -1.576575041e-01, 
    -4.335117061e-03, -1.596057415e-02, 2.857869864e-01, -3.215905651e-02, 
    4.948396818e-04, -5.091985315e-02, -4.663946107e-02, 3.694732115e-02, 
    1.786465496e-01, -3.850052506e-02, 1.128283441e-01, -2.071657181e-01, 
    2.282944173e-01, -2.931839228e-02, -7.189211249e-02, 3.194497898e-03, 
    5.569903925e-02, -7.241890766e-03, 2.056022584e-01, 4.631536081e-02, 
    6.855959073e-03, 7.234179974e-02, -4.112083465e-03, -1.042118520e-01, 
    2.381675504e-02, 1.028651372e-01, -1.906745881e-02, -1.839466766e-02, 
    -8.076117374e-03, -1.180669200e-02, 3.994128481e-02, 1.635475159e-01}};