#include "nn_parameters.h"

const int num_nodes_vec[NUM_LAYERS] = {10, 40, 40, 4};

// NN network parameters -- atribute values
const float weights_in[NUM_NODES][NUM_STATES] = {{-1.219514851e-02, 1.083582863e-01, 2.512461133e-02, 9.693287015e-01, 
    -4.524555057e-02, 5.134567991e-02, -6.086265296e-02, 4.637648463e-01, 
    5.710366368e-01, 7.301618457e-01}, {7.951143384e-01, -1.274104476e+00, 2.359281480e-02, 4.268189073e-01, 
    -1.087978840e+00, 2.538400143e-02, 1.210936546e+00, -5.477852002e-02, 
    -3.590119183e-01, -5.542210937e-01}, {2.535628378e-01, -3.909901679e-01, -7.756794244e-02, 7.277868390e-01, 
    2.119270861e-01, -9.633047134e-02, -4.748794138e-01, -7.105113268e-01, 
    -5.603867769e-01, -2.383236438e-01}, {-6.912888288e-01, -1.491819918e-01, -1.657219231e-01, 1.023574322e-01, 
    -9.986520410e-01, -1.359067261e-01, 2.533143282e+00, 2.562029660e-01, 
    -5.782544613e-01, 2.951984704e-01}, {9.718480110e-01, 1.412120342e+00, 1.675790995e-01, 1.112752557e+00, 
    -1.400821209e+00, 2.261841595e-01, 1.290004611e+00, -1.246783495e+00, 
    -1.409529746e-01, -7.817070484e-01}, {5.018286705e+00, 1.746106029e+00, -1.167570427e-01, 2.408163548e+00, 
    1.005009532e+00, -2.806125022e-02, -3.549958766e-01, 1.848457098e+00, 
    -1.668180466e+00, -1.061164975e+00}, {1.577230930e+00, -4.551638126e+00, -1.423543692e-01, -5.074483156e-01, 
    -1.179356694e+00, -1.411268413e-01, -2.116753757e-01, -1.139585257e+00, 
    -1.524177194e+00, -2.405231714e+00}, {8.894212246e-01, -1.045364618e+00, 1.935404912e-02, 5.711950660e-01, 
    1.465463936e-01, -1.012550108e-02, 1.076861501e+00, 5.711871982e-01, 
    -4.009075463e-01, 9.566692710e-01}, {1.928928137e+00, 8.416869491e-02, -2.149670720e-01, -1.119697809e+00, 
    -4.242598057e+00, -1.465082914e-01, 5.104343295e-01, 6.637883186e-01, 
    -5.355384946e-01, 3.728286266e+00}, {-5.621408820e-01, 1.374287605e+00, 2.053978592e-01, 1.231181264e+00, 
    -5.718677044e-01, 1.574574262e-01, 3.065818250e-01, 3.900391459e-01, 
    3.516412079e-01, -2.201224089e+00}, {4.318183288e-02, -2.838891149e-01, -5.673344061e-02, 5.046115257e-03, 
    -8.913579583e-01, -1.987977698e-02, 4.547948837e-01, 1.007327795e+00, 
    -5.022104383e-01, 9.604827762e-01}, {-8.334179968e-02, 2.053375542e-01, 2.109422237e-01, -2.839409411e-01, 
    6.185120940e-01, 1.838436127e-01, -3.668384552e-01, -5.132477283e-01, 
    -4.204813838e-01, 2.278497219e-01}, {-2.801133156e+00, 4.472968355e-02, -8.631962352e-03, -2.441116333e+00, 
    -9.574541450e-01, 4.054581374e-02, -3.954011500e-01, 1.473213285e-01, 
    1.239818573e+00, 1.093581676e+00}, {-6.620340824e+00, 5.744004726e+00, 2.097842991e-01, 2.225066900e+00, 
    -2.247282982e+00, 1.420264989e-01, 4.075735509e-01, 7.401841879e-01, 
    4.712851942e-01, -1.209526896e+00}, {2.415897131e+00, 8.344744444e-01, -9.241683036e-02, 1.240876079e+00, 
    -1.239566952e-01, -1.303945333e-01, -6.388227344e-01, -3.931499720e-01, 
    -2.268305719e-01, -4.339267015e-01}, {-2.310023308e-01, 4.874362051e-01, 6.016525999e-02, 3.134528399e-01, 
    6.096011996e-01, 5.185099319e-03, -4.451507330e-01, 2.267129719e-01, 
    -1.191422701e+00, -8.610550165e-01}, {-2.205477476e+00, 1.856462359e-01, 2.205457091e-01, 1.291254610e-01, 
    6.726942658e-01, 1.938001812e-01, 5.918753743e-01, -9.964404702e-01, 
    -2.679736316e-01, -8.263000846e-01}, {4.684635997e-01, 2.020967245e+00, -6.470763125e-03, 4.135107994e-01, 
    6.423128247e-01, 1.832785271e-02, 1.023681983e-01, 4.174910188e-01, 
    -4.465978146e-01, 1.039090991e+00}, {-3.176137805e-01, 1.335199028e-01, 2.866001055e-02, 1.027174950e+00, 
    -4.562180042e-01, 1.190185845e-01, 8.217471242e-01, 6.366950870e-01, 
    -6.190232038e-01, -2.888723314e-01}, {-3.689224124e-01, 6.964688301e-01, 9.853198379e-02, -8.425867558e-01, 
    -4.200896025e-01, 1.556195468e-01, 8.144230843e-01, 2.614147365e-01, 
    1.898343116e-01, -3.796296716e-01}, {2.605772734e+00, 1.079540491e+00, -1.186474115e-01, 2.497328073e-01, 
    -8.823828399e-02, -5.384886265e-02, 9.035848379e-01, 5.695121288e-01, 
    1.624001116e-01, 3.198610842e-01}, {-8.642923236e-01, 1.173317209e-01, 5.375785287e-03, -2.804085910e-01, 
    -8.598493934e-01, 3.874349175e-03, -9.294984937e-01, 3.454476297e-01, 
    -9.761298895e-01, -1.689126968e+00}, {-1.506050110e+00, -5.753514767e-01, -1.698013246e-01, -9.968076944e-01, 
    -7.560529560e-02, -1.871596128e-01, 6.922013164e-01, 2.554626763e-01, 
    1.578824371e-01, -1.181964278e+00}, {-1.233173370e+00, 2.952272892e+00, -2.802627385e-01, -2.523099661e+00, 
    4.589498043e+00, -2.778092325e-01, 6.895639747e-02, 1.349240661e+00, 
    2.548257411e-01, -9.507517219e-01}, {-2.934651613e+00, -8.123290062e+00, -4.880340770e-02, 2.533268452e+00, 
    1.931323051e+00, -1.132486537e-01, 4.246058464e-01, -5.555476546e-01, 
    -7.280386686e-01, 5.794040680e+00}, {-9.954728186e-02, -9.768669307e-02, -2.564567327e-01, -6.465933919e-01, 
    1.255217344e-01, -2.086401433e-01, 1.443789452e-01, -3.834604621e-01, 
    -5.968750119e-01, -1.106500387e+00}, {-1.173369050e+00, 1.303719044e+00, -7.367940992e-02, -2.041986734e-01, 
    3.692925870e-01, -1.031001359e-01, 9.946243763e-01, -2.718759179e-01, 
    -2.497492433e-01, 1.723846197e+00}, {6.008507013e-01, 2.765689790e-02, -7.245551795e-02, 1.061154246e+00, 
    1.057632208e+00, -6.099947169e-02, 1.965839118e-01, -2.191658914e-01, 
    3.015024066e-01, -8.330676556e-01}, {-3.998445272e-01, 5.802435279e-01, -3.438568413e-01, 5.619422793e-01, 
    -6.905285716e-01, -3.414770663e-01, -7.715905309e-01, -1.883177459e-01, 
    -1.037998080e+00, 6.766901612e-01}, {2.483253032e-01, -4.309513867e-01, -8.459588140e-02, 6.228029132e-01, 
    2.058861703e-01, -7.893811166e-02, 3.685909808e-01, -1.030631661e+00, 
    -1.217910573e-01, 3.865267038e-01}, {-4.778639078e-01, -3.330326974e-01, 3.504749015e-02, 3.011585474e-01, 
    2.866476309e-03, -2.232540213e-02, -1.760216355e-01, 4.912220836e-01, 
    2.419893444e-01, -3.436687887e-01}, {-1.371019334e-01, -1.745439917e-01, 1.711196661e+00, 1.055949256e-01, 
    -7.333964705e-01, 1.804313779e+00, 3.659172356e-02, -5.973871946e-01, 
    -3.687593937e-01, -1.044148088e+00}, {2.482619584e-01, 7.469112873e-01, -1.905917376e-02, 1.103328228e+00, 
    8.007343411e-01, -8.866043389e-02, -6.389064789e-01, 5.415222421e-02, 
    -1.059904471e-01, 2.047182024e-01}, {-2.271147445e-02, 1.821100593e+00, -1.289511099e-02, -5.655490980e-02, 
    1.023643017e+00, 3.852381185e-02, 7.577894926e-01, 3.506285250e-01, 
    -4.252498150e-01, -2.228173316e-01}, {-6.054939032e-01, -5.101661086e-01, -1.416193228e-02, 2.187282741e-01, 
    -5.785284638e-01, 1.558924560e-02, -2.848823667e-01, -1.408890247e+00, 
    1.205597997e+00, 5.098575950e-01}, {-6.350284219e-01, -3.889313042e-01, 4.762825742e-02, 3.861600161e-02, 
    -7.333369553e-02, 6.568712648e-03, 1.053722620e+00, 1.850987971e-01, 
    -7.927516103e-01, -3.932962418e-01}, {4.774552956e-02, 1.704474241e-01, -5.958089828e-01, 1.869030148e-01, 
    2.448396683e-01, -5.938513875e-01, -4.711961001e-02, 3.935053349e-01, 
    3.845533729e-01, 5.439765453e-01}, {1.756179184e-01, 7.093043625e-02, -2.308470160e-01, 1.669489443e-01, 
    -5.071843266e-01, -2.519526780e-01, -3.016213775e-01, -6.460870504e-01, 
    7.138745189e-01, -7.722026706e-01}, {-5.679347366e-02, -6.483267248e-02, -4.458742216e-02, -5.094827414e-01, 
    7.745136023e-01, -7.598086447e-02, 1.049178958e+00, -1.316729069e+00, 
    -6.016890407e-01, 4.624246061e-02}, {-1.362802029e+00, 1.026257634e+00, -7.756506559e-03, 5.615621805e-01, 
    1.417221129e-01, 4.004120454e-02, 2.475285053e+00, 3.309753537e-01, 
    1.242653653e-01, -2.892214358e-01}};

const float bias_in[NUM_NODES] = {-9.825303406e-02, -2.850433998e-02, -4.330483377e-01, 1.353113502e-01, 
    -5.248891935e-02, -8.532934785e-01, 3.870779881e-03, -1.664277017e-01, 
    -6.001132131e-01, 1.733924448e-02, 3.112250865e-01, 9.689619765e-03, 
    -3.852576017e-02, -4.771091342e-01, -2.426516712e-01, 1.160554811e-01, 
    -2.996248901e-01, -6.904874742e-02, 4.354810417e-01, -1.319048647e-02, 
    2.081876844e-01, -1.411079708e-02, -2.779436409e-01, -1.670733690e-01, 
    -3.243445158e-01, -3.913465515e-02, 4.568288326e-01, 1.560308486e-01, 
    -1.659309417e-01, -2.061498463e-01, 3.811434284e-02, -4.890309572e-01, 
    -5.425322652e-01, 2.870442159e-02, -1.959246546e-01, -1.083944812e-01, 
    3.731814027e-01, -7.064617425e-02, 1.288003474e-01, -2.380467951e-01};

const float weights_out[NUM_CONTROLS][NUM_NODES] = {{-1.855526702e-03, 1.687594652e-01, 3.030811064e-02, -4.822731391e-02, 
    2.576459199e-02, -2.271856368e-02, 2.279844694e-02, -5.189914256e-03, 
    -1.542884558e-01, 3.328656778e-02, 3.083133399e-01, 1.640909463e-01, 
    -6.516291946e-02, -8.821724355e-02, 3.728781268e-02, -3.065691702e-02, 
    4.074458405e-02, -1.369078644e-02, 6.189085916e-02, -6.227059662e-02, 
    -1.127026975e-01, 3.195095807e-03, -8.592776954e-02, -6.078005210e-02, 
    -4.390023649e-02, 1.986295581e-01, -5.439863075e-03, -4.742653109e-03, 
    -3.638760149e-01, -2.373293191e-01, 4.244151711e-02, -4.474068806e-02, 
    -3.352453560e-02, -1.141757816e-01, -4.995641112e-02, 1.091896072e-01, 
    5.173112825e-02, -1.957759075e-02, -2.215393446e-02, 7.549704053e-03}, {-8.163329959e-02, 1.686976850e-01, 1.803214997e-01, -1.300009191e-01, 
    -4.832617640e-01, -6.113476586e-03, 3.279824741e-03, 1.664914936e-02, 
    7.290462404e-02, 1.050743014e-01, -7.514997572e-02, 3.007922769e-01, 
    6.907564402e-02, 1.294153333e-01, -1.628630608e-01, -1.730042994e-01, 
    -8.125118613e-01, -2.210545391e-01, -5.303401500e-03, -1.368132532e-01, 
    1.260234267e-01, 1.232650056e-01, -1.205464900e-01, 1.596985936e+00, 
    -5.712078139e-02, 2.123176605e-01, -1.330031753e-01, -1.201212127e-02, 
    4.691491276e-02, 6.256693602e-02, 1.361424625e-01, -2.416964173e-01, 
    -3.211451694e-02, -3.443403244e-01, 1.077859774e-01, 1.338412613e-01, 
    2.038969398e-01, 2.143276506e-04, 1.042171940e-01, -5.322454870e-02}, {-2.200379968e-02, -1.172762737e-01, -5.069126561e-02, 9.477270395e-02, 
    -3.001626134e-01, -4.636655003e-02, -1.842326298e-02, 2.519165166e-02, 
    1.318239570e-01, -6.193368137e-02, 9.655927867e-02, 9.540926665e-02, 
    -1.300384402e+00, -2.246408537e-02, 4.741695710e-03, -6.004514173e-02, 
    1.422414422e+00, 8.144170977e-03, 7.023572922e-02, 3.328361809e-01, 
    -1.857395172e-01, -2.106411010e-01, -2.278403491e-01, 3.353999555e-01, 
    4.997108877e-02, 8.086707443e-02, -1.701180637e-01, 3.916961700e-02, 
    7.093535364e-02, 1.870261431e-01, -8.433400095e-02, -1.523249298e-01, 
    1.187553704e-01, 8.138180524e-02, 1.253225189e-02, -1.532767117e-01, 
    3.049155772e-01, 7.261733059e-03, 2.984183729e-01, -5.979777128e-02}, {2.174204886e-01, -1.572912335e-01, -7.475006580e-02, -2.523535192e-01, 
    2.082412481e+00, -1.958493441e-01, 2.762110531e-01, 6.104734540e-01, 
    -2.952833101e-02, -8.773272038e-01, 8.514727652e-02, -5.309816450e-02, 
    -1.485862613e+00, 3.287738264e-01, -1.500964016e-01, -1.377470344e-01, 
    -9.005290866e-01, 1.716709137e-01, 3.163030744e-01, 9.354847670e-02, 
    1.073165983e-01, 1.840455234e-01, 4.806572199e-02, 9.880485535e-01, 
    -2.278910130e-01, -2.531309724e-01, 4.057427943e-01, -2.066029012e-01, 
    6.988939131e-04, -6.189120188e-02, 1.314555556e-01, -8.984225802e-03, 
    1.134344265e-01, -3.269889951e-01, -4.848952219e-02, -2.365509421e-01, 
    3.471727967e-01, 1.898505241e-01, 4.881195351e-02, 3.339414299e-01}};

const float bias_out[NUM_CONTROLS] = {-5.763950199e-02, -3.771017864e-02, -1.248768903e-02, 4.066407681e-02};

const float in_norm_mean[NUM_STATES] = {-9.486210127e-02, -2.234794955e-02, 1.678590247e-03, 5.526192764e-02, 
    8.882485117e-03, 8.119439587e-04, 8.631671911e-01, -2.891754025e-02, 
    2.854388739e-02, -6.706011374e-03};

const float in_norm_std[NUM_STATES] = {3.588364964e+00, 3.508105909e+00, 2.352239589e-01, 1.976141016e+00, 
    1.937881662e+00, 3.958552918e-01, 1.816014326e-01, 9.905500498e-02, 
    1.015679610e-01, 4.473806741e-01};

const float out_norm_mean[NUM_CONTROLS] = {1.256614566e-01, -1.125393962e-03, 2.384380632e-03, 1.104847360e-02};

const float out_norm_std[NUM_CONTROLS] = {5.146116765e-01, 4.722583984e-01, 4.720773074e-01, 6.070690350e-01};

const float out_scale_min[NUM_CONTROLS] = {-7.660615055e+00, -9.522786420e+00, -1.189338975e+01, -3.312717628e+00};

const float out_scale_max[NUM_CONTROLS] = {7.172241151e+00, 1.284739259e+01, 1.118352612e+01, 3.027178789e+00};

const float weights_hid[NUM_HIDDEN_LAYERS-1][NUM_NODES][NUM_NODES] = {{{-2.478868365e-01, 9.608221799e-02, -1.117921174e-01, 3.795591593e-01, 
    -1.909560175e-03, 2.546097524e-02, 1.679370850e-01, -6.877497584e-02, 
    -7.782985270e-02, -3.634637296e-01, 2.915824652e-01, 2.444202304e-01, 
    -1.886915267e-01, 9.449797124e-02, 2.059808969e-01, 2.013696581e-01, 
    -2.715192139e-01, -4.512679875e-01, -2.162919939e-01, 3.208589554e-02, 
    -1.191915795e-01, -1.641276479e-01, -8.937423117e-03, -2.091477215e-01, 
    8.347862214e-02, 2.689641416e-01, 4.493122399e-01, -8.062916249e-02, 
    -2.491023093e-01, -6.217192486e-02, -1.821500361e-01, -5.306521431e-02, 
    -1.101961136e-01, -1.474976689e-01, -4.320913926e-02, -1.432056129e-01, 
    -1.156208143e-01, 5.066545680e-02, -9.959381074e-02, 4.496906698e-02}, {-4.730675817e-01, -7.329580933e-02, 2.434819937e-01, 1.996865571e-01, 
    -1.102332547e-01, -4.601485282e-02, 1.112733409e-01, -1.740608364e-01, 
    -8.121695369e-03, -3.855023682e-01, 9.821128100e-02, -4.187551327e-03, 
    -7.196521014e-02, 2.656699345e-02, 8.897460252e-02, 2.835543752e-01, 
    -2.711760402e-01, 3.745263908e-03, -2.008557916e-01, -1.337600499e-01, 
    4.498327523e-02, -9.952768683e-02, -4.388417304e-02, -6.491208822e-02, 
    -1.009135172e-01, -2.935800701e-02, -1.434914321e-01, -1.513343118e-02, 
    1.956332773e-01, 4.065200090e-01, 3.331597149e-01, 1.923383772e-02, 
    -1.030341238e-01, 2.402997762e-01, -8.811590075e-02, -1.948515028e-01, 
    1.401444674e-01, 3.346610442e-02, -3.327454254e-02, -2.232606411e-01}, {-1.900163740e-01, 3.142970204e-01, -3.008550406e-01, 6.803578883e-02, 
    2.380546182e-01, 1.187795550e-01, -5.211158190e-03, -2.260471284e-01, 
    -1.041894034e-01, 4.449516535e-02, -1.473001987e-01, -1.790756583e-01, 
    -2.094480209e-02, -4.518171027e-02, -1.613328606e-01, -1.405798942e-01, 
    -1.181872785e-01, -1.146822944e-01, 2.426981479e-01, -2.979016304e-01, 
    -8.391544223e-02, 2.657819539e-02, -2.815455794e-01, -1.733548567e-02, 
    1.474769861e-01, 7.773042470e-02, 2.264821976e-01, -2.968715876e-02, 
    1.054752711e-02, 3.702971339e-02, -1.827704608e-01, -6.110835075e-02, 
    7.100586593e-02, 3.007833064e-01, -9.443547577e-02, 8.817449212e-02, 
    1.693252474e-01, 2.780831158e-01, -1.531744283e-02, 8.548824489e-02}, {6.070250273e-02, 1.539255828e-01, -2.108561844e-01, 1.850042194e-01, 
    -1.079386845e-01, -1.665461957e-01, -1.349542290e-01, 4.438879490e-01, 
    -8.105696738e-02, 2.758013317e-03, 2.899556458e-01, 3.766102195e-01, 
    5.628765095e-03, -1.678713411e-01, -1.912540793e-01, 1.122846641e-02, 
    9.264905751e-02, -2.653012574e-01, 2.022462785e-01, -2.184032500e-01, 
    9.900706261e-02, -1.856973171e-01, 1.620024294e-01, -1.231606156e-01, 
    3.586633876e-02, 1.492806375e-01, -2.326234430e-01, -2.577854097e-01, 
    2.575860620e-01, 2.346266508e-01, 2.787513137e-01, -1.335065905e-02, 
    -6.169818342e-02, -5.380464196e-01, 3.299107552e-01, 1.926339269e-01, 
    -4.726720229e-02, -1.527625471e-01, 1.063435227e-01, -1.020414531e-01}, {5.690011196e-03, 1.688476205e-01, 2.187600583e-01, 5.170956850e-01, 
    1.097494550e-02, -9.272732139e-01, -8.821571469e-01, 3.263623416e-01, 
    -3.695069551e-01, 4.783992469e-01, 2.833093405e-01, -3.200775757e-02, 
    -6.920293570e-01, -1.571454644e+00, 1.177595109e-01, 3.352631032e-01, 
    -2.767501958e-02, -5.315953121e-02, 7.526775599e-01, -1.658491977e-02, 
    -1.574690193e-01, -2.935432196e-01, 1.766487211e-01, -1.190768838e+00, 
    -3.214135170e+00, -1.672835499e-01, 3.020652831e-01, 5.594189763e-01, 
    -2.188117057e-01, -6.926444918e-02, 4.226302803e-01, -1.049322367e+00, 
    6.437925100e-01, -7.941358536e-02, -8.074049950e-01, 4.687772691e-01, 
    3.967430815e-02, -6.724184752e-01, -1.079712361e-01, 3.575119674e-01}, {5.849239230e-01, -3.509031534e-01, 1.062932685e-01, -4.067479670e-01, 
    -1.770029515e-01, -1.203083396e-01, 3.568652868e-01, 1.033716649e-01, 
    1.597581953e-01, -1.220485494e-01, -3.696189448e-02, -4.166400433e-02, 
    -2.544763684e-01, -1.068582833e-01, -8.735173941e-02, -5.307971314e-02, 
    -1.453564875e-02, -1.845695823e-01, -2.651602216e-02, -4.519535303e-01, 
    -6.727587432e-02, 1.284530014e-01, 5.102943778e-01, -2.144290954e-01, 
    -1.245894283e-01, 3.632957861e-02, -1.658589765e-02, -1.246729419e-01, 
    -6.233455613e-02, -6.837737560e-02, 2.394974381e-01, 1.802011132e-01, 
    -2.497463971e-01, -4.707527757e-01, 1.027548984e-01, 8.457610011e-02, 
    2.119926363e-02, 7.696203887e-02, -1.226048246e-01, -6.706117988e-01}, {1.535006016e-01, -1.978326589e-01, 4.552188888e-02, 1.123346537e-01, 
    -3.604482487e-02, -2.095203996e-01, 4.466476291e-02, 3.480316326e-02, 
    -1.404510438e-01, 2.697439194e-01, -2.961592376e-01, 1.002018899e-02, 
    1.145433187e-01, -1.011861414e-01, -3.286249340e-01, 3.699376583e-01, 
    1.727243066e-01, -4.905234277e-01, 9.902296215e-02, 7.843428105e-02, 
    -4.829345047e-01, 2.885797024e-01, 1.627376974e-01, 5.294055119e-02, 
    1.562641412e-01, -2.896846235e-01, -2.594070137e-02, 1.874190569e-01, 
    -1.008254960e-01, -2.480814233e-02, 4.923881590e-02, -6.316905469e-02, 
    -1.583184302e-01, 4.017707407e-01, 7.451852411e-02, 2.791127563e-02, 
    -9.021865577e-02, 2.809836566e-01, 2.642025799e-02, 4.321353137e-01}, {-3.707373440e-01, 1.066068746e-02, 1.883185804e-01, -1.699228734e-01, 
    2.225929052e-01, -3.971177340e-01, -3.462277055e-01, 5.681635737e-01, 
    -1.012506559e-01, 8.928728700e-01, -1.379350126e-01, -1.580118388e-01, 
    8.656857163e-02, -6.577653289e-01, -5.421156883e-01, -3.684382513e-02, 
    -3.435107768e-01, 3.427852392e-01, 5.018338561e-01, -1.101226360e-01, 
    -2.715588175e-02, 1.300338507e-01, -5.045804754e-02, -1.035479754e-01, 
    -7.844644189e-01, -3.256602585e-01, 1.336901039e-01, 2.128592581e-01, 
    4.121559560e-01, -5.799826980e-01, 2.986270189e-01, -3.822688758e-01, 
    7.539136335e-03, -1.684326977e-01, 2.516298294e-01, 4.422408640e-01, 
    -9.564952552e-02, -3.539423645e-01, 2.116489857e-01, -3.120249808e-01}, {2.087413669e-01, -1.393617541e-01, 1.537301987e-01, 2.217678726e-01, 
    -7.542659342e-02, 1.409057528e-01, -2.872411720e-02, 1.274305582e-01, 
    8.917498589e-02, -1.119354367e-01, 2.223955393e-01, 1.361451950e-02, 
    -3.863031417e-02, 4.963777214e-02, -1.549077928e-01, -3.820658028e-01, 
    5.451651663e-02, -6.650999188e-02, -2.647243440e-01, 1.688537151e-01, 
    -1.444155071e-02, 5.323071778e-02, 1.545818448e-01, 1.011347920e-01, 
    3.230858222e-02, -7.752970606e-02, -6.883251667e-02, -2.820207775e-01, 
    1.710226089e-01, -1.160353888e-02, -5.989493430e-02, 2.150248140e-01, 
    1.236420423e-01, -2.435724437e-01, -1.729053557e-01, 8.411613852e-02, 
    -1.873218417e-01, -4.017552361e-02, 9.087455459e-03, -1.660888642e-01}, {5.343587399e-01, 3.186954185e-03, -3.854877083e-03, 3.098637164e-01, 
    4.129072428e-01, -3.167703748e-01, -2.889202237e-01, 1.554417890e-02, 
    -2.123889774e-01, -3.994393051e-01, 1.230812445e-01, 5.800824165e-01, 
    -8.474647999e-02, -8.755318522e-01, -6.664075255e-01, 5.172029138e-02, 
    -1.050595790e-01, 9.788616747e-02, 9.032136947e-02, -1.785010546e-01, 
    -8.082482382e-04, -6.334385276e-01, -4.835062027e-01, -2.672428787e-01, 
    -2.067904174e-01, -1.366060227e-01, 3.833033442e-01, -3.530566692e-01, 
    1.432542801e-01, -2.133814692e-01, 1.368340105e-01, -6.031991839e-01, 
    -3.198962212e-01, 2.822575867e-01, 5.926951393e-02, 1.751401275e-01, 
    1.123858243e-01, -3.421232998e-01, -2.497263402e-01, -8.821909130e-02}, {-1.747990251e-01, 7.032551616e-02, 3.380449116e-02, 1.318492889e-01, 
    -6.980330497e-02, 1.295172423e-02, -1.974104438e-03, 7.616323233e-02, 
    1.409706753e-02, 4.664618522e-02, 2.553702518e-02, -3.377766609e-01, 
    -8.816905320e-03, -2.009682357e-03, -8.577765897e-03, -2.105462737e-02, 
    -1.552180201e-02, -7.646715641e-02, 1.494629588e-02, -2.480315790e-02, 
    3.218428046e-02, -1.078168601e-01, 1.782532483e-01, 9.450174868e-03, 
    2.455105446e-02, 2.941218019e-01, 2.290263772e-02, 5.546696484e-02, 
    1.700534225e-01, 6.693539023e-02, -2.464062907e-02, -1.579453424e-02, 
    -1.094249543e-02, 7.247909904e-02, -1.443661600e-01, -1.822661310e-01, 
    6.229217052e-01, 1.535178572e-01, -3.251664713e-02, -9.505285323e-02}, {-4.321264327e-01, 1.192456037e-01, 6.664881110e-02, 5.116263870e-03, 
    4.258041456e-02, -7.114768773e-02, -1.771188378e-01, -2.523095012e-01, 
    -5.293536186e-02, -1.890967041e-01, 2.179004103e-01, -2.088012695e-01, 
    -7.613890618e-02, 2.346710116e-02, -1.002283320e-01, -2.277848721e-01, 
    1.826659143e-01, -2.069420964e-01, 4.844768718e-02, -3.227956891e-01, 
    2.349530011e-01, -8.386602998e-02, -1.524590999e-01, 5.198821425e-02, 
    -6.577815861e-02, 3.803531826e-02, 1.380387135e-02, 2.045418769e-01, 
    6.265950203e-02, -5.723643899e-01, 2.997448146e-01, -1.154506300e-02, 
    -2.963590063e-02, 2.295845747e-01, -3.171675652e-02, 1.138802469e-01, 
    7.437413931e-02, 2.840643823e-01, -3.250586987e-02, 3.492830321e-02}, {1.568618566e-01, 6.796360016e-01, 1.740015894e-01, 5.612722635e-01, 
    4.951613396e-02, -8.598263264e-01, -1.617631555e+00, 1.275134981e-01, 
    -6.012218595e-01, -2.057193220e-01, 2.730442882e-01, 3.550976217e-01, 
    -1.088163733e+00, -1.275839567e+00, -2.953046262e-01, -3.925086260e-01, 
    -4.140772820e-01, 1.422457993e-01, 2.222509831e-01, 4.013097882e-01, 
    4.328655303e-01, -7.144489884e-01, 6.900712103e-02, -9.110190272e-01, 
    -6.230894327e-01, -2.916122675e-01, 8.132860810e-02, 4.910711199e-02, 
    1.746587455e-01, -1.453031301e-01, -6.306085736e-02, -6.131794453e-01, 
    -6.774835289e-02, 8.724592626e-02, -5.679742098e-01, 9.308235347e-02, 
    -1.058740988e-01, -2.801317573e-01, -1.044414658e-02, 5.783309937e-01}, {-2.691381797e-02, -5.957930684e-01, 7.971973717e-02, 2.898015454e-02, 
    -9.213230014e-02, -4.482979774e-01, -4.946060944e-04, -1.048793942e-01, 
    -1.166869700e-01, -1.134340912e-01, 4.438792467e-01, 1.668291688e-01, 
    1.114677638e-02, -2.117423862e-01, -1.588962793e+00, -1.688301116e-01, 
    1.413641572e-01, -4.684910923e-02, 2.388480455e-01, -3.297806680e-01, 
    -1.022464752e+00, -4.435978830e-02, 5.876636878e-02, -1.495756954e-01, 
    1.813283772e-03, 1.101517528e-01, 4.177467227e-01, -1.052607596e-01, 
    1.531364024e-01, 5.443757400e-02, -2.725497782e-01, -7.672970742e-02, 
    -2.954424024e-01, 3.674180508e-01, 1.484715492e-01, -6.893871725e-02, 
    4.430681095e-02, -6.267544031e-01, -5.864430666e-01, 7.391890045e-03}, {-1.385150403e-01, -9.534063190e-02, -1.733058132e-02, -1.128902212e-01, 
    -1.067347080e-01, -1.830720715e-02, 2.688600421e-01, 5.236474052e-02, 
    -7.467913628e-02, -8.452516794e-02, -6.288656592e-02, 1.357287616e-01, 
    1.997116953e-01, 1.233869931e-03, -6.463266164e-02, -1.741087437e-01, 
    -1.617996097e-01, 2.872697413e-01, -2.783630975e-02, -3.559593484e-02, 
    1.739572138e-01, 1.476630270e-01, -2.745209634e-01, 1.141033173e-01, 
    4.274385795e-02, 1.267857701e-01, -4.431898892e-02, -5.523360893e-02, 
    -2.118483931e-01, 7.151968777e-02, -3.546390450e-03, -6.338916719e-02, 
    2.665255032e-02, -8.674965054e-02, 1.671937853e-01, -2.831739374e-02, 
    3.643530309e-01, -2.910929918e-01, -7.141967118e-02, -4.127871990e-02}, {4.886545986e-02, 2.724684179e-01, -1.825075448e-01, 1.201423630e-01, 
    6.244490668e-02, 3.757146187e-03, -8.268111199e-02, -5.730037764e-02, 
    7.771997713e-03, 1.094974279e-01, 1.677619368e-01, 1.676910520e-01, 
    -2.131175548e-01, 1.976773888e-02, -1.786097884e-01, -1.679789126e-01, 
    -2.726077735e-01, 4.012652934e-01, 2.715657651e-01, -2.040612251e-01, 
    1.432017684e-01, -7.190366089e-02, 3.156912029e-01, -6.799450517e-02, 
    1.422981918e-02, 2.463444769e-01, 7.593671978e-02, 8.194740862e-02, 
    -2.344818115e-01, 3.922403604e-02, -2.935770452e-01, -9.815503657e-02, 
    1.346870959e-01, -3.743167818e-01, 1.660590619e-01, -1.901071668e-01, 
    1.056064591e-01, 1.391392797e-01, -2.521724105e-01, -9.366456419e-02}, {-2.510267496e-01, 3.980405033e-01, 3.197245672e-02, 7.363292575e-01, 
    -8.779411316e-01, -1.376413703e+00, -6.893492937e-01, 1.067757979e-01, 
    -4.838833511e-01, -1.557580680e-01, 8.106477857e-01, -8.306230605e-02, 
    -9.990813732e-01, -9.737551808e-01, -6.401753426e-01, 1.208949909e-01, 
    -2.821179032e-01, -6.115484238e-01, 3.112672269e-01, 2.787033021e-01, 
    -5.441201329e-01, -4.376052320e-02, 3.276455998e-01, -5.638964772e-01, 
    -5.389142632e-01, 3.907977343e-01, 4.332925677e-01, -6.719077229e-01, 
    1.140440330e-01, -2.899639904e-01, -9.590236843e-02, -4.285563529e-01, 
    1.566933095e-02, 3.473553360e-01, 6.870324612e-01, 5.879966021e-01, 
    -3.314812183e-01, -3.645604849e-01, -5.206341743e-01, 4.510940313e-01}, {2.132489532e-01, -1.768994927e-01, 2.205612510e-01, 3.589234501e-02, 
    3.950276226e-02, 2.679120600e-01, -1.081719063e-02, -2.494322062e-01, 
    -7.736302167e-02, -2.585895658e-01, -1.579925418e-01, -7.172710896e-01, 
    2.086573839e-01, 1.518509467e-03, -1.090585962e-01, 3.206770718e-01, 
    -3.129516169e-02, -1.642006040e-01, 2.974515557e-01, -1.314528584e-01, 
    -3.404501379e-01, 3.392531769e-03, -2.223251164e-01, 1.951665990e-02, 
    7.249030471e-02, -8.047809601e-01, -1.582092047e-01, -6.903553009e-01, 
    -3.339471519e-01, 2.369876355e-01, -2.373831160e-02, 5.455065891e-02, 
    1.171768978e-01, 2.616417408e-01, 4.783550650e-02, -2.939093113e-01, 
    7.767599076e-02, -1.172358263e-02, -5.774536133e-01, 1.003021970e-01}, {-2.898218036e-01, 1.017431766e-01, 1.244346425e-01, -9.774079174e-02, 
    -1.658800840e-01, -4.469531402e-02, 1.971916854e-01, 1.029022858e-01, 
    -2.665726282e-02, -1.593812108e-01, 2.626816630e-01, -2.225404233e-01, 
    -5.314957723e-02, -1.447888911e-01, -1.567642689e-01, -2.212915570e-02, 
    2.703163028e-01, -4.754404128e-01, -1.379589140e-01, -4.969621450e-02, 
    -2.964660227e-01, -3.139504418e-02, -2.632100880e-02, -1.539241672e-01, 
    -1.033147871e-01, 5.984439701e-02, 1.093988940e-01, -1.029752195e-01, 
    -1.091732550e-02, -1.725100130e-01, 1.910611391e-01, 1.731039137e-01, 
    2.948665526e-03, -1.145867333e-01, -1.518697105e-02, -3.058168292e-01, 
    3.190844655e-01, 2.845507860e-01, 1.128284112e-01, 8.002257347e-02}, {1.745869219e-01, -5.106637478e-01, 4.478224553e-03, 2.952269614e-01, 
    -6.009219587e-02, -4.862086847e-02, -2.300539911e-01, -5.305788517e-01, 
    -8.986394852e-02, 1.966156363e-01, -7.773022354e-02, 4.706993699e-02, 
    -1.823278666e-01, -8.315611631e-02, 3.049735166e-02, 5.072715878e-02, 
    3.305479139e-02, 6.474468112e-02, -2.131771594e-01, 3.414925039e-01, 
    -2.350481302e-01, 1.034407318e-01, 7.713302225e-02, -1.155540198e-01, 
    -2.877344564e-02, 3.974021673e-01, 7.711675949e-03, 4.776133224e-02, 
    -2.285509109e-01, -2.973555028e-01, -1.554975510e-01, -2.698840760e-02, 
    2.850234695e-02, 1.662889123e-01, 4.982285947e-02, 2.260342091e-01, 
    1.522412151e-01, -7.824255526e-02, 1.712361351e-02, -7.855022699e-02}, {-8.010354824e-03, 3.559795022e-01, 2.409399599e-01, -1.429881454e-01, 
    -1.249384359e-01, -7.418731600e-02, -6.899685413e-02, -4.632278904e-02, 
    -1.333361119e-02, -2.476287447e-02, -3.600208461e-01, -2.534395456e-01, 
    -9.562726133e-03, 1.721692737e-03, 8.903167397e-02, -1.848762780e-01, 
    1.701433361e-01, 2.731162310e-01, 1.783760339e-01, -3.296278417e-02, 
    1.130410433e-01, -1.965228766e-01, 1.360652596e-01, -2.330593020e-02, 
    -2.667452954e-02, -4.966825619e-02, 2.530305684e-01, 1.885867417e-01, 
    -2.711042762e-01, 2.732912824e-02, 9.023778141e-02, -1.469192654e-02, 
    -1.995422989e-01, 1.985494494e-01, -6.116748974e-02, -5.250301957e-02, 
    6.071262062e-02, 1.217396334e-01, -1.678803414e-01, -2.586727440e-01}, {-1.014209166e-01, 9.896821529e-02, -3.885567188e-01, 2.988985479e-01, 
    -4.748793319e-02, -2.133031189e-02, 6.279661506e-02, 2.328131348e-01, 
    -6.513719261e-02, 2.169545293e-01, -4.306417331e-02, -5.505280569e-02, 
    -1.893164217e-01, -3.621561453e-02, -1.337106824e-01, -3.321284354e-01, 
    2.062929273e-01, 1.432260424e-01, -1.160242874e-02, -2.017667890e-01, 
    1.176244095e-01, 4.050423205e-01, -9.873765707e-02, 1.302736718e-02, 
    -6.948129088e-02, 6.894455105e-02, 1.623461396e-01, 1.613443047e-01, 
    -2.112230211e-01, -1.303532273e-01, 2.006310821e-01, 2.877579071e-02, 
    2.019859292e-02, -1.344001293e-01, -4.305069447e-01, -2.036278844e-01, 
    2.904611826e-01, -1.034212708e-01, -8.385268599e-02, -2.030457109e-01}, {4.787407815e-02, -7.148107886e-02, -2.578542531e-01, 2.711052299e-01, 
    -1.067516208e-01, -8.513765037e-02, 5.383209884e-02, 4.844919592e-02, 
    -1.071147397e-01, -9.578690678e-02, -2.143435329e-01, 1.271999776e-01, 
    2.320379466e-01, -1.070109978e-01, -1.728872061e-01, -5.021154508e-02, 
    -1.233979501e-02, 2.054322809e-01, -6.366272271e-02, 8.742617071e-02, 
    1.289904863e-01, -2.335602939e-01, 5.868918449e-02, -1.505597234e-01, 
    -1.481187530e-02, -1.136381030e-01, 1.289997548e-01, 1.626849920e-01, 
    1.939449459e-01, 8.166123927e-02, 1.956310496e-02, 2.765270770e-01, 
    -2.841339260e-02, 7.555369288e-02, -1.931688786e-01, -1.222847924e-01, 
    8.544936776e-02, 2.758406401e-01, 5.874615535e-02, -1.499369740e-01}, {1.823982894e-01, -1.158915684e-01, -4.313302934e-01, 4.826296270e-01, 
    4.079874754e-01, -8.551849127e-01, -9.612342119e-01, 2.764992118e-01, 
    -1.589959741e+00, 3.757567406e-01, -2.524607182e-01, 2.337206751e-01, 
    -4.789847732e-01, -1.219765663e+00, -1.903985888e-01, 2.555189729e-01, 
    -4.629870057e-01, -2.490984648e-01, 3.076938093e-01, 1.515808702e-01, 
    -6.600832939e-01, 8.245600462e-01, -1.685921401e-01, -6.571764946e-01, 
    -5.015608668e-01, -2.768447250e-02, 1.182284832e+00, 7.855922729e-02, 
    -4.492189288e-01, -3.475743234e-01, 2.692176998e-01, -7.666587830e-01, 
    1.526924223e-01, 4.667311013e-01, -1.047933817e+00, 2.338930070e-01, 
    -1.612718403e-01, -1.149586663e-01, -2.198028006e-02, 6.501173228e-02}, {-1.979116946e-01, 1.215821952e-01, -1.001371220e-01, 1.673646569e-01, 
    -2.174191773e-01, -2.467942238e-01, -1.151064262e-01, -2.295800298e-01, 
    -7.654565573e-02, 2.228347212e-01, 1.712708361e-02, -1.400892437e-01, 
    -1.215424910e-01, 4.020267725e-02, -2.563962042e-01, 1.780507118e-01, 
    2.090412527e-01, -8.621928841e-02, 1.356225908e-01, -5.292699486e-02, 
    -5.147417784e-01, 2.433567308e-02, 2.668171823e-01, 1.301598698e-01, 
    1.784713119e-01, 1.554179490e-01, 2.317553572e-02, 9.603482485e-02, 
    -3.112596087e-02, 2.500220537e-01, 1.368803829e-01, 1.938084699e-02, 
    -2.803323865e-01, 9.829942137e-02, 7.028384507e-02, 7.189990953e-03, 
    -2.159544379e-01, -2.340671569e-01, 2.562853694e-01, 6.005892158e-02}, {1.681464314e-01, 2.634569630e-02, 2.054169774e-01, 1.956831366e-01, 
    -1.953075677e-01, -5.401678011e-02, -7.239574939e-02, -1.684176028e-01, 
    -2.324719131e-01, -3.514397517e-02, 1.495105028e-01, -1.901080310e-01, 
    4.853067547e-02, -7.775527239e-02, -1.614592671e-01, 3.097570688e-02, 
    -9.155774862e-02, 1.264940947e-01, -2.443272620e-01, -2.057980150e-01, 
    8.991460502e-02, -1.147159189e-01, 1.484367400e-01, -1.705542058e-01, 
    1.944738999e-02, 2.626522183e-01, 5.005963519e-02, -1.971126944e-01, 
    4.095261917e-02, 1.081291214e-01, -3.068575263e-02, 1.826926768e-01, 
    -2.208466828e-01, 1.130428538e-01, -2.472817339e-02, 5.738181528e-03, 
    1.718148030e-02, 1.183369756e-01, -1.047748029e-01, 1.306401342e-01}, {-2.484637685e-02, 2.247742712e-01, -1.641198434e-02, 2.458384633e-01, 
    3.559755385e-01, -2.364511937e-01, -4.723747373e-01, 8.205675483e-01, 
    -1.081788421e+00, 2.548747361e-01, 4.079331458e-01, 2.465485036e-01, 
    -4.793843627e-01, -3.033732474e-01, -2.056189328e-01, 3.693534732e-01, 
    -3.729150593e-01, -3.087103069e-01, -7.762943208e-02, -2.368962616e-01, 
    -2.046718895e-01, 2.941850424e-01, 3.294467330e-01, -2.240460515e-01, 
    -9.476930648e-02, 4.049852192e-01, -1.808005720e-01, -6.582967937e-03, 
    9.840347618e-02, -2.396030873e-01, -1.609483808e-01, -7.761064917e-02, 
    -1.463026274e-02, -7.227292061e-01, 3.285684288e-01, 6.595463306e-02, 
    -3.881352544e-01, 1.233446226e-01, -8.436243981e-02, -1.748072803e-01}, {-3.937692195e-02, -6.023823023e-01, -2.144704014e-01, -2.711179852e-02, 
    1.739051007e-02, -4.022699222e-02, -4.058302641e-01, 1.725384146e-01, 
    2.096929997e-01, 3.100686371e-01, 5.882128328e-02, 5.163190961e-01, 
    -7.653096691e-04, -4.448816925e-02, -1.256321371e-01, 1.433721557e-02, 
    -1.121506244e-01, -4.656621814e-02, 1.994222701e-01, -7.280991971e-02, 
    -6.765325665e-01, 2.916153967e-01, -7.063654065e-02, 1.088225394e-01, 
    2.005291581e-01, 1.563786119e-01, -1.349578500e-01, -3.639281094e-01, 
    -3.497907519e-01, 1.673599333e-01, 2.630445361e-01, -1.863966584e-01, 
    -2.846771777e-01, -2.208456844e-01, 3.014018834e-01, -2.029211670e-01, 
    1.596079767e-01, 1.404368901e-03, 8.981042355e-02, 2.461420558e-02}, {-1.979716308e-02, -1.174166054e-01, -1.804575510e-02, 2.323861122e-01, 
    2.869317541e-04, 2.689353004e-02, -1.042356044e-01, 1.257425100e-01, 
    -6.193030253e-02, -1.071040705e-01, -1.104587838e-01, -1.636355068e-03, 
    -9.803543985e-02, 1.630471833e-02, 6.025619060e-02, 4.162610322e-02, 
    3.634703532e-02, -2.091006339e-01, -1.743863076e-01, -5.508617312e-02, 
    -2.090842277e-01, -1.918238550e-01, -4.598414525e-02, -5.700465292e-02, 
    2.391804755e-02, 1.419398040e-01, -1.010094136e-01, -4.784028605e-02, 
    9.518153220e-02, -6.221356392e-01, -1.160588674e-02, 3.198920488e-01, 
    -4.738558829e-02, 3.449445665e-01, -1.095626205e-01, -4.766772315e-02, 
    8.341063745e-03, -2.722280920e-01, -1.355406046e-01, 8.179501444e-02}, {-2.990409546e-02, -7.683485746e-02, 2.364983261e-01, -4.409330338e-02, 
    -4.892838374e-02, -1.304813176e-01, 1.449449509e-01, -3.569540009e-02, 
    -1.501288414e-01, -1.164902747e-01, -3.617519513e-02, -6.396243721e-02, 
    2.104213238e-01, -8.461192995e-02, 4.862094298e-02, -3.743191808e-02, 
    -2.178998142e-01, 1.255182922e-01, -6.534186006e-02, -2.091501206e-01, 
    1.635462046e-01, 1.288993359e-01, 8.125861734e-02, -2.451067604e-02, 
    -5.807602033e-02, -3.294942975e-01, 3.330560029e-02, 2.431984097e-01, 
    1.554587763e-02, -1.065352857e-01, 6.466396898e-02, 1.231829524e-01, 
    3.478686139e-02, 2.886912227e-01, -6.615243852e-02, -3.904296458e-02, 
    -2.720934451e-01, 6.515057385e-02, -1.072013602e-01, -2.454871871e-02}, {-1.920593232e-01, 3.264193237e-02, 2.261124179e-02, -1.097030193e-02, 
    -1.280135363e-01, -1.550295055e-01, -1.130628362e-01, -2.311987281e-01, 
    6.917838007e-02, 5.452160910e-02, 5.687368289e-02, -4.650006595e-04, 
    1.878411174e-01, -2.003790997e-02, -2.535903156e-01, -1.981356367e-02, 
    -1.962906271e-01, 1.286033392e-01, -1.085491255e-01, -3.749475777e-01, 
    1.746190712e-02, 7.555003464e-02, 9.129378200e-02, 1.476569772e-01, 
    1.971415132e-01, 4.951623827e-02, -1.627693921e-01, -4.674943984e-01, 
    -2.815269679e-02, 2.180328816e-01, -1.219325438e-01, 3.163992986e-02, 
    -2.342322282e-02, 5.112775415e-02, 2.106544971e-01, 5.623334274e-02, 
    -1.280507892e-01, 1.852922887e-01, 3.428733945e-01, -4.966720473e-03}, {-9.878321551e-03, 4.009501636e-01, -9.188023210e-02, 1.939719915e-01, 
    -4.062825441e-02, -1.602527313e-02, -1.843387485e-01, 1.764073074e-01, 
    -5.137400329e-02, -1.979028434e-01, -1.875558197e-01, -3.568358347e-02, 
    -8.802506328e-02, 4.430644587e-02, 1.562906429e-02, -1.545575410e-01, 
    -1.818419099e-01, -5.472797155e-02, -6.998030096e-02, 3.710577488e-01, 
    1.194212139e-01, 2.853986025e-01, 3.426892757e-01, 7.248090953e-02, 
    5.084113404e-02, 3.072621822e-01, -2.067241818e-01, 5.308440328e-02, 
    8.461264521e-02, 1.280781776e-01, -4.356838763e-03, 7.768689096e-02, 
    2.005032152e-01, -3.678106070e-01, -1.667798162e-01, -7.651439309e-02, 
    -1.610808074e-01, -9.191261977e-02, -4.973860085e-01, 8.951734751e-02}, {-1.950201392e-01, -2.188724838e-02, 2.547107637e-01, 6.604409218e-02, 
    1.360983551e-01, -4.821500741e-03, 7.829441875e-02, -6.072563305e-02, 
    -9.990462661e-02, -8.563056588e-02, 3.103612959e-01, -2.109923363e-01, 
    -9.565301239e-02, 6.052775681e-02, 4.027559236e-02, 1.206868067e-01, 
    1.052668318e-02, -4.407298192e-02, -1.453432590e-01, -3.249242902e-02, 
    1.827854067e-01, -9.754180163e-02, 3.554704785e-01, 6.058744714e-02, 
    -9.856186062e-02, 3.166603148e-01, -1.613383144e-01, 3.442436457e-02, 
    2.047561109e-01, -4.325344861e-01, -1.753433049e-01, -4.479752108e-02, 
    1.235755086e-01, 1.561418325e-01, 3.107123077e-02, 2.025861889e-01, 
    -2.702620924e-01, -1.419953108e-01, 7.146398723e-02, -1.846002191e-01}, {3.222736418e-01, 1.269789487e-01, -4.429529607e-02, 8.337879926e-02, 
    -7.297103852e-02, -1.045366451e-01, 1.156072132e-02, 2.082733251e-02, 
    1.253856421e-01, 2.715673484e-02, -1.978631318e-01, 3.829883412e-02, 
    -1.499737650e-01, -3.640692681e-02, -1.917273402e-01, 1.124493182e-01, 
    1.403671801e-01, -1.281333864e-01, -2.352438420e-01, -2.104087770e-01, 
    1.249727607e-01, 3.670096630e-03, 2.263703942e-01, -2.142157778e-02, 
    -1.289645731e-01, 5.687448382e-02, -1.247613654e-01, -1.336572319e-01, 
    -7.401005365e-03, 1.144592986e-01, -3.035838008e-01, 4.096950218e-02, 
    3.364626169e-01, -1.455440372e-01, -1.534868330e-01, 1.436708570e-01, 
    2.622180991e-02, -9.461563826e-02, -3.766848743e-01, 1.795160621e-01}, {1.468348503e-01, 2.414122075e-01, -6.026872247e-02, -7.388536353e-03, 
    -4.522733763e-02, 5.197012052e-02, 1.964869499e-01, 8.444343507e-02, 
    -1.207831781e-02, 8.036526293e-02, -3.410980850e-02, 1.341118962e-01, 
    9.028981626e-02, 1.291418076e-01, -6.090768427e-02, -1.705864519e-01, 
    -2.758298218e-01, -1.702935249e-01, -1.564511508e-01, -1.332512647e-01, 
    1.114666089e-01, -2.103544772e-01, -1.802124083e-01, 3.489918262e-02, 
    1.338246316e-01, 3.492993414e-01, -5.828443766e-01, 9.063865244e-02, 
    -3.052687645e-01, -5.661789700e-02, -6.750113517e-02, -5.772460625e-02, 
    2.114963718e-02, -2.530755699e-01, -1.157324668e-02, -1.743257791e-01, 
    -8.984538727e-03, 1.037244499e-01, 2.163280360e-02, 1.754634529e-01}, {-8.522874117e-02, 2.187470645e-01, 1.449461728e-01, -1.671443880e-01, 
    -1.483155936e-01, -1.183470115e-01, -3.123148903e-02, -1.057932973e-01, 
    7.499727071e-04, -8.045493811e-02, -2.631712556e-01, 5.469609424e-02, 
    1.274721622e-01, -5.836853012e-02, -1.945435703e-01, -1.594438404e-01, 
    2.012494653e-01, -1.695650071e-02, 1.763274223e-01, 7.136485726e-02, 
    -1.627127230e-01, 1.289710850e-01, 1.925799064e-02, -1.156480536e-01, 
    -5.977646261e-02, 1.484152228e-01, 1.018031966e-02, 2.676824480e-02, 
    1.158449352e-01, 6.130860001e-02, 1.356302798e-01, -7.067041099e-02, 
    -1.288136989e-01, 2.717789114e-01, -5.561016127e-02, -2.328979522e-01, 
    2.477014512e-01, 2.468981035e-02, -3.189155161e-01, 1.325213313e-01}, {-1.372262090e-01, -2.322537154e-01, -2.302127033e-01, 5.696069822e-02, 
    1.334795058e-01, -9.355141968e-02, -1.275750697e-01, -7.661610842e-01, 
    -1.053866446e-01, -1.522150487e-01, 4.079772532e-01, -9.176440537e-02, 
    -2.143253684e-01, 1.901134849e-02, 2.843888104e-01, 2.240067273e-01, 
    -2.536042035e-01, -2.974897325e-01, 2.550000846e-01, -9.545218199e-03, 
    -1.314343065e-01, 2.554977834e-01, -3.439707160e-01, -7.848189771e-02, 
    8.736454695e-02, -7.543105632e-02, 9.328179993e-03, 3.246458173e-01, 
    -4.649903178e-01, -1.669020578e-02, -2.411300242e-01, -8.287849277e-02, 
    -3.676991761e-01, -1.203039140e-01, -1.632921696e-01, 1.356686354e-01, 
    1.868978590e-01, 6.024222076e-02, -4.114753008e-01, 8.106039464e-02}, {5.221922994e-01, -2.792187631e-01, -1.230380535e-01, -6.816181540e-01, 
    -5.810490251e-01, -1.739545763e-01, 1.441483349e-01, 1.276830733e-01, 
    2.162085772e-01, 7.105989847e-03, -4.698918164e-01, -9.512496181e-03, 
    -3.238880634e-02, -1.790422440e+00, 1.898703128e-01, -6.586733460e-02, 
    -3.241147697e-01, -1.264431477e-01, -2.991193235e-01, 2.815414071e-01, 
    -7.292688638e-02, 1.207855344e-02, -4.353908896e-01, 1.587025523e-01, 
    -1.204134747e-01, 4.650119245e-01, -1.130201936e+00, 6.214680076e-01, 
    4.340429902e-01, -2.515297830e-01, -1.178817227e-01, 1.286387593e-01, 
    -2.822892070e-01, 4.767372012e-01, 1.186635718e-01, -1.125719920e-01, 
    -4.759382010e-01, -3.635722995e-01, 2.048997283e-01, -1.281980872e-01}, {-1.714412719e-01, 3.601267934e-02, -3.963237405e-01, -4.993779212e-02, 
    -1.785204411e-01, -1.626378298e-01, 2.693595365e-03, -2.369978093e-02, 
    4.284611717e-02, -2.563157678e-01, 3.388100863e-01, -1.574167013e-01, 
    -2.727502026e-02, -3.092890605e-02, 2.260417193e-01, -5.172488093e-01, 
    1.644508727e-02, -5.828647017e-01, -1.827542335e-01, 4.088333249e-01, 
    -9.190236032e-02, -2.940171659e-01, 1.318079531e-01, -1.409297287e-01, 
    2.787796408e-02, 2.748295367e-01, 3.654760122e-01, -3.369656801e-01, 
    7.278162986e-02, -2.938018367e-02, -6.839153767e-01, 6.886690110e-02, 
    1.247313921e-03, 5.548360348e-01, -4.524933174e-02, 5.178017169e-02, 
    1.358977798e-02, -3.914915025e-01, 8.750577271e-02, -6.472346932e-02}, {-1.396728158e-01, 2.109934203e-02, -1.627902240e-01, -4.551055282e-02, 
    -4.228585958e-01, -1.243290603e-01, -4.009897113e-01, 1.714208126e-01, 
    1.687065959e-01, 4.653471410e-01, 3.168906868e-01, -1.037321761e-01, 
    -1.322541833e-01, 5.526883062e-03, -1.028431766e-02, -2.803738713e-01, 
    5.299694464e-02, -2.239307910e-01, 3.054099977e-01, -4.422929585e-01, 
    2.114975825e-02, -2.633949220e-01, 2.195294946e-01, 8.140241355e-02, 
    1.445600837e-01, -1.147453710e-01, -3.520255983e-01, -3.097533286e-01, 
    -1.392785311e-01, 2.592166960e-01, -3.410739601e-01, 5.179673061e-02, 
    -2.773709893e-01, -6.425765753e-01, 1.624350250e-01, -1.465528551e-02, 
    -1.751042157e-01, 3.694548905e-01, 3.832066953e-01, -2.282752246e-01}}};

const float bias_hid[NUM_HIDDEN_LAYERS-1][NUM_NODES] = {{2.010832429e-01, 2.385865152e-02, -1.559102982e-01, 1.059827507e-01, 
    1.465608329e-01, 9.617153555e-02, -8.481640369e-02, -6.554564834e-02, 
    -7.422573119e-02, 2.071975172e-01, -4.233504459e-02, -6.047100946e-02, 
    2.142697424e-01, 1.166003346e-01, -9.392078966e-02, -2.341287769e-02, 
    2.294852138e-01, -1.985819638e-01, -2.464548126e-02, -3.147072345e-02, 
    2.911015972e-02, 7.621557266e-02, -8.327961713e-02, 3.136448264e-01, 
    4.498057812e-02, 1.002744189e-03, 4.575666040e-02, 1.645169556e-01, 
    2.166821063e-02, -1.369419973e-02, -1.327869594e-01, 5.193411931e-02, 
    -8.753703535e-02, -4.299105331e-02, -4.073034972e-03, 4.391725734e-02, 
    4.687998444e-02, -7.772503048e-02, 1.388390083e-02, 5.156236887e-02}};