#include "nn_parameters.h"

const int num_nodes_vec[NUM_LAYERS] = {10, 40, 40, 4};

// NN network parameters -- atribute values
const float weights_in[NUM_NODES][NUM_STATES] = {{1.637088135e-02, 5.142072439e-01, 1.157604605e-01, -4.249739945e-01, 
    7.589954138e-02, 1.734805554e-01, -2.483901531e-01, -4.422218353e-02, 
    -6.401523352e-01, -1.579366438e-02}, {1.266214401e-01, -3.735041320e-01, -3.696668148e-01, -1.605868153e-02, 
    -4.996889234e-01, -2.629415989e-01, -5.954275131e-01, 7.910965085e-01, 
    -8.963852525e-01, 1.190174460e+00}, {9.439122081e-01, -1.228504300e+00, -3.869274855e-01, -9.590141177e-01, 
    -3.739772439e-01, -5.596383289e-02, 2.267446220e-01, -7.928752899e-01, 
    -5.688686371e-01, 1.559688091e+00}, {-1.054098159e-01, 1.404552221e+00, -7.949718237e-01, -1.916039109e+00, 
    -1.764171839e+00, -6.345196366e-01, -2.637068555e-02, 4.286919832e-01, 
    1.046108842e+00, -1.440408468e+00}, {-2.826754749e-01, -1.414938927e+00, 1.053175330e-01, 2.188006192e-01, 
    5.241319537e-01, 9.153825045e-02, 2.329358101e+00, 7.164317966e-01, 
    -1.444967389e+00, 9.123114347e-01}, {-9.175477624e-01, -5.428550243e-01, -6.776917726e-02, -5.628899932e-01, 
    8.248676062e-01, -8.513843268e-02, 1.219357610e+00, -2.300370783e-01, 
    -4.244028628e-01, 7.285533547e-01}, {-6.954159588e-02, 1.969752610e-01, 2.696372755e-02, 4.432340562e-01, 
    4.477158189e-01, 7.606280595e-02, -5.598005280e-02, -4.271124899e-01, 
    7.114181519e-01, 7.675617337e-01}, {-8.569949120e-02, 1.762219220e-01, 1.468821913e-01, -6.514751911e-01, 
    2.704134583e-01, 1.834210455e-01, 1.321433544e+00, 3.195990324e-01, 
    3.816736639e-01, -2.205855101e-01}, {-1.966654062e-01, -3.256613156e-03, 1.124269292e-01, 5.606436729e-01, 
    1.317687100e-03, 8.851983398e-02, 5.752469599e-02, 2.130367756e-01, 
    6.716580987e-01, -7.996882200e-01}, {-3.138743341e-01, -2.592395246e-01, -5.233736038e-01, 7.372764498e-02, 
    -2.658409774e-01, -4.502193630e-01, 1.141652241e-01, 4.155955613e-01, 
    -6.834884882e-01, -5.065680295e-02}, {-3.173716664e-01, 3.213994503e-01, -1.269510388e-01, 2.757556736e-01, 
    4.767548442e-01, -6.228894740e-02, -2.108231783e-01, -4.239236414e-01, 
    -6.065143943e-01, 6.584038138e-01}, {3.132686019e-01, -1.007847667e+00, 1.281258613e-01, -9.937858582e-01, 
    -2.081519067e-01, 4.415537417e-02, 3.958208859e-01, 1.797297411e-02, 
    -1.075497985e+00, 1.169914484e+00}, {3.954067230e-01, 1.143641591e+00, -1.032263637e-01, 6.355184317e-01, 
    8.769721985e-01, -2.864757739e-02, 1.106333137e+00, -1.413649768e-01, 
    2.509108745e-02, -1.038839579e+00}, {-1.564200521e+00, -8.339358568e-01, -3.164755404e-01, -1.001739740e+00, 
    -6.412769556e-01, -3.068542778e-01, -9.873754978e-01, -5.532130003e-01, 
    1.806927800e+00, -3.788059056e-01}, {-1.441707730e+00, -4.323074818e-01, 2.168919295e-01, -1.680730939e+00, 
    5.974685192e+00, -4.221297801e-02, -1.419807673e-01, -3.882289231e-01, 
    4.417749047e-01, -1.383518241e-02}, {3.214401603e-01, 6.397499889e-02, -1.541465223e-01, 6.610661149e-01, 
    -3.544383347e-01, -1.337902993e-01, -3.689399660e-01, 1.609483808e-01, 
    8.477684855e-01, 1.344839334e-01}, {-8.030014634e-01, -5.537093878e-01, -1.136099026e-01, -5.300636888e-01, 
    -1.050597787e+00, -5.357411131e-02, 8.339667320e-01, -9.888986945e-01, 
    3.418631256e-01, 1.184473276e+00}, {-1.794735193e-01, 5.974428058e-01, -1.765602641e-02, 4.959664941e-01, 
    1.005825520e+00, -1.560717728e-02, -1.659398973e-01, 2.469642311e-01, 
    1.308426857e+00, 5.956634879e-01}, {8.266180754e-01, -3.534493744e-01, 4.355535656e-02, 3.855495214e+00, 
    -1.571991086e+00, 1.813341379e-01, -2.100368589e-01, 5.675358698e-02, 
    1.415557563e-01, -2.690595627e+00}, {-1.633232355e+00, 2.014437437e+00, 1.471688002e-01, 1.036968946e+00, 
    7.108358145e-01, 1.409976184e-01, -2.674800456e-01, 1.701112151e+00, 
    6.357164979e-01, 2.118741870e-01}, {2.115539312e+00, 3.022828341e+00, -2.736183405e-01, 2.560505390e+00, 
    6.129012108e-01, -1.348701119e-01, -5.670127273e-01, 1.463012695e+00, 
    -1.020791769e+00, 1.077118397e+00}, {2.265367806e-01, -6.192477942e-01, 1.344685405e-01, 7.746428996e-02, 
    7.799992710e-02, 2.203743011e-01, 6.665818691e-01, 1.754806191e-01, 
    5.714504719e-01, 6.793749332e-01}, {1.161657810e+00, -3.996949494e-01, -3.584199771e-02, 2.921303213e-01, 
    4.609515518e-02, -3.885664046e-02, 9.892560840e-01, -4.204167724e-01, 
    -4.109277856e-03, -4.464502260e-02}, {1.151439428e+00, 2.162272781e-01, 6.925771385e-02, -1.253256351e-01, 
    1.613385975e-01, 3.700507805e-02, 5.478578806e-01, 9.137807488e-01, 
    1.799853891e-01, -1.315499097e-01}, {-9.290681034e-02, -1.117660880e+00, -1.946508186e-03, -1.315525174e-01, 
    -1.397002578e+00, 3.140559047e-02, 9.998307228e-01, -1.027478948e-01, 
    -1.487576962e-01, -1.677208185e+00}, {-6.196452975e-01, -7.111155987e-02, 1.596098766e-02, -5.714409351e-01, 
    3.954492211e-01, 9.596570581e-02, -1.070020869e-01, -1.385874391e+00, 
    -2.853254378e-01, -6.977161169e-01}, {2.427476406e+00, -1.616532445e+00, -2.231819630e-01, 1.011188149e+00, 
    -4.812496528e-02, -2.194066644e-01, -8.837456703e-01, -5.907812119e-01, 
    -1.275433064e+00, -5.693945885e-01}, {-7.791243792e-01, -5.372632146e-01, -4.397386685e-02, -5.640959144e-01, 
    3.712531552e-02, 5.185247585e-02, -6.618256867e-02, 4.502548575e-01, 
    -8.093141913e-01, -4.740885198e-01}, {-8.568054438e-01, 2.392216921e-01, -8.827470243e-03, -1.241893888e+00, 
    -8.465300202e-01, -5.769944191e-02, 1.143089771e+00, 5.596010685e-01, 
    -8.748007566e-02, 8.970542997e-02}, {1.303566098e-01, 3.526218534e-01, 1.056591034e+00, -3.423793614e-01, 
    2.618013024e-01, 9.828401208e-01, 1.147504449e-01, -2.888007760e-01, 
    2.877972722e-01, -8.437836915e-02}, {1.937387466e+00, 8.277999759e-01, -1.560746133e-01, -5.606425405e-01, 
    -1.744434118e+00, -6.462317705e-02, 9.662435651e-01, -8.531689644e-02, 
    -3.708154261e-01, 2.687288284e+00}, {1.446697116e-01, -8.939478397e-01, -1.166170835e-01, 3.767561316e-01, 
    -3.771794140e-01, -6.303514540e-02, 9.064194560e-01, -6.709662080e-01, 
    1.673926711e-01, -1.361804605e-01}, {6.866962910e-01, 3.489892006e+00, -7.289779931e-02, -1.303645372e+00, 
    -4.314928651e-01, -2.037883922e-02, 2.062302381e-01, 1.941239983e-01, 
    5.999809504e-02, -2.657287359e+00}, {2.732997835e-01, 3.676434159e-01, -4.639141262e-01, -4.186008871e-01, 
    3.807396889e-01, -4.293616414e-01, -4.903583601e-02, 1.976671517e-01, 
    -8.184746653e-02, -2.170201391e-01}, {-3.109037638e+00, -3.207671642e+00, 1.394259036e-01, -6.275877953e-01, 
    -1.849483490e+00, 3.938453496e-01, 2.963590324e-01, -7.945128083e-01, 
    1.739575565e-01, 1.145006537e+00}, {-1.103220463e+00, -5.125103593e-01, 8.772690594e-02, -5.767052174e-01, 
    9.530664980e-02, 1.200020313e-01, -1.158145070e+00, -1.893244028e+00, 
    -2.888332009e-01, -4.363444149e-01}, {4.559039176e-01, -1.830831170e-01, -1.130909473e-01, -9.876039624e-01, 
    4.528158307e-01, -1.563207656e-01, 1.583307385e+00, -1.174493790e+00, 
    -7.802007198e-01, -2.068797499e-01}, {-4.343991280e-01, 7.663002014e-01, -1.180485487e-01, -7.284240723e-01, 
    4.926877916e-01, -9.309435636e-02, 8.735760450e-01, -3.826115131e-01, 
    5.160096884e-01, 1.173381567e+00}, {3.816765547e-01, -5.678061843e-01, -1.404179037e-01, -6.365422010e-01, 
    -1.011772037e+00, -6.476283818e-02, -1.127778530e+00, 5.684080124e-01, 
    -2.903579772e-01, -6.042507291e-01}, {3.052126646e+00, 6.902081370e-01, 9.920915365e-01, -2.795350075e+00, 
    -8.429726958e-01, 6.934258938e-01, -5.184571445e-02, -2.970515490e-01, 
    -1.073775172e+00, 1.311316609e+00}};

const float bias_in[NUM_NODES] = {2.611090802e-02, -5.085024834e-01, -3.237974048e-01, -5.154643655e-01, 
    -5.743239075e-03, 3.071855605e-01, 1.232686918e-02, 4.732153192e-02, 
    2.077691630e-02, 1.061042473e-01, 7.477402687e-02, -1.499330103e-01, 
    -1.179700950e-03, -4.415037036e-01, -4.280686378e-01, -5.913956463e-02, 
    -2.352773398e-01, 1.966789663e-01, 4.418991804e-01, -1.334597468e-01, 
    -5.732271075e-01, -3.872967558e-03, 1.348316073e-01, 1.409889013e-01, 
    -9.605527669e-02, -4.032331109e-01, -1.575157791e-01, 2.848213315e-01, 
    4.052764550e-02, -9.078266025e-01, -2.432969660e-01, 3.658824265e-01, 
    5.683152750e-02, 6.450414658e-02, -2.439578474e-01, -2.916270792e-01, 
    1.365973204e-01, 3.721945584e-01, -6.595908105e-02, -7.391349077e-01};

const float weights_out[NUM_CONTROLS][NUM_NODES] = {{-3.255124018e-02, 1.391664296e-01, 4.774725065e-02, -8.295369893e-02, 
    -8.497681469e-02, -2.447789311e-01, -5.214032158e-02, 1.782201603e-02, 
    -6.969774514e-02, -2.821452916e-01, 5.744797643e-03, 1.684694588e-01, 
    9.722387791e-02, 4.004279524e-02, 1.900801659e-01, 8.789376169e-02, 
    6.912711263e-02, 1.594609767e-02, 1.938328892e-02, 8.047883213e-02, 
    2.467732131e-01, -6.743361708e-03, -2.683711946e-01, 5.241647363e-01, 
    -2.815609872e-01, -4.396979511e-02, -3.012331426e-01, 1.236294210e-01, 
    -6.522852927e-03, -2.409646064e-01, -2.555387914e-01, 9.908398986e-02, 
    -3.067565858e-01, 3.087209463e-01, 4.465303849e-03, 6.729619112e-03, 
    1.731144786e-01, -2.558160722e-01, 3.585575894e-02, -1.421115994e-01}, {2.762121893e-02, 5.863921344e-02, -8.911685646e-02, -5.635092407e-02, 
    5.933553353e-02, -1.075317413e-01, 1.079231501e+00, 2.617790177e-02, 
    -1.026970983e+00, -1.936205178e-01, -4.437787458e-02, 1.104404405e-01, 
    3.699074313e-02, -7.858365029e-02, -3.730897233e-02, -1.289732009e-01, 
    2.673746347e-01, 1.688152179e-02, 4.720682651e-02, -2.641104758e-01, 
    1.042090207e-01, 3.164903447e-02, 9.240020812e-02, -1.869365424e-01, 
    2.202304266e-02, -4.654031247e-03, -6.460005790e-02, 1.853189617e-01, 
    -1.247822568e-01, -2.321228236e-01, 3.585508093e-02, -1.688434631e-01, 
    1.562496722e-01, -6.773179024e-02, 4.689225461e-03, 2.296163584e-04, 
    3.355639428e-02, -3.248066176e-03, 2.200179249e-01, 1.093722507e-01}, {4.356931150e-02, 2.384126186e-02, 3.209300637e-01, 9.453857690e-02, 
    2.207881073e-03, 1.790378541e-01, 7.128003240e-01, 1.036173850e-01, 
    1.107204795e+00, -1.626611650e-01, -2.109480053e-01, 2.074648887e-01, 
    1.382087618e-01, 4.260553420e-02, 6.807310879e-02, -1.885646284e-01, 
    -1.968188398e-02, 5.447114818e-03, -1.607760638e-01, 2.363154888e-01, 
    3.565062582e-02, 1.468582749e-01, 8.674531430e-02, -3.016768098e-01, 
    -1.331541896e+00, -1.229515150e-01, 1.870504171e-01, 2.436574697e-01, 
    -2.343786806e-01, 2.524538934e-01, -2.820059657e-01, -3.312675655e-01, 
    1.056984514e-01, -9.124408662e-02, 6.071763486e-02, -1.233078446e-02, 
    7.632324100e-02, 9.028674662e-02, -2.162922323e-01, 4.657028243e-02}, {-5.346769691e-01, -4.018553495e-01, 4.550701976e-01, -4.096553326e-01, 
    -3.190855980e-01, 1.309552044e-01, 1.423483133e+00, -2.829785645e-01, 
    1.128277704e-01, -2.790396512e-01, -2.153985202e-01, -3.118127584e-03, 
    -1.788254023e+00, 2.716880143e-01, -2.204780430e-01, -3.253599256e-02, 
    -2.837040722e-01, 1.792618334e-01, 3.698619008e-01, 3.913604096e-02, 
    -3.130743802e-01, 7.457919717e-01, 1.829766631e-01, 8.579383045e-02, 
    -3.296281444e-03, 2.485248744e-01, -8.327731490e-02, -1.115043610e-01, 
    -2.938094139e-01, 1.516134143e-01, -5.537891015e-02, 1.759781599e+00, 
    -2.424048632e-01, 1.241376027e-01, 3.340200484e-01, -2.485086471e-01, 
    2.893673480e-01, -7.565630227e-02, 3.861467587e-03, -3.074861765e-01}};

const float bias_out[NUM_CONTROLS] = {2.694945037e-02, -1.668217592e-02, -1.065571830e-01, 1.338718366e-02};

const float in_norm_mean[NUM_STATES] = {-1.557165862e-01, -1.237403575e-01, 2.527802999e-04, 9.921787224e-02, 
    7.121841421e-02, 5.286585453e-03, 8.426749684e-01, -2.563423700e-02, 
    2.443373252e-02, 1.783478964e-02};

const float in_norm_std[NUM_STATES] = {3.544979718e+00, 3.543577458e+00, 2.258837613e-01, 2.093468619e+00, 
    2.080971128e+00, 4.211554198e-01, 1.995747214e-01, 1.067727493e-01, 
    1.076138430e-01, 4.749292993e-01};

const float out_norm_mean[NUM_CONTROLS] = {1.743541162e-01, 1.600652320e-03, -1.948564678e-04, -2.615250605e-02};

const float out_norm_std[NUM_CONTROLS] = {6.446146205e-01, 5.936643056e-01, 5.994624190e-01, 7.665047235e-01};

const float out_scale_min[NUM_CONTROLS] = {-6.191194691e+00, -1.261741234e+01, -8.584413614e+00, -2.575127632e+00};

const float out_scale_max[NUM_CONTROLS] = {5.650238558e+00, 1.566558607e+01, 1.105196106e+01, 2.643365975e+00};

const float weights_hid[NUM_HIDDEN_LAYERS-1][NUM_NODES][NUM_NODES] = {{{-3.365866467e-02, -2.767566442e-01, -9.475485235e-02, -2.498943657e-01, 
    -1.333726849e-02, -6.848743558e-01, -2.291507262e-04, 3.816613853e-01, 
    -1.600379944e-01, -4.875197411e-01, 2.527799606e-01, -3.711948991e-01, 
    -4.170762599e-01, -2.577643991e-01, -3.655851781e-01, 2.091305554e-01, 
    -1.298648492e-02, -8.510392159e-02, -1.810227156e+00, -4.740796685e-01, 
    9.452633560e-03, -5.115148425e-02, 4.899581671e-01, -2.871623449e-02, 
    1.652273536e-02, -1.256674677e-01, -1.513983309e-01, 2.065204829e-01, 
    2.434248030e-01, -1.375351101e-01, 3.862796128e-01, 9.791262448e-03, 
    -2.761282027e-01, -9.827271849e-02, -1.130582839e-01, -1.948309541e-01, 
    3.640157878e-01, 3.418661654e-01, 4.640216231e-01, -2.193772942e-01}, {-7.429497689e-02, -2.419491112e-02, 2.442656830e-02, -1.314762831e-01, 
    7.149334997e-02, -9.318213910e-02, 2.376082838e-01, 1.024513766e-01, 
    -1.806767583e-01, -1.639713198e-01, 1.228663102e-01, 7.477115095e-02, 
    -9.817194194e-02, 5.008352920e-02, 8.636444062e-02, 6.258235127e-02, 
    -2.142010629e-01, -1.862308942e-02, 8.417052031e-02, -1.384755224e-01, 
    9.758817405e-02, 5.435445160e-02, -8.342247456e-02, -2.577879727e-01, 
    -8.316845447e-02, -6.907178462e-02, -3.922396302e-01, -2.065473422e-02, 
    -3.184370697e-01, -2.160295099e-01, 3.232533857e-02, 1.323385835e-01, 
    -6.855227053e-02, 2.460470051e-01, -1.484073102e-01, 3.725372851e-01, 
    -1.731764078e-01, -2.068865672e-02, 1.191562563e-01, 1.132008210e-01}, {1.350268573e-01, 1.846278459e-01, 2.654941380e-01, 8.937793970e-02, 
    1.574567556e-01, -1.950991303e-01, 1.212662011e-01, 2.557633519e-01, 
    3.705689013e-01, 2.046150118e-01, -5.225227028e-02, -1.811426431e-01, 
    -1.201866791e-01, -1.363907158e-01, -1.893730089e-02, 2.915201485e-01, 
    -8.126116358e-03, -2.358229011e-01, 9.242267907e-02, -1.533436477e-01, 
    -2.197029293e-01, 2.461959273e-01, -4.240436554e-01, -2.249038965e-01, 
    -3.371994793e-01, 1.526198722e-02, -3.214841485e-01, -2.391242087e-01, 
    3.854825199e-01, -8.434173465e-02, -1.619046777e-01, -1.891436428e-01, 
    -2.789430320e-02, 1.958652399e-02, 2.281737514e-02, -1.825212091e-01, 
    3.393113911e-01, -1.010296866e-01, 1.224074066e-01, -6.624141242e-03}, {-1.346206516e-01, 2.104604989e-01, 1.916540563e-01, 2.441326976e-01, 
    2.877735496e-01, -7.642880082e-02, 3.158561587e-01, -4.995483160e-02, 
    -1.773326397e-01, 1.851393133e-01, -4.213404655e-01, 4.300467670e-01, 
    -6.219100952e-01, 1.188165415e-02, 2.350015938e-02, -1.167587489e-01, 
    -2.689596415e-01, 1.195264235e-01, -7.375314087e-02, -2.505316138e-01, 
    -4.400356673e-03, 2.306259274e-01, 6.255760044e-02, -5.599929020e-02, 
    1.851153970e-01, 2.572532594e-01, -2.276353985e-01, -3.145684004e-01, 
    3.637934327e-01, -2.476275712e-01, -9.391877800e-02, 3.106468916e-01, 
    -1.306949377e+00, -1.257490963e-01, -2.837409079e-01, 3.260089457e-01, 
    -3.289078176e-01, -9.686899930e-02, -5.414593220e-01, 4.459692538e-02}, {1.415611506e-01, -8.744699508e-02, -1.289744824e-01, 2.444502264e-01, 
    -1.931110211e-02, 2.146637887e-01, -8.296680450e-02, -3.865900338e-01, 
    -1.339863390e-01, -2.551390231e-01, -1.903146505e-01, -4.640803039e-01, 
    -3.986805379e-01, 8.736880124e-02, 1.750282347e-01, 3.557144105e-01, 
    -2.430794984e-01, 5.521865189e-02, 1.112059355e-01, 1.848144531e-01, 
    -8.558595181e-02, -1.558219641e-01, 1.132160351e-01, -2.391885668e-01, 
    1.724943072e-01, -2.852558345e-02, -3.642453998e-02, -6.446129084e-02, 
    4.312400892e-02, 8.309812099e-02, 1.467842311e-01, 8.815605193e-02, 
    -9.514286183e-03, -2.839373052e-01, 4.974385351e-02, -1.466471404e-01, 
    -7.350458205e-02, -5.257179141e-01, -2.911509201e-02, 9.864730388e-02}, {1.527180523e-01, -6.612845510e-02, -5.100496113e-02, 1.261760294e-01, 
    -6.349278986e-02, 1.890825927e-01, 1.685356721e-02, 1.175173596e-01, 
    5.283362418e-02, -4.292279780e-01, -1.793950498e-01, 2.407337874e-01, 
    8.443161845e-02, 5.411979184e-02, -2.985884435e-02, 1.084163412e-01, 
    -1.830659956e-01, 2.926612198e-01, -1.397968619e-03, 5.814373493e-02, 
    1.663295329e-01, -4.908098280e-02, 1.031966507e-01, -8.129967004e-02, 
    1.986321509e-01, 4.849789664e-02, 1.959810406e-01, -1.498330832e-01, 
    -1.757857502e-01, 2.469800562e-01, 1.394548863e-01, -2.138846219e-01, 
    1.502013355e-01, 1.697989255e-01, 9.631885588e-02, 1.008700579e-01, 
    -1.034484133e-01, -2.155192643e-01, 1.269485056e-02, 7.410834730e-02}, {8.822872490e-02, -6.370648146e-01, -3.776048124e-01, -1.189057350e+00, 
    6.093247533e-01, 6.424841881e-01, -1.686143577e-01, 2.936217189e-01, 
    7.483460009e-02, -2.601597011e-01, 1.969842613e-01, 1.151373386e-01, 
    3.817155063e-01, -8.914517760e-01, -8.906879425e-01, -5.866099522e-02, 
    -1.156927720e-01, -3.697624505e-01, -7.154302597e-01, -1.321415782e+00, 
    -6.438523531e-01, -1.567353159e-01, 1.541848034e-01, -4.489520490e-01, 
    4.958649874e-01, -4.542763233e-01, -1.772687197e+00, 2.272851765e-01, 
    3.909956515e-01, -2.347226441e-01, -1.261970758e+00, 4.462501407e-01, 
    3.135691285e-01, -2.341834754e-01, -7.655774951e-01, -8.937305212e-01, 
    6.358422637e-01, 5.304737091e-01, -3.917990029e-01, -1.120747447e+00}, {3.420030326e-02, -3.488273621e-01, -1.557193100e-01, -4.803982377e-02, 
    2.147986144e-01, -2.913102806e-01, 1.437112689e-01, 2.020077556e-01, 
    -8.329691738e-02, 4.108997285e-01, -2.216450721e-01, -7.510209084e-02, 
    -2.304825634e-01, 7.378695905e-02, 1.180152409e-02, 4.558116794e-01, 
    -1.880099624e-01, 1.730260551e-01, -1.046254933e-01, 1.947644353e-01, 
    -2.046087682e-01, 2.790671885e-01, -5.019237399e-01, 5.234219506e-02, 
    7.187334448e-02, 5.429257154e-01, -8.671338558e-01, 1.395533830e-01, 
    2.383193672e-01, -1.090233028e-01, 2.334431708e-01, 9.630255401e-02, 
    -7.883340120e-02, -3.625074625e-01, -2.208397388e-01, 1.055262014e-01, 
    -4.574136436e-01, -1.199046597e-01, -3.508028984e-01, -2.471850961e-01}, {-2.315036207e-01, -3.258984387e-01, -1.975616068e-01, -4.066852033e-01, 
    7.142189145e-01, 7.453433871e-01, -5.988109708e-01, 2.145884186e-01, 
    1.702440530e-02, 2.138748616e-01, -3.360888660e-01, 4.571993351e-01, 
    -1.019681022e-01, 3.262086213e-01, -6.573416591e-01, -4.136494175e-02, 
    -2.023475915e-01, -9.272346497e-01, -1.631671637e-01, -2.505538762e-01, 
    -1.753756523e+00, -4.699685425e-02, -3.119552433e-01, -5.138915032e-03, 
    1.643607765e-01, -5.186968446e-01, -1.817155838e+00, 1.270841509e-01, 
    3.267749548e-01, -5.250219256e-03, 1.062795073e-01, 1.655777171e-02, 
    -1.786824875e-02, 2.333512753e-01, -1.161681652e+00, -3.560205102e-01, 
    3.452427387e-01, -3.191581070e-01, -2.606836557e-01, -7.143277526e-01}, {-2.718300223e-01, -4.867080972e-02, -9.140894562e-02, 1.069264039e-01, 
    -3.275537491e-02, -6.336843967e-02, 2.606143951e-01, -1.251360625e-01, 
    -2.498807013e-01, -2.304150164e-02, -1.936802119e-01, -8.855940402e-02, 
    -1.455786973e-01, -2.577199228e-02, 7.188562304e-02, 6.618732214e-02, 
    -6.423560530e-02, -7.859011739e-02, 5.762837455e-02, 1.222484279e-02, 
    1.675186008e-01, -6.423676759e-02, -1.979356632e-02, 6.802959740e-02, 
    1.187472045e-01, -1.636978835e-01, -1.657706872e-02, 1.443919986e-01, 
    -3.169790655e-02, 1.842168272e-01, -1.472375542e-02, 3.682329953e-01, 
    -1.631218940e-01, -8.470782638e-02, 2.603505366e-02, 3.127324954e-02, 
    -1.734713912e-01, 1.382009238e-01, -3.286042064e-02, -1.044888347e-01}, {-1.076711416e-01, -2.361878306e-01, -4.043669999e-02, 1.287140511e-02, 
    -4.830176942e-03, -2.669294737e-02, 1.666604877e-01, 7.829251885e-02, 
    -2.616194487e-01, -1.099347323e-01, -1.060848981e-01, -3.875223398e-01, 
    5.891165510e-02, -6.225207075e-02, 1.355418004e-02, -8.367043734e-02, 
    2.444048077e-01, 2.664939761e-01, 7.813219912e-03, 1.039064750e-01, 
    -6.290128827e-02, -2.666457891e-01, -1.548276376e-02, 3.516884148e-01, 
    2.881213427e-01, -1.816768199e-01, -3.270333633e-02, -4.624953866e-01, 
    6.743875891e-02, -1.600615978e-01, 1.381632090e-01, 2.775878012e-01, 
    5.856324732e-02, 3.058488667e-01, 6.732320786e-02, -4.891966581e-01, 
    -1.729368791e-02, -1.688175350e-01, 4.978223238e-03, -1.534779370e-01}, {-3.955620825e-01, -1.883795112e-01, -1.094871387e-01, 9.794230014e-02, 
    -4.976793751e-02, -1.193483174e-01, -3.895564079e-01, 2.178740501e-01, 
    2.038419992e-02, 1.900233328e-01, 1.362845749e-01, 1.679310650e-01, 
    2.215078771e-01, -1.259423792e-01, -6.017233804e-02, 7.233567536e-02, 
    9.104785323e-02, 3.238943964e-02, 6.726678461e-02, -9.339845926e-02, 
    -4.696612060e-02, -1.272239089e-01, -2.656067610e-01, 3.373638690e-01, 
    1.803161055e-01, 2.473871112e-01, -6.867627800e-02, -4.821880907e-02, 
    -2.417791933e-01, -8.682308346e-02, 9.182447195e-02, -2.229780704e-01, 
    1.680020988e-02, -9.855075181e-02, -1.445855498e-01, 3.078404069e-01, 
    -1.080633979e-02, -1.618147045e-01, 8.905383945e-02, 2.711474337e-02}, {4.157231152e-01, -2.768385410e-01, -2.443986088e-01, -1.261578321e+00, 
    5.023395419e-01, 5.322070718e-01, 8.757761866e-02, 5.301423073e-01, 
    -1.645305008e-01, 3.645338118e-02, 1.390841305e-01, -1.989161670e-01, 
    4.214389622e-01, -1.045582056e+00, -1.618592858e+00, -1.778487563e-01, 
    4.000233114e-02, 2.059558779e-01, -1.449898839e+00, -8.560945988e-01, 
    -1.115311146e+00, 6.801653504e-01, 3.555002213e-01, 5.536393523e-01, 
    -7.336056828e-01, -4.922625422e-01, -1.131094813e+00, 9.292137623e-02, 
    3.592051864e-01, 1.115288865e-02, 3.828690648e-01, 2.291005701e-01, 
    -9.708963037e-01, 2.672793902e-02, -1.147964001e+00, -1.921682507e-01, 
    2.409772873e-01, 6.173472404e-01, -3.782843351e-01, -1.052505970e+00}, {1.893599331e-01, 2.616877854e-01, 1.840111166e-01, -1.547020376e-01, 
    -1.240831763e-01, -3.509241641e-01, 5.064535886e-02, 1.368767023e-02, 
    5.875779316e-02, -1.009630486e-01, -1.497307979e-02, -1.504492760e-01, 
    -7.695481926e-02, 2.305548936e-01, 2.032814473e-01, 9.038291126e-02, 
    -3.531921422e-03, 1.365544349e-01, 2.876682580e-01, 1.694191992e-01, 
    -1.112677902e-01, 1.139382794e-01, -1.991610676e-01, -1.837531924e-01, 
    -1.451460868e-01, -1.548171341e-01, 1.435511559e-01, 1.968420744e-01, 
    1.337559372e-01, -2.495548688e-03, -2.072263509e-01, -2.280758880e-02, 
    2.346046269e-01, 2.182191461e-01, -1.009697169e-01, -6.297774613e-03, 
    2.299206108e-01, -1.714485437e-01, -1.443909109e-01, 8.520681411e-02}, {-1.590513289e-01, 3.957042098e-02, 3.747007996e-02, 2.252221256e-01, 
    -1.670812964e-01, 1.795693338e-01, -1.845562607e-01, -2.958156765e-01, 
    -3.049802184e-01, 3.461515903e-01, 1.178285778e-01, 1.579305902e-02, 
    -9.225361049e-02, 8.322408795e-02, 1.449652910e-01, 9.999650717e-02, 
    3.589549065e-01, 1.429686248e-01, 2.800495923e-01, 4.382524490e-01, 
    1.950585842e-01, -2.261836231e-01, 6.144886464e-02, -7.111422718e-02, 
    -1.627976745e-01, 3.511372488e-03, 1.429580301e-01, -5.145093054e-02, 
    1.951106042e-01, 1.125692576e-01, 4.279870540e-03, 3.442626912e-03, 
    4.023414254e-01, -1.221165508e-01, 2.958851159e-01, -4.379476607e-01, 
    -1.662190855e-01, -3.381372392e-01, -1.519570649e-01, 7.937366515e-02}, {4.974170774e-02, 9.879937768e-02, 2.160483971e-02, 5.950760096e-02, 
    -1.250570267e-02, -6.343632005e-03, -9.034152143e-03, 2.064869404e-01, 
    -3.086363338e-02, 5.240123719e-02, 7.970917225e-02, -7.710596919e-02, 
    -1.775369197e-01, 1.190665215e-01, -4.277970269e-02, -1.681163013e-01, 
    -5.538457073e-03, 1.727303416e-01, 1.275388747e-01, -2.788615227e-02, 
    1.849920861e-02, 1.031656116e-01, 2.161763757e-01, -6.222716346e-02, 
    -1.672223210e-02, -1.124028489e-01, -8.864930272e-02, 1.167727187e-01, 
    2.379842401e-01, 1.701779962e-01, -1.430890560e-01, -2.430917472e-01, 
    8.872488141e-02, 1.515904218e-01, 1.985556483e-01, -1.732130647e-01, 
    -3.178087771e-01, -3.019438088e-01, 5.784089491e-02, 2.547147572e-01}, {-1.532515585e-01, 2.892622948e-01, -5.100163445e-02, -1.598867029e-01, 
    -2.250680625e-01, 4.772919118e-01, 1.989131719e-01, -1.895901263e-01, 
    -1.966284811e-01, 2.189065665e-01, 2.986097038e-01, 1.198635101e-01, 
    2.880218923e-01, -6.566767395e-02, -1.376085728e-01, 2.926940322e-01, 
    -3.326033428e-02, -1.340242922e-01, -1.295517534e-01, -2.587746680e-01, 
    -8.589730412e-02, 1.882624328e-01, -1.950120777e-01, 2.933610976e-01, 
    -2.449030131e-01, -6.344793737e-02, -3.260166645e-01, 2.072430551e-01, 
    3.428491652e-01, -6.844114512e-02, -1.100484207e-01, -5.470987558e-01, 
    4.314003512e-02, -1.799163595e-02, -2.260944247e-01, -3.494147211e-02, 
    5.926651508e-02, 2.103875428e-01, 9.274986386e-02, -2.246491425e-02}, {-6.844546646e-02, 2.056245506e-01, 8.384041488e-03, -6.313704699e-02, 
    1.509218961e-01, 1.562145799e-01, -2.760008574e-01, 1.726412922e-01, 
    -1.483067125e-01, 7.354635745e-02, -1.316135079e-01, 1.170118246e-02, 
    -3.664360940e-02, -5.465999842e-01, -1.235033795e-01, 1.111973356e-02, 
    8.040410280e-01, 4.281061515e-02, -4.842813909e-01, 5.030466914e-01, 
    6.752827670e-03, 5.334622040e-02, -4.013565481e-01, -3.450577855e-01, 
    6.216182373e-03, -7.025073171e-01, 6.062897667e-02, -1.181342751e-01, 
    3.990325928e-01, -1.997879893e-01, 1.667782813e-01, 1.924445480e-01, 
    2.631995082e-01, -3.442598134e-02, -1.393796504e-02, -9.532514960e-02, 
    -4.561607726e-03, 2.437260300e-01, -1.001808420e-02, 1.737928391e-02}, {-8.430764079e-02, 1.018238515e-01, 6.811363995e-02, 2.264716029e-01, 
    -7.502975315e-02, 2.194233984e-02, 2.196928114e-01, -5.265693367e-02, 
    5.156822801e-01, -9.299024194e-02, -1.653937101e-01, -4.938703403e-02, 
    2.395171821e-01, -5.950438604e-02, -7.214994729e-02, 1.830016077e-01, 
    8.993647993e-02, -4.102573693e-01, -8.026646450e-03, 1.633915156e-01, 
    4.831175506e-02, -2.658453882e-01, 1.768619716e-01, 5.461892113e-02, 
    1.255990714e-01, -9.191944450e-02, 1.535196751e-01, -2.551708817e-01, 
    -2.374547720e-01, -1.271638721e-01, -2.227818519e-01, 9.273573011e-02, 
    2.762244642e-01, -3.373807967e-01, 4.160984978e-02, 9.496133775e-02, 
    1.414371729e-01, -1.884854734e-01, -3.549519926e-02, 1.278024763e-01}, {-9.653483331e-02, 8.883987367e-02, 2.234453261e-01, -6.440491974e-02, 
    -1.375978142e-01, 5.795655772e-02, 2.725935280e-01, 3.416412743e-03, 
    1.753513366e-01, 2.379862815e-01, -1.404382735e-01, 2.208556533e-01, 
    -3.169776797e-01, -1.750883609e-01, -1.113775745e-01, 4.271987677e-01, 
    -4.042444378e-02, 2.043202519e-01, -1.918459386e-01, -3.515053093e-01, 
    1.582614630e-01, -1.457352638e-01, -1.861046851e-01, 1.166699305e-01, 
    -1.767780036e-01, 2.623527646e-01, -4.381646216e-01, -2.629499510e-02, 
    -1.504578441e-01, -4.057279229e-02, -1.229710504e-01, 5.960054398e-01, 
    -7.631989568e-02, -3.148467243e-01, -4.061089456e-01, 2.078751475e-01, 
    3.482241556e-02, -1.692905426e-01, 1.873239875e-02, 7.392621599e-03}, {-2.463253140e-01, 1.381605566e-01, 1.686018258e-01, 8.983947337e-02, 
    2.656789869e-02, 1.346479207e-01, -3.914522529e-01, 4.207621887e-02, 
    -2.743935287e-01, -2.325693220e-01, -1.781369895e-01, -2.123869956e-01, 
    3.934168443e-02, 3.982526064e-01, -1.736841165e-02, -1.164752916e-01, 
    -4.570852518e-01, 7.828508317e-02, -8.774495125e-02, 1.258831006e-02, 
    1.353911310e-01, -4.835232794e-01, 3.054515272e-02, -3.179600835e-01, 
    7.814852148e-02, -3.701496869e-02, 2.708399296e-01, -1.995759010e-01, 
    -4.314836860e-02, 1.878368855e-01, 1.397122741e-01, 1.420724839e-01, 
    5.152602121e-02, 1.016416252e-01, 1.136619747e-01, -7.098206319e-03, 
    6.001986936e-02, -5.507615954e-02, -3.197230697e-01, 3.404948860e-02}, {5.479995608e-01, -1.960693747e-01, -7.169793248e-01, -1.660643816e-01, 
    2.771981955e-01, -2.090605199e-01, -3.560557961e-01, -4.568881392e-01, 
    9.381934255e-02, 1.765508950e-01, 4.702194929e-01, -6.567454338e-01, 
    -1.394855380e-01, -1.816110313e-01, -2.533412911e-02, 2.068567723e-01, 
    4.816578627e-01, 2.160411514e-02, -5.814361572e-02, -2.604696751e-01, 
    5.760928616e-02, -4.336664677e-01, -4.465498030e-01, 1.640761346e-01, 
    5.415602922e-01, -8.697066456e-02, -4.551165104e-01, 2.031425387e-01, 
    -1.956026256e-01, 2.790153399e-02, -6.414236873e-02, -1.007748619e-01, 
    -6.245530769e-02, 1.289531142e-01, -4.001401961e-01, -2.481779903e-01, 
    1.631361395e-01, -1.770602465e-01, 1.911298335e-01, -1.155294776e-01}, {9.933729656e-03, 2.490179986e-01, 8.437471837e-02, 8.247335255e-02, 
    1.104464158e-01, 2.236377746e-01, -2.320957035e-01, -2.814793587e-01, 
    1.415968686e-01, 7.202451676e-02, -9.106593579e-02, -1.313716024e-01, 
    1.433403939e-01, -1.956979781e-01, 1.405744255e-02, 2.049999312e-02, 
    1.686885208e-01, -1.584974825e-01, 1.445145756e-01, 6.420187652e-02, 
    -3.562108055e-02, 1.789727956e-01, -1.234491169e-01, -3.129281700e-01, 
    -8.400564641e-02, -2.829134762e-01, -7.538381964e-02, 2.605505288e-02, 
    2.420514524e-01, 4.051856697e-01, -1.372965127e-01, -3.800801039e-01, 
    2.660529315e-02, -6.776443869e-02, 2.514112890e-01, -1.695360243e-02, 
    -1.875327229e-01, -4.752430599e-03, -2.659466118e-02, 2.439698279e-01}, {-3.174152970e-01, -1.466595083e-01, -5.657443777e-02, -9.229816496e-02, 
    2.096010000e-02, -2.860306501e-01, 1.405407488e-01, -1.404972374e-01, 
    -2.235891223e-01, 2.595458627e-01, -1.622724533e-02, 1.354770549e-02, 
    4.174425080e-02, -7.487234473e-02, -4.657790810e-02, 3.522587419e-01, 
    -2.880882621e-01, -2.686331868e-01, -1.532607675e-01, -1.104311049e-01, 
    3.620235622e-02, 3.073781133e-01, 1.056519598e-01, -8.292309195e-02, 
    -3.564943746e-02, -1.038774848e-01, -7.330668718e-02, -2.285398245e-01, 
    1.333122700e-02, -1.552118063e-01, -9.251408279e-03, 4.191169441e-01, 
    -1.203997582e-01, 5.954641700e-01, 3.620300209e-03, 1.639425308e-01, 
    -9.141504765e-02, 1.718255728e-01, -4.795219749e-02, -3.408067301e-02}, {-1.387366056e-01, -2.974121273e-01, -2.339921892e-01, -3.297291398e-01, 
    1.131588221e-01, 1.840649098e-01, 4.034781456e-01, 3.770079315e-01, 
    4.049759805e-01, -1.882153749e-01, -1.997867972e-01, -3.846850395e-01, 
    1.496874392e-01, -2.199831486e+00, -4.927264452e-01, 4.692870378e-02, 
    -4.147520959e-01, -4.513471723e-01, -5.573474765e-01, -8.746780753e-01, 
    -1.603204012e-01, 1.580892652e-01, 3.644970655e-01, 3.577352166e-01, 
    5.737737417e-01, -6.969409585e-01, -1.824733764e-01, -4.888454676e-01, 
    -3.157861829e-01, 8.442161977e-02, 9.947029501e-02, 5.309857130e-01, 
    -1.738714874e-01, 1.726192087e-01, -2.998377085e-01, -7.623013258e-01, 
    -1.693879366e-01, 8.358461857e-01, -5.509377718e-01, -4.155509472e-01}, {-8.454434574e-02, -7.462628931e-02, -1.148866639e-01, -1.717968285e-01, 
    -2.503635287e-01, -4.317872599e-02, 3.212663531e-01, -4.379376471e-01, 
    -4.611670226e-02, 7.538500428e-02, -2.319442779e-01, 7.604870945e-02, 
    4.300838336e-03, -2.294010073e-01, -4.501735047e-02, 8.408447355e-02, 
    -6.811805367e-01, 2.890828848e-01, 9.197610617e-02, -2.765448391e-01, 
    3.077147007e-01, -1.625426859e-01, -9.211211652e-02, 1.297430098e-01, 
    3.378684223e-01, 1.664027423e-01, -1.361858845e-01, -2.236654013e-01, 
    -1.262163669e-01, 1.268875152e-01, 3.120670319e-01, 2.155216485e-01, 
    5.111885071e-02, -1.327152085e-02, -6.638093591e-01, 1.331731379e-01, 
    9.574536234e-02, 1.392706335e-01, -1.126534306e-02, 1.120108180e-02}, {-4.454595149e-01, 3.037379980e-01, 5.798741058e-02, -3.933354840e-02, 
    6.351316720e-02, 2.077621222e-01, -1.110483855e-01, 2.776846588e-01, 
    -1.525735408e-01, 9.850295633e-02, -3.791325539e-02, 2.882281542e-01, 
    -4.187225103e-01, -3.493827879e-01, -7.221998274e-02, 1.681766957e-01, 
    1.518334895e-01, 2.480841130e-01, -2.198731340e-02, -2.893657386e-01, 
    4.505490139e-02, -9.638927132e-02, -1.690731645e-01, 6.264310330e-02, 
    -1.391470712e-02, 1.078381017e-01, 2.565264702e-02, -5.330216885e-01, 
    7.772611827e-02, 2.415001243e-01, 1.514563560e-01, -7.884410769e-02, 
    2.199262381e-02, -2.626363039e-01, 1.360227019e-01, -5.464103818e-01, 
    -1.270231903e-01, -1.410458833e-01, -8.118285984e-02, -1.633818448e-01}, {-2.451686263e-01, -2.837475240e-01, -4.656995088e-02, -5.183523148e-02, 
    -1.463946402e-01, 1.047236845e-01, 2.568143904e-01, 7.006361336e-02, 
    9.241403639e-02, 3.458526731e-01, -1.113269851e-01, 1.111039668e-01, 
    4.705334902e-01, -5.302857608e-02, -7.624871284e-02, 5.663448013e-03, 
    3.435614407e-01, 1.837985069e-01, -4.928496480e-02, -2.297659218e-01, 
    -1.122728810e-01, -6.687931716e-02, -1.446491331e-01, -1.243990138e-01, 
    6.483583152e-02, -9.007379413e-03, 1.289474070e-01, -2.136248052e-01, 
    -1.485319585e-01, -6.679836661e-02, -1.270058453e-01, -4.078406841e-02, 
    -1.518195961e-02, 3.404320478e-01, -1.355289966e-01, -4.144047946e-02, 
    -5.359157175e-02, 4.095174372e-02, -1.628179699e-01, -1.069312990e-01}, {-6.659279764e-02, -2.790211514e-02, -1.289448738e-01, 1.473229751e-02, 
    2.233007178e-02, -6.248079985e-02, 1.812484264e-01, -6.444509327e-02, 
    -4.033042863e-02, 1.845380068e-01, 4.278573692e-01, 1.518552750e-01, 
    -2.211274765e-02, -2.221450061e-01, 9.414997883e-03, -1.294258833e-01, 
    1.778245904e-02, 6.099102274e-02, 8.230753988e-02, -2.641414665e-02, 
    -2.571423948e-01, -2.798353136e-01, -1.701603830e-01, -2.005418986e-01, 
    3.872936964e-01, 1.422633976e-01, -4.014889598e-01, 3.694505394e-01, 
    -1.021388769e-01, -1.426322758e-01, 1.120347455e-01, 6.914894283e-02, 
    -1.634687930e-02, 2.791144848e-01, -3.283407688e-01, 1.961132586e-01, 
    -6.869240105e-02, -4.032704234e-02, 6.732840836e-02, 1.997279003e-02}, {-1.680740267e-01, -4.459394217e-01, -8.092798293e-02, -1.526244581e-01, 
    -1.745219678e-01, 1.312097418e-03, -1.625283062e-01, -3.060182370e-02, 
    2.981631551e-03, 3.183206916e-01, -4.511721805e-02, -4.589308202e-01, 
    1.802532524e-01, -2.522850335e-01, 6.647270918e-02, -3.378347456e-01, 
    2.179661840e-01, -8.239696175e-02, 2.285563573e-02, -1.173176020e-01, 
    -8.494275808e-02, 3.536193669e-01, -4.401269257e-01, -2.089134902e-01, 
    -4.455803335e-01, 1.013975940e-03, -3.325397372e-01, 2.657698393e-01, 
    4.411021471e-01, -2.544492669e-02, -6.283089519e-02, -3.043251038e-01, 
    7.707548887e-02, 6.193144917e-01, 2.677536942e-02, 1.263645440e-01, 
    1.657753438e-01, -4.831640720e-01, 1.485846341e-01, 7.065436989e-02}, {-8.111714572e-02, -1.073138565e-01, 1.775331348e-01, 1.247540489e-01, 
    8.074668795e-02, -1.104017720e-01, 1.807569563e-01, 7.109648734e-02, 
    2.860435545e-01, -2.850519419e-01, 1.563519090e-01, 1.592809856e-01, 
    -8.336305618e-02, 2.650783658e-01, 1.448595971e-01, -2.130901515e-01, 
    -1.570195705e-02, -1.016020682e-02, 7.551679760e-02, 1.268595010e-01, 
    6.538263708e-02, -1.275455207e-01, 1.722740680e-01, -1.961515248e-01, 
    -1.784928441e-01, -1.371198744e-01, 2.409292758e-02, 1.868599504e-01, 
    -1.291229278e-01, 2.857789099e-01, 6.869553775e-02, -5.916209891e-02, 
    -4.301483743e-03, -3.722260892e-02, 1.749493764e-03, 3.939213604e-02, 
    -1.430246085e-01, 3.880850673e-01, -2.466692030e-02, -6.153695658e-02}, {1.928432286e-01, -1.597843766e-01, -1.203531265e+00, -5.376725197e-01, 
    6.705691218e-01, 3.087295890e-01, 6.045231968e-02, 4.316245019e-01, 
    -2.216618806e-01, 2.210143507e-01, -3.072257340e-01, -3.979319036e-01, 
    -2.112413943e-01, -3.506407440e-01, -1.206831217e+00, 3.343159854e-01, 
    -5.833953023e-01, -2.350763381e-01, -7.085461617e-01, -6.057051420e-01, 
    -1.039022565e+00, 5.238859057e-01, 4.723295867e-01, -2.230044752e-01, 
    1.125399351e+00, -3.082174622e-02, -6.530405879e-01, -4.324272275e-03, 
    2.125871629e-01, -1.756653786e-01, -1.029163361e+00, 4.747225940e-01, 
    7.453258336e-02, -2.538813353e-01, -1.245336890e+00, 6.905074120e-01, 
    1.617340147e-01, -3.829653561e-02, 1.333027482e-01, -1.269276142e+00}, {4.694677889e-02, 1.284019500e-01, -1.106679291e-01, -1.610414237e-01, 
    7.616821676e-02, -4.001336098e-01, -2.063125521e-01, 3.225583117e-03, 
    -3.555438519e-01, -9.528237395e-03, 3.703553602e-02, 7.461792231e-02, 
    1.901723146e-01, -1.287664771e-01, 1.252243668e-01, 4.730355460e-03, 
    4.524519444e-01, -1.238670871e-01, 1.201763973e-01, 2.199913934e-02, 
    -1.571296751e-01, -2.254857868e-01, 1.592465341e-01, -4.212453067e-01, 
    -3.184443116e-01, -2.605184317e-01, 1.939167036e-03, -1.739790142e-01, 
    1.106473356e-01, 1.266002655e-01, -1.055216268e-01, -2.066461146e-01, 
    1.198371202e-01, 3.315599859e-01, 7.699196041e-02, 7.645871490e-03, 
    9.166663885e-02, 3.205607459e-02, -9.455964714e-02, -4.692350700e-02}, {9.838940203e-02, -6.422043592e-02, 2.454075366e-01, 1.764803566e-02, 
    3.551361710e-02, 6.064508110e-02, 1.736906916e-01, 1.243159547e-01, 
    3.089585900e-01, 4.000001848e-01, -1.100392416e-01, 1.290299296e-01, 
    -2.684379220e-01, -3.696843982e-02, -1.879971847e-02, -2.310735881e-01, 
    -5.041472241e-02, -3.605066240e-02, -1.469762176e-01, 1.213976368e-01, 
    1.935434714e-02, -3.350836337e-01, 5.202160776e-02, -1.289468408e-01, 
    1.041186452e-01, -2.882640660e-01, 1.550384611e-01, 1.096234098e-01, 
    2.555543743e-02, 1.027156040e-02, 8.103837818e-02, -2.651115954e-01, 
    1.071558520e-01, 2.743817270e-01, -1.058789995e-02, 1.023431718e-01, 
    1.351090223e-01, 5.430155993e-02, -6.419043988e-02, 1.002848595e-01}, {-1.510606706e-01, -5.226536989e-01, -2.284027338e-01, -1.291995309e-02, 
    2.641634047e-01, 3.794120252e-02, -5.411540717e-02, -2.998850122e-02, 
    1.386364251e-01, 9.874820709e-02, 3.673626781e-01, 1.349286437e-01, 
    1.170036476e-02, -3.163727745e-02, 7.058167458e-02, 2.887685224e-02, 
    2.294407636e-01, 1.342478245e-01, -1.220305637e-01, 1.020619497e-01, 
    -1.882892251e-01, 2.009607852e-01, -1.356397271e-01, 3.016503751e-01, 
    -9.496481717e-02, 3.688609600e-01, -2.502914071e-01, -1.007773206e-01, 
    2.721319906e-02, -1.866554022e-01, -4.850735664e-01, 1.282116175e-01, 
    -3.396157920e-02, -1.170924529e-01, -5.567584559e-02, 1.464639604e-01, 
    -1.890770644e-01, -2.818278074e-01, -8.942063898e-02, -1.974922121e-01}, {-1.232393906e-01, -3.480029702e-01, 6.511639059e-02, -3.093413711e-01, 
    4.912279248e-01, -5.805996433e-02, -4.210269451e-02, -3.979433328e-02, 
    -4.647812620e-02, -1.829351485e-01, 9.162107110e-02, 1.014674976e-01, 
    7.072912157e-02, -7.513312250e-02, 1.360585839e-01, -6.266791821e-01, 
    -1.900639534e-01, 5.232031271e-02, -1.244755834e-01, -8.331120014e-02, 
    -2.279912680e-02, 2.055845708e-01, -6.784404814e-02, 1.921365708e-01, 
    4.366960526e-01, -3.108413517e-02, -3.251563907e-01, 2.766928971e-01, 
    4.446843266e-01, -1.896519810e-01, 2.358112484e-01, 3.427149951e-01, 
    -1.143054843e+00, 1.184378862e-01, -5.051701143e-02, 1.922645867e-01, 
    -2.526487112e-01, 2.104912847e-01, -7.962855101e-01, -3.986427486e-01}, {4.195253551e-02, -1.684800088e-01, 1.257208437e-01, 2.591509819e-01, 
    -3.890730441e-02, 9.914683551e-02, -1.735563427e-01, 1.197929457e-01, 
    -1.324092271e-03, 2.194232643e-01, 9.349108487e-02, 1.172345504e-01, 
    1.021005884e-01, 2.028075159e-01, 2.782509923e-01, 7.581420243e-02, 
    2.143911868e-01, 2.580994964e-01, 2.088607997e-01, -1.019233931e-02, 
    8.718059212e-02, 6.881301850e-02, -2.410199493e-01, -1.925760955e-01, 
    -1.420636773e-01, 8.014345076e-04, 8.485184610e-02, 1.580403000e-02, 
    -2.394551486e-01, 1.165726706e-01, 9.760809690e-02, -1.072611436e-01, 
    -1.369217336e-01, 5.782093480e-02, 1.648549289e-01, -1.691609174e-01, 
    -1.254194826e-01, 1.429921985e-01, -8.952871710e-02, -7.977006584e-02}, {8.051535487e-02, -1.681728363e-01, 1.367188990e-01, 1.203248724e-01, 
    -2.772166207e-02, 1.372122318e-01, 2.074386179e-02, -5.299773067e-02, 
    4.882605746e-02, 1.130497679e-01, 5.276644230e-02, -8.444689959e-02, 
    -1.664435565e-01, 7.132418454e-02, 1.537780836e-02, -1.552642435e-01, 
    -1.043962240e-01, -5.030924082e-01, -1.291701049e-01, 2.603540421e-01, 
    -1.081260201e-02, -1.411615163e-01, 2.652122974e-01, 7.008628547e-02, 
    2.643037736e-01, -1.432376951e-01, 3.887841851e-02, 4.198649228e-01, 
    1.763257980e-01, -3.231900036e-01, 1.375907362e-01, -9.551745653e-02, 
    5.893944949e-02, 3.101304732e-02, -1.226084772e-02, -1.778116524e-01, 
    1.726338863e-01, -1.932476647e-02, -2.000449449e-01, -8.122025430e-02}, {8.126293123e-02, -3.551455140e-01, -3.135596514e-01, 4.278711975e-02, 
    3.855651245e-02, -3.905177414e-01, -1.014539301e-01, -1.952897757e-01, 
    -4.388535917e-01, 3.794772029e-01, -6.136838794e-01, -5.874104500e-01, 
    1.178998649e-01, -7.870305330e-02, 5.871557444e-02, 2.829844356e-01, 
    -5.809511542e-01, 2.500716746e-01, -4.067917913e-02, 1.071055457e-01, 
    7.792441174e-03, 2.813569307e-01, 9.739509225e-02, 1.943951845e-02, 
    2.775285542e-01, -1.536159962e-01, -2.724863589e-03, -3.522421420e-02, 
    -2.313796058e-02, -7.943411171e-02, 1.071017385e-01, 1.194837913e-01, 
    -8.448944986e-02, -3.274054453e-02, 1.169784833e-02, 5.320211872e-03, 
    -9.494723380e-02, -2.999925911e-01, 2.801015973e-01, -6.564083695e-02}, {1.657850854e-02, 2.534973025e-01, 2.415058464e-01, -2.165634930e-02, 
    -2.519117594e-01, -1.213002726e-01, 2.477739751e-01, 2.045583278e-01, 
    4.368226230e-02, -2.039617300e-01, 1.923803985e-01, -5.586625636e-02, 
    -5.961034447e-03, 6.162092090e-03, 7.793262135e-03, -1.084177122e-01, 
    -1.086550578e-02, 1.897414476e-01, 1.439432949e-01, 1.221538782e-01, 
    1.237243041e-01, -1.402044147e-01, 9.991938621e-02, -9.226094931e-02, 
    9.249257855e-03, -8.805233985e-02, 1.752863824e-01, -2.781726653e-03, 
    -1.144672371e-02, 2.750663161e-01, -1.514493525e-01, -8.502334356e-02, 
    3.025954366e-01, 3.487799317e-02, 1.731439382e-01, -1.470964998e-01, 
    1.164412871e-01, -1.594203413e-01, -1.841910998e-03, 2.704262137e-01}}};

const float bias_hid[NUM_HIDDEN_LAYERS-1][NUM_NODES] = {{8.018127084e-02, 3.711737692e-02, 4.932092130e-02, 2.466225065e-02, 
    -1.089092195e-01, -1.412035376e-01, 1.820973158e-01, -1.846299469e-01, 
    2.776895761e-01, -1.316547766e-02, -3.823814914e-02, -8.914254606e-02, 
    2.700378299e-01, -4.791552946e-02, -5.170689896e-03, 8.098255843e-02, 
    6.741853058e-02, 2.213021275e-03, 2.134880982e-02, -2.137994319e-01, 
    -1.557377130e-01, 8.884369582e-02, -1.072574183e-01, -3.081963025e-02, 
    2.392434627e-01, -7.490724325e-02, -1.753227562e-01, -2.809320763e-02, 
    1.319174562e-02, 3.395970538e-02, 6.885511428e-02, 2.895193994e-01, 
    -2.178464551e-03, 2.115427516e-02, 1.009708568e-01, -1.044712290e-01, 
    -7.848574966e-02, 1.592298411e-02, -1.382969692e-02, -9.614840150e-03}};