#include "nn_parameters_non_zero.h"

// const int num_nodes_vec[NUM_LAYERS] = {10, 40, 40, 4};

// NN network parameters -- atribute values
const float weights_in_nz[NUM_NODES][NUM_STATES] = {{4.764204621e-01, 7.413538098e-01, 4.131284356e-02, 6.192312837e-01, 
    -4.677867591e-01, -3.050927073e-02, 6.305878162e-01, 1.819344908e-01, 
    -5.811332166e-02, 2.720143832e-02}, {-4.077171087e-01, -4.394349456e-01, -1.427686661e-01, 7.007658482e-01, 
    -1.060433269e+00, 4.078099132e-02, 3.354148865e-01, 5.006554127e-01, 
    1.350777626e+00, 1.602374077e+00}, {1.116642728e-01, 6.581962109e-01, 3.695676923e-01, -2.305730432e-01, 
    2.321406156e-01, 2.132294178e-01, 8.766411990e-02, 1.493166089e-01, 
    -3.431088328e-01, -9.631820917e-01}, {5.866884589e-01, 1.982976049e-01, -2.093489170e-01, 8.913314342e-02, 
    -1.796171069e+00, -2.982547879e-01, 7.442431450e-01, -4.473490715e-01, 
    3.673840314e-02, -1.867851019e-01}, {2.296999931e+00, -3.188149929e-01, -2.594431676e-02, -1.384565830e+00, 
    7.965604067e-01, -1.696719378e-01, -1.382534742e+00, 7.613165379e-01, 
    -9.943202138e-01, -1.458102465e+00}, {1.374270558e+00, 2.804893553e-01, 4.104669020e-02, 1.772190690e+00, 
    -2.898035944e-01, 8.264558762e-02, 1.540031433e+00, 1.257210672e-01, 
    1.001729250e+00, -7.799615264e-01}, {-4.013061523e-01, 1.059946418e+00, -1.180458069e-02, 1.246006265e-01, 
    9.308466315e-01, 7.629568130e-02, -5.256599784e-01, -6.630179286e-01, 
    1.293635182e-02, 7.381296158e-02}, {-7.374813408e-02, 6.140307784e-01, 1.471271273e-02, 4.200190604e-01, 
    -4.236669838e-01, -6.932348758e-02, 1.228771806e+00, 6.542013288e-01, 
    -4.090908468e-01, -3.050828278e-01}, {-1.245822683e-01, 2.874761224e-01, 3.345624506e-01, 9.835415334e-02, 
    -6.675134897e-01, 3.973293006e-01, -3.004752286e-02, -6.765194982e-02, 
    9.083300084e-02, 3.862034529e-02}, {5.320313573e-01, 6.607608199e-01, 5.612406731e-01, 6.012752056e-01, 
    8.349995017e-01, 5.442724228e-01, 1.112597585e+00, -1.284238999e-03, 
    2.267132849e-01, -1.268610358e-01}, {-6.134566665e-01, -6.415177584e-01, -9.851326048e-02, -9.547088295e-02, 
    1.326708078e+00, -1.614533514e-01, 1.814799905e+00, -4.449095130e-01, 
    3.814591169e-01, -2.429516554e+00}, {-5.278998986e-02, -1.281081140e-01, 4.898088798e-02, 1.663701892e+00, 
    -9.188635647e-02, 4.590234160e-02, 1.082143262e-01, 1.479548216e-01, 
    5.698415637e-01, 1.381935477e+00}, {8.301629424e-01, -5.411192775e-01, 8.563136458e-01, 2.044292241e-01, 
    -2.940463722e-01, 8.659093976e-01, -3.699159026e-01, -6.633997560e-01, 
    5.432888493e-02, -6.695619971e-02}, {-1.502805710e+00, 7.473533750e-01, -2.941985726e-01, 3.750235075e-03, 
    4.564490318e-01, -3.129314184e-01, 8.724109530e-01, -2.382446080e-02, 
    9.062222242e-01, 9.913407564e-01}, {5.274798870e-01, -9.373055696e-01, 8.336575329e-02, 6.653581858e-01, 
    -4.906266034e-01, 1.107728630e-01, -2.820053399e-01, 4.184040725e-01, 
    1.900946200e-01, -6.853308678e-01}, {-1.543002129e-01, -3.910490870e-01, 6.339264661e-02, -1.449880600e+00, 
    -1.042045116e+00, 1.679903120e-01, 2.222171873e-01, -4.907609522e-01, 
    1.186235622e-02, -4.546417892e-01}, {-4.125078619e-01, -1.416711211e-01, -1.704507172e-01, -5.422344208e-01, 
    -1.920922399e-01, -4.530046508e-02, 9.694484621e-02, 1.620925665e-01, 
    1.537461728e-01, 1.287229419e+00}, {-3.056866527e-01, 5.622674227e-01, 2.050005794e-01, 6.852474809e-01, 
    -2.363572717e-01, 2.601733208e-01, -7.853171229e-01, -7.999399304e-02, 
    4.223257303e-01, -6.666985750e-01}, {9.118916094e-02, 1.946072131e-01, -9.623258710e-01, 1.637395322e-01, 
    3.489771783e-01, -8.751725554e-01, 9.638081491e-02, -5.726943165e-02, 
    4.993685707e-02, -1.468040198e-01}, {-3.234582841e-01, 4.360653460e-01, -1.129042655e-01, -2.745752931e-01, 
    1.051023483e+00, -2.404513657e-01, 9.670678973e-01, 9.425956607e-01, 
    1.302492380e+00, -1.069347024e+00}, {5.464155674e-01, -6.281470060e-01, 3.482657373e-01, -4.810778499e-01, 
    1.090133339e-01, 3.340088725e-01, 1.003762841e+00, -7.054207325e-01, 
    -6.365507096e-02, -3.174406588e-01}, {1.067427397e+00, -1.234610438e+00, 4.158253223e-02, 7.061399817e-01, 
    2.634540200e-01, -5.771012977e-03, 6.212229133e-01, -2.184813172e-01, 
    -2.345771044e-01, 2.821012020e+00}, {-1.078068852e+00, -1.723043174e-01, -2.989120781e-01, -2.214424610e-01, 
    -2.719052136e-02, -3.459092081e-01, -5.512712002e-01, 9.880446792e-01, 
    -2.674534619e-01, -6.567765474e-01}, {-9.333196282e-02, 1.377536263e-02, 1.786141992e-01, 4.824760854e-01, 
    3.016674817e-01, 9.339400381e-02, 3.020530939e-01, -4.013095051e-02, 
    1.092255041e-01, 7.700180411e-01}, {-2.155057341e-01, -7.347171754e-02, -8.735758811e-02, 1.006351471e+00, 
    -3.815461099e-01, -1.343403310e-01, 1.061695099e+00, -9.183546901e-02, 
    8.382302523e-02, -8.299508095e-01}, {7.560261339e-02, -1.326574802e+00, 9.478262812e-02, -1.714688987e-01, 
    -4.394550920e-01, 1.874485612e-01, 8.447935581e-01, 1.738819480e-01, 
    7.117577195e-01, -6.325870752e-01}, {-2.342785597e-01, 6.433596611e-01, -2.423610538e-02, -2.235072553e-01, 
    1.137344718e+00, -6.910585612e-02, 7.990576625e-01, 5.543105304e-02, 
    1.536024809e-01, -7.623180747e-01}, {-6.367748737e+00, -1.436237574e+00, -7.719138265e-02, 1.948154211e+00, 
    -5.861892104e-01, -8.005008101e-02, 2.109199286e+00, -9.106380492e-02, 
    4.711443484e-01, -3.625873029e-01}, {2.060971260e-01, -4.064411521e-01, -3.912207112e-02, 9.492957592e-02, 
    -1.627759039e-01, 1.437997073e-02, -3.145104647e-01, -9.469753504e-01, 
    1.297629476e+00, -5.172122717e-01}, {1.460104138e-01, -4.044380039e-02, -2.648027614e-02, 2.314285994e+00, 
    -2.042518616e+00, 9.874755144e-02, 2.173447132e+00, 2.286085486e-01, 
    6.647074819e-01, -1.668650061e-01}, {-1.330050588e+00, -5.992754698e-01, -1.367209200e-02, -1.475305438e+00, 
    -1.838409305e-01, 1.527062654e-01, 6.554269195e-01, 1.082906034e-02, 
    3.785166442e-01, 1.609193087e+00}, {-1.681995153e+00, -1.037691832e+00, -3.082925454e-03, -2.146816403e-01, 
    -3.193396926e-01, -3.234796599e-02, -5.469471216e-01, 2.596371472e-01, 
    -9.894388318e-01, -2.996564209e-01}, {-7.763934135e-01, -5.066727400e-01, 6.177807450e-01, -1.047748804e+00, 
    -2.554741800e-01, 5.612609982e-01, -4.377700984e-01, 2.487107217e-01, 
    -1.810302734e-01, -3.530775309e-01}, {1.134342313e+00, -3.101671860e-02, -7.100110501e-02, 9.541285634e-01, 
    -7.999516726e-01, -8.806373924e-02, 2.047187686e-01, 1.022832841e-01, 
    3.103482425e-01, 2.313304186e+00}, {3.823122978e-01, -5.173265338e-01, -4.016223848e-01, -2.234231979e-01, 
    3.757981360e-01, -4.883993566e-01, 1.119313389e-01, 1.694526970e-01, 
    -1.288985372e+00, -6.159104705e-01}, {1.016174316e+00, 1.009410143e+00, -8.878275752e-03, -5.398411155e-01, 
    -1.444196552e-01, 9.042149782e-02, -4.308478534e-01, -1.675491035e-01, 
    6.499789357e-01, -5.126812458e-01}, {1.249209881e+00, 1.977309138e-01, 2.902544439e-01, 1.421596885e+00, 
    7.363871336e-01, 1.391805112e-01, 2.089671373e+00, -1.979198307e-01, 
    -4.586699009e-01, -7.765812278e-01}, {2.561398029e+00, -1.829805039e-02, -1.350629777e-01, -1.260885119e+00, 
    -2.394435406e+00, 1.178220287e-02, 2.324547172e-01, -7.580927014e-01, 
    -4.132544398e-01, 4.367894650e+00}, {4.269004166e-01, -8.279833198e-01, 1.812661141e-01, 6.959072351e-01, 
    -6.856249571e-01, 6.531313411e-04, -7.267730832e-01, -6.982105970e-01, 
    -7.716189623e-01, 1.618940234e-01}, {5.073146150e-02, 3.283256292e-02, -4.281657934e-02, -1.165520623e-01, 
    -2.003943026e-01, -1.381033063e-01, -5.114174262e-02, -1.137326598e+00, 
    -1.034792781e+00, 3.572046459e-01}};

const float bias_in_nz[NUM_NODES] = {-2.092439383e-01, 2.077163905e-01, -1.615716219e-01, 6.248960644e-02, 
    2.849492133e-01, -7.648071051e-01, 4.742708057e-02, -2.238723487e-01, 
    -1.428920180e-01, -3.082575500e-01, -3.358804882e-01, -1.922388673e-01, 
    -2.466904074e-01, -3.677156940e-02, -3.971255198e-02, -2.489374876e-01, 
    1.061704475e-02, 8.296628296e-02, -4.362055659e-01, -5.120286345e-01, 
    -1.589471251e-01, -1.890599132e-01, 4.499757290e-01, 1.062264144e-01, 
    1.241752505e-01, -1.260591298e-01, -1.083500013e-01, 2.542808652e-01, 
    1.474730819e-01, -1.627523065e+00, 1.061284542e-02, 5.759286284e-01, 
    8.525079489e-02, -1.900551319e-01, -2.106402665e-01, 6.905191392e-02, 
    -5.978415012e-01, -1.781901158e-02, -1.476139128e-01, -2.445336431e-01};

const float weights_out_nz[NUM_CONTROLS][NUM_NODES] = {{6.831307709e-02, 1.777645797e-01, -7.036583126e-02, -9.946975112e-02, 
    -1.840341538e-01, -6.231868267e-02, -1.300024614e-02, 2.348347455e-01, 
    4.779785573e-01, -1.434545312e-02, -1.132252887e-01, 1.332500130e-01, 
    -7.562147081e-02, -7.966016419e-03, -1.761807650e-01, 1.984138042e-01, 
    1.663223803e-01, -1.937782913e-01, 5.083719268e-02, -2.052017003e-01, 
    1.659609675e-01, 1.321216822e-01, -7.349641323e-01, 1.143313423e-01, 
    -4.469308630e-02, 1.114183888e-01, 1.056867884e-03, -1.625152230e-01, 
    3.943546116e-02, -1.967655569e-01, 1.966118999e-02, 2.574361861e-01, 
    6.329872180e-03, -1.943694204e-01, -1.937226355e-01, 5.547844246e-02, 
    -2.917097211e-01, 1.434710175e-01, 3.315133154e-01, -2.592462003e-01}, {-6.182583980e-03, 3.991271555e-02, -3.032720415e-03, -1.449933834e-02, 
    3.720289841e-02, -2.047874331e-01, 1.478124689e-02, -6.727471948e-02, 
    1.016514897e-01, 2.855767263e-03, -7.070741616e-03, 5.771062151e-02, 
    -6.778792012e-03, -3.742535599e-03, -8.019710332e-02, -3.283390077e-03, 
    -4.890388995e-02, 1.128624659e-02, 1.627246886e-01, 1.738990098e-02, 
    4.715597897e-04, -2.072386816e-02, -7.253679633e-02, 4.572951701e-03, 
    -4.024007022e-01, -2.026940137e-02, 2.002261020e-02, -1.063527074e-03, 
    -2.275530249e-03, 3.445740044e-02, 8.841789328e-03, -3.516364098e-02, 
    -4.553594626e-04, -1.433085185e-02, 1.899749413e-02, -1.454020757e-02, 
    3.373188525e-02, 4.017795622e-02, 1.005677972e-02, -1.349579077e-02}, {-1.779368706e-02, 8.416923694e-03, -4.272838589e-03, -1.297017909e-03, 
    -6.584443897e-02, 1.918188184e-01, -1.644655690e-02, 4.312557355e-02, 
    1.728366129e-02, -4.711088911e-02, -6.830325583e-04, 1.228427328e-02, 
    -6.336388737e-02, -5.004556151e-04, 1.398685481e-02, 4.590988904e-02, 
    -9.084674716e-02, -2.200410236e-03, -1.952993870e-02, 7.847812027e-03, 
    -1.401622081e-03, 6.135787815e-03, -6.105228886e-02, -3.093157336e-02, 
    -5.681339279e-02, -2.855887823e-02, 4.314293712e-02, -3.550149128e-02, 
    -1.200993173e-02, -5.138914660e-02, 1.486362796e-02, 3.412575647e-02, 
    3.880176460e-03, -1.081111003e-02, -1.542277168e-03, 1.598301902e-02, 
    -2.487611398e-02, 1.984192617e-02, -6.535360962e-02, 1.803195663e-02}, {-3.676975071e-01, -4.192444086e-01, 3.512954116e-01, 3.160998225e-01, 
    1.901093841e+00, 3.876456618e-02, -4.946958423e-01, 2.547942102e-01, 
    1.294209808e-01, 5.127452016e-01, 3.038451076e-01, -5.912556052e-01, 
    -1.702894688e+00, 1.551302522e-01, -3.037318587e-01, -6.188176945e-02, 
    -1.290167421e-01, 1.109292358e-01, 8.387700468e-02, 3.138308227e-01, 
    -4.353407919e-01, 4.357991815e-01, -7.390032709e-02, -2.338510454e-01, 
    7.862899452e-02, -3.670068383e-01, 1.600134224e-01, -4.541096091e-01, 
    -2.825035155e-01, -8.085562289e-02, 3.410915136e-01, -3.158776760e-01, 
    -2.205532938e-01, -2.550444305e-01, -6.274464726e-02, 3.945610523e-01, 
    8.050866425e-02, 3.667909205e-01, 1.358299702e-01, -6.257094443e-03}};

const float bias_out_nz[NUM_CONTROLS] = {-3.042785975e-04, 3.062482551e-02, 4.594105296e-03, 5.847405642e-03};

const float in_norm_mean_nz[NUM_STATES] = {-1.466520908e+00, -7.682627845e-02, 2.085729581e-04, 4.252578526e-01, 
    4.550059807e-02, 3.257840828e-03, 8.119940816e-01, -1.861345353e-02, 
    7.312663913e-02, 5.862205120e-02};

const float in_norm_std_nz[NUM_STATES] = {3.449051709e+00, 3.626552621e+00, 2.192655564e-01, 2.469437198e+00, 
    1.970404278e+00, 4.045835042e-01, 2.092938553e-01, 9.918466291e-02, 
    1.017642336e-01, 5.176681276e-01};

const float out_norm_mean_nz[NUM_CONTROLS] = {1.502386279e-01, 1.648153945e-03, -6.133915011e-02, -6.093798195e-03};

const float out_norm_std_nz[NUM_CONTROLS] = {6.678275346e-01, 6.112894163e-01, 7.111480691e-01, 8.267986960e-01};

const float out_scale_min_nz[NUM_CONTROLS] = {-5.939885558e+00, -3.271779796e+01, -2.803722782e+01, -2.411598145e+00};

const float out_scale_max_nz[NUM_CONTROLS] = {5.489953142e+00, 3.269938414e+01, 2.820872142e+01, 2.426338851e+00};

const float weights_hid_nz[NUM_HIDDEN_LAYERS-1][NUM_NODES][NUM_NODES] = {{{1.200053096e-01, -1.690173298e-01, -1.117745191e-01, -4.452732578e-02, 
    1.165986583e-01, 3.965223730e-01, -2.669718564e-01, -3.165121675e-01, 
    4.717301950e-02, 2.540421188e-01, 9.067153558e-03, -4.759101197e-02, 
    -2.759732306e-01, -2.246999145e-01, -7.146643102e-02, 7.585638016e-02, 
    -3.388060033e-01, -5.371052623e-01, 5.677345395e-02, -1.604904048e-02, 
    1.463939101e-01, 3.136931658e-01, 2.911604568e-02, -2.071625367e-02, 
    2.335757911e-01, 1.702233106e-01, 1.509081870e-01, -1.025763392e+00, 
    4.093306884e-02, 9.491252154e-02, -3.824166358e-01, -4.614289850e-02, 
    -1.425236929e-02, 8.693590015e-02, -1.959176213e-01, 1.023947746e-01, 
    2.468874305e-01, 1.520149857e-01, -2.047604918e-01, -3.313642740e-01}, {3.004543185e-01, 4.286947101e-02, 1.979319006e-01, 1.592724174e-01, 
    -5.544327199e-03, -2.709295154e-01, 6.556673348e-02, 1.521955878e-01, 
    -1.928710192e-01, 1.457092911e-01, 1.691804230e-01, -2.789202929e-01, 
    -1.479818076e-01, 1.524714082e-01, -2.859543264e-01, 2.043371797e-01, 
    2.301494777e-01, -3.590980470e-01, 2.076489627e-01, -1.186112165e-01, 
    -1.730501465e-02, -1.427356303e-01, -2.004020810e-01, 3.118118830e-02, 
    9.907779843e-02, 2.408486456e-01, -1.120546460e-01, -9.945710748e-02, 
    2.031923085e-01, -3.678123653e-01, -4.099080861e-01, -1.761419624e-01, 
    3.083764315e-01, -3.442180157e-01, 1.363783926e-01, 2.361122333e-02, 
    5.535817146e-02, -9.781626612e-02, -1.322021931e-01, -2.241503298e-01}, {1.937230229e-01, -3.498078883e-01, -1.671321541e-01, -3.140981123e-02, 
    1.429645866e-01, -1.060371622e-01, 5.923977122e-03, 3.570003211e-01, 
    -3.368165493e-01, 7.440542430e-02, 3.031755388e-01, 2.263649404e-01, 
    2.621288598e-02, -1.143366024e-01, -1.437526196e-02, -1.188858375e-01, 
    -4.206200838e-01, -6.368854642e-02, 1.026568264e-01, 1.534908712e-01, 
    1.659589410e-01, -4.325190783e-01, -4.016523659e-01, -6.520563271e-03, 
    -1.577784717e-01, 4.040792212e-02, -5.834713229e-04, 1.196021736e-01, 
    -3.438698649e-01, 5.630893260e-02, -3.822471574e-02, -2.621369362e-01, 
    -3.325173259e-01, -1.333176643e-01, 1.743852943e-01, -6.184048057e-01, 
    8.856744319e-02, 2.043009400e-01, -7.316648960e-02, -3.035362661e-01}, {-2.895200253e-02, -2.373111248e-01, 4.228425622e-01, 1.221434847e-01, 
    9.691648930e-02, 1.392548680e-01, -2.175661623e-01, 5.572704077e-01, 
    -8.074570447e-02, 2.224002630e-01, -2.008532435e-01, -9.408507496e-02, 
    -1.985739768e-01, -1.780125126e-02, -2.392154932e-01, 3.716053665e-01, 
    -3.056849539e-02, -2.078048587e-01, 9.188236296e-02, 3.533282876e-02, 
    3.820739090e-01, 1.933774948e-01, -3.032747507e-01, -1.656555831e-01, 
    -1.546798050e-01, 2.088002674e-02, 4.138129950e-01, 9.248673916e-02, 
    -2.065265328e-01, -2.315170020e-01, 9.976556897e-02, -3.734471500e-01, 
    -4.648645222e-02, 1.380515546e-01, 8.418340236e-02, 9.765905328e-03, 
    -1.145221442e-01, 3.456546366e-01, -1.855511516e-01, -1.569090486e-01}, {1.424408238e-02, -6.948893666e-01, -5.217855573e-01, 6.808046997e-02, 
    -1.080894470e+00, 2.629288733e-01, -4.780448973e-01, 2.719470561e-01, 
    -7.212679833e-02, 5.197344422e-01, 3.789122701e-01, -5.048855543e-01, 
    1.558247507e-01, -5.846626759e-01, 1.052716598e-01, -4.370257854e-01, 
    -7.933593988e-01, 4.292344302e-02, -3.322256505e-01, 3.488024697e-02, 
    4.781714678e-01, -3.330194652e-01, -1.232300624e-01, -2.608234286e-01, 
    6.018106341e-01, 2.872289121e-01, 8.811699599e-02, -1.636881948e+00, 
    -2.380856872e-01, 9.086684585e-01, -9.725984931e-01, -7.025028467e-01, 
    -7.702869177e-01, -2.395147532e-01, -4.571305513e-01, -7.544535398e-01, 
    6.620538831e-01, -1.857245922e+00, -2.083380669e-01, -1.215484366e-01}, {-2.602000237e-01, -9.634920955e-02, 1.730953157e-01, 1.429368109e-01, 
    -3.915251046e-02, -2.593548596e-01, 3.250916898e-01, 1.719565243e-01, 
    2.628332004e-02, -1.482997686e-01, 8.486191742e-03, -8.804464340e-02, 
    1.047678944e-02, -2.445817143e-01, -1.100991070e-01, 1.114823595e-01, 
    -9.991722554e-02, -7.655502111e-02, 2.204124331e-01, -2.560635656e-02, 
    4.842847958e-02, -1.285728440e-02, 9.518037736e-02, -3.283811808e-01, 
    9.184461087e-04, 1.058431417e-01, -1.078264713e-01, 2.519601770e-02, 
    -4.699749649e-01, -4.602093250e-02, 2.908592224e-01, -1.706071794e-01, 
    -3.782082349e-02, 2.647304535e-01, -2.410940081e-02, -1.510441005e-01, 
    7.714206725e-02, -5.215532333e-02, 1.202337369e-01, -2.129651308e-01}, {1.430477714e-04, 2.993197739e-01, -1.334163100e-01, -4.298439622e-02, 
    -7.164164186e-01, -1.139610931e-01, -2.055452317e-01, 9.714104235e-02, 
    -6.094815955e-02, 1.169214696e-01, 4.786265790e-01, 4.179475009e-01, 
    -4.216276407e-01, 2.612494826e-01, -1.158136651e-01, -3.573941290e-01, 
    -2.120734453e-01, -8.315987140e-02, -1.372812390e-01, -9.161521448e-04, 
    -1.293173879e-01, -1.397773623e-01, -2.684874237e-01, 2.286962569e-01, 
    2.468466908e-01, 3.290743232e-01, -2.370087504e-01, -1.644713879e-01, 
    -4.376306236e-01, -2.782101929e-01, 3.984918818e-02, -2.872126102e-01, 
    2.624343336e-02, 1.052542552e-01, -2.399306595e-01, -8.703888059e-01, 
    2.931841910e-01, -8.990890533e-02, -3.284047544e-01, -1.725825667e-01}, {3.828557953e-02, -3.065244257e-01, -6.472170353e-02, 6.409662217e-02, 
    4.325347021e-02, 3.100200593e-01, 3.123114444e-02, -7.347256690e-02, 
    -1.850719601e-01, 2.646248341e-01, 3.149386048e-01, -5.419529974e-02, 
    1.571782976e-01, 9.035449475e-02, -3.920862079e-02, 1.589482278e-01, 
    1.092764437e-01, 8.001080155e-02, 1.948529482e-01, 2.698039077e-02, 
    2.003298104e-01, -1.766276658e-01, -5.367943645e-02, -8.316683024e-02, 
    -4.881662428e-01, -1.522992253e-01, -2.809937000e-01, -8.156199008e-02, 
    -2.566395402e-01, -2.245179713e-01, -5.292131007e-02, 1.500773430e-01, 
    -4.435048252e-02, 3.526347578e-01, 1.456907392e-01, 1.300600916e-01, 
    -5.716864020e-03, 1.898700893e-01, -1.197451074e-02, -1.574416161e-01}, {2.356601879e-02, 1.564182341e-01, -5.616185069e-01, -2.047619373e-01, 
    -3.807010949e-01, 4.690740705e-01, 1.492466331e-01, -1.177391969e-04, 
    -1.522698849e-01, 1.639060229e-01, -6.927520037e-02, -8.470923454e-02, 
    3.535998166e-01, -1.552009284e-01, 3.233904135e-04, -9.197110683e-02, 
    -2.209608555e-01, -2.773575485e-01, 2.164066434e-01, 3.995442986e-01, 
    1.493013501e-01, 1.430467069e-01, 2.051367611e-01, -2.612496912e-01, 
    -6.283382326e-02, 9.622523189e-02, -2.253469527e-01, -6.018516421e-01, 
    3.037172258e-01, 4.788402095e-02, -6.694098711e-01, -2.288042307e-01, 
    -5.797309875e-01, -5.494587496e-02, -5.530136079e-02, 1.260206252e-01, 
    -2.453579158e-01, -6.125099584e-02, 4.798590019e-02, 3.245478868e-01}, {-3.983109072e-02, 4.494271055e-02, 1.699331105e-01, -7.545769960e-02, 
    -1.977996230e-01, -8.417068422e-02, -3.708908856e-01, -1.946803182e-01, 
    -2.008444667e-01, 4.045693874e-01, -3.334948719e-01, -1.802180260e-01, 
    1.199530885e-01, -2.652378753e-02, -1.375623792e-01, 2.479830943e-02, 
    -8.315374702e-02, -1.077489406e-01, -8.290941827e-03, 3.365922272e-01, 
    2.833077498e-02, 3.333112597e-01, -1.038110480e-01, -2.195756435e-01, 
    1.196431071e-01, -3.123382330e-01, -1.767182946e-01, 1.118208095e-01, 
    -3.667770624e-01, 3.643869162e-01, 2.389959097e-01, -1.965068728e-01, 
    -4.264721274e-01, -1.747242212e-01, -5.312165022e-01, -1.453593522e-01, 
    2.286240906e-01, -7.197831869e-01, 5.200288072e-02, -3.405298591e-01}, {-2.054685652e-01, -1.749315858e-01, 3.389413282e-02, -1.498533338e-01, 
    9.012583643e-02, 1.667429656e-01, -1.868133843e-01, -6.681028754e-03, 
    -1.563156694e-01, 4.596060887e-02, 1.183495298e-01, 2.610127032e-01, 
    1.826365888e-01, -4.157893732e-02, 1.401363164e-01, 2.158999294e-01, 
    2.975668907e-01, -1.185311303e-01, 2.997873584e-03, 7.501392066e-02, 
    1.338191926e-01, -4.964203238e-01, -4.027676284e-01, -1.990464479e-01, 
    5.155035257e-01, 1.431829929e-01, 2.458033413e-01, -3.412865102e-01, 
    3.512327075e-01, -1.844077557e-01, 2.787452750e-02, -3.558086157e-01, 
    -3.481156230e-01, -8.902265877e-02, -2.402449995e-01, -5.951005593e-02, 
    -3.648516536e-01, 4.829284549e-02, 2.914372385e-01, 1.815885901e-01}, {-2.369288504e-01, 2.747983038e-01, -3.047511280e-01, 3.183723092e-01, 
    -4.758868217e-01, -9.189581126e-02, -3.982532769e-02, -1.596443951e-01, 
    -2.574726343e-01, -2.301318049e-01, 7.749458402e-02, 6.367920041e-01, 
    -3.032673597e-01, 2.317378111e-02, -8.265082538e-02, 1.077968404e-01, 
    -7.390733063e-02, -3.201580644e-01, -8.951945603e-02, -3.242864311e-01, 
    -7.559348643e-02, 2.749613225e-01, -2.918316610e-02, 1.033339426e-01, 
    -2.183556408e-01, -2.906205356e-01, -3.638849258e-01, -2.722117901e-01, 
    5.567306280e-02, 2.217980623e-01, -5.750725269e-01, -3.337754309e-02, 
    4.322949331e-03, 9.098220035e-04, -2.583215237e-01, -2.545109391e-01, 
    3.077831566e-01, -1.152922213e-02, -5.968179703e-01, -2.078456618e-02}, {3.793496639e-02, 2.137601525e-01, -6.523977965e-02, 4.457444549e-01, 
    -9.340236783e-01, 2.823165059e-01, 5.408411101e-02, 4.551232979e-02, 
    1.314287037e-01, -2.132750489e-02, -5.498993993e-01, 8.691312075e-01, 
    -3.624103963e-01, -3.713178337e-01, -8.137603290e-03, 2.931485176e-01, 
    -1.460652053e-01, -1.410403997e-01, 2.570502460e-02, -1.108001113e+00, 
    -3.018165827e-01, 7.343596816e-01, -4.338656664e-01, 5.486295819e-01, 
    2.367338240e-01, -4.455509782e-01, -5.210424662e-01, -1.466636777e+00, 
    -2.859297097e-01, 4.015614986e-01, -9.203393459e-01, -7.096391320e-01, 
    -2.438355386e-01, 7.206189632e-01, -2.149759084e-01, -4.914464653e-01, 
    1.394884735e-01, -6.217707992e-01, -3.560428917e-01, -4.923203886e-01}, {-7.876260579e-02, 3.663510978e-01, 1.414597481e-01, -9.131075814e-03, 
    -4.408282638e-01, 2.520358264e-01, -3.574717343e-01, -3.292958438e-01, 
    -1.985250711e-01, 2.361221015e-01, -4.105413556e-01, -1.823918708e-02, 
    2.899911404e-01, 1.304754615e-01, 2.922812849e-02, 2.041607350e-01, 
    2.258084714e-01, -2.618575096e-01, -6.685926020e-02, 3.859293461e-02, 
    2.687740605e-03, 3.924893737e-01, -3.635679483e-01, -3.870887682e-02, 
    -1.824356616e-02, -3.068239801e-02, -2.139212340e-01, 1.747901291e-01, 
    -3.230542541e-01, -9.667658806e-02, 3.164893985e-01, -6.722431630e-02, 
    3.159956038e-01, -1.624521911e-01, 7.544317632e-04, -4.219830334e-01, 
    2.073991299e-01, -6.669653207e-02, 3.149508312e-02, -1.497203708e-01}, {1.257434338e-01, 3.437075913e-01, 9.558562934e-02, -1.300217062e-01, 
    -3.767450452e-01, 9.282801300e-02, -2.812412381e-01, 3.332596123e-01, 
    -1.736943573e-01, 2.233872116e-01, 1.439685076e-01, -5.430847034e-02, 
    -5.786604062e-02, 6.411313266e-02, -2.769975066e-01, -1.892548241e-02, 
    2.627167851e-02, -4.047769308e-01, 2.310330868e-01, -1.062972546e-01, 
    -5.458964109e-01, -1.648849398e-01, -3.818748593e-01, -1.579085141e-01, 
    -9.809171408e-02, 2.452173978e-01, 3.041584976e-02, -3.015700579e-01, 
    5.267524719e-02, 4.133203626e-02, -1.139954776e-01, -1.974198222e-01, 
    2.268764190e-02, -3.040502071e-01, -1.002978384e-01, 1.668898314e-01, 
    2.416619509e-01, -7.338515520e-01, -9.563353658e-02, -4.670493305e-01}, {-2.046610862e-01, 1.688058972e-01, -3.412736356e-01, 1.074047312e-01, 
    -2.309944332e-01, 1.685424000e-01, -1.758501679e-01, 1.008674502e-01, 
    -3.370772004e-01, 2.271543443e-01, 7.391777635e-02, 2.556512654e-01, 
    -1.365036797e-02, 1.122419685e-01, -3.788798749e-01, 1.613363326e-01, 
    -9.563129395e-02, -1.376809031e-01, 5.053778291e-01, 4.228284582e-02, 
    1.712704152e-01, 1.667599380e-01, 2.249568999e-01, -3.260135055e-01, 
    -2.062928230e-01, 6.819628179e-02, -3.624221981e-01, 2.624201588e-02, 
    -1.561692506e-01, 1.224980578e-01, -9.388367087e-02, -1.166932806e-01, 
    6.726337224e-02, -7.177118957e-02, -3.490589187e-02, -8.532431722e-02, 
    1.435882598e-01, 4.984110221e-02, 2.279407531e-01, -3.866802156e-02}, {1.612877697e-01, -1.378993690e-01, 1.020722389e-01, 9.948576242e-02, 
    1.770266704e-02, 8.783486485e-02, -6.888258457e-02, -2.291501015e-01, 
    1.007184386e-01, -2.676641941e-01, 5.670325831e-02, -1.593674719e-01, 
    4.489010572e-02, 1.148855090e-01, 7.524574548e-02, -1.158127859e-01, 
    1.623454243e-01, -1.701560915e-01, 2.635303736e-01, 1.074236557e-01, 
    1.066630855e-01, -2.012474388e-01, 7.237570733e-02, -2.883610129e-01, 
    -9.383201599e-02, 2.448337674e-01, -2.708958387e-01, 1.982445642e-02, 
    -2.073741853e-01, -3.370456770e-02, 4.950147867e-02, -1.463704109e-01, 
    3.112077117e-01, 3.321848214e-01, 8.146970719e-02, -1.303429157e-01, 
    6.631264091e-02, -6.969410181e-02, -4.208182693e-01, -1.593482345e-01}, {-8.375339210e-02, -1.382055581e-01, 3.314830959e-01, 2.875765041e-02, 
    5.444378778e-02, 7.765131444e-02, -1.448851228e-01, -3.527530283e-02, 
    1.129645333e-01, 4.098294675e-01, 1.670475602e-01, 2.012460977e-01, 
    2.289721817e-01, 9.292018600e-03, 1.694070101e-01, 4.750538990e-02, 
    -1.690352708e-01, -2.921609282e-01, 2.663111985e-01, -5.006388426e-01, 
    8.223809302e-02, 4.261716306e-01, -2.466989309e-01, 1.913769841e-01, 
    1.728676856e-01, -1.617831886e-01, -1.215004548e-01, -1.358046532e+00, 
    -4.826527238e-01, -2.190809548e-01, -4.664946198e-01, -1.044296324e-01, 
    -2.633984089e-01, 6.120901182e-02, -8.704067022e-02, 1.066678111e-02, 
    2.246806771e-01, 1.397933215e-01, -1.098677143e-01, -2.416180670e-01}, {2.582188845e-01, -1.805235296e-01, -1.206690446e-01, -7.780658454e-02, 
    1.561934222e-02, 1.003244445e-01, -1.441074312e-01, 1.932217274e-03, 
    -1.984080067e-03, -6.345594674e-02, 5.029297620e-02, -4.501040652e-02, 
    -4.136484861e-02, -1.814994216e-01, 1.093599275e-01, 6.099344045e-02, 
    -9.249667078e-02, -4.985931516e-02, 3.490697742e-01, -2.117458284e-01, 
    1.703294516e-01, -1.054282039e-01, 1.187641546e-01, -1.306532919e-01, 
    -2.489966303e-01, -5.054953694e-02, 2.446833551e-01, 1.640584506e-02, 
    -2.805054486e-01, -1.131311655e-01, 3.563115895e-01, -1.069853753e-01, 
    -1.374946833e-01, 6.095528603e-02, -1.204136908e-01, -4.393512011e-02, 
    1.161729470e-01, 1.417950094e-01, 1.972912252e-01, -1.550049186e-01}, {-1.608371884e-01, -5.173649266e-02, 2.058548182e-01, 4.102858901e-01, 
    8.083117753e-02, -5.149515718e-02, 7.594255358e-02, -5.297984928e-03, 
    2.249396145e-01, 1.805564314e-01, 1.331592798e-01, -3.806149215e-02, 
    -9.409433603e-02, -7.044450939e-02, 4.256351590e-01, -2.628600895e-01, 
    -4.532381892e-01, 2.968759835e-01, 1.520067006e-01, -1.056331173e-01, 
    2.942717671e-01, -2.519913018e-01, -2.629960477e-01, -3.432135284e-01, 
    6.666011643e-03, 9.578594565e-02, 2.242611498e-01, -1.395043284e-01, 
    1.805608481e-04, 1.482078284e-01, -2.871396206e-02, 6.237823516e-02, 
    3.412651271e-02, 8.882842958e-02, -9.708986431e-02, -5.362376943e-02, 
    -2.093175054e-01, -2.918942571e-01, -1.204744577e-01, -4.052908719e-02}, {2.435301989e-01, -4.705242813e-03, -6.434034556e-02, 1.362136155e-01, 
    1.300781220e-01, -4.604288638e-01, -2.607302666e-01, -3.251371160e-02, 
    7.790902257e-02, 1.115710139e-01, -2.200126350e-01, -5.665003657e-01, 
    1.823743731e-01, 3.835040629e-01, 2.654738165e-02, -1.571515054e-01, 
    5.135896150e-03, -2.550618351e-01, 1.855869964e-02, 1.563758776e-02, 
    7.337092608e-02, 1.903468370e-02, -4.210950434e-01, -4.354949296e-02, 
    -8.311328478e-03, 3.121182621e-01, 1.035007462e-01, 2.532180212e-02, 
    -1.156064793e-01, -9.688392282e-01, 2.693462968e-01, -5.002725124e-01, 
    -2.182022184e-01, 2.836586833e-01, 1.131568402e-01, -1.159660965e-01, 
    -2.004196197e-01, 2.548835576e-01, -9.002795070e-02, 3.210898936e-01}, {4.917099699e-02, -7.000806928e-02, 5.702597648e-02, 2.736380510e-02, 
    -3.259742856e-01, 2.356162071e-01, -1.586658955e-01, -1.225432977e-01, 
    -2.326891869e-01, -3.455284238e-02, -2.397616804e-01, -3.075388670e-01, 
    4.455587268e-02, -3.887285590e-01, 2.909421027e-01, -3.727421165e-01, 
    -1.217371300e-01, 1.471303552e-01, -4.872869328e-02, -5.930455402e-02, 
    -1.955078840e-01, -4.961557314e-02, 2.689385116e-01, -3.030193746e-01, 
    3.508602083e-01, -2.075568736e-01, -6.967777014e-02, -1.632993817e-01, 
    5.613556504e-01, 3.649248779e-01, -6.012198925e-01, -2.049967051e-01, 
    -1.641801745e-01, -2.069546729e-01, 3.811386600e-02, -2.281267047e-01, 
    3.456975818e-01, -1.185203195e+00, -1.625435650e-01, 2.954169512e-01}, {-1.871504635e-02, -1.259171367e-01, -1.591675878e-01, 4.296687990e-02, 
    -1.837877631e-01, -2.566895485e-01, 8.824752271e-02, -7.324704528e-02, 
    2.643536925e-01, 1.459532082e-01, -1.909649074e-01, -1.361439824e-01, 
    -2.014106810e-01, -5.662022159e-02, 3.043654561e-01, 1.669902354e-03, 
    2.314101607e-01, 9.662608802e-02, 3.283517957e-01, -1.148100197e-01, 
    -4.692965001e-02, 7.881505787e-02, -2.129997611e-01, 1.493132412e-01, 
    3.172921836e-01, 3.605434895e-01, -1.622298509e-01, -4.849901795e-01, 
    -1.379342079e-01, -1.749977171e-01, -3.790337145e-01, -5.670211911e-01, 
    -4.185236692e-01, 2.968152985e-02, -4.453929961e-01, 1.344140805e-02, 
    2.563975155e-01, 1.393059269e-02, 3.869737312e-02, -7.549503446e-01}, {1.399962902e-01, -2.016264498e-01, -4.271862209e-01, -3.476073742e-01, 
    5.027618259e-02, -1.889606565e-01, 3.960264623e-01, 1.734327674e-01, 
    -6.290758401e-02, 1.089872718e-01, 1.602374166e-01, 2.831534147e-01, 
    -7.737275958e-02, 3.409589827e-01, -5.480925441e-01, -2.484690994e-01, 
    3.110018373e-01, 1.898235977e-01, -7.899836451e-02, 3.375085071e-02, 
    -2.651050389e-01, 4.398169741e-02, 2.533397079e-01, 2.191316038e-01, 
    1.988895386e-01, -4.464182854e-01, -3.123091459e-01, -1.128780767e-01, 
    -1.793008894e-01, -1.185362563e-01, 1.386977881e-01, -2.118720673e-02, 
    1.590813845e-01, -1.734497398e-01, -2.583875656e-01, 2.229725868e-01, 
    1.854081452e-01, 3.404300287e-02, -1.599964201e-01, -1.700714678e-01}, {-3.290049434e-01, 6.656485796e-02, -6.332778186e-02, -1.877691597e-01, 
    -6.708768010e-02, -2.915476859e-01, -2.391694672e-02, -1.135168895e-01, 
    -5.801523477e-02, -8.108726889e-02, 2.944791690e-02, 1.354503911e-02, 
    -2.544508576e-01, -1.634345800e-01, 1.295218468e-01, 3.053155839e-01, 
    -1.939169914e-01, -2.801390365e-03, 8.697398938e-03, -1.577168703e-01, 
    -7.308378816e-02, 7.091686875e-02, -1.140675042e-02, 1.510780603e-01, 
    1.235966980e-01, 1.446734518e-01, -2.068189234e-01, -7.166028768e-02, 
    1.682811528e-01, 1.672717482e-01, -7.524568439e-01, -3.874669373e-01, 
    -8.194600791e-02, 5.595090985e-02, -2.638627589e-01, -2.954303622e-01, 
    -1.727969348e-01, -7.575035840e-02, -1.371261030e-01, -1.184628457e-01}, {1.989180446e-01, 2.130545080e-01, -2.147122920e-01, -2.812997699e-01, 
    -2.157977670e-01, -2.031280994e-01, -2.544320654e-03, 4.277136549e-02, 
    -3.239504695e-01, -3.127850592e-02, 1.136933118e-01, 3.291675746e-01, 
    6.500267982e-02, -1.538066268e-01, -3.332309425e-01, -1.179109961e-01, 
    -1.824198067e-01, -4.161311686e-01, 2.851185799e-01, -3.184486032e-01, 
    6.007291377e-02, -1.002422422e-01, 2.821569145e-01, 6.874158233e-02, 
    -1.368619595e-02, 3.355208635e-01, -1.851040870e-01, 1.469771378e-02, 
    1.343108267e-01, 3.079683781e-01, -1.101841778e-01, 5.210392550e-02, 
    1.512700021e-01, -1.319631748e-02, -5.250865221e-01, -6.973666698e-02, 
    -4.915676638e-02, 3.046425581e-01, -1.651635319e-01, 1.814375818e-01}, {3.837672994e-02, -8.482547849e-02, -3.961181343e-01, -2.890883982e-01, 
    -2.367320508e-01, 1.253321767e-01, -2.893599272e-01, 2.843523957e-02, 
    3.198880553e-01, 2.021817714e-01, -1.352892369e-01, -2.009696960e-01, 
    -1.844727620e-02, 2.485399246e-01, 3.350710571e-01, -2.505425215e-01, 
    6.096147373e-02, 4.221913591e-02, -2.170373127e-02, 5.441231281e-02, 
    -3.029694557e-01, 7.952375337e-03, 7.830434293e-02, 1.674136668e-01, 
    1.317171603e-01, -5.066785589e-02, -1.667015702e-01, -5.604569241e-02, 
    -2.006022036e-01, 1.473785490e-01, 7.340066880e-02, 1.681349874e-01, 
    1.112266779e-01, 8.359386772e-02, 2.281231992e-02, 2.075302601e-01, 
    -2.847313583e-01, 6.632053852e-02, -2.075195909e-01, 2.318780422e-01}, {-1.555554867e-01, 6.695985794e-02, 1.496598572e-01, -2.937667072e-01, 
    -8.519124240e-02, -2.497517690e-02, 3.533281386e-02, -3.705617785e-02, 
    -7.839056849e-02, -1.012099981e-01, -2.445370257e-01, 3.774052858e-01, 
    1.633935422e-01, -3.909283280e-01, -3.725410700e-01, -1.512624323e-01, 
    -2.381932586e-01, 1.362058073e-01, -1.477278769e-01, -7.450696826e-02, 
    2.366526276e-01, -5.982707068e-02, -1.640383340e-02, -9.686209261e-02, 
    7.124980539e-02, 1.359346956e-01, -3.383847177e-01, -2.649820969e-02, 
    -2.299702615e-01, 3.681165576e-01, -6.830141693e-02, 1.670587659e-01, 
    -6.451614667e-03, -1.779070348e-01, -2.308496684e-01, -2.137764245e-01, 
    2.638907135e-01, 1.300081313e-01, 2.706530690e-01, -3.372547626e-01}, {3.676472902e-01, 1.893610358e-01, 1.744250953e-01, 5.623071790e-01, 
    -7.338089496e-02, -1.947918534e-01, -1.242369413e-01, 3.367430270e-01, 
    2.130794674e-01, 1.869230270e-01, 2.081395872e-02, -3.011860847e-01, 
    1.969518363e-01, 7.172784768e-03, 1.567196995e-01, 6.048525125e-02, 
    2.050183117e-01, -2.044009566e-01, -1.800115108e-01, 2.140558511e-01, 
    -2.054371536e-01, -9.759759903e-01, 9.230120480e-02, -4.943174124e-02, 
    8.374293149e-02, 3.327316418e-02, -8.312907815e-02, 1.410745382e-01, 
    -9.896536171e-02, -5.319318175e-02, -1.538789719e-01, -6.098182201e-01, 
    -1.329891831e-01, -4.037225842e-01, -4.558687657e-02, 1.093944386e-01, 
    -4.401694238e-02, -1.108532026e-01, 3.102567792e-01, -3.973575234e-01}, {-1.530252248e-01, -1.337339878e-01, 1.722572446e-01, 1.248790547e-01, 
    -2.515494265e-02, 1.602519453e-01, 9.900829196e-02, -3.890995383e-01, 
    7.405400276e-02, 1.391002238e-01, -3.577488661e-01, -3.685333133e-01, 
    3.276304603e-01, 3.900822401e-01, 1.606298834e-01, -3.327220976e-01, 
    2.839774191e-01, 1.261062324e-01, 1.672989428e-01, -1.256027818e-01, 
    -2.085913420e-01, 1.508522779e-02, -3.458066285e-01, 1.497192234e-01, 
    1.494659483e-01, -3.535259664e-01, 8.708540350e-02, -1.427346021e-01, 
    -7.194467634e-02, 1.502435654e-02, 2.264095843e-01, -1.242614463e-01, 
    -3.321961164e-01, 6.298739463e-02, -4.640098289e-02, -4.037014768e-02, 
    3.238088638e-02, 9.240236133e-02, -4.435874522e-03, 8.097724617e-02}, {1.298934519e-01, -2.691524029e-01, 1.298691928e-01, 1.176692080e-02, 
    -3.996275365e-01, -1.379255354e-01, -1.328486651e-01, 1.253080666e-01, 
    -3.475962579e-01, -3.273944370e-03, -7.621096075e-02, 3.800942004e-02, 
    -4.474984109e-01, 1.813263595e-01, 1.816756874e-01, 2.716365159e-01, 
    8.117032796e-02, 3.096599579e-01, 2.185982466e-01, 3.644673228e-01, 
    2.319991440e-01, -2.847781479e-01, -2.739606202e-01, -3.850288987e-01, 
    2.193491757e-01, -3.609618843e-01, 3.556443751e-01, 9.876862913e-02, 
    1.803667992e-01, 4.456046154e-04, 2.150538415e-01, -2.369744331e-01, 
    -3.474376202e-01, 4.266848788e-02, -2.997166216e-01, -1.541081965e-01, 
    7.583656162e-02, 1.422142982e-01, -1.305914819e-01, 1.223306209e-01}, {9.171562642e-02, -2.134205401e-01, 4.845218267e-03, -1.792813092e-01, 
    6.861533970e-02, 1.320719719e-01, 7.695322484e-02, -4.710786790e-02, 
    -6.867817789e-02, 1.527313441e-01, -2.698408365e-01, -2.396409865e-03, 
    1.790657490e-01, -4.460389018e-01, 2.132712901e-01, -1.372448076e-02, 
    -3.338961303e-02, -3.188641965e-01, 1.369518340e-01, -6.929608062e-03, 
    -2.506901026e-01, 1.400154084e-01, 1.296537220e-01, 1.061227024e-01, 
    -1.908422709e-01, -3.496099412e-01, -9.702236205e-02, -3.561022580e-01, 
    -2.992532775e-02, 5.295799375e-01, 1.149366572e-01, -1.377645582e-01, 
    -3.573656455e-02, 5.986069515e-02, 9.662098438e-02, 1.683633029e-01, 
    7.865924388e-03, 9.583284706e-02, -1.903671771e-02, 1.736829057e-02}, {4.228191823e-02, -1.855998039e-01, -4.304894209e-01, 2.832344770e-01, 
    9.527579695e-02, 2.419817597e-01, -3.828408420e-01, -1.697589159e-01, 
    5.837392434e-02, 1.947466582e-01, -7.101149112e-02, -5.388206244e-02, 
    3.913974389e-02, -2.142720968e-01, -4.303808510e-01, 5.729399920e-01, 
    -1.474432349e-01, -5.886173248e-01, 4.698919877e-02, 1.644680798e-01, 
    1.502392143e-01, -1.437881291e-01, -3.570772111e-01, -2.840759158e-01, 
    -4.702100903e-02, 7.940167189e-02, -8.502264321e-02, -1.425577253e-01, 
    3.157970011e-01, 4.216464758e-01, -3.163958788e-01, 9.654695541e-02, 
    3.652054965e-01, 1.119854674e-01, 1.010487974e-01, 7.639727741e-02, 
    8.155865967e-02, -6.331299245e-02, 6.536881439e-03, -1.086427420e-01}, {-1.464341730e-01, -3.004191220e-01, -1.570111066e-01, 4.824929312e-02, 
    -2.896746695e-01, -4.480355605e-02, -3.883928657e-01, 2.670601197e-02, 
    -1.720512211e-01, -2.459260374e-01, 1.801039129e-01, 3.435459733e-01, 
    1.052056439e-02, -1.693234406e-02, -2.940646112e-01, 2.329801768e-01, 
    -4.238039553e-01, -3.401047587e-01, 8.125577122e-02, -1.201880872e-01, 
    1.529718284e-02, 4.637976587e-01, 2.757110000e-01, -2.534536719e-01, 
    4.634317011e-02, 3.612405658e-01, 9.283076227e-02, -1.433104277e-01, 
    -1.201073453e-02, 3.038101494e-01, -1.443164796e-01, 2.421169132e-01, 
    1.824379154e-02, 1.558217108e-01, 7.780545205e-02, -3.368291855e-01, 
    5.998498946e-02, 9.577561915e-02, -1.720874906e-01, 3.328452632e-02}, {-2.991050184e-01, -1.481232494e-01, 7.226216048e-02, 1.233389676e-01, 
    -3.158409894e-01, 1.407529116e-01, 3.494012952e-01, 4.032691196e-02, 
    3.259745240e-01, 4.051421210e-02, -1.203119680e-01, -2.143536657e-01, 
    4.060467184e-01, -1.840027981e-02, 2.760793567e-01, 1.817899942e-02, 
    -1.815945469e-02, -1.195806935e-01, 1.981263459e-01, -1.007576808e-01, 
    3.151435778e-02, -1.980782151e-01, -2.428528666e-01, -1.493782103e-01, 
    -4.443600401e-02, -4.992713407e-02, 2.662497163e-01, 4.022318125e-02, 
    -5.074388981e-01, -1.577649415e-01, 2.918089032e-01, 4.116060957e-02, 
    2.529583871e-01, 9.299979359e-02, 1.648538113e-01, -1.316330284e-01, 
    2.030494213e-01, -2.649648488e-01, -1.431618035e-01, -1.178623959e-01}, {-2.479176670e-01, 5.714732409e-01, -1.323942691e-01, -1.063947603e-01, 
    -1.162349433e-01, 6.373867989e-01, -8.201602101e-02, 1.077466682e-01, 
    -2.983762622e-01, -1.984610111e-01, -3.683802783e-01, -3.796381950e-01, 
    3.120571673e-01, 2.820250988e-01, -2.777841091e-01, -3.115815520e-01, 
    4.852247611e-02, -3.316555321e-01, 2.908026613e-02, -1.035039499e-01, 
    -1.592079848e-01, 4.488177896e-01, -3.385516107e-01, -2.551792562e-01, 
    7.985409349e-02, 1.834649295e-01, -1.345266998e-01, -2.106779218e-01, 
    -4.533841833e-02, -2.972131073e-01, -1.929003978e-03, -1.256506741e-01, 
    -2.003916502e-01, 8.056767285e-02, -1.080391780e-01, -3.989617899e-02, 
    -1.685782820e-01, 6.303220987e-02, 3.405850232e-01, -1.543641649e-02}, {1.242896728e-02, -1.476784647e-01, -5.952167884e-02, 3.176610544e-02, 
    1.525069326e-01, 2.160303146e-01, 1.760599911e-01, -8.688306063e-02, 
    1.571311355e-01, 5.593546852e-02, 2.616862208e-02, -5.172692239e-02, 
    2.238311470e-01, -1.053467020e-01, -1.066474393e-01, 1.404955387e-01, 
    1.791689992e-01, -3.704813719e-01, -2.005959861e-02, 6.000337377e-02, 
    -6.553123891e-02, -6.771041453e-02, 1.379474998e-01, 1.312170061e-03, 
    -1.369291544e-01, 1.111284494e-01, -2.163931727e-01, -4.211211205e-02, 
    -2.516472638e-01, -4.511048496e-01, 2.786982432e-02, -3.927651420e-02, 
    2.554124594e-01, 3.003636301e-01, -2.203606255e-02, 4.244977236e-02, 
    -1.721464694e-01, 1.666155457e-01, -9.080836922e-02, 1.508284956e-01}, {2.001421452e-01, 7.021232508e-03, 1.078178585e-01, 2.274677753e-01, 
    7.156519592e-02, 9.619287401e-02, -2.455293387e-01, -8.023409545e-02, 
    -9.008707479e-03, 5.703410134e-02, 1.440573335e-01, 9.003296494e-02, 
    3.992676735e-02, -3.029350936e-01, 2.067885399e-01, -2.647056580e-01, 
    -4.975041002e-02, -1.543720812e-01, -9.479149245e-03, 3.735280037e-02, 
    1.139409281e-02, 1.674307287e-01, -1.725664921e-02, -9.068774432e-02, 
    1.720264703e-01, -3.313277960e-01, 1.592344195e-01, -3.921945393e-01, 
    1.234366447e-01, 9.307887405e-02, -2.572294511e-02, -1.696813405e-01, 
    -3.443184197e-01, 7.761492580e-02, -2.111555487e-01, 9.515424259e-03, 
    -4.827876985e-01, -2.768692970e-01, -2.241296768e-01, 1.410642266e-01}, {-7.363155484e-02, -1.665431261e-01, 8.035619557e-02, 1.659224033e-01, 
    -8.038383722e-02, -2.233723104e-01, -9.769024700e-02, 1.341037303e-01, 
    -1.782803796e-02, 2.643705010e-01, -1.392292418e-02, -2.035402954e-01, 
    -8.332201093e-02, 1.105849911e-02, 1.104303002e-01, 1.354183704e-01, 
    1.394798756e-01, 1.147148758e-01, 4.983012676e-01, -7.437979430e-02, 
    2.497577667e-02, 1.633199453e-01, -1.770474389e-02, -1.965812892e-01, 
    -1.894039214e-01, 1.627956033e-01, -3.727589548e-01, -1.433811523e-02, 
    4.509759322e-02, -5.746485293e-02, -2.996706665e-01, 2.245230600e-02, 
    -1.348589733e-02, -1.142364834e-02, 1.228646263e-01, -1.659239829e-01, 
    1.314158179e-02, -6.736799330e-02, -6.731824484e-03, 1.746129990e-01}, {8.814992756e-02, 1.704889536e-01, 1.569317430e-01, 1.126214489e-01, 
    -6.956578698e-03, -1.338542253e-01, 2.212157398e-01, 9.996479377e-03, 
    8.823775500e-02, 4.337738734e-03, 2.240511030e-01, 2.218775004e-01, 
    3.310308754e-01, 1.695103943e-01, -1.939812750e-01, -3.152614832e-01, 
    -4.021676183e-01, 4.199285991e-03, 6.227162201e-03, -1.261428148e-01, 
    -6.525336206e-02, 6.107793376e-02, 6.460577250e-02, 2.846754789e-01, 
    -3.632615507e-01, 3.651746809e-01, -3.644216061e-01, 5.941252038e-02, 
    -3.815814257e-01, 7.950843126e-02, -2.142150700e-01, -2.557357848e-01, 
    5.815402865e-01, -1.046759337e-01, -4.618345499e-01, -2.803468704e-01, 
    7.645961829e-03, 1.518582702e-01, -2.456516773e-01, -3.756239116e-01}}};

const float bias_hid_nz[NUM_HIDDEN_LAYERS-1][NUM_NODES] = {{-7.402633876e-02, 3.793888167e-02, -1.861269325e-01, -7.331921160e-02, 
    -1.466425061e-01, -1.047225147e-01, -5.376885459e-02, -7.344415784e-02, 
    -2.385192811e-01, -6.754012406e-02, 2.631423995e-02, -3.404172510e-02, 
    4.299656302e-02, -1.849571057e-02, -2.398343198e-02, -1.716239005e-01, 
    -6.027674675e-02, 1.033697799e-01, 7.754154969e-03, -1.118969247e-01, 
    4.253982753e-02, -5.753489211e-02, 2.239347547e-01, 4.736472853e-03, 
    -2.151057497e-02, -3.776666149e-02, -6.736643612e-03, -4.460167512e-02, 
    9.209780395e-02, -5.978215858e-02, -8.668469638e-02, -8.458811045e-02, 
    -5.114107206e-02, 6.826250255e-02, -8.025252819e-02, 2.140419185e-02, 
    -1.002456471e-01, -3.115407005e-02, -8.204857260e-02, -1.762372255e-01}};