#include "nn_parameters.h"

const int num_nodes_vec[NUM_LAYERS] = {10, 40, 40, 4};

// NN network parameters -- atribute values
const float weights_in[NUM_NODES][NUM_STATES] = {{5.436264515e+00, -8.243486404e+00, -3.765669465e-02, 1.485792279e+00, 
    -1.854819417e+00, -5.173095688e-02, 7.556277514e-02, 1.379150450e-01, 
    -3.106506169e-02, 6.095339060e-01}, {-1.203779340e+00, 6.536674500e-02, -1.100938842e-01, -1.220776558e+00, 
    1.325803846e-01, -1.335454434e-01, -8.095165491e-01, -9.263877869e-01, 
    5.967290998e-01, 1.009350777e+00}, {-1.622576416e-01, 6.118766218e-02, -2.499039844e-02, -7.884793282e-01, 
    -2.883960009e-01, -2.926019020e-02, 2.160539925e-01, 5.460050106e-01, 
    -4.059472978e-01, 1.837817550e+00}, {-2.661737204e-01, 9.374248385e-01, -4.206771776e-02, -1.049129605e+00, 
    8.798151612e-01, -3.040707670e-02, 1.068234444e+00, 7.799803019e-01, 
    -4.552216530e-01, -6.894544512e-02}, {8.269017339e-01, -1.003725767e+00, -4.960318282e-02, 7.210491300e-01, 
    -7.939588428e-01, -5.713454261e-02, -3.158487007e-02, -5.849741697e-01, 
    -8.087059259e-01, -8.132684231e-01}, {4.031001568e+00, 4.401869774e+00, -1.603309996e-02, 1.546678662e+00, 
    1.701659799e+00, -3.645148128e-02, -1.707067788e-01, 3.204742670e-01, 
    1.696607620e-01, -1.982436180e-01}, {3.180721521e+00, -3.140392601e-01, -3.576411679e-02, 8.690288663e-01, 
    2.251121551e-01, -2.586340904e-02, 7.591378093e-01, -3.320562886e-03, 
    -1.176173761e-01, -1.878355026e+00}, {2.233479738e+00, 2.854479551e+00, -2.080599368e-01, -1.787912369e+00, 
    -2.093878746e+00, -2.573527396e-01, 4.378024936e-01, 2.509120405e-01, 
    1.745463848e+00, 5.202983022e-01}, {2.677100003e-01, 7.864121199e-01, -2.825752832e-02, 1.910278052e-01, 
    6.233524084e-01, -5.713341758e-02, -2.906201184e-01, -5.263622999e-01, 
    -1.177860737e+00, -6.746123433e-01}, {-9.011387229e-01, -1.537941694e+00, 3.251606971e-02, -1.117395639e+00, 
    9.436693974e-03, 1.184223965e-01, 6.611084938e-01, -5.567010641e-01, 
    1.180732369e+00, 4.658336043e-01}, {3.197701275e-01, -3.868699670e-01, 6.573650986e-02, 1.370295882e+00, 
    1.817914367e+00, 5.429032817e-02, -4.680401981e-01, 5.487722754e-01, 
    -2.050372064e-01, 5.661154389e-01}, {1.861146092e+00, 1.316727519e+00, -4.070024192e-02, 1.065032840e+00, 
    8.502986431e-01, -3.578094393e-02, 9.961429238e-01, 1.027316675e-01, 
    -3.643321395e-01, 1.215127826e+00}, {-2.403638810e-01, -9.052446485e-02, 1.157446027e+00, -2.651709914e-01, 
    -2.122149020e-01, 1.136469245e+00, -8.087728173e-02, -1.308764797e-02, 
    -1.309435517e-01, -4.438048601e-02}, {1.141261935e+00, 7.429743409e-01, 1.076762658e-02, 1.569798470e+00, 
    1.687919736e+00, 4.095086083e-02, -3.483860195e-01, -5.036236048e-01, 
    5.489032865e-01, 1.566404402e-01}, {-1.324465513e+00, -2.331609488e+00, -7.030557841e-02, 2.016236782e+00, 
    6.392788887e-01, -1.344799250e-01, -1.109362006e+00, -2.510802031e+00, 
    -1.904634982e-01, -2.924039364e+00}, {-3.289757490e+00, -7.807756662e-01, 5.564443395e-02, 3.836934268e-01, 
    8.588570952e-01, 7.945200801e-02, 8.772202134e-01, -8.358960599e-02, 
    2.745719552e-01, -2.733544588e+00}, {-4.838950932e-02, -4.235993922e-01, -4.250599444e-02, -1.498138160e-01, 
    -6.542283893e-01, -4.323431849e-02, 6.771811843e-01, 8.900765777e-01, 
    1.798173785e-01, -1.160879612e+00}, {2.627139986e-01, 9.305382371e-01, -4.150205106e-02, 2.163774371e-01, 
    8.107705116e-01, -6.945618242e-02, -9.680568576e-01, 8.198177814e-01, 
    -2.929903269e-01, 1.464320183e+00}, {-1.559607029e+00, 1.411794275e-01, -3.424939886e-02, -1.092266083e+00, 
    -1.870875716e+00, -2.882756665e-02, -9.207839966e-01, 2.235498905e+00, 
    9.242828935e-02, -8.719897866e-01}, {3.649507761e-01, -1.241251349e+00, -6.844543666e-02, 4.860945642e-01, 
    -1.299496293e+00, -3.140775114e-02, 1.272932410e+00, 1.244815588e+00, 
    -5.744173527e-01, 3.717931509e-01}, {1.403746724e+00, -1.085954070e+00, 6.335154176e-03, 5.361379385e-01, 
    -2.426219285e-01, 2.907980932e-03, -7.683246732e-01, 1.255022585e-01, 
    8.165660501e-01, -1.232015848e+00}, {7.414676189e+00, -1.134728670e+00, -1.744417399e-01, 7.288706899e-01, 
    2.291773558e-01, -3.365555406e-01, -1.138925195e+00, 5.429909229e-01, 
    -1.613544822e+00, 2.359297037e+00}, {1.522912979e-01, 9.340983629e-01, -4.734550789e-02, 1.569999605e-01, 
    1.176410556e+00, -1.500205416e-02, 8.752800822e-01, -5.059245825e-01, 
    2.455839813e-01, 1.160281181e+00}, {-2.131864280e-01, 2.022676617e-01, 7.049385458e-02, 1.059472919e+00, 
    -1.166760400e-01, 7.739152759e-02, 7.761615515e-01, -2.732669711e-01, 
    1.142002702e+00, -1.032594323e+00}, {-2.658401489e+00, 1.488600254e+00, 1.913573407e-02, 2.923063934e-01, 
    8.883988857e-02, 1.019267738e-01, 1.310769081e+00, 6.922519207e-02, 
    -1.039903462e-01, 1.660014391e+00}, {2.243442059e+00, 1.218080997e+00, 2.127517462e-01, 6.001411915e+00, 
    -8.402528763e+00, 6.113386154e-01, -6.807302237e-01, 1.808211684e+00, 
    7.722351551e-01, -1.921499968e+00}, {4.600191116e-02, 7.002447248e-01, -2.410976775e-02, -6.796357632e-01, 
    8.159925938e-01, -1.898075268e-02, -1.656199098e-01, 4.332165122e-01, 
    1.522002459e+00, 2.042086363e+00}, {2.185981035e+00, -1.197812557e+00, -6.011814624e-02, 1.681590676e-01, 
    -3.222882450e-01, -5.554745719e-02, 3.016092777e+00, -2.194860764e-02, 
    -3.433496132e-02, -1.511302352e+00}, {4.934416294e+00, 9.065203667e+00, -5.636032820e-01, -4.662044525e+00, 
    -2.962045908e+00, -8.410843015e-01, -2.786857486e-01, 6.285918951e-01, 
    -3.095335662e-01, -4.232425213e+00}, {1.218649268e+00, -1.147019863e+00, 9.152572602e-03, 1.410313249e+00, 
    -8.531106710e-01, 5.652618781e-02, 3.391326368e-01, -3.826405406e-01, 
    6.309661865e-01, -3.742018938e-01}, {-8.410993814e-01, -1.207026362e+00, 1.870370843e-02, 7.792732120e-01, 
    1.117704511e-01, 7.699946407e-03, -1.290718317e+00, -1.213093698e-01, 
    9.279093891e-02, 2.109047890e+00}, {-6.946825236e-02, -1.186981797e-01, -5.362446979e-02, 1.571247816e+00, 
    -3.177562058e-01, -7.423361391e-02, 1.266230106e+00, 4.660881758e-01, 
    9.403263927e-01, 1.820427656e+00}, {-6.185838223e+00, -6.423812509e-01, 1.093122587e-01, 2.888334751e+00, 
    5.396269321e+00, 8.174334466e-02, -1.074409842e+00, -2.055143863e-01, 
    6.475617886e-01, -1.349740624e+00}, {8.355786651e-02, 4.848765209e-02, -6.627652049e-01, 1.524133086e-01, 
    1.686354280e-01, -6.369121075e-01, 1.111478582e-01, 6.683380809e-03, 
    6.679124385e-02, -1.045137458e-02}, {6.448507905e-01, -7.766426802e-01, 4.715977237e-02, 7.110045552e-01, 
    -1.005012035e+00, 8.794251829e-02, 5.147498250e-01, -8.730604649e-01, 
    -4.620435461e-02, 1.192024231e+00}, {-1.770936400e-01, -7.537519932e-01, -6.093830615e-02, 1.077023506e+00, 
    9.329198599e-01, -2.666761167e-02, 5.279850364e-01, -9.179208279e-01, 
    -3.107680678e-01, 2.021415234e+00}, {8.489527702e-01, 4.452102780e-01, -2.284843102e-02, 1.244819283e+00, 
    8.877835274e-01, -1.740174927e-02, 8.954749107e-01, 2.123018652e-01, 
    3.006463945e-01, -1.361335278e+00}, {-6.818914413e-01, 1.157922149e+00, -1.765622646e-01, -9.257315636e+00, 
    3.196459293e+00, 3.154408634e-01, 1.700621694e-01, 7.358257473e-02, 
    -2.347371340e+00, -1.325039029e+00}, {-7.452456653e-02, -2.911764756e-02, -2.244565077e-02, 8.149228692e-01, 
    -1.607520461e+00, -3.440222889e-02, -1.415001988e+00, 5.664687753e-01, 
    5.102928877e-01, 7.111722231e-02}, {8.765578866e-01, -4.735206440e-02, -1.307198592e-02, 1.246347070e+00, 
    -1.874321103e+00, 1.228034943e-01, 9.273872972e-01, -5.881285761e-03, 
    -7.277154922e-02, -2.492887974e+00}};

const float bias_in[NUM_NODES] = {-4.291048944e-01, -6.472139806e-02, 9.845195711e-02, 2.029916495e-01, 
    -9.622710943e-01, -3.735106885e-01, -7.185138762e-02, -3.290753365e-01, 
    -2.387597710e-01, 8.621735498e-03, -1.513628662e-01, 2.158987820e-01, 
    -5.643129945e-01, -1.482456271e-02, 1.205476046e+00, -2.292564698e-02, 
    2.429418564e-01, -2.439333051e-01, -1.507630050e-01, 2.538268566e-01, 
    1.709828377e-01, -1.388584357e-02, 4.322486818e-01, 4.071115255e-01, 
    -2.260654271e-01, -1.057627499e-01, -4.638592601e-01, 6.015800238e-01, 
    -7.534129024e-01, 3.582173213e-02, 2.456308007e-01, 2.555448115e-01, 
    1.117166281e+00, -2.578010559e-01, -5.078213215e-01, 5.641071200e-01, 
    7.228601724e-02, -1.628934145e+00, -1.285498738e+00, 2.111420631e-01};

const float weights_out[NUM_CONTROLS][NUM_NODES] = {{-2.060848922e-01, -4.182616994e-02, 3.194779456e-01, -1.484756172e-02, 
    -4.786134660e-01, -2.162976190e-02, -7.311431691e-03, 2.432937920e-01, 
    -1.255247556e-02, -6.097584590e-02, -1.105774790e-01, 1.972439699e-02, 
    1.574755087e-02, 2.117231116e-02, -3.418170661e-02, -1.479578763e-01, 
    -1.863740571e-02, -9.467419982e-02, -2.879985236e-02, 5.429561809e-02, 
    -1.687621884e-02, 2.894402854e-02, 9.708587080e-02, 9.167025797e-03, 
    -2.365208417e-01, -1.387109160e-01, 8.775612712e-02, 2.453916334e-02, 
    -1.777808415e-03, 4.970558453e-03, 5.997582804e-03, 3.229630888e-01, 
    3.646672703e-03, 4.495165311e-03, 1.559866872e-02, 1.981214806e-02, 
    1.178490520e-01, -4.514300078e-02, -7.801885158e-02, -2.189267660e-03}, {2.944932282e-01, 4.338822141e-02, 2.123220265e-02, -1.067603901e-01, 
    1.638756599e-03, -2.124051377e-02, -2.179207653e-02, -1.111688733e+00, 
    2.698478987e-03, 5.681108832e-01, -3.945733607e-02, -5.155732110e-02, 
    1.274829507e-01, 2.398279496e-02, 7.475858927e-02, -4.559063911e-01, 
    -3.672055528e-02, 4.016640484e-01, 9.324355051e-03, 9.186691046e-02, 
    -3.258097544e-02, 5.789314583e-02, -2.824292518e-02, 2.757081762e-03, 
    -7.211683393e-01, -1.941758245e-01, -3.772800788e-02, 1.971374035e+00, 
    -1.516979486e-01, -1.178056281e-02, -9.852360189e-02, -3.880440816e-02, 
    -2.441065572e-02, -1.239214242e-01, -2.924806066e-02, 1.544564310e-02, 
    -1.451161951e-01, 2.295319457e-03, 1.883347332e-01, -2.139599249e-02}, {-2.122487575e-01, -5.584209412e-02, -5.642225966e-03, 2.508719685e-03, 
    -4.976734519e-03, -1.127543300e-01, -2.290863357e-02, -1.089108109e+00, 
    -1.074515400e-03, 4.457438290e-01, 1.693905145e-01, 5.196463689e-02, 
    -9.640341252e-02, -1.158067677e-02, 4.049118608e-02, 3.564909101e-01, 
    3.888983652e-02, 1.062392890e-01, 2.734033205e-02, -3.796822950e-02, 
    2.674856037e-02, 1.637166589e-01, 3.232720792e-01, -1.064957306e-02, 
    -3.031965494e-01, -3.429084420e-01, 1.169660836e-01, -4.339649081e-01, 
    1.167419776e-01, 2.790655755e-02, -4.958935454e-02, 2.946071863e+00, 
    -1.689705625e-02, -2.100866437e-01, -6.674683094e-02, 7.897594571e-02, 
    -2.015803456e-01, -2.098734491e-03, 7.891361415e-02, -1.145752147e-02}, {-3.664655685e+00, -6.147741899e-02, 1.255999203e-03, 3.460685015e-01, 
    3.923517070e-04, -3.903203830e-02, -1.188224182e-01, -9.947306514e-01, 
    -1.507410258e-01, -4.702971131e-02, -1.412374899e-02, 6.126777828e-02, 
    -4.117985070e-02, 2.263919264e-01, 1.640023142e-01, -1.573704332e-01, 
    1.859922409e+00, 9.047396481e-03, 8.811996132e-02, 8.929912001e-02, 
    9.004269540e-02, -8.103676140e-03, -3.705243766e-01, -2.569861710e-01, 
    2.073860645e+00, 4.858212918e-02, -6.445462815e-03, 1.871539235e+00, 
    -9.094059467e-02, 1.412661821e-01, -9.382408112e-02, 4.428534508e-01, 
    2.622933984e-01, -9.246363640e-01, 4.413354397e-01, -5.620216131e-01, 
    4.570592940e-01, -1.707334638e+00, 3.583046421e-02, -1.431132555e-01}};

const float bias_out[NUM_CONTROLS] = {-1.198331192e-01, 9.207919985e-02, 2.501061559e-02, -2.348619327e-02};

const float in_norm_mean[NUM_STATES] = {-8.233236197e-02, -3.428375371e-02, 2.402855802e-03, 4.288119017e-02, 
    2.431470157e-02, -1.648002088e-03, 8.582563072e-01, -2.881483002e-02, 
    2.905345351e-02, -2.926740158e-03};

const float in_norm_std[NUM_STATES] = {3.672209991e+00, 3.648593330e+00, 2.390547405e-01, 1.977720064e+00, 
    1.965583643e+00, 3.929479766e-01, 1.864073107e-01, 1.000250125e-01, 
    1.008324327e-01, 4.547518271e-01};

const float out_norm_mean[NUM_CONTROLS] = {1.265151551e-01, -1.696759503e-03, 9.887207595e-04, 5.063558084e-03};

const float out_norm_std[NUM_CONTROLS] = {5.254791367e-01, 4.688459224e-01, 4.741879005e-01, 6.067141347e-01};

const float out_scale_min[NUM_CONTROLS] = {-7.503810103e+00, -1.469572626e+01, -1.296421221e+01, -3.304790944e+00};

const float out_scale_max[NUM_CONTROLS] = {7.022287065e+00, 1.294212048e+01, 1.366042233e+01, 3.242595467e+00};

const float weights_hidden[NUM_HIDDEN_LAYERS-1][NUM_NODES][NUM_NODES] = {{{-9.788254499e-01, -7.710058689e-01, 3.697092235e-01, 8.294297457e-01, 
    -7.756099105e-02, -9.138402343e-01, -2.785615921e-01, -4.847613275e-01, 
    1.099960431e-01, -6.059284806e-01, -1.087126255e+00, 2.760992944e-01, 
    -3.437688649e-01, -4.223600328e-01, -9.471891522e-01, -6.048349738e-01, 
    6.288471818e-01, -5.077702403e-01, -8.372099400e-01, 1.015976429e+00, 
    -7.929810882e-02, -1.393574595e+00, 7.845255733e-01, 7.271503210e-01, 
    -2.033697963e-01, -1.736926198e+00, -1.000267982e+00, 1.183080316e+00, 
    -2.414211750e+00, 1.673627496e-01, -1.525217175e+00, 3.405538201e-01, 
    -2.286055803e+00, -2.700439990e-01, 1.816173643e-01, -1.015364751e-02, 
    1.038099974e-01, -1.536295056e+00, -1.966092736e-01, -6.799359918e-01}, {2.094427496e-02, 4.221057296e-01, 1.117232665e-01, 6.941533834e-02, 
    1.513469219e-01, 1.958903223e-01, 1.070357510e-03, -8.826784790e-02, 
    2.373680100e-02, -2.415852435e-02, -3.485748172e-02, -1.620889455e-01, 
    -1.713132299e-02, 1.050793901e-01, -4.393209890e-02, -1.348081380e-01, 
    -3.789916262e-02, 2.793270350e-01, -7.231973857e-02, -2.090425044e-01, 
    -4.469082057e-01, 1.089587733e-01, -3.515807167e-02, 3.702057004e-01, 
    8.763825893e-02, 2.829060145e-02, -2.213936299e-01, 4.236375913e-02, 
    5.827032030e-02, 1.345349997e-01, 1.099269763e-01, -6.505723298e-02, 
    3.506308421e-02, -2.132220268e-01, -1.299633086e-01, 1.910913289e-01, 
    1.758300215e-01, 3.335729707e-04, 4.094425961e-02, 1.928756386e-02}, {-1.813526638e-02, 1.056583598e-01, -5.347938836e-02, 1.321049966e-02, 
    2.666042745e-01, 3.323405283e-03, -6.208084524e-02, 2.959477343e-02, 
    -6.362543255e-02, -1.914467430e-03, -7.843904942e-02, 9.593721479e-03, 
    -6.352401376e-01, -8.070048690e-02, -2.314856462e-02, -1.817266829e-02, 
    1.439703070e-02, 8.145388216e-02, 3.087389842e-02, -1.127830613e-02, 
    1.321117729e-01, 1.768555492e-02, -5.519811437e-02, 9.147782624e-02, 
    -1.838357747e-02, -6.364891771e-03, -3.792404756e-02, 3.733307496e-02, 
    1.154407742e-03, -1.317916960e-01, 2.182675898e-02, 1.954462007e-02, 
    5.872804322e-04, 1.097497940e+00, 1.274610311e-01, 5.349986628e-02, 
    5.398517102e-02, -1.468926668e-02, -2.434807085e-02, -4.033688083e-02}, {-3.645378351e-01, -2.878177464e-01, -5.578719378e-01, 2.579957545e-01, 
    -3.114778399e-01, -5.213894248e-01, 2.482291162e-01, -3.184340522e-02, 
    4.366595298e-02, -3.409333229e-01, 1.987376958e-01, -9.909474850e-01, 
    3.076945432e-02, 1.489753574e-01, 1.305567026e-01, -1.033554748e-01, 
    2.747663856e-01, 5.789471865e-01, -1.725886613e-01, 3.822619915e-01, 
    8.375363797e-02, -3.901215270e-02, 2.602996528e-01, 2.164198458e-01, 
    -1.585745811e-02, -7.616584748e-02, 3.834827840e-01, -1.350332797e-01, 
    1.557137724e-02, -2.415943444e-01, -4.433892071e-01, -1.680872440e-01, 
    -3.381825611e-02, 1.355226636e-01, -4.459828883e-02, -3.396222591e-01, 
    -5.637933612e-01, 8.575410582e-03, 3.413101435e-01, 2.511960566e-01}, {9.206514806e-03, -1.440682858e-01, -1.235867366e-01, -2.621250600e-02, 
    -3.383532166e-01, 6.117965654e-02, 2.856739797e-02, -5.089189857e-02, 
    -4.365814850e-02, -4.126983136e-02, 6.724988669e-02, -9.011270851e-02, 
    6.680147648e-01, 2.448075265e-01, -4.044448957e-02, 1.158594992e-02, 
    -2.295371741e-01, -1.606771648e-01, -3.589325026e-02, 1.108661965e-01, 
    -2.070276588e-01, -1.833805069e-02, 3.320926055e-02, -2.566584945e-01, 
    -9.114709683e-03, 1.330938563e-02, -5.675115623e-03, -1.017264947e-01, 
    -1.657607220e-02, 5.024710894e-01, 5.085437745e-02, -7.948830724e-02, 
    -4.365398083e-03, 2.562920749e-01, -3.012603223e-01, -1.944390386e-01, 
    -1.779632717e-01, 2.497708425e-02, -1.685234834e-03, -2.222429775e-02}, {8.113527671e-03, 4.499627948e-01, -6.275798082e-01, -1.237220392e-01, 
    3.688921630e-01, 6.366658211e-02, -2.550013065e-01, 5.903779343e-02, 
    -9.681125730e-02, 1.989402324e-01, -1.027771160e-01, 1.119734347e-02, 
    -9.306002408e-02, -1.193831563e-01, 3.587597236e-02, 2.258637547e-01, 
    4.316520393e-01, 2.076566666e-01, 1.993027329e-01, -1.613415480e-01, 
    3.099336326e-01, 5.727587268e-03, -1.871978194e-01, -3.895321488e-01, 
    -2.459961623e-01, -2.015681006e-03, 1.672369838e-01, 1.286128014e-01, 
    -1.591297239e-02, 8.147777617e-02, -2.610917091e-01, 2.996781170e-01, 
    -1.812858740e-03, 6.152623892e-02, 2.348108441e-01, -1.636778712e-01, 
    1.943188012e-01, 1.023499761e-02, -2.052224278e-01, -1.618403941e-01}, {-2.401383370e-01, -7.278114557e-02, -7.103798985e-01, 3.529917300e-01, 
    8.426952362e-02, -5.416052938e-01, -8.763039112e-01, -4.756638035e-02, 
    -1.223660931e-01, -7.752693444e-02, -1.162520573e-01, 3.160393536e-01, 
    -5.994965788e-03, 1.492531598e-01, 7.854100317e-02, -1.090900321e-02, 
    -1.948175430e-01, 2.378992587e-01, 9.805284441e-02, -9.858542681e-02, 
    6.059607491e-02, 1.101828516e-01, -1.782746315e-01, -1.095935255e-01, 
    -1.947151721e-01, 3.958832100e-02, 1.602206081e-01, -3.184215128e-01, 
    1.274125371e-02, -4.814921021e-01, 4.751829505e-01, 4.053947628e-01, 
    1.152042113e-02, 4.865927249e-02, -6.654013693e-02, -3.118681014e-01, 
    -1.487168819e-01, 1.484355927e-01, -1.639849134e-02, 2.386985868e-01}, {-4.613822401e-01, -1.136114240e+00, 2.302289456e-01, -1.580067426e-01, 
    2.599231601e-01, -2.646813095e-01, 1.157398447e-01, -8.685806394e-01, 
    -3.548901081e-01, 9.018848091e-02, -4.135451913e-01, 3.364877105e-01, 
    -3.521544933e-01, -2.489985228e-01, -6.237402558e-01, -9.803435206e-01, 
    8.873292208e-01, -5.560895801e-01, -6.869494915e-01, 5.345186591e-01, 
    -1.028223261e-01, -4.304193258e-01, 4.051127732e-01, 5.160188079e-01, 
    -3.930347860e-01, -1.051717997e+00, -5.971708298e-01, 2.109812796e-01, 
    -5.668077618e-02, 5.105802417e-01, -7.665674686e-01, 5.761128664e-01, 
    -1.280124307e+00, 4.870076105e-02, 3.792926669e-01, -6.921936870e-01, 
    2.336837202e-01, -1.226116419e+00, -3.517805338e-01, 4.236812890e-01}, {-2.372121960e-01, -6.030521393e-01, 3.779350817e-01, 4.147341847e-01, 
    -1.909398586e-01, -6.541946530e-01, 5.704578161e-01, -5.379174277e-02, 
    -8.091869354e-01, 4.518167377e-01, 2.325767875e-01, 4.804968536e-01, 
    -1.064821929e-01, -3.748008907e-01, 9.050185978e-02, 9.428318590e-02, 
    1.099270359e-01, -6.082601547e-01, -3.144953251e-01, 5.636190176e-01, 
    -1.149861515e-01, -1.727580279e-02, 9.984435886e-02, -4.316819832e-02, 
    -3.711411059e-01, -9.860147536e-02, -7.225333154e-02, -2.475829050e-02, 
    -2.041684866e+00, 2.224833071e-01, -2.579664290e-01, 2.605568171e-01, 
    8.058904856e-02, -1.434767842e-01, 3.520289660e-01, 4.161943682e-03, 
    -7.598962784e-01, -1.237538233e-01, -8.823596239e-01, -2.665756345e-01}, {-7.404652834e-01, -1.887572408e-01, 3.353664577e-01, 4.987688363e-02, 
    -7.640920877e-01, -1.030888706e-01, 1.452809870e-01, -2.521048672e-02, 
    3.905692101e-01, -4.368709326e-01, 3.437602520e-02, -3.416008949e-01, 
    -4.662513733e-02, -4.422402084e-01, -2.419654047e-03, -3.185429052e-02, 
    -1.943773478e-01, -1.965745687e-01, -1.441650242e-01, -7.006134093e-02, 
    6.155422702e-02, -8.335731924e-02, 4.273976982e-01, 9.789582342e-02, 
    -1.039434522e-01, -5.096020643e-03, -1.007895246e-01, -1.461757626e-02, 
    -1.377239171e-02, -4.058597088e-01, -6.112375483e-02, 1.501184404e-01, 
    -5.561231822e-02, 1.178162470e-01, -6.369139552e-01, -5.640576407e-02, 
    1.681695879e-01, -6.756313145e-02, -2.382578105e-01, 1.090440825e-01}, {2.709961496e-02, -2.251036763e-01, 2.417685986e-01, -3.604487181e-01, 
    1.731805950e-01, 1.151131373e-02, -3.226797283e-01, 1.311333030e-01, 
    -5.736501813e-01, -5.144079775e-02, -1.385010332e-01, 5.654092878e-02, 
    -4.303661361e-02, 1.708702929e-02, -8.762381971e-02, 9.023144096e-02, 
    1.374051627e-02, 1.471293718e-01, -1.323446482e-01, 1.205370650e-01, 
    1.754691601e-01, 3.614533320e-02, -6.500644684e-01, -2.667151093e-01, 
    -3.333412409e-01, 7.796023507e-03, 4.216349497e-02, 1.720705926e-01, 
    -2.749467641e-02, -2.475339323e-01, -1.480161250e-01, 1.770776659e-01, 
    2.063515037e-02, 1.823828369e-02, -1.214717850e-01, 4.336418509e-01, 
    -8.678305894e-02, -1.180756444e-04, 6.258708984e-02, 7.374395430e-02}, {-1.855379529e-02, 1.856135577e-01, -3.329162002e-01, 2.622591257e-01, 
    4.002731442e-01, 2.005725205e-01, 2.361235172e-01, -1.169587113e-02, 
    4.737449288e-01, 2.486756146e-01, 1.517534256e-01, -8.992010355e-02, 
    -1.468939036e-01, 1.468686610e-01, 1.228320673e-01, -5.590991676e-02, 
    7.278632373e-02, -9.515525401e-02, 1.364446618e-02, 6.486362219e-02, 
    -3.043434024e-01, 6.759973615e-02, -5.651413202e-01, -5.872350335e-01, 
    1.699648052e-01, 9.371171147e-02, 2.618900537e-01, -1.449226290e-01, 
    7.414751686e-03, -4.746013507e-02, 1.746065468e-01, 9.965252131e-02, 
    4.460587353e-02, 1.995855123e-01, 1.975314617e-01, -5.750042796e-01, 
    1.681349576e-01, 6.063532829e-02, -7.526782155e-02, -3.607136011e-01}, {-1.749148369e-01, -2.230330408e-01, 3.849108815e-01, -7.042258233e-02, 
    -3.400101662e-01, -4.713338315e-01, 3.541772366e-01, -4.768303037e-02, 
    1.901111156e-01, -4.013579488e-01, -1.078210995e-01, 4.352668524e-01, 
    5.253650621e-02, 2.545008957e-01, 9.202602506e-02, 8.179911226e-02, 
    2.238190919e-01, -2.368382215e-01, 6.343109161e-02, -4.822456464e-02, 
    -1.170558631e-01, -1.506689657e-02, 7.320947647e-01, -5.835881829e-01, 
    5.427497625e-02, 4.437554453e-04, 3.474118114e-01, 5.816380493e-03, 
    2.312026545e-02, 2.804430723e-01, 5.152060837e-02, 8.952981792e-03, 
    -8.833932877e-02, 1.186235920e-01, -8.506149650e-01, -2.359188050e-01, 
    -1.097690463e-01, -2.302882075e-02, -3.745238064e-03, 1.551746279e-01}, {-3.841951862e-02, -2.421456426e-01, 2.658602297e-01, -8.995335549e-02, 
    -3.155793846e-01, -6.312364936e-01, -3.541857302e-01, 2.877516747e-01, 
    -7.341465950e-01, 3.574184477e-01, -2.401862144e-01, 3.569921851e-01, 
    -7.878956199e-02, -1.238084137e-01, -1.112867519e-01, 1.380455345e-01, 
    -1.834773868e-01, 2.576065361e-01, -2.173975706e-01, 2.649826109e-01, 
    -6.549488306e-01, -1.056129113e-02, -5.470025539e-01, -1.197535731e-02, 
    -1.784894615e-01, -1.331402808e-01, 4.409947619e-02, 4.743815660e-01, 
    -7.942399979e-01, 8.252038807e-02, -6.962000579e-02, 6.617932022e-02, 
    4.913252592e-02, -2.451263815e-01, 2.796857357e-01, 2.538152337e-01, 
    2.306864262e-01, -1.058590785e-01, -3.177961707e-01, -2.638296187e-01}, {-1.006393805e-01, -2.357922494e-01, 3.717106283e-01, -3.919812292e-02, 
    2.260963023e-01, -1.639405191e-01, 1.431282014e-01, 1.563735157e-01, 
    7.491799444e-02, 2.910096571e-02, -9.492614120e-02, 1.607991010e-01, 
    3.262883751e-03, 4.901910946e-02, -2.213313244e-02, 3.560003638e-02, 
    -2.643920183e-01, -5.989788771e-01, 1.661916524e-01, 1.254851371e-01, 
    5.500010848e-01, -5.099252611e-02, 1.181742549e-01, -4.229733050e-01, 
    7.182715833e-02, 4.762381781e-03, 3.106822446e-02, 1.734018698e-02, 
    -2.445031889e-02, 2.659876347e-01, 9.049586952e-02, -3.258827925e-01, 
    1.479532383e-02, -6.978083402e-02, -2.296008356e-02, -4.351759851e-01, 
    4.227133989e-01, 3.480148688e-02, 1.741918176e-01, -3.244153559e-01}, {-7.220546715e-03, -3.003725708e-01, 8.665550500e-02, -1.312654559e-02, 
    -5.905691981e-01, -6.155668199e-02, -9.676193446e-02, -3.835022822e-02, 
    9.254934639e-02, -4.107948765e-02, 4.359482229e-02, -4.101060629e-01, 
    -4.939297587e-02, 1.839257330e-01, -5.021647550e-03, 1.564116180e-01, 
    1.430646516e-02, -1.472861469e-01, 2.472742461e-02, -1.220099777e-01, 
    -7.088927180e-02, -7.221150398e-02, -2.672197223e-01, -2.596539557e-01, 
    -1.629235782e-02, 3.820838872e-03, -1.385899484e-01, 5.414991453e-02, 
    2.253247052e-02, -9.546927363e-02, 3.652407601e-02, 1.383924335e-01, 
    -6.898140907e-02, 1.263331771e-01, -1.312624430e-03, -5.705025513e-03, 
    -1.574535072e-01, -1.787714101e-02, -1.475196034e-01, -1.730952784e-02}, {-2.555159807e+00, 7.194164395e-02, 6.685022265e-02, -1.235424206e-01, 
    6.439815760e-01, -1.658135533e+00, 8.782260418e-01, -2.780924737e-01, 
    3.328559399e-01, -7.643321157e-02, 7.838524580e-01, -3.496660292e-01, 
    -8.960004449e-01, 9.075394869e-01, -2.463226616e-01, -5.972634554e-01, 
    -4.362117872e-02, -6.845732033e-02, -2.108351141e-02, 4.552930295e-01, 
    1.103306532e+00, -5.388028622e-01, -1.658943295e-01, 4.889548942e-02, 
    -1.119328380e+00, -2.846817970e-01, -6.378123164e-02, 8.585771173e-02, 
    -1.601567864e-01, 2.157958299e-01, -7.678298950e-01, -2.089881152e-01, 
    -3.879977167e-01, -1.024469852e+00, -7.925775647e-02, 1.521703303e-01, 
    6.067537665e-01, -1.702528596e-01, 6.529119611e-01, 3.673624098e-01}, {-7.889747620e-02, 4.688967764e-02, 3.011462688e-01, 2.346611023e-01, 
    2.717100084e-01, -7.196269184e-02, -1.432253599e+00, -3.409218043e-02, 
    -8.212556243e-01, -1.030864939e-01, 3.899332602e-03, -7.543486953e-01, 
    -1.872026362e-02, -1.610566676e-01, -8.551012725e-02, 1.903946996e-01, 
    -6.885473728e-01, -8.171986789e-02, -1.694156379e-01, 1.431831568e-01, 
    2.454966754e-01, -1.643069647e-02, 1.574326158e-01, -1.595998257e-01, 
    -6.336238980e-02, 8.751433343e-03, -1.407396197e-01, 9.875954129e-03, 
    1.837580232e-03, -6.568077207e-01, 6.820494682e-02, -8.991781622e-02, 
    -5.865437537e-02, 8.796782047e-02, -1.166890264e-01, 1.961031556e-01, 
    2.800649107e-01, -5.796419084e-02, 1.032492965e-01, 1.623308212e-01}, {-1.433513463e-01, -5.973071456e-01, -1.205747500e-01, -1.260864455e-02, 
    2.339197248e-01, -1.663363129e-01, 1.943620443e-01, 3.880966827e-02, 
    8.540449291e-02, 5.264862180e-01, 3.043934107e-01, -3.502642810e-01, 
    -1.022982225e-01, 3.380455077e-01, 4.134469479e-02, -2.278405726e-01, 
    -2.826750576e-01, -4.241080582e-01, 6.964749843e-02, 1.455638260e-01, 
    -1.940906495e-01, 1.055554971e-01, -2.446688265e-01, 1.768693477e-01, 
    1.215203777e-01, 1.360625178e-01, -3.945235014e-01, -2.415544540e-02, 
    6.555711478e-02, -5.235905051e-01, 6.386852264e-01, -2.127499133e-01, 
    -1.441252828e-01, 2.158769518e-01, 1.086090356e-01, -1.851830184e-01, 
    -2.972459495e-01, 1.382413805e-01, 1.788431257e-01, -4.277391434e-01}, {-8.022240549e-02, 4.669649005e-01, 1.034071594e-01, 3.781433450e-03, 
    2.650107741e-01, 1.885149861e-03, 1.769171804e-01, -6.392417848e-02, 
    -2.445633113e-01, -3.075548261e-02, 4.533616900e-01, 1.449876186e-02, 
    -1.126423255e-01, -7.403091341e-02, 9.237800539e-02, 3.321225569e-02, 
    -2.107904106e-01, -1.539803147e-01, -1.138255224e-01, -5.143084377e-02, 
    -5.382451694e-03, -1.267415434e-01, 1.236251593e-01, 1.859701574e-01, 
    -8.287125826e-02, 1.549785677e-02, -7.309890538e-02, 1.236589253e-01, 
    -1.402857527e-02, -1.800045967e-01, -6.845112145e-02, 1.375103593e-01, 
    -7.057254761e-02, 2.548322664e-04, -7.150714099e-02, -3.499152362e-01, 
    5.846783146e-02, 1.252509654e-02, -4.580849782e-02, 4.561264813e-02}, {-1.635916233e-01, -3.695367575e-01, 3.538400680e-02, 3.931971490e-01, 
    -3.869616091e-01, 1.865532398e-01, -2.272410095e-01, 1.353407651e-01, 
    2.266227901e-01, 1.397343129e-01, -6.594176590e-02, -6.404690146e-01, 
    -3.851619363e-02, 6.804983318e-02, 9.355817735e-02, 2.308951691e-02, 
    -3.276864290e-01, -6.613175869e-01, -2.294542491e-01, 1.184040532e-01, 
    1.613084823e-01, -6.107176095e-02, 9.599111043e-03, 9.226928651e-02, 
    1.427383870e-01, 8.151330799e-02, -2.604471520e-02, 3.077685237e-01, 
    -6.249922141e-02, -3.477273285e-01, 1.795525849e-01, 6.207887828e-02, 
    2.015608177e-02, 7.399290800e-02, -3.601395339e-02, 8.086743951e-02, 
    1.743011475e-01, 5.907137319e-02, 4.299691692e-02, -4.269393161e-02}, {4.036926106e-02, 4.868115485e-01, 1.825654805e-01, 6.004586220e-01, 
    5.315618515e-01, 2.601624131e-01, -1.353098154e-01, -1.942327619e-02, 
    -5.527409315e-01, 2.026667744e-01, -1.434032172e-01, -3.487561345e-01, 
    -5.694496632e-02, 2.107949853e-01, 7.240866870e-02, 1.071305573e-01, 
    -4.260655642e-01, -3.119026124e-01, -9.792324156e-02, -5.207458511e-02, 
    -2.232535034e-01, -3.023878485e-02, -2.286218852e-01, -6.320328265e-02, 
    -1.655459851e-01, -4.174389318e-02, -5.540300012e-01, 9.997178614e-02, 
    1.123633888e-02, -5.873082578e-02, -3.893439770e-01, 1.963478178e-01, 
    6.242606323e-03, 3.710007528e-03, -2.540030517e-02, -1.275663674e-01, 
    -2.490728796e-01, -7.661301643e-03, 1.668728888e-01, -1.567400247e-02}, {-6.744129211e-02, -2.379264981e-01, -4.231277108e-02, 1.350246221e-01, 
    -6.966376305e-01, -3.140487969e-01, -2.576578557e-01, 9.991563857e-02, 
    5.930148810e-02, -5.921015143e-02, -4.355522394e-01, -7.513504624e-01, 
    -4.423146322e-02, 4.125047624e-01, -5.389064550e-02, 3.078584746e-02, 
    1.588481478e-02, -2.500604093e-02, -8.233379573e-02, 1.593775451e-01, 
    -3.822876513e-02, 7.633932680e-02, 4.731996953e-01, -1.492549777e-01, 
    -3.344334364e-01, -4.909497872e-02, 1.342131570e-02, -2.077507786e-02, 
    -1.038713455e-01, -2.680574358e-01, 1.434629560e-01, 1.694613993e-01, 
    -3.098651022e-02, 9.038344771e-02, 1.224720106e-01, -1.118555013e-02, 
    -2.583659068e-02, -4.147230089e-02, -1.054513603e-01, 1.563999057e-01}, {-1.476945877e-01, -4.934563041e-01, 9.399671853e-02, -2.851434946e-01, 
    -6.387484819e-02, -2.914468944e-02, 4.360474348e-01, 2.598106563e-01, 
    2.050331384e-01, 5.548868179e-01, -2.615031302e-01, -8.160117269e-01, 
    -9.900253266e-02, 1.258449107e-01, -5.411798880e-02, 3.708336353e-01, 
    4.481483996e-02, 7.225775123e-01, -7.762001455e-02, 2.188204974e-01, 
    -1.782206595e-01, -8.194134384e-02, -1.408797801e-01, -5.497407317e-01, 
    -4.408248961e-01, 1.231149584e-01, -1.416871399e-01, -4.717630148e-01, 
    -3.417864069e-02, 3.955492377e-01, 4.556051269e-02, 9.226101637e-02, 
    -1.711010933e-01, -9.947511554e-02, -1.964942664e-01, 5.047604442e-01, 
    -1.045798898e+00, -1.411443949e-02, -4.691757262e-01, -7.711685449e-02}, {-3.294036686e-01, -1.031490326e+00, -8.821070078e-04, 2.059937119e-01, 
    2.906961739e-01, -4.189354181e-01, 3.099103570e-01, -1.719477296e+00, 
    3.805367947e-01, 3.867852688e-02, -2.878191769e-01, 2.127191424e-01, 
    -2.455776483e-01, -1.471250802e-01, -1.682908773e+00, 9.058363438e-01, 
    5.292366743e-01, -5.433327332e-02, -4.613936245e-01, 1.477245837e-01, 
    3.757781088e-01, -1.489972711e+00, 5.714493617e-02, 3.488940299e-01, 
    -5.670008063e-01, -1.136052489e+00, -1.176692247e-01, 5.441810489e-01, 
    -3.471048176e-01, 3.572627306e-01, -6.956001371e-02, -4.130593538e-01, 
    -1.870513678e+00, 4.505817592e-02, -2.292365581e-01, 9.782705456e-02, 
    4.019654393e-01, -1.582908034e+00, -3.751097620e-01, 8.423619270e-01}, {-2.277446538e-02, 4.228956625e-02, -3.804028034e-02, -8.366452157e-02, 
    -2.940746546e-01, -1.205811501e-01, 8.212814480e-02, 1.115345862e-02, 
    -4.440287054e-01, -1.050827950e-01, -1.467095464e-01, 3.274994493e-01, 
    -2.432315797e-02, -1.286015511e-01, 5.114065949e-03, -1.297143474e-02, 
    2.970058024e-01, 2.700119913e-01, -2.226549238e-01, -7.656490803e-02, 
    -1.217045784e-01, -3.967420384e-02, 1.507917047e-01, -2.857287526e-01, 
    -3.402134031e-02, -1.933507249e-02, 8.109680563e-02, 2.496183850e-02, 
    -2.652730420e-02, 2.275321186e-01, 3.588575497e-02, -1.078518759e-02, 
    -2.501615696e-02, 1.238237172e-01, -1.094688326e-01, -4.041237384e-02, 
    1.210533753e-01, -7.484214008e-02, -7.085546851e-02, 7.127604634e-02}, {-2.390573174e-02, -1.870980561e-01, 3.526839316e-01, 1.415490061e-01, 
    -6.435287595e-01, -1.419077069e-01, 1.235675439e-02, -1.953220218e-01, 
    8.487667888e-02, -9.383777156e-03, 7.938343287e-02, 3.770259619e-01, 
    -7.830100507e-02, -4.560003802e-02, -1.401030831e-02, -4.145673662e-02, 
    1.130447239e-01, 1.800478101e-01, -1.382848024e-01, -3.016222715e-01, 
    -7.985885441e-02, -1.565138623e-02, -2.404241711e-01, -2.090899795e-01, 
    -9.071221948e-02, 6.037645508e-04, 8.713512123e-02, 4.428333417e-02, 
    2.379596047e-02, 1.430718899e-01, 5.214090645e-02, 1.054517254e-01, 
    3.360134084e-03, 2.984481752e-01, -2.908551367e-03, 8.633074351e-03, 
    -2.582651004e-02, -4.070700333e-02, 4.498171434e-02, 1.622324586e-01}, {-1.859403133e+00, 1.989683956e-01, 1.220172737e-02, 4.555273801e-02, 
    5.746124387e-01, 2.898315899e-02, 9.382844567e-01, -1.262818813e+00, 
    7.621948719e-01, -1.286968440e-01, 5.778205767e-02, -4.952156246e-01, 
    -5.533310771e-01, 2.008318752e-01, -1.440300941e+00, 5.457415581e-01, 
    3.471947610e-01, -4.040498137e-01, -5.596414208e-01, 1.051543877e-01, 
    2.875772119e-01, -1.457372069e+00, 4.325795174e-01, 2.259549201e-01, 
    4.228295013e-02, -1.293751478e+00, -1.882641762e-01, 3.170106411e-01, 
    -5.278244615e-01, -1.529344916e-01, 1.084333658e-01, -3.015087843e-01, 
    -1.560849786e+00, 1.931730062e-01, -2.623073757e-02, 1.191640049e-01, 
    7.537168264e-01, -1.363682747e+00, 1.519710124e-01, 4.228973389e-01}, {-5.967941880e-02, 1.030241847e-01, 3.036155365e-02, 1.505594254e-01, 
    4.010168612e-01, -9.240616113e-02, 1.216620356e-01, 4.182239622e-02, 
    -1.927006096e-01, -2.595610619e-01, -5.402834341e-02, -1.688289195e-01, 
    2.652707882e-02, 5.828077197e-01, 9.184546024e-02, 1.950968243e-02, 
    -6.905658543e-02, 2.876869403e-02, 1.065953542e-02, 1.901241243e-01, 
    -3.749450147e-01, 2.174353227e-02, -1.123593599e-01, -3.228644729e-01, 
    1.639332473e-01, -3.721307591e-02, 1.722113341e-01, 2.367078327e-02, 
    -1.269891392e-02, -2.648767829e-01, -1.400357932e-01, -6.089264527e-02, 
    -7.695339620e-02, 1.386714876e-01, -1.622819602e-01, -7.046020776e-02, 
    -4.636857212e-01, -5.098842829e-02, 7.244107127e-02, 1.747567505e-01}, {-1.123173758e-01, 3.917085528e-01, -8.704188466e-01, 6.105642393e-02, 
    -1.282383949e-01, 7.900370657e-02, 2.224876732e-01, -1.590741426e-01, 
    -8.528447896e-02, -2.754478157e-01, -2.642598450e-01, -1.519750655e-01, 
    2.901771292e-02, -2.229520231e-01, 3.701769561e-02, -9.480129182e-02, 
    2.706374228e-02, -1.196296513e-01, 2.107631564e-01, 8.455700427e-02, 
    3.614178859e-03, 2.066986263e-02, 3.647106886e-01, 1.997169703e-01, 
    -2.981320024e-01, 6.890407205e-02, -3.281872272e-01, -3.417194784e-01, 
    2.504621819e-02, 1.675347835e-01, -1.530260921e+00, 2.564541623e-02, 
    8.110488951e-02, -1.548883319e-01, -3.886075914e-01, 4.337034523e-01, 
    2.544052899e-01, -7.116270065e-02, -1.832575649e-01, -1.999448240e-01}, {-5.101073068e-03, -4.430306852e-01, -2.257810682e-01, -4.287780821e-01, 
    -7.521392107e-01, -5.560259148e-02, -3.335778415e-01, 1.005944796e-02, 
    -1.439926028e-01, -2.093357146e-01, -5.376668647e-02, 2.940686643e-01, 
    2.709356323e-02, 4.788434803e-01, 7.271896303e-02, -2.910398878e-03, 
    -5.816802382e-02, -8.104091883e-02, -2.176090889e-02, 5.161832571e-01, 
    3.145637214e-01, -4.170477390e-03, -5.148654580e-01, -2.178051919e-01, 
    -2.160475254e-01, 8.948410861e-03, 1.310364455e-01, 2.051800638e-01, 
    2.458817698e-02, -7.994328439e-02, -6.410538405e-02, 1.964662671e-01, 
    -3.821888193e-02, 1.270271987e-01, -3.348847106e-02, 2.088732272e-01, 
    -7.951247692e-01, 1.616746187e-01, -3.873782754e-01, 2.250170112e-01}, {-3.389191329e-01, 2.400331795e-01, 1.011223793e+00, 1.055628777e+00, 
    7.607915401e-01, -1.055604458e+00, 4.277103841e-01, -6.343212724e-01, 
    -2.164114565e-01, -7.165625691e-02, -1.488757730e-01, -1.278479993e-01, 
    7.110649347e-02, -3.931565881e-01, -9.536343813e-01, 3.869372234e-02, 
    6.000715494e-01, 1.930875629e-01, -8.234120011e-01, 6.418921351e-01, 
    -2.124356851e-02, -1.545418382e+00, 2.131730616e-01, 2.582481876e-02, 
    -2.944803238e-01, -1.449558854e+00, -9.515162557e-02, 3.306965828e-01, 
    -1.239930019e-01, -2.667975798e-02, -3.414304852e-01, -1.467963219e+00, 
    -1.639455438e+00, 9.458503127e-02, -5.025632307e-02, 2.858239599e-02, 
    -2.750852145e-02, -1.661751390e+00, 3.951940313e-02, -5.174044520e-02}, {-2.119661421e-01, -1.871593297e-01, 3.296852410e-01, -1.780012399e-01, 
    -2.789240777e-01, 6.004367024e-02, -2.132966071e-01, -1.616896629e+00, 
    -9.455787949e-03, 2.710600197e-01, -4.607716501e-01, -1.431528330e-01, 
    -6.885427982e-02, 1.135344803e-01, -6.757958978e-02, 2.010280639e-01, 
    2.827284634e-01, 5.012347698e-01, -2.302995175e-01, 6.401824951e-01, 
    -1.026288152e+00, -9.485968202e-02, -1.255445242e+00, 3.532275558e-01, 
    -6.468801498e-01, -6.234642863e-02, 1.273004711e-01, 2.241169810e-01, 
    -4.228560030e-01, 8.070954680e-02, -1.859561950e-01, -5.138255358e-01, 
    -1.577791385e-02, -8.754982799e-02, -4.027133062e-02, 5.190683603e-01, 
    3.451583385e-01, 2.354323491e-02, -1.086888388e-01, 6.823286880e-03}, {-4.281610847e-01, -8.904321790e-01, -5.094468594e-01, 1.294935346e-01, 
    -4.662992060e-01, -9.423514605e-01, 3.439920247e-01, -3.487223387e-01, 
    -7.531968504e-02, -5.408872366e-01, -3.281152844e-01, -6.223079190e-02, 
    -1.318905950e-01, -5.792071819e-01, 1.506674755e-02, -2.682193220e-01, 
    6.714134216e-01, -7.825371027e-01, -2.568819523e-01, -1.316754520e-01, 
    4.261818826e-01, -1.613313109e-01, 1.903895885e-01, 6.788694859e-02, 
    1.421111524e-01, -1.258306801e-01, -1.183119297e+00, 1.568847452e-03, 
    3.568671644e-02, -3.616547287e-01, 7.603940964e-01, -6.359502077e-01, 
    2.406002767e-02, -3.534732759e-01, 3.405008316e-01, -2.092567384e-01, 
    4.010562897e-01, -2.071576118e-01, -8.702883869e-02, 1.419270337e-01}, {-1.044624567e+00, -7.165323198e-02, -1.166285351e-01, 3.078430891e-01, 
    5.856199861e-01, 2.478126287e-01, -3.288045228e-01, 4.160273448e-02, 
    5.919850618e-02, -1.489780843e-01, 2.115253806e-01, -6.825640798e-01, 
    -1.615317911e-01, 2.045259029e-01, -6.644036770e-01, 2.371593714e-01, 
    1.344005615e-01, 4.973499570e-03, -2.683705986e-01, -4.477725029e-01, 
    5.021235943e-01, -5.531096831e-02, -1.010534167e+00, 4.104826748e-01, 
    1.346805692e-01, 8.232691139e-02, 4.040454328e-02, -2.164937556e-01, 
    -3.515294520e-03, -1.107007623e+00, -1.618147194e-01, 3.207624257e-01, 
    -1.032252461e-01, 8.415735513e-02, 4.592471421e-01, 6.077162623e-01, 
    -9.370906353e-01, -1.225224696e-02, -1.427768350e+00, 1.226880401e-01}, {-1.214954406e-01, -6.619852781e-01, 3.738687634e-01, -2.273489535e-01, 
    -1.372255832e-01, -9.165878594e-02, 5.640549660e-01, 4.366486669e-01, 
    -7.178448141e-02, 1.547029465e-01, -5.687667727e-01, -8.787909150e-02, 
    1.161005162e-02, 6.074962020e-01, -1.311995834e-01, 3.571997285e-01, 
    6.733541489e-01, 5.658551455e-01, -2.984804809e-01, 8.884105086e-02, 
    -9.954521060e-02, -1.882085949e-01, -9.161437154e-01, -5.296630263e-01, 
    -2.862276137e-01, -1.613606466e-03, -2.487259209e-01, 1.983299851e-01, 
    -1.475217044e-01, 2.327315211e-01, -4.911016524e-01, -7.227275372e-01, 
    -1.095611230e-01, -5.295955762e-02, 4.547427297e-01, 5.185374022e-01, 
    -7.527320981e-01, -3.615747392e-02, 3.864534199e-01, -1.143108964e+00}, {1.141715795e-03, -2.457278520e-01, -7.025514543e-02, -2.338637859e-01, 
    -2.063834965e-01, -1.166845262e-01, 2.898091376e-01, 5.451359227e-02, 
    1.895125359e-01, -1.940871626e-01, -1.192461103e-01, 7.410028577e-02, 
    -3.301268443e-02, -4.480267167e-01, 2.969214320e-02, -4.004563764e-02, 
    -2.262244523e-01, -1.058897898e-01, 2.456984520e-01, -1.048586518e-01, 
    -9.533550590e-02, -6.037314236e-02, 3.681801558e-01, -2.004333884e-01, 
    -1.573339850e-01, 1.707589719e-03, -3.671374321e-01, 2.535932958e-01, 
    -2.009550110e-02, -2.427959144e-01, 2.005186677e-02, 3.441442847e-01, 
    -2.348414436e-02, 9.899710864e-02, -3.587141931e-01, -1.113108993e-01, 
    -6.681962609e-01, -9.016934037e-02, -3.704692125e-01, 2.711410634e-02}, {-1.239399433e+00, -1.682988554e-01, -2.191925887e-03, -5.191469193e-01, 
    2.790568769e-01, -2.128750324e+00, -9.640088677e-01, 3.578794003e-01, 
    -6.839658618e-01, -4.919152558e-01, 9.712373018e-01, 9.693981409e-01, 
    -4.813394845e-01, 9.952958822e-01, -3.152207285e-02, -7.408576608e-01, 
    7.197676897e-01, 1.940435320e-01, -3.192590177e-01, 5.955239534e-01, 
    8.594117165e-01, -5.283801351e-03, 5.742826313e-02, -1.808662415e-01, 
    -1.024373055e+00, -2.448173314e-01, 6.788840145e-02, 2.503302135e-02, 
    -4.943960011e-01, 4.497725070e-01, -2.158723772e-01, -1.223130673e-01, 
    -4.943405092e-01, -9.784576893e-01, 5.587033033e-01, 6.463687867e-02, 
    1.989713311e-01, -7.199883461e-02, 1.467790753e-01, -3.871851861e-01}, {-5.511443317e-02, -1.725481153e-01, -1.271580458e-01, 4.567203671e-02, 
    4.498975575e-01, -5.256589130e-02, 1.531006545e-01, 2.286767401e-02, 
    -1.441411525e-01, -8.817584068e-02, -2.102882117e-01, 2.035222948e-01, 
    -8.808188140e-02, -8.776358515e-02, 1.974806376e-02, -4.691964090e-01, 
    -1.792323887e-01, -4.596668109e-02, -3.177832067e-01, -2.137165517e-01, 
    3.385225236e-01, -1.109463945e-01, -6.647124141e-02, 4.679232836e-02, 
    7.865200192e-02, -3.280349821e-02, 1.965137124e-01, 4.041115567e-02, 
    2.393538132e-03, -5.135338306e-01, 4.507410806e-03, -5.260897428e-02, 
    3.251828253e-02, 1.664460748e-01, 2.740161121e-01, 8.043511212e-02, 
    1.238238364e-01, -8.960574865e-02, -1.179708727e-02, 1.174713448e-01}, {-2.038894445e-01, -6.815594435e-01, -3.985390663e-01, 4.563787580e-01, 
    1.841136962e-01, -1.853659898e-01, 2.118904144e-01, 1.866128594e-01, 
    1.925944686e-01, -2.800437510e-01, 4.842616916e-01, 5.314644054e-02, 
    -2.314999551e-01, -3.803780302e-02, 6.271936744e-02, -9.520300031e-01, 
    -1.623712182e-01, -7.311646938e-01, -1.074451879e-01, -1.981665567e-02, 
    4.184984267e-01, 4.338090867e-02, -3.674192727e-01, 2.886732221e-01, 
    5.665341616e-01, 1.072861776e-01, 2.794091105e-01, 7.121218834e-03, 
    -2.210088633e-02, -1.307463199e-01, 3.070758581e-01, -1.105165854e-01, 
    1.331416517e-02, 2.325901240e-01, 5.384043455e-01, -3.383107483e-01, 
    -2.338626236e-01, -7.242193446e-03, -1.400984824e-02, -3.391864300e-01}}};

const float bias_hid[NUM_HIDDEN_LAYERS-1][NUM_NODES] = {{3.587217927e-01, -2.044533342e-01, -3.747075424e-02, -2.395438999e-01, 
    -5.860554576e-01, 4.701498151e-02, -1.815013885e-01, 5.978234485e-02, 
    1.159627885e-01, 2.473961562e-01, -1.993454844e-01, -2.244676352e-01, 
    1.145130917e-01, -3.173328340e-01, -2.246746272e-01, 4.372482300e-01, 
    1.339871138e-01, -7.646095008e-02, -5.105366185e-02, -2.302882075e-01, 
    -7.073476911e-02, -2.040607035e-01, 8.742275834e-02, -9.104347229e-02, 
    2.724978328e-01, 3.271758258e-01, 1.760962903e-01, 3.617793918e-01, 
    6.803679746e-03, 9.542939067e-02, 2.481510192e-01, 4.566016197e-01, 
    5.463957787e-02, 3.156577647e-01, -8.421642333e-02, 6.020356715e-02, 
    1.164655462e-01, 2.239036709e-01, 4.343324807e-03, -4.027815163e-02}};