#include "nn_parameters_non_zero.h"

const int num_nodes_vec[NUM_LAYERS] = {10, 40, 40, 4};

// NN network parameters -- atribute values
const float weights_in_nz[NUM_NODES][NUM_STATES] = {{-1.448924661e+00, 6.120022535e-01, -2.433186630e-03, -4.424795210e-01, 
    -3.534561098e-01, 3.366498277e-03, 1.497143388e+00, -6.332108974e-01, 
    3.854189217e-01, 1.766776562e+00}, {3.692734987e-02, 2.048136741e-01, -3.749952186e-03, -9.362363219e-01, 
    5.361706018e-01, 1.597924344e-02, 1.186038256e+00, 1.946052611e-01, 
    -6.436108947e-01, -1.709845066e+00}, {8.974330127e-02, -4.460961521e-01, -1.279262640e-02, -4.930441380e-01, 
    -1.121142507e+00, 2.282659151e-02, 1.145271808e-01, 3.011401594e-01, 
    -3.001659513e-01, -8.810321093e-01}, {1.846065558e-02, 1.180670023e+00, -1.560386084e-02, 2.554622889e-01, 
    1.689475894e+00, -1.082067564e-01, -6.991773844e-01, 1.157356054e-01, 
    2.039746493e-01, 6.313430667e-01}, {1.171396971e+00, 3.446580768e-01, 3.195058405e-01, 2.473417997e+00, 
    -6.606675982e-01, 2.908423841e-01, 3.503881693e+00, 3.724900782e-01, 
    8.349615335e-01, 3.537671268e-01}, {-1.006782174e+00, -1.302125096e+00, -3.508407390e-03, 1.068786263e+00, 
    1.012584090e+00, 9.211981669e-03, -5.969399214e-01, -3.137423992e-01, 
    -3.963696063e-01, -1.656457067e+00}, {5.685865879e-01, -8.800838888e-02, -8.416152000e-02, 1.187029123e+00, 
    -8.196061850e-01, -5.522669852e-02, 2.154155821e-01, 1.267359018e+00, 
    -1.196283326e-01, 2.085860252e+00}, {8.042827845e-01, 9.475648999e-01, 1.374641955e-01, -1.291553140e+00, 
    -4.659454525e-01, 2.541645169e-01, 1.392131090e+00, -1.067418098e+00, 
    8.998504877e-01, -3.949769139e-01}, {8.917894363e-01, 1.008860096e-01, -3.606052604e-03, 1.026426792e+00, 
    1.803173184e+00, 1.620215364e-02, 1.221877337e+00, 3.608712256e-01, 
    3.058800697e-01, 1.421487808e+00}, {3.439771757e-02, 6.868026257e-01, -1.400355343e-02, 6.902810931e-01, 
    7.946999073e-01, -2.084113657e-02, 2.122945070e+00, -2.351728827e-01, 
    1.250287741e-01, -4.268465564e-02}, {-5.752966404e-01, -4.669078887e-01, -5.161277018e-03, 1.373994827e+00, 
    1.083901286e+00, -3.365687653e-02, 6.388956308e-02, 7.267330308e-03, 
    1.298913002e+00, -8.989877701e-01}, {-6.996788383e-01, 1.405325651e+00, -1.382389665e-02, -5.390490890e-01, 
    6.317805052e-01, -4.181355238e-02, 1.403885037e-01, 5.499783158e-01, 
    -2.159631401e-01, 6.827589273e-01}, {-6.823759675e-01, -3.602185547e-01, -1.132863536e-01, 4.841957390e-01, 
    4.835262597e-01, -1.451289207e-01, -2.167672366e-01, 8.032342196e-01, 
    5.615838766e-01, -3.593333960e-01}, {-5.965811759e-02, -1.512140274e+00, 8.752886206e-02, 2.836972475e-01, 
    4.178257883e-01, 9.109448642e-02, 1.604563594e+00, -8.601363301e-01, 
    -3.383056223e-01, 2.405812740e-01}, {3.329299688e-01, 7.607389092e-01, -2.245717123e-02, -3.358454108e-01, 
    2.049757242e-01, -6.968747359e-03, 1.066855550e+00, 1.446084380e-01, 
    -1.373720318e-01, -1.078678489e+00}, {5.899094939e-01, -3.909118176e-01, 5.378759466e-03, 3.389405012e-01, 
    -1.126808047e+00, 1.677522808e-02, 1.259788990e+00, 3.855540156e-01, 
    7.595921308e-02, -2.564779043e+00}, {-8.389825821e-01, 2.659810483e-01, -8.852252364e-02, -1.345130563e+00, 
    -1.010509014e+00, -1.146639213e-01, -1.413292140e-01, 7.264767289e-01, 
    1.525435328e+00, -2.978591621e-01}, {3.595637560e+00, -1.885423660e-01, 1.878969185e-02, -2.939846516e+00, 
    1.638737917e-01, -7.906577550e-03, -1.648693800e+00, 5.261654258e-01, 
    -8.751590848e-01, -6.123785973e-01}, {-2.331910372e+00, 5.191517830e+00, 9.138453007e-02, 1.519613385e+00, 
    1.817873240e+00, 6.474439800e-02, 8.287570439e-03, -3.222011328e-01, 
    -6.343517303e-01, 5.876781940e-01}, {-1.330754519e+00, -2.316177189e-01, 5.177501962e-02, -1.738159657e+00, 
    3.656349778e-01, 1.946907863e-02, 1.009154081e+00, -1.207228005e-01, 
    7.532437891e-02, 1.912871838e+00}, {-2.605494559e-01, 1.644134760e+00, -2.967372909e-02, 1.063132167e+00, 
    6.678303480e-01, -6.474894285e-02, 3.061962426e-01, -2.223359980e-02, 
    1.047525033e-01, -1.599468470e+00}, {-3.744974613e+00, -2.660872459e+00, 9.405856580e-02, 1.149705768e+00, 
    1.584313631e+00, 1.460364014e-01, 1.353180289e+00, 8.417699337e-01, 
    6.841052175e-01, -2.598423958e+00}, {-2.155528307e+00, -1.043717742e+00, -1.360946000e-01, 3.824660182e-01, 
    6.637281924e-02, -1.334375739e-01, 5.498795509e-01, 4.208727479e-01, 
    -3.107544594e-02, 5.552031845e-02}, {8.375946432e-03, 3.947995305e-01, -1.534734815e-01, -3.978563845e-01, 
    8.549249917e-02, -1.965274364e-01, -4.683306515e-01, 1.151840948e-02, 
    -2.336472750e+00, 7.807675004e-01}, {3.152952909e+00, -6.944466233e-01, -6.737650186e-02, -1.130076796e-01, 
    2.469319552e-01, -3.969605640e-02, -9.346604347e-01, 1.970505565e-01, 
    -4.281990230e-01, -1.176465392e+00}, {7.921246290e-01, 3.514996469e-01, -3.226076066e-01, 6.127102971e-01, 
    8.609169722e-02, -2.666322589e-01, -1.213909537e-01, -6.446020603e-01, 
    3.191742003e-01, -6.970573068e-01}, {4.917595983e-01, 1.103522897e+00, 1.251940131e-01, 6.307899952e-01, 
    4.418933690e-01, -2.701276913e-03, -7.390127182e-01, -1.194897071e-01, 
    -4.259329289e-02, -1.865224600e+00}, {-6.445443630e-01, -3.706836700e-01, -6.121804938e-03, 9.726200253e-02, 
    3.420181870e-01, 3.310182691e-02, -7.748225704e-03, -8.254915476e-01, 
    1.589805007e+00, -4.188075662e-01}, {2.272105932e+00, 1.962918341e-01, -2.784553729e-02, -3.389964402e-01, 
    -3.461480141e-01, -2.482519113e-02, -2.611604892e-02, 4.449725747e-01, 
    -1.181063727e-01, 3.270865381e-01}, {3.395756483e-01, 2.600768507e-01, -1.112455875e-01, -1.143555880e+00, 
    -2.162204683e-01, -1.139724478e-01, 3.440815806e-01, 1.657594323e+00, 
    3.528325260e-01, -7.906297445e-01}, {3.479140103e-01, -2.139117002e+00, -1.325622853e-02, 1.703397334e-01, 
    -5.983816981e-01, -2.941807732e-03, -8.389803581e-03, -9.685501456e-02, 
    -3.359087706e-01, 3.730038404e-01}, {6.644821167e-01, -7.705113292e-01, -4.081374779e-02, 1.742531538e+00, 
    -6.450724602e-01, -7.463291287e-02, 1.347679019e+00, 4.338285625e-01, 
    1.249526441e-01, 9.591537118e-01}, {-6.668966413e-01, -2.883364558e-01, 8.773927391e-02, -2.567194104e-01, 
    -1.078603625e+00, -6.257161964e-03, -4.747993052e-01, 4.829628468e-01, 
    1.347462386e-01, 4.824206233e-01}, {-8.988081813e-01, 7.167223096e-01, -1.107731685e-01, -2.558890879e-01, 
    8.363264799e-01, -1.551054269e-01, -3.311383426e-01, 8.243816346e-02, 
    -5.621499419e-01, 6.780567765e-01}, {-1.146125142e-02, -1.542032883e-02, 7.293643951e-01, -3.190042078e-02, 
    -1.392649412e-01, 7.751829028e-01, -2.159246802e-02, 3.775250539e-02, 
    2.226803154e-01, -1.093311012e-01}, {1.830169678e+00, 7.614927888e-01, 1.138040200e-01, -1.698554261e-03, 
    4.844278991e-01, 1.561212689e-01, 2.534173012e+00, -5.393041372e-01, 
    7.710775733e-02, -2.304130495e-01}, {-1.136819482e+00, -1.766435027e+00, 5.299268663e-02, -3.712078929e-01, 
    -1.157334805e+00, 4.290028661e-02, -3.824195266e-01, -8.121697903e-01, 
    3.815142214e-01, -1.614289761e+00}, {-8.839479685e-01, 2.519521415e-01, -4.750104249e-02, -6.753120422e-01, 
    -5.800024867e-01, -6.894476712e-02, 4.600800276e-01, -2.269683629e-01, 
    -8.769354820e-01, -7.403374314e-01}, {3.515481204e-02, -1.024847105e-01, -8.494877815e-01, -6.596646458e-02, 
    -2.093250006e-01, -8.651009798e-01, 3.699522465e-02, 5.687400699e-02, 
    -8.208013326e-02, 6.578700244e-02}, {2.364180833e-01, 2.595794201e-01, -2.940335274e-01, 1.191750467e-01, 
    -4.069989324e-01, -2.938264906e-01, -2.242263705e-01, 1.143367648e+00, 
    -1.434111316e-02, 3.659340441e-01}};

const float bias_in_nz[NUM_NODES] = {3.336526155e-01, -1.587584317e-01, -3.114861548e-01, 6.771499664e-02, 
    -2.053632736e+00, 3.701299056e-02, -4.068723619e-01, -2.401059419e-01, 
    -3.939529955e-01, 2.897976041e-01, 1.524887383e-01, 3.847598284e-02, 
    -3.600534797e-01, -2.370286584e-01, -1.730404049e-01, 1.535153985e-01, 
    -6.431828141e-01, -1.790955067e-01, -1.046307087e-01, 5.813972950e-01, 
    -1.412924379e-01, 1.015253067e+00, 2.638866901e-01, -1.082694978e-01, 
    -3.882648796e-02, -1.926620007e-01, -1.370776296e-01, -6.098481826e-03, 
    -1.943095922e-01, -1.772607118e-01, -2.847229242e-01, -1.325727999e-01, 
    -2.212976515e-01, -2.281003259e-02, -5.041124821e-01, -4.334096611e-01, 
    5.151326656e-01, 2.075896859e-01, -5.588728189e-02, -3.247578144e-01};

const float weights_out_nz[NUM_CONTROLS][NUM_NODES] = {{5.521501601e-02, -9.527402371e-02, -7.036302239e-03, -3.398914821e-03, 
    6.532162428e-02, 6.100625917e-02, 2.181506604e-01, 9.766171873e-02, 
    7.447158545e-02, 8.934811689e-03, 8.875524998e-02, -1.136264019e-02, 
    -1.214361265e-01, -4.125825688e-02, -1.269353330e-01, -8.497262374e-03, 
    4.689565301e-02, 5.700961873e-02, -2.503626645e-01, -9.750812501e-02, 
    -5.446512103e-01, 3.580700606e-03, 5.763150752e-02, -2.473724633e-01, 
    1.428950764e-02, -2.447911911e-02, -1.285815537e-01, -2.429041080e-02, 
    1.810991671e-03, 4.847666249e-03, 3.490289301e-02, 2.148730680e-03, 
    -5.643744394e-02, 2.848968469e-02, -1.458756346e-02, 1.171561852e-01, 
    2.502704263e-01, 1.175392419e-02, -7.792273909e-02, 1.164019853e-02}, {1.328873336e-01, -1.538850814e-01, 1.062166318e-02, 2.117945068e-02, 
    4.113312662e-01, 6.995194405e-02, 9.734233469e-02, -3.083615303e-01, 
    4.903498664e-02, 9.306507558e-02, 6.391835213e-02, -1.352636367e-01, 
    -7.443794608e-02, -9.001006931e-02, 2.585952282e-01, -3.843995184e-02, 
    -1.119522005e-01, -1.045770645e-01, 7.303595543e-02, 1.536573172e-01, 
    2.945468202e-02, -5.417730659e-02, -1.750071794e-01, 2.330098487e-02, 
    -2.891032100e-01, 2.734036744e-01, -6.162102818e-01, -1.033341065e-01, 
    3.934048489e-02, 8.141102642e-02, 1.077309400e-01, 2.059830874e-01, 
    1.702244520e+00, -3.795407712e-01, -5.239136145e-02, 1.170737445e-01, 
    1.476085484e-01, 3.510611132e-02, 4.961914942e-02, -6.706937682e-03}, {-1.306226552e-01, -1.142636985e-01, 3.493714705e-02, 6.103618070e-02, 
    -4.780874401e-02, 1.681028455e-01, 4.233107716e-02, 5.999409556e-01, 
    6.048906222e-02, 1.437672079e-01, 1.374150068e-01, 1.852580607e-01, 
    -3.767903447e-01, -1.148639694e-01, 1.458754689e-01, 2.534443140e-01, 
    -2.578333206e-02, 1.771542281e-01, 5.178315192e-02, -5.522741377e-02, 
    -3.640806973e-01, -3.591882065e-03, -4.820713028e-02, -2.156138420e-02, 
    1.114018634e-01, 2.371108383e-01, -9.615257978e-01, -1.022057459e-01, 
    9.529230744e-02, -1.205646247e-01, -1.527471095e-02, -6.856480241e-02, 
    3.024439700e-02, 6.410730630e-02, 1.154299676e-01, -2.893024385e-01, 
    -3.168936074e-01, -3.936682642e-02, 1.699828655e-01, 6.845943164e-03}, {1.494280249e-01, -1.981109828e-01, -2.382541001e-01, -4.058212340e-01, 
    -2.377397120e-01, -2.769342437e-02, -1.244337931e-01, 1.097560525e+00, 
    1.905740052e-01, -2.163883299e-01, -1.176198602e+00, 2.740300000e-01, 
    -1.382637024e-01, -2.575762510e+00, 9.840675443e-02, -8.194796741e-02, 
    1.738273948e-01, 5.957956314e-01, -4.864347167e-03, -1.402837783e-01, 
    5.887401756e-03, -1.550635248e-01, 5.580770224e-02, -1.205667574e-02, 
    1.038288325e-01, -3.322099149e-01, 1.501978755e+00, -4.380447865e-01, 
    -1.783695966e-01, 2.743256986e-01, -8.416860104e-01, 1.729006767e-01, 
    -4.185932130e-02, 1.514399499e-01, -4.282009006e-01, -3.200187087e-01, 
    -7.868512720e-02, 2.295316607e-01, 3.233923912e-01, -2.321973890e-01}};

const float bias_out_nz[NUM_CONTROLS] = {5.865609646e-02, 1.227945611e-01, -7.002855092e-02, 5.806926638e-02};

const float in_norm_mean_nz[NUM_STATES] = {-1.924340785e+00, -1.905694609e-01, -7.221583858e-04, 5.761229754e-01, 
    8.220412808e-02, 2.764463933e-03, 8.482223711e-01, -2.597592030e-02, 
    7.848078397e-02, 3.515093763e-02};

const float in_norm_std_nz[NUM_STATES] = {3.298847290e+00, 3.536408084e+00, 2.273525738e-01, 2.304512448e+00, 
    1.845787284e+00, 3.769163657e-01, 1.852043692e-01, 9.135878015e-02, 
    9.521407472e-02, 4.698840362e-01};

const float out_norm_mean_nz[NUM_CONTROLS] = {1.244680744e-01, 5.618738347e-03, -2.671557784e-02, -8.412309796e-03};

const float out_norm_std_nz[NUM_CONTROLS] = {5.015848393e-01, 4.333356930e-01, 4.691522330e-01, 5.930668770e-01};

const float out_scale_min_nz[NUM_CONTROLS] = {-7.857192375e+00, -2.191366120e+01, -1.463256543e+01, -3.358116527e+00};

const float out_scale_max_nz[NUM_CONTROLS] = {7.360893186e+00, 8.389098434e+00, 1.126821601e+01, 3.386467052e+00};

const float weights_hid_nz[NUM_HIDDEN_LAYERS-1][NUM_NODES][NUM_NODES] = {{{1.363293827e-01, 1.288350821e-01, -4.504407048e-01, -2.200977802e-01, 
    9.175123274e-02, -1.487032473e-01, -8.543559164e-02, 8.675196022e-02, 
    -7.702697068e-02, 9.308544546e-02, -4.706919938e-02, 6.352147460e-02, 
    2.124217749e-01, 4.538785294e-02, -1.745602936e-01, -1.587952077e-01, 
    6.692193449e-02, 5.175685883e-02, 4.021720588e-02, 2.275297940e-01, 
    2.400965840e-01, 1.007428616e-01, -3.538219631e-01, -7.081227005e-02, 
    -1.585479528e-01, 1.197625920e-01, 1.692395210e-01, 2.651720345e-01, 
    2.643606961e-01, 1.224046648e-01, -2.093251795e-01, 3.391855955e-01, 
    -9.073524922e-02, -2.877208292e-01, -2.027519643e-01, -1.643689871e-01, 
    -3.229435682e-01, -3.884871900e-01, 1.243201569e-01, -8.843760192e-02}, {-4.644410610e-01, 2.847491801e-01, 3.122193515e-01, -1.411631107e-01, 
    -1.941554993e-01, -5.032819137e-02, -3.462817371e-01, -2.347819060e-01, 
    -6.062833592e-02, -6.639436632e-02, -1.715173423e-01, -1.550303698e-01, 
    -6.181700528e-02, -9.338907152e-02, -2.530813813e-01, 3.830089420e-02, 
    -2.533001602e-01, 2.141675353e-01, 8.881905116e-03, -1.498747766e-01, 
    -1.771981120e-01, 1.048090160e-01, 2.088567615e-01, -1.008593813e-01, 
    -3.696590662e-01, 6.954941154e-02, 1.240621973e-02, 5.214297399e-02, 
    -2.413817644e-01, 4.641659930e-02, -3.718674183e-02, 5.589494109e-01, 
    -1.695320383e-02, 3.284912705e-01, -1.587678306e-02, 2.386353910e-01, 
    4.152623191e-02, -5.161855370e-02, 9.419880807e-02, -1.041642055e-01}, {4.244764522e-02, -1.358004361e-01, -3.696248531e-01, 2.213398516e-01, 
    -3.103044033e-01, -2.832508683e-01, -9.359118342e-02, -2.224166505e-02, 
    1.263376232e-02, -1.075967103e-01, 4.481933266e-02, -3.627798557e-01, 
    3.677722812e-01, 1.846543252e-01, -3.975640833e-01, -4.376283586e-01, 
    -3.359781206e-02, 1.760264933e-01, 1.376620978e-01, -1.723195016e-01, 
    2.440246344e-01, -1.179637983e-01, 5.032952875e-02, 4.967649654e-02, 
    -1.074926928e-01, 1.608019471e-01, -2.976605892e-01, 9.996870160e-02, 
    -1.870645434e-01, 5.914584547e-02, 3.252022713e-02, 2.780763507e-01, 
    2.579242885e-01, -1.413159519e-01, 1.997521818e-01, 2.962436974e-01, 
    -6.021603346e-01, -6.528605521e-02, -3.784789145e-01, 1.284667999e-01}, {-3.091439009e-01, -1.566267461e-01, 3.297289601e-03, -1.082915366e-01, 
    -3.471136838e-02, 2.119619548e-01, 1.854151636e-01, 1.475346237e-01, 
    -2.534638345e-01, 1.819418967e-01, -1.372699887e-01, -2.965983748e-01, 
    -1.375317276e-01, 2.756071389e-01, -3.424384296e-01, 2.908577621e-01, 
    6.825183034e-01, -1.188592017e-01, -2.433171682e-02, -7.973980904e-02, 
    -9.784816206e-02, -2.802019939e-02, -3.527360260e-01, -9.388061613e-02, 
    -1.581884027e-01, -6.677948236e-01, -8.111749887e-01, 3.003048897e-01, 
    3.246322274e-02, -3.499760032e-01, 4.283256531e-01, -4.830393195e-01, 
    -7.415805459e-01, -1.712468415e-01, -4.929967821e-01, 5.161141753e-01, 
    -2.534886897e-01, -4.532448351e-01, 2.181992680e-01, 1.113676727e-01}, {2.518116534e-01, 2.854686677e-01, -9.461802989e-02, -2.917529643e-01, 
    2.227893174e-01, 1.970455199e-01, -1.475328058e-01, -1.438878179e-01, 
    3.689523146e-04, 2.241357267e-01, 4.799538758e-03, 1.184092611e-01, 
    -3.648457825e-01, -3.869725168e-01, 4.925570637e-02, 2.554785311e-01, 
    -5.222829580e-01, 1.859879494e-01, -1.384057254e-01, 2.454643995e-01, 
    8.259464055e-02, -3.178075328e-02, -7.671316713e-02, -2.374537885e-01, 
    -2.569715381e-01, 1.578677893e-01, 1.492791921e-01, -4.375348985e-01, 
    -3.455748260e-01, -1.637098491e-01, 1.132401153e-01, -5.105361342e-01, 
    3.983047903e-01, 1.870879680e-01, -3.183776140e-02, 1.023050845e-01, 
    -3.924803138e-01, -2.130539566e-01, 1.107970849e-01, 3.277957141e-01}, {-1.683319211e-01, 3.826029003e-01, -9.289913625e-02, 1.821825802e-01, 
    2.447105497e-01, -7.644304633e-02, -1.271208078e-01, -2.206741422e-01, 
    -2.119805515e-01, -2.185059637e-01, 1.484439075e-01, -2.725737393e-01, 
    -8.403101563e-02, -1.834649444e-01, 3.163669407e-01, -2.473824173e-01, 
    -8.714721352e-02, -9.590297937e-03, 1.862244867e-02, -1.507836729e-01, 
    1.632604748e-01, 1.142481416e-01, -1.908195317e-01, 2.405302413e-02, 
    1.020766273e-01, -1.818891615e-01, -1.418542415e-01, 4.263486266e-01, 
    -8.668580651e-02, -1.997287720e-01, 1.925369375e-03, 2.807852626e-01, 
    -1.355980616e-02, 1.362704486e-01, -9.629472345e-02, 1.762354076e-01, 
    -8.757653646e-03, 9.689898789e-02, 1.500254869e-01, 4.859713372e-03}, {-1.463228017e-01, 6.733208150e-02, -2.650014758e-01, -6.273664534e-02, 
    -1.494261064e-02, 4.353791475e-03, 4.737849813e-03, -1.596237347e-02, 
    1.612667739e-01, 1.884905696e-01, 6.713066250e-02, -1.477146149e-02, 
    3.806726262e-02, 8.801121265e-03, 1.630591899e-01, 1.048211008e-01, 
    1.938356757e-01, 1.163684763e-02, -1.384272519e-02, 6.387182325e-02, 
    -2.348249853e-01, -1.190892011e-01, 3.303085268e-01, 9.309529513e-02, 
    -3.084427305e-02, 3.652695119e-01, 1.396609992e-01, -1.597326100e-01, 
    -1.351195723e-01, -1.111646295e-01, 6.846118718e-02, -1.374161243e-01, 
    -2.269673049e-01, 8.812069893e-02, 4.270283878e-02, -1.151988059e-01, 
    -9.762826562e-02, 3.347126245e-01, 4.698318839e-01, 3.067928553e-01}, {-1.153654814e+00, 4.055367410e-01, -2.271106690e-01, 1.074482083e+00, 
    3.376849368e-02, 4.026384354e-01, 2.516315579e-01, -6.418840289e-01, 
    -1.973191649e-01, 6.191406250e-01, -1.191421032e+00, -2.337336987e-01, 
    5.754664913e-02, -4.731878340e-01, 5.530087948e-01, 4.677419662e-01, 
    -2.539822340e+00, -1.746955276e+00, -1.295646548e+00, -1.087316155e+00, 
    -5.996405706e-02, -1.126706362e+00, -2.520722151e-01, -7.016393542e-01, 
    5.973664522e-01, 4.467073679e-01, 6.558702588e-01, -1.402203202e+00, 
    -8.042006940e-02, -1.103397727e+00, 4.823178425e-02, 6.155704334e-02, 
    6.717900634e-01, 2.703995109e-01, -3.543080688e-01, 3.876301944e-01, 
    -4.888675511e-01, -2.931964099e-01, -6.807413101e-01, 4.088481963e-01}, {-2.169498652e-01, 3.835687041e-02, -1.683168858e-01, 1.298396289e-01, 
    -2.439081967e-01, -8.218579739e-02, 8.127117902e-02, 1.941524744e-01, 
    4.706714302e-02, -1.539684087e-01, -1.109379381e-01, 1.025295258e-01, 
    -1.218147725e-01, 1.253444552e-01, 2.664684653e-01, -3.692522049e-01, 
    -7.416208088e-02, -1.430120468e-01, 5.391924083e-02, -1.744184494e-01, 
    -1.251942813e-01, 1.299379170e-01, -6.253819168e-02, 2.671017051e-01, 
    5.625974014e-02, -1.042602137e-01, -3.141455352e-01, -7.559638470e-02, 
    1.756387502e-01, -7.404840738e-02, 4.955939576e-02, 4.235614836e-02, 
    -9.112768620e-02, -1.700179428e-01, -8.169849962e-02, 9.224117547e-02, 
    3.240764141e-01, -9.675121307e-02, 2.870373726e-01, -7.330891490e-02}, {-4.283091426e-01, -2.104199976e-01, 3.153198361e-01, 7.608384639e-02, 
    3.253248520e-03, 1.613038480e-01, 4.017266631e-01, 2.541398406e-01, 
    -4.799690843e-01, -7.206845284e-01, 6.644091755e-02, -3.687662780e-01, 
    9.050859511e-02, 1.572091430e-01, -2.708930075e-01, -2.062346488e-01, 
    -2.334513217e-01, -1.197287887e-01, 7.646719366e-02, 7.659602165e-02, 
    -6.440215111e-01, 4.513609409e-02, -3.352927864e-01, 1.427893061e-02, 
    -7.468947768e-02, -6.026941165e-02, -1.285411417e-01, 5.306787789e-02, 
    3.279566467e-01, 1.803255677e-01, -2.272827327e-01, 5.533866957e-02, 
    9.835652262e-02, -2.980249524e-01, -1.973809451e-01, -1.363790333e-01, 
    3.335919082e-01, 1.789757013e-01, 1.343181580e-01, -1.869671494e-01}, {-3.181916177e-01, 4.673195183e-01, -9.665152431e-02, 2.866859734e-01, 
    2.935325205e-01, -7.029049993e-01, 9.084848315e-02, 2.584603429e-01, 
    2.124071270e-01, 1.603192389e-01, -2.077184916e-01, -1.178908627e-03, 
    -1.121775061e-02, 4.573617131e-02, 1.398179978e-01, 2.358494103e-01, 
    -3.354738355e-01, -1.691620946e+00, -6.102308035e-01, -1.327694058e+00, 
    -7.173586171e-03, -2.624866366e-01, -4.733957946e-01, 1.188723743e-01, 
    -8.031243086e-01, 1.746732928e-02, -4.630497694e-01, -2.078308165e-01, 
    -1.513514817e-01, -8.321914822e-02, -4.203041494e-01, 1.000401229e-01, 
    1.823496372e-01, 2.481165975e-01, -1.082413122e-01, 3.648703694e-01, 
    -1.524648517e-01, 2.207871377e-01, -9.018178284e-02, 5.651592836e-02}, {8.626148850e-02, 4.118462503e-01, -2.383822501e-01, -4.135566652e-01, 
    3.952164054e-01, 1.580751091e-01, -5.691488832e-02, 1.970874220e-01, 
    1.335509121e-01, -8.987668157e-02, 9.958858788e-02, -6.360767782e-02, 
    -1.309548318e-01, -3.474811316e-01, 2.791379392e-01, -2.853067815e-01, 
    -1.586180925e-01, 1.731177866e-01, -8.399229497e-02, 2.178358138e-01, 
    -1.286534779e-02, -2.219360135e-02, 3.091120720e-01, -9.542737901e-02, 
    -3.802228272e-01, -1.000030786e-01, 9.484905750e-02, -1.509983838e-01, 
    -2.991812527e-01, 1.734960377e-01, 1.109973267e-01, 5.569897220e-02, 
    5.335325003e-02, -1.624894589e-01, -1.379529983e-01, -2.615957260e-01, 
    -4.352956414e-01, 2.813974321e-01, 1.614763290e-01, -1.989915818e-01}, {-5.698665604e-02, 6.669710577e-02, 1.065883264e-01, -8.419585228e-02, 
    -1.326711625e-01, 1.775044948e-01, -1.057049260e-01, 3.172482178e-02, 
    1.022286043e-01, 3.493647575e-01, -5.656310916e-01, -8.269108832e-02, 
    8.566794544e-02, -1.426276416e-01, 1.693954021e-01, 2.031311244e-01, 
    7.183369249e-02, -1.573928446e-01, 6.547842920e-02, -1.212065741e-01, 
    -4.384855926e-01, -1.588665247e-01, 1.505311375e-04, -1.727720201e-01, 
    -4.546848312e-02, -1.884733513e-02, 6.900960952e-02, -5.355941057e-01, 
    3.906839788e-01, -3.009201586e-01, -3.590101302e-01, -8.134781569e-02, 
    -8.913436532e-02, 2.654130161e-01, 6.022011116e-02, -7.525550574e-02, 
    -1.923268847e-02, -1.290096194e-01, 1.036272198e-01, 3.161211312e-02}, {-7.638215423e-01, 8.037853986e-02, -2.251891196e-01, -3.418720961e-01, 
    9.393937588e-01, -1.104605913e+00, 7.159871459e-01, -4.201433156e-03, 
    6.883189082e-01, 1.024480313e-01, -4.474999309e-01, -1.735616028e-01, 
    -4.923983812e-01, -3.252630681e-02, -1.058571786e-01, 6.586117744e-01, 
    -5.937984586e-01, -2.103489637e+00, -1.177143812e+00, -1.275606394e+00, 
    -6.858449578e-01, -2.510212898e+00, -1.160672188e+00, 5.560586229e-03, 
    -1.032198191e+00, -3.021246195e-01, -6.856931448e-01, -4.865610301e-01, 
    -2.547644675e-01, 1.977273077e-02, -2.530456185e-01, 8.538476229e-01, 
    -1.905033737e-01, -3.448058665e-01, -2.976028919e-01, 7.988829017e-01, 
    -7.654808164e-01, -1.580993235e-01, -6.065161824e-01, 1.282441914e-01}, {3.609978035e-02, -8.913711458e-02, 2.064628750e-01, -1.049478203e-01, 
    -2.584876120e-01, 1.991187036e-02, -4.126037061e-01, -1.981749833e-01, 
    -1.009545103e-01, 2.046760619e-01, -1.611183770e-02, -1.099580303e-01, 
    -7.067958266e-02, -5.764837563e-02, 4.036962390e-01, 1.588651240e-01, 
    -4.125340655e-02, -5.178277940e-02, -4.954649601e-03, 1.776653081e-01, 
    3.233527765e-02, -1.156602651e-01, 1.998669952e-01, -2.049753517e-01, 
    1.911295801e-01, 2.698041201e-01, 2.249124646e-01, 3.446804732e-02, 
    -3.572904766e-01, -1.033456251e-01, -2.942003496e-02, -1.619621962e-01, 
    7.886643708e-02, 1.195600256e-01, 9.281694889e-02, 4.592725262e-02, 
    -7.785459608e-02, -4.064609855e-02, 5.898807943e-02, 2.954552509e-02}, {2.151422054e-01, 2.995555699e-01, 2.953469753e-01, -8.652191609e-03, 
    2.397137433e-01, 3.228023052e-01, -1.152445301e-01, 5.323992576e-03, 
    -2.223548442e-01, -2.362599820e-01, 3.623175249e-02, -5.361124128e-02, 
    -3.716070652e-01, 2.189037949e-01, 1.438933909e-01, -3.418431878e-01, 
    -3.248767257e-01, -5.471124500e-02, -6.523861550e-03, -1.354963183e-01, 
    -8.835703135e-02, -1.030506101e-02, -3.478490114e-01, -4.740417302e-01, 
    1.766722463e-02, -1.466699988e-01, -1.578847319e-01, 8.225078881e-02, 
    -5.598682910e-04, 1.877753139e-01, -4.506374300e-01, -3.531947732e-01, 
    4.862906635e-01, 4.157848656e-01, -3.896088898e-01, 2.802436352e-01, 
    -3.118120134e-01, 8.342499286e-02, -1.607600302e-01, 2.178086936e-01}, {-2.645634711e-01, -1.187993363e-01, 1.018629819e-01, -2.657608390e-01, 
    6.494652480e-02, 3.156787157e-01, 7.953809947e-02, -3.353326321e-01, 
    -9.842558205e-02, -1.496035606e-01, 1.788223535e-01, -1.251207888e-01, 
    -1.166291386e-01, -3.992758691e-01, -2.072610259e-01, 1.094831526e-01, 
    -2.373877019e-01, -6.965000182e-02, -1.137113199e-01, -3.420240013e-03, 
    -2.586431988e-02, -3.333120607e-03, -2.223097384e-01, 6.915747374e-02, 
    -2.488812618e-02, 1.670845449e-01, 2.102730423e-01, 4.260257483e-01, 
    1.285731643e-01, 2.022420168e-01, -1.906658523e-02, -1.853399538e-02, 
    -3.553057015e-01, -7.227132469e-02, 1.556486543e-02, 1.657621115e-01, 
    3.654640913e-01, 2.996962965e-01, 2.076538354e-01, 1.585414261e-01}, {2.102939039e-02, 1.538573205e-01, -1.679904461e-01, -2.195705622e-01, 
    4.455213994e-02, 2.344021052e-01, 3.741967380e-01, 1.026300788e-01, 
    -9.210806340e-02, -1.046169735e-02, 4.279069602e-01, -1.969090253e-01, 
    4.323237538e-01, -5.000593662e-01, 1.472152174e-01, 4.707591236e-02, 
    -2.908546925e-01, -9.688659906e-01, -3.570449054e-01, 9.305240214e-02, 
    5.194883049e-02, -5.340834260e-01, -8.449220657e-02, -1.695110202e-01, 
    3.527880609e-01, 1.041836292e-01, 2.669797540e-01, -1.099996790e-01, 
    -5.596708059e-01, 1.955721080e-01, -1.744621694e-01, 3.027506173e-01, 
    -2.696197629e-01, -2.330790646e-02, -2.792645991e-01, 3.775093853e-01, 
    -1.621042043e-01, 6.162033882e-03, -2.467207909e-01, -3.760242164e-01}, {-1.600218415e-01, 2.062491924e-01, -1.946143620e-02, -5.416863412e-02, 
    2.041830570e-01, 1.689753961e-03, 1.929602958e-02, 4.069555551e-02, 
    6.012962759e-02, -4.645945504e-02, -4.315244779e-02, -6.809023023e-02, 
    -3.402538300e-01, 6.672799587e-03, 2.527396940e-02, -2.185568511e-01, 
    8.568094671e-02, -1.975581050e-02, -6.020230427e-02, 1.297761798e-01, 
    1.581518352e-01, -5.281860009e-03, 3.153639734e-01, 9.655662626e-02, 
    3.502257913e-02, -2.771707810e-02, 1.654812545e-01, -2.896331847e-01, 
    8.279822767e-03, -4.758128431e-03, 8.774506301e-02, 8.050969802e-03, 
    1.530375630e-01, 1.326287538e-01, 4.933436513e-01, -8.028194308e-02, 
    -2.370364517e-01, 3.354201615e-01, -4.709646106e-02, -2.127579786e-02}, {-1.808919907e-01, -1.320670992e-01, -6.830951571e-02, 1.765652746e-01, 
    1.311625838e-01, 7.870354503e-02, -3.555556834e-01, -1.714763641e-01, 
    -8.455198258e-02, 1.804460771e-02, 1.570071429e-01, 3.368806839e-01, 
    -1.037143841e-01, -1.167936064e-02, -1.218327060e-01, 2.913601100e-01, 
    2.176509053e-01, -4.629872367e-02, 1.063819230e-02, -5.006685108e-02, 
    -4.678792655e-01, 3.732087091e-02, -2.886881307e-02, 4.467454925e-02, 
    -4.991019890e-02, -9.739970788e-03, -3.599212319e-02, 1.407464743e-01, 
    1.696133912e-01, 1.373743266e-01, -3.575034142e-01, 2.320109122e-02, 
    -1.743901819e-01, -2.098661065e-01, -3.224050999e-02, 4.261100665e-02, 
    2.239717990e-01, 1.553716511e-01, -1.352178771e-02, -5.023323372e-02}, {1.967878491e-01, -1.814933680e-02, 1.371968240e-01, -1.279401928e-01, 
    7.831220329e-02, -1.080888510e-02, -9.165823460e-02, -7.976462692e-02, 
    -5.933630094e-02, 7.992947102e-02, -3.224769831e-01, 3.197600320e-02, 
    2.828198969e-01, -1.088882685e-01, 3.317023441e-02, 3.263743222e-02, 
    -1.910980940e-01, -2.721449435e-01, 8.282756805e-02, -4.122993052e-01, 
    -1.313000172e-01, 8.088991046e-02, -2.725986838e-01, -5.294402242e-01, 
    4.468648136e-02, -5.423147082e-01, 1.246718615e-01, -2.046345361e-02, 
    2.504797876e-01, -2.765632868e-01, -3.127415478e-02, 1.559882164e-01, 
    -1.940492988e-01, -4.451494813e-01, 4.410495609e-02, -2.112090588e-02, 
    -4.760862514e-02, -5.791096687e-01, 4.937865436e-01, -2.091575861e-01}, {4.747227952e-02, 1.515844315e-01, -1.016517803e-01, 5.956042185e-02, 
    1.456182748e-01, 7.854723930e-02, 3.356486559e-01, -1.530631259e-02, 
    2.243921012e-01, -4.804572463e-01, 3.549532294e-01, 6.335519999e-02, 
    1.718371361e-02, -5.066958070e-01, 4.694485664e-02, -2.170019299e-01, 
    -4.049423039e-01, 1.080050617e-01, -1.092367899e-02, 6.990820915e-02, 
    -2.904081903e-02, -1.764467359e-01, -2.200518548e-01, -4.784701392e-02, 
    1.609562635e-01, 9.821733087e-02, 6.480886042e-02, 3.913683072e-02, 
    -5.639337748e-02, -4.459865019e-02, 1.247751638e-01, -4.671454057e-02, 
    -3.056735098e-01, -3.371680975e-01, -8.397851884e-02, 6.499271095e-02, 
    -1.269927323e-01, -2.177186012e-01, -9.728003643e-04, -8.805588819e-03}, {2.474154346e-02, 2.477057576e-01, 3.820610344e-01, 1.710177511e-01, 
    -1.606578827e-01, -9.364673495e-02, -3.836387396e-01, -1.829613894e-01, 
    -3.153452277e-02, 2.943657339e-02, -3.467353582e-01, 4.100615531e-02, 
    1.870100945e-01, 1.554307640e-01, -1.436898559e-01, 7.639236003e-02, 
    1.316640675e-01, -3.419796750e-02, -7.616490871e-02, -4.537951574e-02, 
    2.666510642e-01, -1.899550483e-02, 8.136535436e-02, -1.304361075e-01, 
    2.782228170e-03, 9.362260252e-02, 1.585261822e-01, 8.010593057e-02, 
    -1.667854376e-02, 7.635971159e-02, -1.110598296e-01, -1.127505377e-01, 
    2.437179983e-01, 1.717322469e-01, 8.941974491e-02, 5.950307846e-02, 
    -2.114872634e-01, 1.778020561e-01, 3.526476920e-01, -2.943134867e-02}, {3.585258871e-02, 1.739812791e-01, -2.394206673e-01, 1.113078296e-01, 
    -1.107844114e-01, -3.040923737e-03, -5.852612481e-02, 8.934730291e-02, 
    -3.131361678e-02, -1.123704109e-02, 2.101315260e-01, 1.472731493e-02, 
    7.973398268e-02, -3.802280501e-02, 4.999277741e-02, -1.012355909e-01, 
    -1.701105088e-01, -5.609193817e-02, 6.584956497e-02, 6.108365487e-03, 
    -7.959173620e-02, -4.080261663e-02, -1.577140987e-01, 2.261576243e-02, 
    7.787615806e-02, 3.147456795e-02, -1.392603815e-01, -3.194659948e-02, 
    4.571569711e-02, -1.344384104e-01, -1.021306729e-03, 1.292173713e-01, 
    -1.213827208e-01, -9.837610275e-02, 8.331747055e-01, -8.185917139e-02, 
    2.634697855e-01, -2.818517387e-01, -1.721540838e-01, 6.531150639e-02}, {9.680034965e-02, 7.812819630e-02, 4.486354440e-02, -1.685793996e-01, 
    -1.517022997e-01, -1.744726151e-01, -5.578214675e-02, -1.826717108e-01, 
    -2.242904454e-01, 3.611462116e-01, 3.281687498e-01, -2.964183986e-01, 
    -1.495785266e-01, -1.426837593e-02, -8.969081938e-02, 1.533104330e-01, 
    1.116257068e-02, 8.797822893e-02, -2.018205971e-01, 2.388195507e-02, 
    5.377581716e-02, -1.276010735e-04, -5.176226422e-02, -3.044271171e-01, 
    -2.976312637e-01, -1.272470355e-01, 9.834798425e-02, 7.509304583e-02, 
    -5.510796309e-01, -3.268885612e-02, -6.537259370e-02, 2.451855540e-01, 
    3.335498571e-01, -1.869371235e-01, 1.422531307e-01, -5.346823484e-02, 
    -2.504878938e-01, 3.803319037e-01, 1.232083663e-01, -8.974639326e-02}, {2.295836061e-01, -1.245896742e-01, -2.211409062e-01, 1.065099332e-02, 
    -2.090656012e-02, 1.842238382e-02, 3.258623779e-01, 1.049097851e-01, 
    3.468149900e-02, -2.764736116e-01, -2.524759769e-01, -2.095236182e-01, 
    -2.551143244e-02, 2.319784015e-01, 1.170551032e-01, -1.793425083e-01, 
    -9.496131539e-02, 8.217573166e-02, -2.050274312e-01, -3.906270266e-01, 
    2.523230910e-01, 1.247206051e-02, 2.141243219e-01, -3.831167892e-02, 
    -8.382014632e-01, 1.999778152e-01, 2.305387557e-01, 1.815213859e-01, 
    -9.945102781e-02, 1.755628735e-01, -3.123736084e-01, 6.005750969e-02, 
    5.274458230e-02, -2.568627894e-01, -5.753650144e-02, -2.191594839e-01, 
    -1.855708659e-01, 2.412466258e-01, -2.735952102e-02, -6.357152760e-02}, {-8.131117225e-01, 2.317797840e-01, 7.294954360e-02, -2.007302344e-01, 
    4.234463871e-01, 1.430912962e-04, -1.536287963e-01, -1.159443855e+00, 
    1.411753744e-01, -5.097051710e-02, -3.567625582e-01, -1.018847674e-01, 
    -4.845784903e-01, -3.913050294e-01, 2.540318966e-01, 2.766581178e-01, 
    2.778533846e-02, -1.645373225e+00, -8.589911461e-01, 1.718832701e-01, 
    2.859696150e-01, -8.852558136e-01, -2.223232985e-01, -9.923979640e-01, 
    9.144604206e-01, -9.559896588e-02, 4.570261240e-01, 2.882402241e-01, 
    -2.288493067e-01, -4.613367617e-01, -2.730516195e-01, 3.784992993e-01, 
    1.719692796e-01, -7.002839446e-02, -1.236953363e-01, 3.277684450e-01, 
    1.632554680e-01, -8.582829237e-01, -5.602459908e-01, -2.793594301e-01}, {-2.597305477e-01, 2.161784768e-01, -4.677584171e-01, -8.852357976e-03, 
    -1.140638515e-01, 1.854418069e-01, 1.598998755e-01, 9.301188402e-03, 
    1.841149926e-01, -5.617766380e-01, -1.118308082e-01, -1.918905526e-01, 
    -6.552931666e-02, 2.109540701e-01, -7.785432935e-01, -8.287695795e-02, 
    -1.853546500e-01, -7.972752303e-02, -8.463779092e-02, -2.067355365e-01, 
    1.218353286e-01, 1.342185959e-02, -1.984497756e-01, 6.632342935e-02, 
    -1.981520802e-01, -8.825556375e-03, -5.962818861e-01, -4.350838810e-02, 
    2.613998950e-01, 7.346164435e-02, -1.627544016e-01, 8.181263506e-02, 
    2.076174170e-01, 3.629396856e-01, 1.163620427e-01, 4.099589288e-01, 
    -1.209325641e-01, -1.146903038e-01, 4.620202258e-02, 1.252459586e-01}, {-2.568735778e-01, -2.481898852e-02, 1.439348981e-02, -2.171445191e-01, 
    -2.077307552e-01, 4.212800413e-02, 7.428045850e-03, -3.522253782e-02, 
    -2.876637578e-01, -2.222180068e-01, 8.160874248e-03, -9.687382728e-02, 
    -3.683352098e-02, -2.563230395e-01, 2.012633383e-01, 7.185342908e-02, 
    1.643747240e-01, 2.515853010e-02, -5.056101084e-02, 2.979555726e-01, 
    -1.395303607e-01, 8.747389913e-02, -4.007784128e-01, -2.634387463e-02, 
    1.185354069e-01, 3.517331481e-01, 2.671576142e-01, -3.188728690e-01, 
    -1.735742763e-02, -9.217096120e-02, 3.477304801e-02, 2.336603776e-02, 
    -3.246533573e-01, -1.298138052e-01, 3.986452147e-02, 7.133744657e-02, 
    5.552423745e-02, 2.328745648e-02, -1.073567346e-01, 1.976147890e-01}, {2.290344611e-02, -2.609144151e-02, -3.361613154e-01, -2.522543669e-01, 
    1.298530847e-01, 1.847910881e-01, -3.537975624e-02, 2.052689344e-01, 
    3.056391180e-01, 3.646079823e-02, 4.475443438e-02, 1.987663060e-01, 
    8.885445446e-02, -6.020588800e-03, 4.004126415e-02, -1.136813015e-01, 
    3.007667959e-01, 1.451253146e-01, -2.402763665e-01, -1.043748707e-01, 
    1.110659018e-01, -9.564447217e-03, -2.041095197e-01, -1.642298251e-01, 
    -1.715539992e-01, -1.627129614e-01, 1.820089817e-01, -2.095524073e-01, 
    -6.802886724e-01, -1.836410761e-01, -9.162443690e-03, 2.350701839e-01, 
    1.315829456e-01, -2.801608741e-01, -3.407402635e-01, 4.517050833e-02, 
    6.134601310e-02, 8.746300638e-02, -6.656958908e-02, -1.575001180e-01}, {1.774505898e-02, -7.498787045e-01, 1.344166249e-01, 3.988623619e-01, 
    2.188487649e-01, 1.924376488e-01, 4.187516868e-01, 8.859730512e-02, 
    5.366317630e-01, -3.044684231e-01, -1.156391203e-01, -1.926585734e-01, 
    -2.979029119e-01, 1.469087452e-01, -3.093197346e-01, 7.289263606e-02, 
    2.020256221e-01, -3.901203573e-01, -1.685047597e-01, -6.385878921e-01, 
    4.005551934e-01, -7.233019471e-01, -2.587121129e-01, -1.165979207e-01, 
    -5.431348085e-01, -1.913817376e-01, -4.811477661e-01, 4.503747821e-01, 
    -1.175965518e-01, -1.647635698e-01, 1.180581897e-01, 2.918219566e-01, 
    -5.307418108e-01, -2.594741881e-01, -4.357624352e-01, -3.454611003e-01, 
    -2.628237903e-01, 3.891470730e-01, -3.482706547e-01, 2.217056900e-01}, {-5.059239864e-01, -3.443703651e-01, -1.423559189e-01, -2.120191157e-01, 
    4.685711861e-02, -4.301089793e-02, -3.226530179e-02, -4.578682780e-01, 
    -2.635233104e-01, 1.210424751e-01, -4.870830104e-02, -1.877030134e-01, 
    -2.406980284e-02, -8.481991291e-02, -3.230684698e-01, 2.834984958e-01, 
    7.793629915e-02, 3.732802346e-02, 3.479316086e-02, -5.462220907e-01, 
    -1.328792721e-01, 3.587150574e-02, -8.258667076e-04, 1.197357401e-01, 
    6.582723558e-02, 3.958966732e-01, -2.349302471e-01, -3.796302676e-01, 
    -1.793359220e-01, 2.337024212e-01, -1.496360451e-01, 8.035415411e-02, 
    1.616795063e-01, 9.996733069e-02, 2.086386383e-01, 2.296006382e-01, 
    1.588483453e-01, 1.175286341e-02, -3.094436787e-02, 1.655258983e-01}, {-4.991528094e-01, 2.567574680e-01, -6.012820452e-02, 6.396650523e-02, 
    5.720461532e-02, -2.274504155e-01, -8.327891827e-01, -4.287861884e-01, 
    4.822433591e-01, 4.308601320e-01, 3.092544675e-01, 2.574739754e-01, 
    1.269097924e-01, -2.097485662e-01, 5.689457059e-01, 3.618257120e-02, 
    4.197923243e-01, -1.901501060e+00, -3.998327553e-01, 1.775501370e-01, 
    -2.908549607e-01, -5.190048814e-01, -1.546612233e-01, -3.567161262e-01, 
    9.387837052e-01, -2.385605723e-01, 6.072071940e-02, -6.086195111e-01, 
    1.455591470e-01, -1.329707146e+00, -4.475409091e-01, -2.975888252e-01, 
    -7.269933075e-02, 2.534750998e-01, -4.137808979e-01, 6.846037507e-01, 
    -1.360465169e+00, -3.664929271e-01, -2.855048180e-01, -4.998388290e-01}, {-1.801414788e-01, 2.505952120e-01, 3.827949464e-01, -9.198389947e-03, 
    2.847668529e-01, 1.613635421e-01, 2.020409405e-01, -1.446211059e-02, 
    -1.776123494e-01, -4.119940102e-01, -1.454809755e-01, -8.715297282e-02, 
    -2.649432421e-01, 1.260028780e-01, 2.481697947e-01, -3.698616028e-01, 
    -2.174686491e-01, 1.057637855e-01, 5.273241177e-02, 1.260307282e-01, 
    -6.530325394e-03, -4.925469682e-02, -8.454751968e-02, -1.643345803e-01, 
    -7.449705899e-02, 1.273901910e-01, 2.110103145e-02, -1.914335042e-01, 
    -1.251939237e-01, -2.226457447e-01, -2.453079969e-01, 3.395244181e-01, 
    3.435435891e-02, 3.300533071e-02, 1.207442433e-01, -1.825869828e-01, 
    -1.622217596e-01, -2.799832225e-01, 2.599362731e-01, 1.450776905e-01}, {2.072979808e-01, -2.491810471e-01, -5.935245752e-01, -2.971403003e-01, 
    -2.039784789e-01, -5.289340019e-01, -3.695032895e-01, -1.647887379e-01, 
    1.919917017e-01, 1.236850545e-01, 2.329351455e-01, -2.937563658e-01, 
    4.376319423e-02, 2.344343960e-01, -2.288094610e-01, 2.172470391e-01, 
    -3.538685441e-01, 2.259844989e-01, -4.348125160e-01, 3.056325912e-01, 
    3.119730949e-01, 3.042245470e-02, 5.680932477e-02, -1.553075612e-01, 
    -6.243261695e-01, -2.244549543e-01, -4.148605838e-02, -1.447479725e-01, 
    -1.292925328e-01, 2.089304775e-01, -7.608415931e-02, 3.139886558e-01, 
    1.782190502e-01, -4.876081645e-01, -1.670433581e-01, 2.724201232e-02, 
    -3.403131366e-01, -2.269209921e-02, 9.259913117e-02, 7.359886914e-02}, {-9.537781775e-02, -2.192729861e-01, -6.157926843e-02, -2.027316950e-02, 
    3.440706730e-01, 4.508644044e-01, 5.016881227e-01, -3.245456815e-01, 
    -6.114692241e-02, 1.168652400e-01, 1.169784516e-01, -7.666084170e-02, 
    -1.463848352e-01, -2.167574167e-01, -1.818226725e-01, -9.943367541e-02, 
    -1.899464577e-01, 1.004955471e-01, -1.557779014e-01, 1.694556028e-01, 
    3.609193265e-01, -2.631821036e-01, -1.845829785e-01, -2.633805573e-01, 
    -5.565751791e-01, -1.192110404e-01, -3.046800792e-01, 8.768463135e-02, 
    -3.006881475e-01, -2.237162143e-01, -8.767814040e-01, 7.845623046e-02, 
    1.424883306e-02, 2.884638608e-01, -1.986074448e-02, -1.755474359e-01, 
    -1.985460706e-02, 2.960522845e-02, -7.440972328e-02, 1.288974136e-01}, {1.261886060e-01, -1.506307628e-02, -1.980267465e-01, -1.809088886e-01, 
    -2.173767537e-01, -9.010688961e-02, -4.338749945e-01, -1.611607149e-02, 
    -1.519321948e-01, -1.793061756e-02, -1.587817371e-01, 9.100184590e-02, 
    2.178550661e-01, -4.648751765e-02, -1.782405823e-01, -4.447164759e-02, 
    -1.363996118e-01, -9.091999382e-02, -4.648973420e-02, -1.312827617e-01, 
    1.600625739e-02, 3.900732845e-02, -1.599573344e-01, -8.783937083e-04, 
    1.438596398e-01, 2.635739371e-02, -2.206081599e-01, 2.660613358e-01, 
    1.966720074e-02, -7.985647768e-02, -3.508357331e-02, 1.908846945e-01, 
    1.557929963e-01, 2.454407662e-01, -1.246988997e-01, -1.310654432e-01, 
    1.127928495e-01, -2.052925676e-01, 2.420348823e-01, -1.287882775e-01}, {-8.386924863e-02, 2.537588477e-01, -1.342678368e-01, -1.554518342e-01, 
    -5.134726316e-02, 1.038604081e-01, 5.451213568e-02, 1.840991229e-01, 
    2.490616441e-01, -2.338778675e-01, 5.493404344e-02, 1.828902513e-01, 
    2.191780657e-01, 1.489864588e-01, 4.042671993e-02, -1.114718467e-01, 
    -4.175792038e-01, 1.401641220e-01, -1.052153856e-01, 1.922665909e-02, 
    6.492301822e-02, -7.758871466e-02, -1.261292957e-02, -1.931216419e-01, 
    1.751009673e-01, 1.593568623e-01, -1.707687043e-02, 8.662182838e-03, 
    1.906454004e-02, -6.261960417e-02, -1.659309268e-01, -9.884233028e-02, 
    -2.916215546e-02, -9.537158161e-02, -3.660975024e-02, -7.068613917e-02, 
    -2.008952200e-01, 2.437127084e-01, -8.959966898e-02, -3.068747222e-01}, {2.804619372e-01, -5.907835960e-01, 8.552265912e-02, 1.578125805e-01, 
    1.522997320e-01, 1.274633110e-01, 2.683599591e-01, -2.134471238e-01, 
    1.743155718e-01, 5.034034252e-01, -1.194557920e-01, -1.383480579e-01, 
    2.291444093e-01, -7.560607791e-02, -3.240295053e-01, -4.550224245e-01, 
    -2.677847445e-01, -6.798031181e-02, -1.134720519e-01, -1.841223054e-02, 
    -4.577038586e-01, -2.519455254e-01, -7.131751627e-02, -2.799819596e-02, 
    -1.212944537e-01, -5.569281578e-01, 1.100269258e-01, -2.780706882e-01, 
    1.185457408e-01, -1.561432332e-01, 1.559964716e-01, -3.623412251e-01, 
    1.738602966e-01, -8.019593358e-02, 8.238490671e-02, 2.054402977e-01, 
    -4.122857749e-01, -1.636076421e-01, -2.487833239e-02, 3.562633991e-01}, {1.444380358e-02, 3.634583056e-01, 1.188252419e-01, 8.422914892e-02, 
    4.504083395e-01, 2.941423357e-01, 1.051455513e-01, 1.994464844e-01, 
    -6.811089814e-02, 1.534094214e-01, 1.915518045e-01, 5.877745897e-02, 
    2.270366102e-01, -1.842767745e-01, 8.722699434e-02, -2.357266694e-01, 
    6.988300383e-02, -5.598570704e-01, -5.441856012e-02, -2.141756378e-02, 
    -3.442964330e-02, -2.370266169e-01, 2.721695229e-02, -4.407777488e-01, 
    -7.903822660e-01, -4.096461460e-02, -5.715601444e-01, -1.152640283e-01, 
    -3.945257515e-02, 4.992139339e-02, -2.201707065e-01, 1.384353638e-01, 
    1.485815495e-01, 1.628672928e-01, -2.098393291e-01, -8.044544607e-02, 
    -1.497937832e-02, -2.155852467e-01, -1.200767234e-01, -3.288944066e-02}}};

const float bias_hid_nz[NUM_HIDDEN_LAYERS-1][NUM_NODES] = {{-3.798033670e-02, -9.276627749e-02, -1.513896137e-01, -1.423007250e-01, 
    -1.825504005e-02, -1.449916959e-01, -1.475602090e-01, 2.831605375e-01, 
    -9.691073745e-02, 1.107237116e-01, 7.061184943e-02, -5.336018279e-02, 
    1.060502753e-01, -5.448766798e-02, 3.060859255e-02, -1.149488464e-01, 
    -9.229421616e-02, 1.552368402e-01, -3.112582564e-01, 7.634352427e-03, 
    6.665342301e-02, -8.950620890e-02, 1.353744045e-02, -9.868546575e-02, 
    3.679981455e-02, 1.741806716e-01, 8.539737761e-02, -2.145241015e-03, 
    -2.760708891e-02, -1.277975440e-01, 7.406324614e-03, 6.774196774e-02, 
    -3.437104821e-02, -4.878748674e-03, -1.197937056e-01, -7.517389953e-02, 
    2.631049454e-01, 4.174786806e-02, 3.870449215e-02, -1.914436668e-01}};