#include "nn_parameters.h"

const int num_nodes_vec[NUM_LAYERS] = {10, 40, 40, 4};

// NN network parameters -- atribute values
const float weights_in[NUM_NODES][NUM_STATES] = {{-9.191027284e-01, -4.491525292e-01, 1.412553787e-01, -8.027249575e-01, 
    -3.005608022e-01, 1.974425763e-01, -5.599015206e-02, 4.232081473e-01, 
    -3.066156618e-02, 5.886263251e-01}, {2.980459929e-01, -5.125763416e-01, -1.972692609e-01, 1.430783868e+00, 
    -7.123638988e-01, -2.509103119e-01, 8.808348775e-01, 4.373904169e-01, 
    1.969509423e-01, 9.698126912e-01}, {6.139573455e-02, 2.567199230e+00, -6.551068276e-02, -7.553118467e-01, 
    1.340109110e+00, -5.907024443e-02, 5.828580856e-01, 1.524873376e-01, 
    -3.914611042e-02, -2.339056492e+00}, {8.190976977e-01, 2.396032333e+00, 2.606014490e+00, 8.391876817e-01, 
    1.056623936e+00, 2.854195833e+00, -1.144471884e+00, -4.090057611e-01, 
    -1.267552257e+00, 2.251011848e+00}, {-7.454756498e-01, 4.533651173e-01, 4.734343663e-02, -3.276970983e-01, 
    -4.632903337e-01, 3.499577567e-02, -8.615342975e-01, 3.208803535e-01, 
    2.720655799e-01, 3.163381219e-01}, {-4.485667683e-03, -2.657735944e-01, 3.753335029e-02, -3.781712949e-01, 
    -2.012956440e-01, -1.678410918e-02, 4.498563111e-01, 4.111135602e-01, 
    -1.241397738e+00, 8.689739108e-01}, {1.136042833e+00, -8.302039653e-02, -1.534984261e-01, 5.370029807e-02, 
    8.283621632e-03, -1.491624266e-01, 2.008407414e-01, 1.824848950e-01, 
    -4.751586616e-01, -2.691402733e-01}, {-2.154224319e-03, -5.481779575e-01, 1.169755757e-01, -9.588306546e-01, 
    -8.450863957e-01, 1.580820605e-02, 1.721178651e+00, 3.943738043e-01, 
    -1.916897446e-01, -2.029423714e-01}, {9.277270734e-02, 2.793172896e-01, -2.028924823e-01, 2.388819158e-01, 
    3.054988571e-02, -2.781060040e-01, -2.750626504e-01, -1.889974624e-02, 
    1.281908274e+00, -4.763594568e-01}, {1.340271235e+00, 1.295126677e+00, 1.308931503e-02, 1.535511732e+00, 
    5.186324120e-01, 1.714453846e-02, -8.168652654e-01, -6.886316091e-02, 
    -8.637165427e-01, 1.326823831e-01}, {2.402783334e-01, 1.662174314e-01, 1.601839066e-02, -1.269960701e-01, 
    1.026780531e-01, 7.617147639e-03, -2.698212862e-01, -6.166259050e-01, 
    -2.357081324e-01, 1.116703272e+00}, {2.652350962e-01, 5.511966720e-02, 7.454532385e-02, 6.129663587e-01, 
    4.488334060e-02, 7.078956813e-02, 8.258497119e-01, 5.616919994e-01, 
    -3.769756854e-02, 3.500451148e-01}, {2.338629961e-01, 5.467199087e-01, -2.793379724e-01, 3.904970288e-01, 
    1.983110756e-01, -3.302806616e-01, -2.208961695e-01, -1.324486639e-02, 
    -1.836489439e-01, -6.808199286e-01}, {2.925037444e-01, 1.002297878e+00, 4.567371681e-02, 5.516976118e-01, 
    5.340116024e-01, 8.823931217e-02, 7.345887423e-01, 4.141051769e-01, 
    1.530842781e-01, 6.036826372e-01}, {1.213685393e+00, -7.015904188e-01, 1.538098305e-01, 7.343386114e-02, 
    -7.173769951e+00, -4.074189067e-01, -6.293113232e-01, -1.217024088e+00, 
    7.138828039e-01, -5.698783398e+00}, {-8.340038657e-01, -6.758350730e-01, -4.245848581e-02, -7.161918283e-01, 
    -4.414882064e-01, -8.216194808e-02, -4.672576487e-01, 5.407016873e-01, 
    -1.073586270e-01, -1.395234942e+00}, {-6.136081815e-01, 2.729736567e+00, -3.607172072e-01, -2.251364470e+00, 
    -3.096254110e+00, 7.989953458e-02, -5.459978580e-01, 2.558628321e+00, 
    1.632533818e-01, -2.096857071e+00}, {-4.885483265e+00, 6.369431615e-01, 3.707437217e-01, 5.146730542e-01, 
    5.451958776e-01, 1.233210489e-01, 3.255912066e-01, 1.435962617e-01, 
    1.505539656e+00, 7.075799108e-01}, {-3.164259344e-02, 2.070049793e-01, 1.505954862e-01, -3.098638654e-01, 
    2.121715546e-01, 1.554657221e-01, -3.376767337e-01, 1.377983391e-01, 
    -3.126550615e-01, -1.506259143e-01}, {-2.086076975e+00, 1.060801029e+00, 2.777819708e-02, -1.662990570e+00, 
    2.489090860e-01, 6.934748497e-03, -5.255231857e-01, -1.651988029e-01, 
    -3.040381707e-02, 2.554762661e-01}, {3.315402031e+00, -8.946515083e+00, -6.281511784e-01, -4.824518681e+00, 
    2.454992771e+00, -4.956171215e-01, -6.047238708e-01, -7.983458638e-01, 
    -1.907971978e+00, 4.817645252e-01}, {1.469090223e+00, -2.759664297e+00, -7.551112771e-02, 6.964122057e-01, 
    -1.033703327e+00, 1.607084833e-02, -5.197641850e-01, -5.939070135e-02, 
    4.886723310e-02, -9.959917665e-01}, {1.764520764e+00, -9.600118995e-01, -2.957950346e-02, 6.858047247e-01, 
    -4.273373187e-01, 1.862398535e-02, -1.400083303e-01, 1.098343059e-01, 
    2.263683975e-01, 1.058938742e+00}, {-2.364804782e-02, -4.053737819e-01, 6.146835629e-03, -4.867969453e-02, 
    -1.153619051e+00, 1.076481119e-01, 2.314273834e+00, 4.234220684e-01, 
    -1.273864955e-01, -1.856557965e+00}, {5.470906734e+00, 4.737404823e+00, -1.496402323e-01, 1.059601903e+00, 
    -6.139476299e-01, -2.392875254e-01, -2.393741310e-01, 5.335212946e-01, 
    -2.164723277e-01, 1.157764554e+00}, {-1.482117653e+00, -1.890675306e+00, 1.100721806e-01, -8.583114743e-01, 
    -6.940928698e-01, 1.824999005e-01, 1.180369377e+00, -7.294239104e-02, 
    -2.262364700e-02, -5.294535756e-01}, {-1.708610952e-01, -3.299681246e-01, 7.531102002e-02, -8.893643618e-01, 
    -1.019813776e+00, 9.061581641e-02, 2.852092743e+00, 1.004654989e-01, 
    -3.845577240e-01, -1.883230925e+00}, {1.018177748e+00, -8.339884132e-02, -1.735153049e-01, 3.388304710e-01, 
    -2.571596801e-01, -2.010525912e-01, 1.557961226e+00, 3.005851507e-01, 
    -1.777532101e-01, -6.318655014e-01}, {-2.308420986e-01, -5.311488509e-01, -6.481876373e-01, -6.408172846e-02, 
    -3.666196465e-01, -7.419335246e-01, 6.697256118e-02, -3.890240788e-01, 
    2.584581375e-01, -5.036116242e-01}, {-2.327630520e-01, -2.077130973e-02, 5.593572184e-02, -9.196984768e-02, 
    3.839967251e-01, 5.153680220e-02, 1.805343270e+00, 8.440690041e-01, 
    -1.652217284e-02, -3.305498958e-01}, {-4.897239506e-01, 1.161333919e+00, -3.870260715e-01, 4.148726165e-02, 
    1.457258582e+00, -4.537273645e-01, -8.841183782e-01, 6.550320387e-01, 
    6.157013774e-01, 1.384499907e+00}, {-1.876590848e+00, -9.106799960e-01, -3.056143820e-01, 5.606790543e+00, 
    3.423314095e+00, -3.201856315e-01, -4.414622784e-01, 2.429928184e-01, 
    -6.797977686e-01, -7.103748798e+00}, {-5.950635672e-01, -6.644782424e-02, -1.864656247e-02, -8.520346284e-01, 
    -8.706961274e-01, 4.803305119e-02, 4.669522345e-01, 1.011248231e+00, 
    2.208965868e-01, 2.107740939e-02}, {1.345827222e+00, -9.267293662e-02, 6.499064714e-02, 2.988769710e-01, 
    -1.027993709e-01, 6.837343425e-02, 5.262147784e-01, 5.370697379e-01, 
    1.663893275e-02, 2.720395923e-01}, {-1.042550802e-01, -6.333018094e-02, -9.698708542e-03, -1.592322439e-02, 
    4.172578752e-01, -2.535145544e-02, 1.029832840e+00, 1.244750544e-01, 
    -7.690593600e-02, 2.299784124e-01}, {3.571823835e-01, 1.488237176e-02, 4.031020403e-02, 4.159657657e-01, 
    6.831100583e-01, -1.023413613e-02, -5.960402489e-01, -3.724683225e-01, 
    1.845280230e-01, -1.173775196e+00}, {3.779295981e-01, 5.041094422e-01, 2.047071308e-01, -1.352421790e-01, 
    -4.417013824e-01, 1.911802441e-01, 1.062994480e+00, -8.051978797e-02, 
    -6.609197855e-01, -1.316544294e+00}, {3.946810365e-01, -3.880238235e-01, 3.285300732e-02, -6.585822701e-01, 
    -8.776907325e-01, 1.840143278e-02, 1.977656007e+00, -5.202405453e-01, 
    -6.483675838e-01, -9.482220411e-01}, {1.216410324e-01, -6.355608106e-01, -1.473572850e-01, 1.148168802e+00, 
    3.863720894e-01, -2.590149045e-01, 5.140689611e-01, -1.373071194e+00, 
    4.339980185e-01, 1.083166718e+00}, {5.768040419e-01, -2.418004423e-01, 2.500652373e-01, 3.683503270e-01, 
    -8.779153973e-02, 2.264075428e-01, 8.052146435e-01, -2.735553384e-01, 
    2.377792746e-01, -1.067314863e+00}};

const float bias_in[NUM_NODES] = {-5.852340907e-02, -1.168467402e-01, 1.569732875e-01, 3.601039052e-01, 
    1.108837053e-01, -8.353576995e-03, 8.946254849e-03, 6.467065215e-02, 
    6.423155218e-02, 5.065085888e-01, -3.018865362e-02, -1.540360749e-01, 
    5.649153888e-02, 7.147700340e-02, 9.939654469e-01, 4.017062783e-01, 
    -3.100543618e-01, 5.069643855e-01, -5.970395356e-02, 1.252522506e-02, 
    -3.447966874e-01, 3.469623327e-01, 7.225632668e-02, 2.414202690e-02, 
    -2.783287168e-01, 2.477353364e-01, 1.441677064e-01, 5.938342586e-02, 
    -1.439925469e-02, -1.605588198e-01, 4.277933240e-01, 5.666524544e-02, 
    -1.637745202e-01, -1.558030695e-01, 1.465254873e-01, 1.126259342e-01, 
    4.128981829e-01, 1.791676879e-01, 8.423435688e-02, 3.169153631e-01};

const float weights_out[NUM_CONTROLS][NUM_NODES] = {{1.785035990e-02, -2.533591539e-02, 5.675660446e-03, -3.543467261e-03, 
    -1.470378935e-01, 1.093113646e-01, -5.263280496e-02, 1.407752484e-01, 
    -3.081575036e-02, 2.385536581e-01, 8.855397813e-03, 2.921506390e-02, 
    -2.037701309e-01, 8.021195419e-03, -1.490611583e-01, 5.413777381e-02, 
    -1.707241982e-01, -5.028418452e-02, -7.615322620e-02, -2.603494003e-02, 
    6.275635958e-02, -1.358805690e-02, 3.946777061e-02, -2.003357559e-02, 
    -1.482064091e-02, 2.531103194e-01, 4.439704493e-02, -9.170826524e-02, 
    -1.726607531e-01, -1.446925253e-01, 1.384725869e-01, 1.184920408e-02, 
    -1.745029092e-01, -7.013329305e-04, 1.341285277e-02, 7.642208040e-02, 
    9.324622154e-02, 8.292882703e-03, -1.541077495e-01, -4.249957949e-02}, {8.541892767e-01, -1.963979304e-01, 3.174708784e-02, -3.028958105e-02, 
    9.399854392e-02, -2.378758490e-01, -4.232546091e-01, 1.611806005e-01, 
    2.166858763e-01, -1.885676757e-02, 3.870067000e-02, 2.651523948e-01, 
    -2.860947549e-01, 2.069110572e-01, 1.654087007e-01, -2.832406461e-01, 
    -9.816616774e-02, -1.815433502e-01, -1.495410353e-01, -2.870173156e-01, 
    -1.143187210e-01, -3.724469244e-01, 2.511544526e-01, -1.521352828e-01, 
    2.584316730e-01, 1.758897454e-01, -1.109371632e-01, 1.302930266e-01, 
    1.064050868e-01, -2.102770805e-01, -8.714443445e-02, 2.349687070e-01, 
    1.027478129e-01, -1.936088651e-01, 1.245165169e-01, -1.626267582e-01, 
    -1.590426564e-01, -7.513375580e-02, 1.008741558e-02, -5.807990432e-01}, {-4.690987170e-01, -2.358560450e-02, 7.826355845e-02, -2.990837581e-02, 
    -1.892503947e-01, -4.793920368e-02, 2.469781041e-01, 2.472313792e-01, 
    2.670015097e-01, 7.848614454e-02, 1.438749116e-02, 4.852113426e-01, 
    7.737766206e-02, 1.473235011e+00, 1.779697388e-01, -2.938199043e-01, 
    1.667545289e-01, -3.141412139e-01, 3.898744881e-01, 4.513693601e-02, 
    1.562938988e-01, -9.212650061e-01, 1.911381781e-01, 2.221456915e-02, 
    -2.446938753e-01, -3.448660374e-01, -1.459527612e-01, -1.836924404e-01, 
    1.516462117e-01, 8.369234204e-02, 2.019124031e-01, 2.420351952e-01, 
    -3.029454350e-01, -3.089987636e-01, 1.815873012e-02, 1.699291766e-01, 
    1.515943110e-01, 4.089079425e-02, -6.008924171e-02, -5.473219790e-03}, {5.316535234e-01, -2.001754522e+00, -6.321798563e-01, 7.323269248e-01, 
    1.234997660e-01, -3.485992551e-01, 2.672471404e-01, -2.045535296e-02, 
    -2.230898887e-01, 1.351123303e-01, -6.114976406e-01, -1.738640666e-01, 
    -5.593555793e-02, 6.998637319e-01, -9.812138230e-02, -2.520143688e-01, 
    1.399009824e-01, -3.912906945e-01, 1.975208223e-01, 1.844828129e-01, 
    1.254033446e-01, 1.386380434e+00, 1.391655058e-01, -8.567420393e-02, 
    7.224569563e-03, -1.661947817e-01, -1.001146361e-01, -3.608855233e-02, 
    7.418119907e-02, -2.213587798e-02, -1.695416123e-01, 1.625639647e-01, 
    8.004309610e-03, 3.988502026e-01, 5.972553790e-02, -8.579397947e-02, 
    2.640597522e-01, -7.548759580e-01, 4.802795127e-02, -2.826087177e-02}};

const float bias_out[NUM_CONTROLS] = {1.827534521e-03, -6.376348436e-02, -2.180090174e-02, -3.264209256e-02};

const float in_norm_mean[NUM_STATES] = {-4.343539250e-02, 1.577374618e-02, 7.901749701e-04, 2.140842432e-02, 
    -8.420398450e-03, -1.263275607e-03, 8.694620651e-01, -2.696817635e-02, 
    2.799566561e-02, -3.350002026e-03};

const float in_norm_std[NUM_STATES] = {3.667197481e+00, 3.722810334e+00, 2.434699531e-01, 1.718061063e+00, 
    1.741236772e+00, 3.562725651e-01, 1.787383439e-01, 8.273490680e-02, 
    8.293838643e-02, 4.436690690e-01};

const float out_norm_mean[NUM_CONTROLS] = {6.777925428e-02, -2.144705847e-03, -1.010742283e-03, 3.040039801e-03};

const float out_norm_std[NUM_CONTROLS] = {3.666124121e-01, 2.950232868e-01, 2.919022194e-01, 4.551559749e-01};

const float out_scale_min[NUM_CONTROLS] = {-8.602839172e+00, -1.055731437e+01, -1.433268913e+01, -3.390152086e+00};

const float out_scale_max[NUM_CONTROLS] = {8.591858486e+00, 1.622495409e+01, 1.010166997e+01, 3.860913413e+00};

const float weights_hid[NUM_HIDDEN_LAYERS-1][NUM_NODES][NUM_NODES] = {{{-9.088143706e-02, -3.212727904e-01, 1.509303302e-01, -2.024008483e-01, 
    9.778764099e-02, -4.358818531e-01, -2.812558711e-01, -8.307046443e-02, 
    -5.621296167e-01, -3.566510677e-01, 1.120635271e-01, 3.459676867e-03, 
    4.240689278e-01, 2.063908130e-01, -5.247709155e-01, -5.740648508e-01, 
    -8.871598244e-01, -2.582333386e-01, 3.440257609e-01, -1.873697191e-01, 
    -5.072013736e-01, 4.424735159e-02, -4.196152389e-01, 4.443214238e-01, 
    -3.282336593e-01, -1.550730318e-02, 2.015450895e-01, 3.682602942e-01, 
    1.430904400e-02, -8.826486766e-02, 9.565293044e-02, -4.458896220e-01, 
    -5.404102802e-01, 1.201601550e-01, 2.137055397e-01, 7.208163291e-02, 
    2.160355002e-01, 5.485433713e-02, -3.212344646e-01, 4.723567963e-01}, {-5.859183073e-01, 3.580354750e-01, -7.798374891e-01, -1.276159883e+00, 
    -7.647725344e-01, 3.200098276e-01, -2.394761741e-01, 6.885672212e-01, 
    -2.867978513e-01, -8.377485871e-01, -1.260342151e-01, 1.375781000e-01, 
    -3.635230958e-01, 2.336635888e-01, -1.546539545e+00, -8.889304399e-01, 
    -8.705994487e-01, -6.849282980e-01, -4.911588971e-03, -6.260504127e-01, 
    -1.412602663e+00, -1.107410073e+00, -1.133225262e-01, 5.460901260e-01, 
    -9.543540478e-01, -1.266880892e-02, 8.468301892e-01, 7.514101267e-01, 
    -4.352329969e-01, 5.231444836e-01, -1.074702978e+00, -1.696499586e+00, 
    -1.549905688e-01, 1.613594890e-01, 5.976337194e-01, -1.061714530e+00, 
    2.541801631e-01, 8.436897993e-01, 5.754511431e-02, 3.915556967e-01}, {2.289862633e-01, -1.860811561e-01, 4.631312191e-01, -1.176408231e-01, 
    2.571973801e-01, -1.063407771e-02, -2.558855414e-01, -2.931503356e-01, 
    1.052242294e-01, 1.116881147e-01, 5.937353373e-01, 9.970635176e-02, 
    -2.133667320e-01, -3.773871660e-01, -2.845431119e-02, 1.944086403e-01, 
    -1.108799949e-01, -1.837059855e-01, 1.018925607e-01, -4.180431664e-01, 
    -2.940756083e-01, -9.140934348e-01, 4.659277797e-01, -6.680586189e-02, 
    -3.413191736e-01, -2.679648101e-01, 1.894047558e-01, 1.852409095e-01, 
    -3.739069030e-02, -1.209361702e-01, -6.462540030e-01, -9.395101108e-03, 
    -4.240180552e-02, 2.745927572e-01, 2.386008948e-01, -7.295969874e-02, 
    -1.528749466e-01, -8.978541940e-02, -3.873784840e-02, 6.187764555e-02}, {-1.435232759e-01, -1.698706448e-01, 2.588945627e-01, -6.004422903e-01, 
    -1.704941392e-01, 4.386493862e-01, 3.461964428e-01, -2.768680453e-01, 
    4.806330502e-01, 9.622569382e-02, 1.109955311e-01, -1.014492214e-01, 
    1.817865297e-02, -3.625036776e-01, -1.235235259e-01, 9.565924108e-02, 
    -1.892175823e-01, -6.124680638e-01, -9.485357441e-03, -4.709571898e-01, 
    -4.575351477e-01, 1.077074036e-01, -1.420663595e-01, 3.652017117e-01, 
    -9.246945977e-01, -6.780224293e-02, 6.513728201e-02, -1.116753891e-01, 
    -1.980038583e-01, 1.634127796e-01, 7.880251855e-02, -1.426633745e-01, 
    1.349693835e-01, -2.306561023e-01, 2.093251944e-01, 9.063039720e-02, 
    -1.082641855e-01, 6.122525781e-02, -1.658789963e-01, 4.202961624e-01}, {5.202444643e-02, -7.224824280e-02, -7.136200368e-02, 6.128347665e-02, 
    -7.994763553e-02, -2.527782023e-01, 2.036827654e-01, -6.926064938e-02, 
    -8.484032005e-02, -2.387309074e-02, -3.407859476e-03, -1.827184558e-01, 
    -1.553202718e-01, -2.142746374e-02, -2.106853295e-03, 3.154425919e-01, 
    7.378938049e-02, -6.435819715e-02, 9.165758267e-03, -1.122348309e-01, 
    2.421623329e-03, -1.844382472e-02, -1.081525385e-01, -4.037585855e-02, 
    8.822442032e-03, -1.940920949e-01, 6.149247289e-02, -8.879330754e-02, 
    -1.143100634e-01, -1.383151114e-01, 9.096297622e-02, -5.906043947e-02, 
    -3.688834906e-01, 7.149972767e-02, 2.686510980e-01, 7.932070643e-02, 
    -9.666754305e-02, 9.263970703e-02, -1.513102204e-01, 2.402007580e-02}, {-3.264329433e-01, -3.193829581e-02, -2.722450793e-01, -1.967007965e-01, 
    -3.725932837e-01, 2.455349080e-02, 9.714033455e-02, 1.872164905e-01, 
    -2.986708879e-01, -7.476878911e-02, -1.654820442e-01, -1.027962714e-01, 
    1.239457205e-01, -4.316837788e-01, -1.047536731e-01, 2.000576109e-01, 
    -3.671611473e-02, 7.259358466e-02, 9.491428733e-02, -3.049742877e-01, 
    -1.260656714e-01, -2.301666439e-01, 1.517576873e-01, 8.620598912e-02, 
    -3.360072374e-01, 1.663797200e-01, 2.171103358e-01, 3.023806512e-01, 
    -2.841729224e-01, -8.717849851e-03, -3.468193412e-01, -2.661389410e-01, 
    3.886873275e-02, 2.261357754e-01, 3.456924483e-02, -2.858273387e-01, 
    7.488138974e-03, 1.133416444e-01, 9.314864129e-02, -4.436630905e-01}, {-1.981801093e-01, 2.483600974e-01, -1.833712161e-01, 5.491262302e-03, 
    -1.493685097e-01, 1.176721603e-01, 9.341870993e-02, -1.235225052e-01, 
    -1.346522570e-01, -1.512760669e-01, -1.406011879e-01, -4.498313740e-02, 
    4.958909377e-02, -1.744834185e-01, -3.521385416e-02, 2.812006474e-01, 
    4.386200756e-02, -8.097541332e-02, 7.511223853e-02, -2.890198231e-01, 
    -2.730352990e-02, -2.383266985e-01, 2.783522904e-01, 7.992092520e-02, 
    -1.324080974e-01, -5.602093786e-02, 7.810953259e-02, -1.248963177e-01, 
    1.067910064e-02, -5.613124967e-01, 9.476167616e-04, -1.249805167e-01, 
    -1.533621689e-04, 1.304147542e-01, -2.816925049e-01, 2.308241427e-01, 
    9.001100063e-02, 1.388230473e-01, -1.215843111e-01, -3.571524620e-01}, {4.204043001e-02, -1.794771664e-02, -1.376195103e-01, 5.618391559e-03, 
    3.280039430e-01, 1.832792908e-01, 9.922397323e-03, 7.815700024e-02, 
    -2.376402467e-01, 7.315754890e-02, -1.158807203e-01, -1.427878588e-01, 
    -6.068292260e-02, -3.515093401e-02, 2.738680132e-02, -1.884704530e-01, 
    1.905462332e-02, -7.457599044e-02, -3.685290813e-01, -8.438627422e-02, 
    1.122839842e-02, 6.180038676e-02, 1.129764989e-01, -3.576377630e-01, 
    3.194185346e-02, -2.682066336e-02, 1.480331421e-01, -1.556876153e-01, 
    1.778077930e-01, -1.317166537e-01, 1.312709302e-01, -1.710992493e-02, 
    -5.354109406e-02, -6.467681378e-02, -2.573952675e-01, 1.218940243e-01, 
    2.249354310e-02, 7.130152732e-02, -4.544439912e-02, -2.857547998e-01}, {-1.865405291e-01, 9.790197760e-02, 1.674850471e-02, 3.515000641e-02, 
    1.785536706e-01, -1.874928772e-01, -4.894644916e-01, -5.770690367e-02, 
    -2.643189728e-01, -1.111880876e-02, -1.057414860e-01, 1.820614375e-02, 
    -5.569637194e-02, -4.820369780e-01, -4.166459292e-02, 1.878665537e-01, 
    2.866377868e-02, 5.302546173e-02, -2.677679360e-01, -2.753904760e-01, 
    4.429613799e-02, -4.353148341e-01, 3.645430505e-01, 3.434711397e-01, 
    -5.732736737e-02, -1.965635270e-01, -1.814798862e-01, -1.433723867e-01, 
    -5.493352935e-02, 7.942490280e-02, 6.425566971e-02, -2.889852785e-02, 
    -2.820048854e-02, -5.249816775e-01, 2.380152643e-01, -2.502641082e-01, 
    5.308439210e-02, 1.124712452e-01, 2.790423669e-02, 2.595410347e-01}, {1.025706604e-01, 2.801917121e-02, -6.523817033e-02, -1.514093950e-02, 
    -1.656448245e-01, -2.404318564e-02, 3.899597377e-02, -9.579361975e-02, 
    1.255140826e-02, 1.133314967e-01, -2.550112307e-01, -2.458033860e-01, 
    1.637566388e-01, -9.379303455e-02, 1.157146506e-02, 1.453039646e-01, 
    6.862969697e-02, 3.360305354e-02, -3.191029280e-02, -8.806928992e-02, 
    -1.774074696e-02, -3.627245873e-02, -1.432895311e-03, -1.822661161e-01, 
    -2.324306406e-02, -1.927942969e-02, -2.391536161e-02, 1.690279841e-01, 
    2.491725087e-01, 1.393479705e-01, 2.077055275e-01, -5.921419337e-02, 
    1.987981983e-02, 4.871172458e-02, -9.579755366e-02, -1.245333627e-01, 
    -2.425251901e-01, -1.036128029e-02, -2.209634893e-02, 3.442966193e-02}, {9.200679511e-02, -5.100135207e-01, -4.479589164e-01, -4.720466733e-01, 
    1.297676414e-01, 3.286937773e-01, -2.600422874e-02, 3.676728904e-01, 
    5.742264986e-01, -1.324126571e-01, 6.899653003e-03, 1.567454487e-01, 
    -1.700988561e-01, 2.735042870e-01, -4.317675829e-01, -3.042444289e-01, 
    -6.220406294e-01, -7.563417554e-01, 3.196853101e-01, -1.662258618e-02, 
    -5.982366800e-01, -2.705624998e-01, 2.732300460e-01, -3.817088604e-01, 
    -6.458870173e-01, -1.964244395e-01, 1.163134426e-01, 1.853374690e-01, 
    2.058546692e-01, 4.656897187e-01, -2.234489620e-01, -3.135117888e-01, 
    3.219847977e-01, -1.674028933e-01, 3.887944221e-01, 6.037272885e-02, 
    2.672875822e-01, 1.018010825e-01, 2.573969066e-01, -9.603422135e-02}, {-6.053274125e-02, -1.000684574e-01, 2.159731835e-02, -6.059173029e-03, 
    7.595738024e-02, 2.625690997e-01, -2.276932895e-01, 3.223495781e-01, 
    2.215556800e-02, -2.460050881e-01, 3.370636702e-01, 5.196809769e-02, 
    4.260758404e-03, -3.624979779e-02, -8.842582814e-03, -3.536302447e-01, 
    2.173455246e-02, -1.102192551e-01, -2.301233411e-01, -3.090560436e-01, 
    -4.071224853e-02, -3.829143047e-01, 8.319838345e-02, -9.093001485e-02, 
    -1.167901680e-01, -1.777867600e-02, 1.250413805e-01, -3.860814869e-02, 
    -9.039206803e-02, -9.155755863e-03, 2.636261750e-03, 7.239258289e-02, 
    3.355740905e-01, -4.634480774e-01, 2.201574296e-01, -4.799832106e-01, 
    8.200198412e-03, -2.146066427e-01, 7.596120983e-02, -4.276222587e-01}, {-1.269519143e-02, -9.770476818e-02, -1.277253330e-01, -1.953999326e-02, 
    1.341235638e-01, -2.532172799e-01, -2.026558071e-01, -2.072430402e-02, 
    6.662791967e-02, 1.223321334e-01, -2.991034091e-01, 2.073762566e-01, 
    -2.814835608e-01, 3.766863793e-02, 3.237736598e-02, -2.469978034e-01, 
    -1.269505639e-02, 2.683336847e-02, 1.397527903e-01, -7.317144424e-02, 
    -7.435654290e-03, -1.132378820e-02, 1.518708095e-02, -7.436288148e-02, 
    -1.392745972e-02, -4.879358783e-02, 5.065722857e-03, 8.260433376e-02, 
    6.665717345e-03, 9.856057167e-02, 1.244302541e-01, -2.205194347e-02, 
    -8.262409270e-02, 4.992066883e-03, -2.522166967e-01, 2.090571970e-01, 
    7.892998308e-02, -3.868294060e-01, 7.138146460e-02, -1.214631200e-01}, {1.229462549e-01, -6.019558311e-01, 6.005172729e-01, -8.819992542e-01, 
    -2.629103363e-01, 3.005397022e-01, 4.760599509e-02, 5.118811131e-01, 
    -7.776315212e-01, -1.012414336e+00, -4.676784277e-01, -1.625792235e-01, 
    -6.679112464e-02, -3.430511951e-01, -9.311745167e-01, 1.764433086e-01, 
    -7.572954893e-01, -1.476484776e+00, 1.493191123e-01, 3.484849632e-01, 
    -1.285988212e+00, -9.966491908e-02, -5.163400769e-01, 3.066127002e-01, 
    -7.393420339e-01, 7.534460425e-01, 6.375403404e-01, -4.607446492e-02, 
    1.277658343e-01, 9.016857482e-03, -6.143491268e-01, -8.905895948e-01, 
    5.210108310e-02, -2.166100144e-01, 1.064301580e-01, 9.768972546e-02, 
    2.457593083e-01, 5.767664313e-01, -7.849900126e-01, 2.481584102e-01}, {2.802886665e-01, -2.572102249e-01, 2.387038320e-01, 1.090612784e-01, 
    -1.295584887e-01, -9.102915227e-02, 1.555717457e-02, 7.393800467e-02, 
    -3.112639785e-01, 7.049174607e-02, -3.164896667e-01, -2.009439617e-01, 
    -1.420826912e-01, -2.693316936e-01, -7.439826429e-02, 9.195921011e-03, 
    -6.162139773e-02, 1.725087292e-03, -2.572751045e-01, -2.271761373e-02, 
    1.136525162e-02, 1.047361121e-01, -1.868466139e-01, -5.687530339e-02, 
    4.239336401e-02, -2.063535899e-01, 2.210021764e-01, 1.594645232e-01, 
    -2.672873437e-01, 7.752650976e-02, -1.496172547e-01, 9.257165715e-03, 
    1.358680576e-01, -8.339778334e-02, -7.253389060e-02, -1.296666563e-01, 
    -3.480124772e-01, 5.432418361e-02, -1.101481020e-01, -7.512042299e-03}, {-2.443839908e-01, 8.279380202e-02, -8.881782293e-01, 2.040840685e-03, 
    -1.248574257e-01, -1.307413727e-01, 2.750309110e-01, -3.985930979e-02, 
    2.133585513e-01, 4.195824638e-02, 3.459384739e-01, 4.680098593e-01, 
    -3.779233694e-01, -1.768956631e-01, -1.665935665e-02, -2.412809581e-01, 
    5.982350558e-02, -6.190896034e-02, -1.602459550e-01, -1.639394462e-01, 
    -5.818139017e-02, -1.813624054e-01, -4.279645160e-02, 1.155032814e-01, 
    -9.610025585e-02, -3.787873983e-01, -3.041576408e-02, 1.619224101e-01, 
    1.065549254e-01, -4.130775928e-01, 5.796422064e-02, -2.091898583e-02, 
    -1.209829152e-01, -7.614710182e-02, -4.274577796e-01, -1.483067572e-01, 
    -8.447831124e-02, 4.431909695e-02, 5.539287999e-02, -1.622793078e-01}, {-2.220296860e-02, 2.084479630e-01, 7.569947839e-02, -7.775057852e-02, 
    2.024031989e-02, -1.257849038e-01, -7.593531162e-02, 2.556674778e-01, 
    -1.601018757e-01, -3.599685431e-02, 2.931848355e-02, -5.054811388e-02, 
    -2.924278975e-01, 3.693731129e-02, 4.268562421e-03, -8.300513774e-02, 
    -5.084504187e-02, -1.131505594e-01, 7.387223840e-02, 1.978852749e-01, 
    -6.244066637e-03, -9.611538798e-02, 1.465787441e-01, 2.709881216e-02, 
    3.597382084e-02, 1.520338804e-01, 7.310125232e-02, -3.218145072e-01, 
    -3.592864871e-01, -1.095222160e-01, -1.225013062e-01, 5.737517402e-02, 
    -2.611751556e-01, -3.529691696e-02, 3.999930248e-02, -8.878297359e-02, 
    -1.688145399e-01, 1.964038163e-01, -1.679019183e-01, -1.645328701e-01}, {8.785706013e-02, -9.205839597e-03, -1.155998185e-01, -5.865669996e-02, 
    2.934220731e-01, 7.557677478e-02, 2.094271965e-02, 6.744127255e-03, 
    -2.224510163e-01, 4.969814792e-02, -1.437105983e-01, 3.877686262e-01, 
    -2.989369035e-01, -1.495467722e-01, 2.152253687e-02, -2.900475562e-01, 
    -5.426241551e-03, -1.056714579e-01, 2.123609632e-01, -6.303349882e-02, 
    1.719273441e-02, -6.572061777e-01, 1.116521880e-01, 2.507058382e-01, 
    -5.955876783e-02, -4.272405803e-01, -4.456460476e-02, -6.106226519e-02, 
    -3.715816438e-01, -1.312319189e-01, -6.099249795e-02, -1.195526589e-02, 
    2.188079990e-02, -3.257548809e-02, -1.637517363e-01, 1.194029078e-01, 
    -2.831409872e-01, 1.645726115e-01, 2.198546752e-02, 1.491292939e-02}, {-2.587114573e-01, -1.729817390e-01, -2.326747477e-01, -7.344537973e-02, 
    -6.687717885e-02, 4.491304755e-01, -6.106736064e-01, 1.908932030e-01, 
    1.979556680e-01, -4.392195642e-01, 3.997487426e-01, 7.946611196e-02, 
    -1.994670480e-01, -6.177352369e-02, -1.609201729e-01, -8.110846393e-03, 
    -7.623424288e-03, -1.444315910e-01, 5.206232145e-02, -2.123788744e-02, 
    -1.727088541e-01, -2.644475102e-01, -4.574182630e-01, -2.559543774e-02, 
    -6.088593602e-01, -1.607504487e-01, 1.986443549e-01, -6.574790925e-02, 
    -2.880255878e-01, 2.110085338e-01, 3.871622682e-02, -1.303917766e-01, 
    -1.529986262e-01, -4.229432344e-01, 4.239238501e-01, 1.830282509e-01, 
    1.815290302e-01, 6.230232120e-02, 1.581444889e-01, -5.295006186e-02}, {6.844918430e-02, 2.055422068e-01, 1.372393519e-01, 7.267589681e-03, 
    -1.838178933e-01, -5.392882600e-02, -1.461623758e-01, 4.299577326e-02, 
    -3.505407274e-02, -3.366314992e-02, 3.055219725e-02, -2.231114656e-01, 
    2.143730819e-01, -1.570135057e-01, -4.897535965e-02, 1.337583363e-01, 
    5.034664646e-02, 5.855333060e-02, 9.438699484e-02, -1.011913270e-01, 
    -2.549276920e-03, -1.683602333e-01, -2.690986395e-01, 4.376625642e-02, 
    -7.136131078e-02, -1.066519246e-01, -4.981075600e-02, -2.570559978e-01, 
    2.360501885e-02, 3.389610052e-01, -2.731309533e-01, -7.850946859e-03, 
    1.774347425e-01, -4.225715250e-02, -2.460987270e-01, 1.736162305e-01, 
    -1.689452678e-01, 1.944845766e-01, -2.971517481e-02, 1.351245940e-01}, {-3.045272231e-01, 7.538174093e-02, -6.091602519e-02, 2.683708072e-02, 
    1.020031888e-02, -1.980729960e-02, 2.586348951e-01, 1.378200203e-01, 
    -1.659137160e-01, -3.197880229e-03, -5.181536674e-01, -1.618522406e-01, 
    -1.049883738e-01, -1.343454868e-01, 1.782193966e-02, -5.066614226e-02, 
    -2.021924406e-02, -5.075325817e-02, 8.742491156e-02, 4.573344439e-02, 
    5.425276607e-02, 6.120104715e-02, -1.975786835e-01, -1.241107192e-02, 
    3.895803913e-02, 6.635428965e-02, 3.670567647e-02, 6.861726940e-02, 
    1.193202436e-01, 1.762364507e-01, 1.121303514e-01, 5.822319910e-02, 
    6.921093911e-02, 2.880541049e-02, -1.969212592e-01, 1.732003838e-01, 
    1.522841752e-01, -1.613809727e-02, -3.258850425e-02, -4.493107200e-01}, {3.228028119e-02, -1.669382304e-01, -1.733186096e-01, -1.059421062e+00, 
    -2.300570160e-01, -4.879343808e-01, -2.225523442e-01, 2.112057060e-01, 
    -2.315103449e-02, -2.217211127e-01, -6.033834219e-01, 1.754269898e-01, 
    3.245880008e-01, -2.263746411e-02, -8.544415236e-01, 3.868337572e-01, 
    -8.317448497e-01, -1.058987975e+00, -9.657352418e-02, -5.983991027e-01, 
    -1.596568584e+00, 3.543822467e-01, -2.213092744e-01, 7.943773270e-01, 
    -8.683378696e-01, 1.622888893e-01, 5.694141984e-01, 3.640924990e-01, 
    -1.420462281e-01, 4.532592893e-01, -9.405424595e-01, -9.140931368e-01, 
    -3.859607875e-01, 1.686739177e-02, -5.960717425e-02, 4.414288402e-01, 
    6.081169248e-01, 2.058774382e-01, -9.425146580e-01, 2.421672195e-01}, {3.025474548e-01, 1.401314791e-02, 5.801191553e-02, -1.862652786e-02, 
    -3.090066910e-01, 2.266657650e-01, 4.936894402e-02, 3.547014296e-02, 
    -1.025395766e-01, -1.519485861e-01, 1.056151465e-01, -1.083063856e-01, 
    2.845433354e-01, 1.867268085e-01, -4.951966181e-02, -1.507752836e-01, 
    -2.379588410e-02, 6.009313464e-02, -2.620503008e-01, 3.736701980e-02, 
    7.738774177e-03, -1.748265885e-02, -5.287029594e-02, -1.882182248e-02, 
    1.475157030e-02, 1.069472171e-02, 2.744069397e-01, -2.407579273e-01, 
    1.926939040e-01, -1.667800099e-01, -9.045309573e-02, -1.662789099e-02, 
    -8.436432481e-02, -3.842432797e-02, 4.394384846e-02, 1.411827803e-01, 
    -1.621599644e-01, 7.929722965e-02, 2.404377237e-02, -1.224483326e-01}, {-5.239982530e-02, 1.914901659e-02, 2.598024718e-02, 7.597956806e-02, 
    -2.764199302e-02, -6.037002802e-02, -9.838361293e-02, -9.534976631e-02, 
    -1.500240266e-01, -1.131880358e-01, -5.300536752e-02, 3.100899160e-01, 
    1.729249395e-02, -2.142647356e-01, -5.744951218e-02, 8.656557649e-03, 
    4.137673974e-02, 8.530241251e-02, 2.512934804e-01, -1.454471350e-01, 
    1.700499468e-02, -3.239207715e-02, 1.748042926e-02, 1.222723443e-02, 
    -9.327127598e-03, 1.258076578e-01, -5.810838193e-02, -1.197873205e-01, 
    6.696209311e-02, -1.857528538e-01, -6.579619949e-04, -1.646007784e-02, 
    -4.446507692e-01, 1.805777997e-01, -1.629517823e-01, 1.563040167e-01, 
    3.015992232e-02, 9.089309722e-02, -9.110745043e-02, 1.903777826e-03}, {-1.491174102e-01, -1.881376654e-01, -6.092291698e-02, -2.751081064e-02, 
    1.026668251e-01, -5.810259283e-02, 6.881467253e-02, 1.258743256e-01, 
    7.784216851e-02, -2.475275695e-01, 2.607489377e-02, -5.282006413e-02, 
    4.945822433e-02, 2.298638672e-01, -3.724630550e-02, -4.773415029e-01, 
    -5.137578398e-02, -6.505030394e-02, 2.354799807e-01, -9.001648426e-02, 
    -4.016574100e-02, -2.659091353e-01, -1.034234688e-01, 3.161355853e-02, 
    -2.998950779e-01, -5.683695674e-01, 1.645352133e-02, 5.058280751e-02, 
    -2.872905135e-01, -2.596789040e-02, -3.928395733e-02, 1.040358283e-02, 
    -1.940133721e-01, 1.025764942e-01, 6.922280043e-02, 2.851477563e-01, 
    2.699942589e-01, 1.447287053e-01, 1.363646835e-01, -1.248431858e-02}, {1.510123610e-01, 5.636069551e-02, -4.477085173e-02, 4.347840324e-03, 
    -1.891687214e-01, -1.415392905e-01, 1.272343099e-01, 8.587417006e-02, 
    5.529493839e-02, 1.203374658e-02, 3.467745781e-01, -5.945885554e-02, 
    7.205121964e-02, 8.374360949e-02, -5.122304335e-02, -1.677248813e-02, 
    5.193652585e-02, 1.424036082e-02, 5.388898402e-02, -7.905942202e-02, 
    -3.669342026e-02, 5.775605887e-02, -1.720969826e-01, 2.927687950e-02, 
    -7.482365519e-02, -1.041379124e-01, -9.910784662e-02, 2.353525460e-01, 
    2.992530167e-01, -2.657737434e-01, 5.992229283e-02, -5.190164596e-02, 
    -1.931300946e-02, 3.682676703e-02, 1.099482104e-01, -6.980793178e-02, 
    -1.307442635e-01, 1.388443541e-02, -1.815065593e-01, 1.194682494e-01}, {1.636270285e-01, -1.490719020e-01, -2.454653978e-01, 6.973615289e-02, 
    1.638205051e-01, -6.471292581e-03, 2.070857733e-01, 3.051149845e-01, 
    4.383488744e-02, -1.973270029e-01, -7.641203701e-03, 1.513973922e-01, 
    2.345231622e-01, 3.143947944e-02, 3.409998491e-02, 1.448096782e-01, 
    3.643368930e-02, -1.824051514e-02, 7.691335678e-02, -3.252506256e-02, 
    1.147627980e-01, 1.911772490e-01, -6.504738331e-02, 1.833374798e-01, 
    1.656062007e-01, 1.836496443e-01, -3.313376755e-02, -1.376696676e-01, 
    -8.986101300e-02, -1.101391986e-01, 2.777618468e-01, 1.293231249e-01, 
    -5.099042505e-02, -2.431723326e-01, 5.525108427e-02, -3.627979457e-01, 
    -1.870307028e-01, -6.268753856e-02, 1.245153174e-01, 1.674547419e-02}, {-1.558654904e-01, -3.880294971e-03, 2.068575621e-01, 6.027447060e-03, 
    6.513196230e-02, 7.294142991e-02, -3.411119878e-01, -5.873123556e-02, 
    7.240038831e-04, -4.449388757e-02, -1.714769751e-01, -1.842780411e-01, 
    -1.672782153e-01, -1.015832275e-01, -6.893877685e-02, 2.402005941e-01, 
    2.210621908e-02, 8.218678832e-02, 3.715632483e-02, -3.221547976e-02, 
    -5.283359811e-02, -2.064805776e-01, -1.366053522e-02, -2.891827822e-01, 
    -4.694047570e-02, 1.328488737e-01, -2.271842398e-02, -2.003083527e-01, 
    -5.845571309e-02, 7.419702131e-03, -3.572657332e-02, -7.912646234e-02, 
    8.113573492e-02, 1.131911501e-01, 4.499812052e-02, -9.306888282e-02, 
    -2.344437540e-01, 4.781804979e-02, 1.041599810e-01, 2.796085738e-02}, {2.430655360e-01, -7.081372291e-02, -1.130874380e-01, 6.057041511e-02, 
    8.732994646e-02, 1.489393413e-01, -2.760203183e-01, 5.533920228e-02, 
    -1.106292903e-01, -4.188941792e-02, 1.148506925e-01, -2.094055265e-01, 
    9.738665819e-02, -1.318325549e-01, 3.395080939e-02, -4.836406186e-02, 
    8.148750663e-02, 5.311414972e-02, -6.997083127e-02, -1.273057163e-01, 
    5.074960738e-02, 1.403295100e-01, -8.983539045e-02, -9.761741012e-02, 
    4.388125241e-02, 1.028240621e-01, -1.103636920e-01, -8.564076573e-02, 
    -2.650958002e-01, 1.437476021e-03, 9.611278027e-02, 3.115258180e-02, 
    1.486205757e-01, 2.055390924e-01, 1.022774279e-01, 6.843689084e-02, 
    -1.264806390e-01, 1.138393581e-01, -6.098672748e-02, 2.652294934e-01}, {-1.964468658e-01, 5.093297362e-01, -2.792063728e-02, 1.359131038e-01, 
    -3.088646829e-01, 4.235516116e-02, 1.798347980e-01, 2.324880958e-01, 
    7.222431898e-02, -3.050757013e-02, -1.354711056e-01, -1.889417320e-01, 
    -1.379173249e-02, -2.231869996e-01, -1.983371936e-02, 3.976218402e-02, 
    1.006141603e-01, -3.712096438e-02, -2.757331729e-01, -4.689909890e-02, 
    -5.042988062e-02, -6.495580077e-02, 1.151401177e-01, 3.739288449e-02, 
    -5.379848555e-02, 2.053191066e-01, 5.079310015e-02, 1.612259150e-01, 
    -2.647386789e-01, -4.142377377e-01, 2.256414294e-01, -1.054059193e-01, 
    1.156703942e-02, 1.523071714e-02, -3.304545581e-01, -2.865166962e-01, 
    -1.442971975e-01, -1.252311170e-01, -1.575716585e-01, -1.551677287e-01}, {-2.712585926e-01, -4.929273203e-02, 1.146142855e-01, 3.352389438e-03, 
    -3.996934295e-01, 2.545500696e-01, -1.436931342e-01, -9.530681372e-02, 
    -1.076770648e-01, -5.469077080e-02, 1.424514223e-02, 2.552144825e-01, 
    -8.900532126e-02, -1.277569085e-01, 2.011205815e-02, -2.509103119e-01, 
    2.886594832e-02, -2.632332034e-02, -8.441729099e-02, 6.011183932e-02, 
    -7.367587648e-03, -1.341128945e-01, 2.199091464e-01, -1.538496017e-01, 
    1.256995648e-02, 2.887629867e-01, 1.406669617e-01, 2.278870344e-01, 
    1.619236171e-01, -7.991793752e-02, 2.893666551e-02, 9.945251793e-02, 
    2.446176670e-02, -2.872571647e-01, -2.223264128e-01, -3.251928985e-01, 
    -2.109035850e-01, 6.876993924e-03, -2.923548222e-01, -1.967539340e-01}, {-1.260588169e-01, 7.561959326e-02, 1.974143833e-01, -1.818406768e-02, 
    -1.267723888e-01, 4.137426242e-02, -4.314396065e-03, -3.603328019e-02, 
    2.220616490e-01, 7.520538568e-02, 9.911952168e-02, 8.311474696e-03, 
    2.229180336e-01, -1.234695688e-01, 6.215379573e-03, -9.459926188e-02, 
    1.027447917e-02, -1.696352512e-01, -3.200442493e-01, -2.811066806e-01, 
    -2.476427518e-02, 5.292648450e-02, -5.681926012e-01, 2.429439276e-01, 
    -1.988851726e-01, -4.915924668e-01, -1.494791806e-01, -9.494312853e-02, 
    -2.326492816e-01, 9.618702531e-02, -1.112331003e-01, -6.814135239e-03, 
    1.383648217e-01, 2.481434681e-02, -9.948231280e-02, 1.427359600e-02, 
    2.351554334e-01, -1.156862825e-01, 7.114604115e-03, -4.109721631e-02}, {2.493868172e-01, -1.815968007e-01, -1.316164881e-01, -1.052674279e-01, 
    -1.499244273e-01, 9.631474502e-03, 2.718063071e-02, 1.984181851e-01, 
    -4.485159367e-02, -2.361438051e-02, 1.477263868e-01, 1.308389306e-01, 
    -2.056013048e-01, 4.395630211e-02, -2.587310039e-02, 5.234568194e-02, 
    -4.413858801e-02, -5.734878778e-02, 1.062527746e-01, -1.380879879e-01, 
    -8.357579261e-02, 2.021653801e-01, -2.924736142e-01, -4.089074954e-02, 
    -5.594329908e-02, -2.454413176e-01, -1.250976175e-01, -4.807716608e-02, 
    1.133639663e-01, -1.014629155e-01, 2.562349476e-02, -6.796105206e-02, 
    -1.456226856e-01, 2.425588667e-01, 9.769212455e-02, -5.287756771e-02, 
    1.747365594e-01, -2.009421885e-01, -8.640180528e-02, 2.548856735e-01}, {-4.268550873e-01, -5.864539649e-03, -1.944348812e-01, -1.052445993e-01, 
    -2.278257459e-01, 3.258901834e-02, -2.012647688e-02, 4.921862856e-02, 
    1.349282116e-01, -5.930970237e-02, -6.138991565e-02, 9.227540344e-02, 
    -2.371083498e-01, 3.403762579e-01, 4.545747489e-02, 8.703505993e-02, 
    5.551790074e-02, -2.063252032e-01, -1.245461255e-01, 4.138034582e-02, 
    -6.218770146e-02, -2.615617514e-01, -3.611810803e-01, -1.688480144e-03, 
    -2.148131728e-01, -2.025549412e-01, -2.498448342e-01, 1.235514730e-01, 
    -3.038319945e-01, -1.829102486e-01, -8.885067701e-02, 5.856007338e-02, 
    2.602598816e-02, 3.252324462e-01, -2.037169412e-02, 1.371072792e-02, 
    9.727311134e-02, 1.418525279e-01, -2.993481457e-01, 1.790219545e-01}, {5.735047162e-02, -7.512380183e-02, -6.005531922e-02, 2.513483353e-02, 
    -1.393383462e-02, -1.310847998e-01, -5.179808661e-02, -2.247352153e-01, 
    2.468159050e-01, -1.905134767e-01, -4.879700840e-01, 2.179310620e-01, 
    -2.919147909e-01, 9.371270984e-02, 3.039157949e-02, -1.371907443e-01, 
    1.112476084e-02, 4.566778615e-02, -3.334431350e-01, 2.492189854e-01, 
    9.441499412e-02, 2.493705899e-01, -4.205310345e-01, 2.208244950e-01, 
    1.259896457e-01, -4.219115898e-02, -1.819143593e-01, 2.379359901e-01, 
    1.498059928e-01, 1.255348176e-01, 3.579027206e-02, 1.517548859e-01, 
    -4.895741343e-01, 1.098086592e-02, -2.510339022e-01, 1.330521852e-01, 
    4.815018177e-02, -3.699462861e-02, -1.378679574e-01, -4.459662735e-02}, {-5.624093115e-02, 2.336417437e-01, 1.597119719e-01, -1.640559733e-02, 
    1.208330542e-01, 2.584014460e-02, 2.697747350e-01, 1.342532188e-01, 
    -3.027606606e-01, -1.578421444e-01, -3.275948465e-01, -4.305011407e-02, 
    4.767315462e-03, -3.488239348e-01, -6.571199745e-02, -2.339324914e-02, 
    1.323179901e-02, 9.731953591e-02, -6.079473719e-02, 1.751336828e-02, 
    -1.592101529e-02, -3.497040272e-02, 1.239901632e-01, -1.910429001e-01, 
    7.216653787e-03, 4.875422642e-02, -1.154497638e-01, 5.399012938e-02, 
    2.252361923e-01, -9.876108170e-02, 4.981424659e-02, -5.189700797e-02, 
    7.799120992e-02, -3.386696279e-01, 1.647416204e-01, 1.254926920e-01, 
    2.292729765e-01, -1.642818600e-01, -1.911360025e-01, 1.213715374e-01}, {1.569214016e-01, -1.272693276e-01, 2.178370655e-01, -7.766866125e-03, 
    -1.761312485e-01, -2.641764283e-01, -5.838245153e-02, -1.618409902e-01, 
    1.112453863e-01, -1.922682226e-01, -1.281081289e-01, 1.388598531e-01, 
    6.358674169e-02, -1.001226828e-01, 3.542380780e-02, -9.359207749e-02, 
    -1.661757529e-01, -9.608340263e-02, -2.396932095e-01, -1.372796297e-01, 
    -3.067975305e-02, -3.923492730e-01, -2.153961509e-01, 3.153647184e-01, 
    -7.097091079e-01, -1.085481495e-01, -2.582748532e-01, 4.618306831e-02, 
    1.175115556e-01, 4.890418798e-02, -6.868010014e-02, -7.190978155e-03, 
    3.698975965e-02, 3.259343654e-02, -8.014316112e-02, 6.763055176e-02, 
    -1.144706234e-01, 3.931825608e-02, -7.380821556e-02, 7.559273392e-02}, {2.584242821e-01, -4.628318548e-01, -6.346894056e-02, -1.399694979e-01, 
    -4.465081990e-01, -9.294123948e-02, 3.560380042e-01, 4.455375969e-01, 
    -3.587452695e-02, 1.519715488e-01, 4.693043604e-02, -9.039521217e-02, 
    1.560867671e-02, -5.378476158e-02, 1.361224502e-01, -5.220704675e-01, 
    -3.817255795e-02, -1.753075868e-01, 3.759647608e-01, -1.519486904e-01, 
    -1.281029284e-01, -2.434023172e-01, 2.028504014e-01, -5.011777878e-01, 
    -5.226528645e-01, -5.639777184e-01, -6.515254378e-01, 5.138200521e-02, 
    -6.623633504e-01, -2.713211775e-01, 7.198803872e-02, -5.403270945e-02, 
    2.492953092e-01, 5.964818001e-01, 3.818099201e-01, 8.496403694e-02, 
    1.949346364e-01, -8.754160255e-03, -2.072479576e-01, 3.005348742e-01}, {-1.346027106e-02, 5.459183082e-02, -1.858384535e-02, 1.665726900e-01, 
    -1.400753260e-01, -1.506878585e-01, -9.433121234e-02, 4.150943831e-02, 
    7.539900392e-02, -2.365119457e-01, -2.181421518e-01, 6.809902936e-02, 
    6.955055147e-02, 8.483222872e-02, -3.642119095e-02, 3.074895591e-02, 
    -1.605331339e-02, 2.580950968e-02, 2.411197424e-01, -1.428079512e-02, 
    -6.888901815e-03, -2.924126387e-02, 1.819971800e-01, 2.673692405e-01, 
    -2.530135401e-02, 1.412361115e-01, -6.502535194e-02, 1.410313249e-01, 
    -2.218298465e-01, -1.147659644e-01, -8.820113540e-02, 3.210101649e-02, 
    -2.092581689e-01, -6.473574042e-02, -1.248712838e-01, -9.309976548e-02, 
    1.246515140e-01, -1.897362322e-01, -1.764509231e-01, 1.177659631e-02}, {-2.891140580e-01, -1.148201674e-01, -9.596129060e-01, -2.355130203e-02, 
    -1.206480488e-01, 1.341248602e-01, -1.213286966e-01, -9.786261618e-02, 
    1.090789512e-01, -3.867506087e-01, 8.486814052e-02, 7.116667181e-02, 
    -1.616619080e-01, -1.192318127e-01, -1.168919802e-01, 3.232330382e-01, 
    -1.024712548e-01, -1.323206574e-01, -6.825204939e-02, -5.407577753e-01, 
    -2.648067288e-02, -4.354407489e-01, 3.449174464e-01, 1.086959392e-01, 
    -7.264631987e-02, -4.956699535e-02, 2.341093272e-01, 1.893352121e-01, 
    4.878474399e-02, -8.062648028e-02, -2.764097154e-01, -3.291039541e-02, 
    1.140758842e-01, 2.051538974e-01, 9.094133228e-02, 3.903053999e-01, 
    1.078293771e-01, -1.142102331e-01, -5.493725184e-03, -7.191473246e-02}}};

const float bias_hid[NUM_HIDDEN_LAYERS-1][NUM_NODES] = {{1.772714257e-01, -5.422586575e-02, 1.319125444e-01, 6.440436840e-02, 
    -5.954177305e-02, -7.081346214e-02, 1.438051258e-04, -6.781974435e-02, 
    8.704603463e-02, -1.544743478e-01, 2.068101019e-01, 6.163793057e-02, 
    -1.062600017e-01, 1.357092708e-01, -6.875970215e-02, -6.027559191e-02, 
    -9.794598818e-02, 5.514261499e-02, 3.451569006e-02, -7.033220679e-02, 
    -1.381965131e-01, 1.669545025e-01, -5.830739439e-02, -6.233173423e-03, 
    5.158594996e-02, 1.525594201e-02, 7.993212342e-02, -9.697650373e-02, 
    -1.161931902e-01, -5.360847712e-02, -2.745597158e-04, -1.691347361e-02, 
    3.665994108e-02, 5.665016547e-02, -2.184975743e-01, -6.150488183e-02, 
    -8.304643631e-02, 2.378956228e-01, -1.132284477e-01, 9.666112252e-03}};